tree
version=v3
num_class=1
num_tree_per_iteration=1
label_index=0
max_feature_idx=7
objective=binary sigmoid:1
feature_names=Pregnancies Glucose BloodPressure SkinThickness Insulin BMI DiabetesPedigreeFunction Age
feature_infos=[0:15] [0:199] [0:122] [0:99] [0:846] [0:59.399999999999999] [0.078:2.4199999999999999] [21:81]
tree_sizes=3279 3272 3274 3273 3296 3289 3282 3293 3296 3279 3298 3300 3274 3301 3285 3294

Tree=0
num_leaves=31
num_cat=0
split_feature=1 7 5 1 1 5 2 6 2 7 6 4 3 6 2 5 1 5 6 6 3 1 6 3 2 6 4 6 6 5
split_gain=122.83 36.7314 23.7321 21.6073 14.9118 9.93442 12.1 9.02917 7.77907 7.12125 6.86388 6.81094 6.25161 5.22776 4.98581 4.45343 4.09554 3.8378 3.41448 3.80542 3.27617 3.1893 4.78396 2.9897 3.32001 2.50505 2.31059 3.84045 2.28325 2.44223
threshold=143.50000000000003 28.500000000000004 26.850000000000005 107.50000000000001 166.50000000000003 30.950000000000003 51.000000000000007 0.52750000000000019 73.000000000000014 34.500000000000007 0.33300000000000002 121.00000000000001 18.500000000000004 0.66050000000000009 84.500000000000014 30.150000000000002 127.50000000000001 29.650000000000002 0.50250000000000006 0.55800000000000016 17.500000000000004 94.500000000000014 0.23150000000000001 36.500000000000007 75.500000000000014 0.37900000000000006 36.500000000000007 0.25850000000000006 0.6725000000000001 39.050000000000004
decision_type=2 2 2 2 2 2 2 2 2 2 2 2 2 2 2 2 2 2 2 2 2 2 2 2 2 2 2 2 2 2
left_child=1 5 -3 13 10 16 -7 8 9 -5 12 14 15 21 -10 -2 -1 -6 26 -20 -9 -4 -23 24 -12 -24 27 -8 -21 -30
right_child=4 2 3 7 17 6 18 20 11 -11 23 -13 -14 -15 -16 -17 -18 -19 19 28 -22 22 25 -25 -26 -27 -28 -29 29 -31
leaf_value=-0.81730662731209036 -0.6582011803972001 -0.78554595698369711 -0.78867272605166916 -0.6582011803972001 -0.55266419680114054 -0.52289735527404702 -0.63452301100064834 -0.57701888532330814 -0.6325646661633394 -0.44456356178169509 -0.54770305654662488 -0.50801393451050014 -0.75187305932861381 -0.60906452811563394 -0.79265935661333353 -0.46336367221985952 -0.71908790170261894 -0.41127169954744552 -0.59731445909178105 -0.82056577054498381 -0.44021168436545327 -0.78867272605166916 -0.55266419680114054 -0.59731445909178116 -0.42106342373398953 -0.69879232793414603 -0.80156565893194531 -0.79265935661333353 -0.63452301100064823 -0.7759155082543433
leaf_weight=30.682909548282623 2.4635912775993374 11.422105014324186 6.2709596157073992 2.4635912775993409 2.2396284341812125 2.6875541210174587 2.6875541210174623 2.4635912775993329 4.2552940249443036 4.2552940249443054 4.0313311815261823 2.2396284341812134 2.9115169644355774 4.2552940249443045 3.5834054946899414 2.2396284341812134 4.9271825551986685 13.437770605087278 2.6875541210174543 2.2396284341812134 6.0469967722892761 3.1354798078536987 2.2396284341812134 3.1354798078536978 4.2552940249443054 2.4635912775993347 10.526253640651701 3.5834054946899414 2.6875541210174561 2.2396284341812134
leaf_count=137 11 51 28 11 10 12 12 11 19 19 18 10 13 19 16 10 22 60 12 10 27 14 10 14 19 11 47 16 12 10
internal_value=-0.669362 -0.71727 -0.657211 -0.623647 -0.503693 -0.768217 -0.72513 -0.563728 -0.606245 -0.522897 -0.56317 -0.661809 -0.636712 -0.706218 -0.705751 -0.565421 -0.803717 -0.431471 -0.745523 -0.698792 -0.479814 -0.735518 -0.692994 -0.514142 -0.482672 -0.629208 -0.772939 -0.724887 -0.736847 -0.698792
internal_weight=0 120.044 55.0949 43.6728 34.7142 64.9492 29.3391 25.3078 16.7972 6.71889 19.0368 10.0783 7.61474 18.365 7.8387 4.70322 35.6101 15.6774 26.6516 9.85437 8.51059 14.1097 7.8387 11.4221 8.28663 4.70322 16.7972 6.27096 7.16681 4.92718
internal_count=691 536 246 195 155 290 131 113 75 30 85 45 34 82 35 21 159 70 119 44 38 63 35 51 37 21 75 28 32 22
shrinkage=1


Tree=1
num_leaves=31
num_cat=0
split_feature=1 7 5 1 1 1 2 5 5 7 0 4 5 4 7 1 2 5 2 0 5 4 1 7 7 1 1 5 1 3
split_gain=96.2501 31.1768 19.6419 17.6689 10.4606 9.09981 9.34655 8.61279 6.65914 6.14259 5.45244 5.11928 4.31813 4.15968 5.40957 5.62721 6.48849 4.00896 3.42143 2.96053 2.63381 2.43769 5.41288 2.24973 2.17931 3.12602 2.17162 2.10754 1.20265 1.15876
threshold=143.50000000000003 28.500000000000004 26.850000000000005 99.500000000000014 166.50000000000003 127.50000000000001 73.000000000000014 28.750000000000004 30.950000000000003 56.500000000000007 6.5000000000000009 137.50000000000003 37.750000000000007 141.00000000000003 31.500000000000004 107.50000000000001 84.500000000000014 34.250000000000007 53.000000000000007 3.5000000000000004 29.650000000000002 74.500000000000014 103.50000000000001 42.500000000000007 41.500000000000007 125.50000000000001 149.50000000000003 37.95000000000001 104.50000000000001 32.500000000000007
decision_type=2 2 2 2 2 2 2 2 2 2 2 2 2 2 2 2 2 2 2 2 2 2 2 2 2 2 2 2 2 2
left_child=1 5 -3 23 10 8 7 -7 -1 13 11 12 26 14 19 -16 24 -15 -10 -5 -6 22 -20 27 25 -17 -2 -4 -23 -22
right_child=4 2 3 9 20 6 -8 -9 18 -11 -12 -13 -14 17 15 16 -18 -19 21 -21 29 28 -24 -25 -26 -27 -28 -29 -30 -31
leaf_value=-0.14072690415709879 0.11791602197249873 -0.10912061276750791 -0.12967900595535392 -0.10849437197987721 0.10125601885000068 -0.073057033280838776 -0.14689916575351619 0.16174573973504419 0.04021940663259857 -0.073761702535858689 0.17144018519449955 -0.02041112226577943 0.20073518589371375 0.054934479661104867 -0.0081976580637326182 0.18134570464272956 0.0088933947004993293 0.21831843210280888 -0.10435669702547745 0.049962455867115813 0.19293542735452893 -0.077245250294342982 0.039170382249418628 0.00088239735593692744 0.20850186231376086 0.036064680812641914 -0.010306707787765174 -0.014610820813275622 -0.14630941041011022 0.2508735086997797
leaf_weight=29.111696481704712 2.5413620620965975 10.968980088829992 5.656504958868025 2.2535026520490709 2.3184150457382229 2.6433134078979474 3.0403641164302826 3.8195789158344269 2.5359352529048946 2.490393102169036 6.046073079109191 5.2200663387775412 3.0455420315265656 2.3314385861158362 4.2177185714244869 3.5116251856088621 3.7615081220865241 4.2203570306301117 6.9628043025732058 2.4730664491653442 8.6299023628234846 4.3256673216819745 4.2202339619398117 3.3174062818288803 5.1504603326320648 2.5613272190093994 2.7502875775098801 2.2150150686502457 6.0446565747261047 5.7532682418823233
leaf_count=137 11 51 26 10 10 12 14 17 11 11 26 23 13 10 19 15 17 18 32 11 36 20 19 15 22 11 12 10 28 24
internal_value=0 -0.0442124 0.0106454 0.040394 0.142013 -0.0924432 -0.00230857 0.0657118 -0.108544 0.0772421 0.092467 0.0572476 0.105871 0.0895796 0.0702496 0.0938386 0.122558 0.160179 -0.0696509 -0.0255856 0.200167 -0.082578 -0.0501927 -0.0681894 0.160653 0.120072 0.0512734 -0.0972993 -0.117501 0.216111
internal_weight=0 117.834 55.1293 44.1603 36.3049 62.7043 9.50326 6.46289 53.201 32.9714 19.6033 13.5573 8.33719 30.481 23.9292 19.2026 14.9849 6.5518 24.0893 4.72657 16.7016 21.5534 11.183 11.1889 11.2234 6.07295 5.29165 7.87152 10.3703 14.3832
internal_count=691 536 246 195 155 290 43 29 247 144 85 59 36 133 105 84 65 28 110 21 70 99 51 51 48 26 23 36 48 60
shrinkage=0.1


Tree=2
num_leaves=31
num_cat=0
split_feature=7 5 4 5 5 2 6 4 4 6 2 4 0 6 6 6 2 0 7 0 0 7 6 6 0 7 7 5 7 5
split_gain=46.0207 21.5778 20.2547 11.8827 9.2397 7.48457 6.47906 6.46246 8.82606 8.33272 6.59368 5.25957 3.20321 6.28529 3.14166 4.70558 3.73548 2.97902 2.77487 5.06378 2.52095 2.94289 2.35247 5.27348 2.19136 2.03328 2.02895 3.34937 1.79933 2.4981
threshold=28.500000000000004 30.950000000000003 141.00000000000003 27.350000000000005 42.050000000000004 53.000000000000007 0.49850000000000005 17.000000000000004 85.500000000000014 0.32700000000000001 67.000000000000014 102.50000000000001 8.5000000000000018 0.38300000000000006 0.2185 0.18150000000000002 77.000000000000014 5.5000000000000009 42.500000000000007 3.5000000000000004 5.5000000000000009 54.500000000000007 0.58750000000000013 0.75250000000000006 6.5000000000000009 39.500000000000007 31.500000000000004 35.350000000000001 26.500000000000004 26.250000000000004
decision_type=2 2 2 2 2 2 2 2 2 2 2 2 2 2 2 2 2 2 2 2 2 2 2 2 2 2 2 2 2 2
left_child=1 28 3 20 5 -3 -7 9 -9 10 -5 -6 13 -11 15 -12 -16 -18 19 -4 -2 -22 -8 -24 -21 -10 -15 -28 -1 -30
right_child=2 4 18 7 11 6 22 8 25 12 14 -13 -14 26 16 -17 17 -19 -20 24 21 -23 23 -25 -26 -27 27 -29 29 -31
leaf_value=-0.12626780000528706 -0.10881313174971351 0.11190686987448997 0.17461343666321941 0.13504650286034001 0.17727747289075463 -0.086519234605761622 0.093646923237248533 -0.12677900951383572 0.00093937954499047859 0.22350643282107857 0.019058787499619798 0.0020431505802175247 0.18867498779431494 -0.027766599647347723 0.11460511895714427 -0.15156112466055646 -0.085381809560809763 0.066120014843356487 0.18565248899884801 -0.021307418911870723 0.019946476480826737 -0.10974665813758096 -0.095091345489029644 0.075808314133660293 0.10274299862915144 0.10899769886111355 0.13415762384497101 0.0050407518351393904 -0.13836465201250023 0.0065261839060668392
leaf_weight=29.236627325415611 5.8514666408300382 3.2818504869937923 5.7697990387678164 3.9829010814428356 3.7733321636915198 16.581402644515041 2.7737117409706098 4.587652459740637 3.7049052715301514 2.8253924846649197 3.3945581763982764 3.1366215199232101 4.505013406276702 2.2895371019840232 3.2474632412195188 3.0858274847269058 3.0775579512119293 2.2444265931844711 7.8820378184318534 2.803320124745369 5.3641488403081894 2.596492663025856 3.8358021378517151 3.4113503992557526 2.894231766462326 3.2855692505836487 4.6780181825160962 3.5214392393827438 2.2043150365352622 2.5858649611473083
leaf_count=144 28 14 24 17 16 78 12 21 16 12 15 14 19 10 14 14 14 10 33 12 25 12 18 15 12 14 20 15 11 12
internal_value=0 -0.0595612 0.0506139 0.022834 -0.00647948 -0.0305762 -0.0481539 0.0461678 -0.0190029 0.066643 0.0206324 0.0977337 0.115787 0.0911242 -0.00964697 -0.0621869 0.0300848 -0.0214893 0.139975 0.108579 -0.0589828 -0.022355 0.0153287 -0.0146461 0.0417075 0.0517275 0.0554648 0.0787055 -0.11696 -0.0601488
internal_weight=0 70.8209 81.5918 62.2424 36.7941 29.8841 26.6023 48.4303 11.5781 36.8521 19.0327 6.90995 17.8194 13.3144 15.0498 6.48039 8.56945 5.32198 19.3494 11.4674 13.8121 7.96064 10.0209 7.24715 5.69755 6.99047 10.489 8.19946 34.0268 4.79018
internal_count=691 334 357 276 167 137 123 211 51 160 84 30 76 57 67 29 38 24 81 48 65 37 45 33 24 30 45 35 167 23
shrinkage=0.1


Tree=3
num_leaves=31
num_cat=0
split_feature=1 7 5 5 1 1 1 7 2 5 4 5 0 1 2 7 4 0 5 7 3 3 0 4 4 2 0 7 5 1
split_gain=71.5274 19.5043 17.3283 10.5257 10.352 7.45488 7.3254 6.36187 8.4877 5.43252 4.09071 3.61242 3.26675 5.40777 3.22952 3.07032 2.80801 3.31604 2.58906 2.57735 2.91841 2.5579 2.54676 2.53529 1.90817 1.80462 1.78935 1.75519 2.02341 1.64425
threshold=127.50000000000001 28.500000000000004 29.950000000000003 26.450000000000003 99.500000000000014 154.50000000000003 145.50000000000003 42.500000000000007 60.500000000000007 30.950000000000003 192.50000000000003 27.650000000000002 6.5000000000000009 114.50000000000001 77.000000000000014 34.500000000000007 22.500000000000004 5.5000000000000009 34.150000000000013 40.500000000000007 23.500000000000004 10.500000000000002 5.5000000000000009 107.00000000000001 131.00000000000003 73.000000000000014 2.5000000000000004 42.500000000000007 37.95000000000001 113.50000000000001
decision_type=2 2 2 2 2 2 2 2 2 2 2 2 2 2 2 2 2 2 2 2 2 2 2 2 2 2 2 2 2 2
left_child=1 9 6 -3 27 7 24 8 -4 -1 18 -6 13 26 15 -15 17 -8 -10 -14 -21 -11 -20 -9 25 -2 -13 28 -5 -23
right_child=2 3 5 4 11 -7 16 23 10 21 -12 12 19 14 -16 -17 -18 -19 22 20 -22 29 -24 -25 -26 -27 -28 -29 -30 -31
leaf_value=-0.13010942666504391 0.031322560868256952 -0.11291361225302979 0.20320748224829466 -0.1225710840091014 0.17026039690079109 0.16253541685062081 -0.0700950304585823 0.1009618959049593 -0.031032861627076559 0.01441973650523337 -0.090043048324791375 -0.0071192516040727676 0.17056120987341683 0.029547320091938598 -0.025150517848787132 0.18197743073229411 0.13615310684349127 0.099610872222687233 0.13908118318855231 -0.035759120826717276 0.10845172262861782 -0.060527741892479184 0.002876360460710796 0.22301404706596373 -0.14223160303816831 -0.084088910680992016 -0.12016183660876521 -0.0036517398635793953 -0.0084628247845477574 -0.12680848238596695
leaf_weight=25.919195368885994 2.287075489759447 7.6556870043277732 2.6585147380828884 5.5222369581460935 2.3545499742031124 20.672077208757401 2.2854802459478369 3.6278726905584326 3.1745401918888074 3.5691529065370586 3.2516395151615134 2.7016581445932415 2.6450402140617353 2.5679273605346662 2.7791255861520767 2.7222776114940643 3.309577688574791 2.3203752189874649 3.2689438909292221 2.3138274401426315 3.5660586953163147 14.493129014968874 2.3666668236255646 3.2058233320713043 2.4900530278682709 3.3238743841648102 2.9069143235683441 3.3421009182929993 2.1625496000051498 5.0458334237337104
leaf_count=137 11 38 11 27 10 84 10 15 14 16 15 12 11 11 12 11 14 10 14 10 15 70 10 13 12 16 13 15 10 24
internal_value=0 -0.0555006 0.0860379 -0.00654332 0.0163414 0.119631 -0.00252772 0.0784821 0.0414654 -0.0986788 0.00581617 0.052484 0.0399942 0.00971187 0.062133 0.107986 0.0658894 0.0154008 0.0411958 0.0885809 0.0517025 -0.0634247 0.0818822 0.158219 -0.0693776 -0.0370461 -0.065709 -0.0641498 -0.0904603 -0.0776444
internal_weight=0 92.2673 58.2425 43.24 35.5843 42.2261 16.0164 21.554 14.7203 49.0273 12.0618 24.5574 22.2028 13.6779 8.06933 5.2902 7.91543 4.60586 8.81015 8.52493 5.87989 23.1081 5.63561 6.8337 8.101 5.61095 5.60857 11.0269 7.68479 19.539
internal_count=691 442 249 195 157 176 73 92 64 247 53 105 95 59 34 22 34 20 38 36 25 110 24 28 39 27 25 52 37 94
shrinkage=0.1


Tree=4
num_leaves=31
num_cat=0
split_feature=1 1 5 7 5 7 6 6 1 5 2 0 6 4 7 6 2 6 0 2 0 7 7 2 5 4 1 5 5 1
split_gain=58.9634 16.1649 12.8818 10.5875 9.25319 8.09139 7.47585 5.88644 5.02768 5.02318 4.29319 4.28458 4.65917 4.16543 4.43502 4.11008 3.41022 3.18958 4.68435 3.83688 2.74544 2.73955 2.66182 2.54256 2.5039 2.18843 1.94318 1.89207 2.29926 4.00514
threshold=123.50000000000001 154.50000000000003 26.450000000000003 28.500000000000004 42.050000000000004 41.500000000000007 0.65450000000000019 0.86900000000000011 94.500000000000014 28.250000000000004 73.000000000000014 6.5000000000000009 0.91100000000000014 119.50000000000001 26.500000000000004 0.23350000000000001 81.000000000000014 0.22400000000000003 2.5000000000000004 67.000000000000014 3.5000000000000004 53.500000000000007 33.500000000000007 71.000000000000014 34.650000000000013 365.00000000000006 116.50000000000001 30.950000000000003 33.650000000000013 99.500000000000014
decision_type=2 2 2 2 2 2 2 2 2 2 2 2 2 2 2 2 2 2 2 2 2 2 2 2 2 2 2 2 2 2
left_child=2 4 -1 16 5 7 8 10 -5 -7 13 12 -8 14 -2 -11 27 23 -19 -20 -15 25 -12 -10 -17 -3 -21 -4 29 -29
right_child=1 21 3 6 -6 9 11 -9 17 15 22 -13 -14 20 -16 24 -18 18 19 26 -22 -23 -24 -25 -26 -27 -28 28 -30 -31
leaf_value=-0.12637849925156344 -0.024707014285285017 0.15402559019661555 -0.13008743188203398 -0.10453962922560917 0.18261646007859375 -0.026510957868080848 0.12018608865617775 0.1172898407853207 0.0047169715062504568 0.0022447544358271121 -0.12572084746104709 0.16514636285924533 -0.079000568974713734 -0.0033771331346204719 0.14265833745641118 0.21171368608697835 0.020828019713801663 0.15548152788612843 0.092954422766399328 -0.0036702579240184777 -0.14904247906003051 0.041512527588240165 -0.016213386418958017 -0.14258078412366751 0.090880867445419178 0.064708188440868411 -0.11736192541392153 -0.10312626678170272 -0.095141168314016797 0.066530499791098568
leaf_weight=20.598624333739281 3.1919538378715568 19.987837806344039 7.9935348033905091 5.7869955748319688 3.579229697585105 3.2972840070724478 2.3864675462245923 2.7804556787013999 2.4257493168115642 2.3232197016477567 6.2270143032073957 3.7840085625648499 2.3120087385177612 3.2594861686229706 3.1416653692722321 3.7205978184938431 3.1362263560295096 2.4088273942470542 3.0303997844457609 4.3718558549880981 2.1456315815448761 3.0890689492225638 3.4491878151893616 2.2670840471982956 3.1812729090452194 3.1795939207077017 2.2911978662014008 2.7779809832572964 12.793089419603346 2.7879391461610794
leaf_count=114 15 81 45 29 15 16 10 12 11 10 31 16 10 15 13 15 16 10 13 19 10 13 15 11 13 13 10 14 63 13
internal_value=0 0.0689178 -0.0580679 -0.0348304 0.0291361 0.014175 0.00590984 -0.0195965 -0.0241562 0.0794274 -0.0373695 0.0859519 0.0221711 0.00328171 0.0583112 0.117292 -0.0777478 0.003541 0.0306779 -0.000335914 -0.0612009 0.129972 -0.0866857 -0.0664418 0.156018 0.141767 -0.042765 -0.0894793 -0.0717985 -0.0181461
internal_weight=0 66.5535 81.152 60.5534 40.297 36.7178 31.0646 24.1954 22.5821 12.5224 21.4149 8.48248 4.69848 11.7387 6.33362 9.22509 29.4888 16.7951 12.1023 9.69345 5.40512 26.2565 9.6762 4.69283 6.90187 23.1674 6.66305 26.3525 18.359 5.56592
internal_count=691 287 404 290 180 165 139 111 103 54 99 36 20 53 28 38 151 74 52 42 25 107 46 22 28 94 29 135 90 27
shrinkage=0.1


Tree=5
num_leaves=31
num_cat=0
split_feature=1 1 5 7 0 7 6 1 5 7 7 6 0 7 3 2 5 7 6 2 6 6 3 3 3 2 5 1 3 7
split_gain=48.8523 13.1834 11.7553 11.6101 9.40452 8.23263 5.93725 5.32904 4.94582 5.25951 7.44428 4.4844 4.1672 3.59458 5.19006 3.54096 3.54004 4.74816 3.38357 3.32715 3.12225 4.24649 2.83465 3.90837 2.67548 2.39058 1.98573 3.06825 1.94766 1.65782
threshold=123.50000000000001 166.50000000000003 26.450000000000003 24.500000000000004 6.5000000000000009 34.500000000000007 0.66050000000000009 112.50000000000001 29.950000000000003 54.500000000000007 41.500000000000007 0.73350000000000015 3.5000000000000004 29.500000000000004 17.500000000000004 79.000000000000014 42.250000000000007 37.500000000000007 0.40050000000000008 73.000000000000014 0.70450000000000013 0.87650000000000017 34.500000000000007 12.500000000000002 26.500000000000004 73.000000000000014 37.350000000000001 102.50000000000001 32.500000000000007 42.500000000000007
decision_type=2 2 2 2 2 2 2 2 2 2 2 2 2 2 2 2 2 2 2 2 2 2 2 2 2 2 2 2 2 2
left_child=2 3 -1 22 7 -6 25 20 9 10 12 16 -5 14 -9 -15 17 19 24 -10 26 -22 23 -2 -19 -7 29 -28 -3 -4
right_child=1 28 4 8 5 6 -8 13 11 -11 -12 -13 -14 15 -16 -17 -18 18 -20 -21 21 -23 -24 -25 -26 -27 27 -29 -30 -31
leaf_value=-0.12233149491442462 0.012440189483764096 0.11238213382194379 -0.11304939455795877 0.056677604063357957 0.20213092519097922 0.018452002999052284 0.12469578150312864 0.086446364707230272 0.067324488170120211 -0.10682810318941485 0.15859197265559036 0.16562327207252278 -0.1187896213637013 0.12489535554666836 -0.099966299413770179 -0.03621333687828425 0.15311764000461811 0.086469593518642376 0.1525529781876912 -0.078149055733134395 0.094967676871955578 -0.08219437298095103 0.032233474691944118 -0.14072008487887908 -0.046193668059044346 -0.097441784794274858 0.001365963068936364 -0.14045478237735526 0.1824777185482154 -0.021577162445651242
leaf_weight=19.222986489534378 2.4791994690895063 11.093098178505899 18.630159258842475 2.8059770315885526 2.6143540143966666 3.2247359305620176 2.865221843123436 2.1110521107912046 2.5687375813722708 3.0266531109809867 3.5333620309829712 5.4240498244762412 2.6146956831216812 3.4303892552852631 5.1060571521520615 2.2649518102407455 3.6808839589357367 4.3569078445434553 4.4690499305725098 4.0525234788656235 2.389127552509307 3.1196289658546448 2.5061239004135132 5.0801411867141724 2.3348737061023712 3.9723043143749237 4.956598386168479 2.2037404030561447 6.1680618375539771 2.2171330004930487
leaf_count=114 12 45 101 13 11 14 12 10 11 15 15 22 12 14 27 10 15 18 18 19 11 15 11 26 10 19 25 11 25 10
internal_value=0 0.0622902 -0.0544016 0.0357847 -0.0323086 0.0440305 0.00295316 -0.0531517 0.0605725 0.00713386 0.0456554 0.0843844 -0.0279601 0.00143097 -0.0454394 0.0608248 0.063854 0.0453765 0.0851774 -0.0217122 -0.0741801 -0.00535984 -0.0599332 -0.0904889 0.0401812 -0.0455139 -0.0877162 -0.0422823 0.13743 -0.103321
internal_weight=0 66.1943 78.3284 48.9332 59.1055 12.6766 10.0623 46.4288 38.8677 11.9807 8.95403 26.887 5.42067 12.9125 7.21711 5.69534 21.463 17.7821 11.1608 6.62126 33.5164 5.50876 10.0655 7.55934 6.69178 7.19704 28.0076 7.16034 17.2612 20.8473
internal_count=691 287 404 217 290 56 45 234 168 55 40 113 25 61 37 24 91 76 46 30 173 26 49 38 28 33 147 36 70 111
shrinkage=0.1


Tree=6
num_leaves=31
num_cat=0
split_feature=1 1 5 7 0 1 7 1 5 7 7 0 3 5 7 3 5 7 2 5 3 3 5 3 5 1 5 5 0 0
split_gain=40.6987 10.9105 10.7539 9.43721 7.85183 7.10193 5.12754 4.56633 3.94506 3.66127 5.40144 3.48434 3.05637 3.04205 2.95811 4.34505 2.91431 2.90789 2.86195 2.72337 2.43317 3.52136 2.16592 1.8466 1.75748 1.70553 3.99551 1.74432 2.03103 1.47055
threshold=123.50000000000001 165.50000000000003 26.450000000000003 24.500000000000004 6.5000000000000009 83.500000000000014 38.500000000000007 112.50000000000001 29.950000000000003 54.500000000000007 41.500000000000007 3.5000000000000004 1.0000000180025095e-35 30.850000000000005 29.500000000000004 17.500000000000004 42.250000000000007 36.500000000000007 79.000000000000014 39.350000000000001 34.500000000000007 12.500000000000002 30.950000000000003 32.500000000000007 34.95000000000001 131.50000000000003 34.45000000000001 34.95000000000001 7.5000000000000009 4.5000000000000009
decision_type=2 2 2 2 2 2 2 2 2 2 2 2 2 2 2 2 2 2 2 2 2 2 2 2 2 2 2 2 2 2
left_child=2 3 -1 20 7 -6 -7 17 9 10 11 -5 -8 -10 15 -9 19 22 -16 25 21 -2 -4 -3 -19 26 -15 28 -27 -24
right_child=1 23 4 8 5 6 12 14 13 -11 -12 -13 -14 16 18 -17 -18 24 -20 -21 -22 -23 29 -25 -26 27 -28 -29 -30 -31
leaf_value=-0.11877930309912271 0.011143040091274023 0.10061154672085136 -0.12691195231593985 0.050133153670642965 -0.1368146883094343 0.16908016247986124 -0.073944326082436146 0.075513658557232022 0.18841518462240392 -0.097382265409796331 0.13645502524125269 -0.11129837937227334 0.06711786110562433 0.098484588585461885 0.11230007491755745 -0.094581279859602185 0.14172515134513872 -0.058146145147113429 -0.032874773403409517 -0.052545095031650529 0.028800352738170665 -0.13560909543310173 -0.054074977674379576 0.16880457744931532 0.048595864681853125 0.01675019890199712 -0.070256457321851373 0.1327982238200088 0.12463646749037192 -0.14155795745340302
leaf_weight=17.886929824948311 2.4903940409421903 11.709105536341669 8.1526011377573031 2.8523941934108716 1.9296913743019093 3.5866487324237806 2.249907910823822 2.1715096235275251 2.1919930428266552 2.6652000099420539 3.3380988389253616 2.5167461484670639 4.8405162692070007 2.9176232218742468 3.4332264959812164 4.8695376664400101 4.149461790919303 3.2796975672245017 2.2464775592088699 2.3070761561393729 2.5234014242887497 4.760880246758461 15.748237520456316 6.0086730718612662 2.912043035030365 4.9606920927762967 2.7034832835197449 4.5663538128137589 2.6918231248855591 2.1884779632091513
leaf_count=114 12 48 50 13 10 15 10 10 9 14 14 12 21 13 14 27 17 16 10 10 11 26 83 25 13 21 12 19 11 11
internal_value=0 0.0567419 -0.0510465 0.0318231 -0.0300161 0.0397357 0.071644 -0.0495563 0.0544389 0.00517452 0.0365661 -0.0255367 0.0223565 0.0755898 0.00118788 -0.0421228 0.0654109 -0.0695527 0.0548795 0.0496933 -0.0557761 -0.0852082 -0.0841741 0.123738 -0.00794422 0.0629148 0.0173282 0.0838863 0.0546999 -0.0647489
internal_weight=0 65.3534 75.4955 47.6356 57.6086 12.6068 10.6771 45.0018 37.8609 11.3724 8.70724 5.36914 7.09042 26.4885 12.7208 7.04105 24.2965 32.2811 5.6797 20.1471 9.77468 7.25127 26.0893 17.7178 6.19174 17.84 5.62111 12.2189 7.65252 17.9367
internal_count=691 287 404 214 290 56 46 234 165 53 39 25 31 112 61 37 103 173 24 86 49 38 144 73 29 76 25 51 32 94
shrinkage=0.1


Tree=7
num_leaves=31
num_cat=0
split_feature=1 5 1 7 0 6 1 0 6 0 6 6 1 6 6 7 3 2 6 1 1 5 1 6 6 7 3 6 6 0
split_gain=33.9681 9.86209 9.18232 7.85596 6.55602 6.34963 6.30442 5.72984 3.91886 5.04624 3.96286 4.20835 3.90143 2.83996 3.49945 2.4423 3.65172 2.33164 2.30526 2.12919 3.98631 1.74979 2.84381 1.74027 4.21728 2.19038 1.59478 1.49384 2.15917 1.82659
threshold=123.50000000000001 26.450000000000003 166.50000000000003 24.500000000000004 6.5000000000000009 0.76900000000000002 99.500000000000014 9.5000000000000018 0.2185 5.5000000000000009 0.24050000000000002 0.31750000000000006 112.50000000000001 0.70450000000000013 0.87650000000000017 29.500000000000004 17.500000000000004 79.000000000000014 0.27950000000000003 130.50000000000003 138.50000000000003 37.350000000000001 102.50000000000001 0.72850000000000004 0.59750000000000003 38.500000000000007 32.500000000000007 0.25950000000000006 0.15950000000000003 1.5000000000000002
decision_type=2 2 2 2 2 2 2 2 2 2 2 2 2 2 2 2 2 2 2 2 2 2 2 2 2 2 2 2 2 2
left_child=1 -1 3 19 12 6 -6 -8 9 -5 -10 18 13 21 -15 16 -14 -17 -12 -2 -21 27 -23 24 -13 -25 -4 28 -3 -30
right_child=2 4 26 8 5 -7 7 -9 10 -11 11 23 15 14 -16 17 -18 -19 -20 20 -22 22 -24 25 -26 -27 -28 -29 29 -31
leaf_value=-0.11562332748320235 -0.11368135226802839 -0.1281432275173495 0.093175934664879251 -0.12100917519838759 -0.10835164809725556 0.18094023630490308 0.14504593411025252 -0.041766506267094612 0.17305028295707828 0.056565244932228823 0.029989161249659377 0.086526160643772637 0.066392794453718221 0.090835860741855845 -0.072122247632932179 0.10165908407959082 -0.089546982415577417 -0.029835108334834562 -0.0894098610563272 0.079589710258156296 -0.08582865783630142 0.0059881178091397199 -0.13478129832136251 0.16576158457647125 -0.033045520919020153 0.046414493671378995 0.15818163172595501 -0.11475227527758852 -0.080719256548508034 0.055830242140266176
leaf_weight=16.603741660714149 3.5179992914199811 2.4952140301466086 10.865468308329584 2.8422306925058356 3.4630289375781995 2.4330184310674658 3.5338041335344315 3.0666219443082809 3.0244914144277599 3.6624969393014908 4.2215429991483715 11.547487750649454 2.2200430631637555 2.4000335931777945 2.9224199056625366 3.414198562502861 4.6410095244646072 2.2287850826978683 2.6209746152162552 2.5320462435483932 3.4306263029575348 4.8452626019716254 2.039041668176651 3.8383704274892798 3.9616464376449576 2.5656996816396713 5.7824233919382086 12.482971012592314 1.8699938654899599 2.0574546158313751
leaf_count=114 19 15 45 13 18 10 15 13 13 16 19 50 10 11 15 14 27 10 12 12 18 25 11 16 18 11 25 74 11 11
internal_value=0 -0.0479222 0.0518011 0.0295111 -0.0278895 0.0359692 0.000919857 0.0582511 0.0496923 -0.0210256 0.0641668 0.0527145 -0.0461856 -0.0651459 0.00135983 0.000991257 -0.0390893 0.0497234 -0.0157457 -0.0519849 -0.0155838 -0.0788711 -0.035706 0.0740916 0.0559828 0.117947 0.115755 -0.0945893 -0.0554009 -0.00918569
internal_weight=0 72.7166 64.4135 47.7656 56.1129 12.4965 10.0635 6.60043 38.2849 6.50473 31.7802 28.7557 43.6164 31.1124 5.32245 12.504 6.86105 5.64298 6.84252 9.48067 5.96267 25.7899 6.8843 21.9132 15.5091 6.40407 16.6479 18.9056 6.42266 3.92745
internal_count=691 404 287 217 290 56 46 28 168 29 139 126 234 173 26 61 37 24 31 49 30 147 36 95 68 27 70 111 37 22
shrinkage=0.1


Tree=8
num_leaves=31
num_cat=0
split_feature=1 1 5 0 7 3 5 5 1 7 5 7 0 0 7 7 0 7 2 4 4 3 2 5 3 7 2 2 3 3
split_gain=28.6162 10.7426 7.72856 6.36731 4.81708 5.57518 4.51676 4.48008 4.07749 3.43744 2.3259 2.13906 2.19641 2.04756 2.04658 1.88069 1.81352 1.87401 1.75786 3.12595 3.04105 3.51557 3.34639 1.69574 1.64183 1.49721 1.32777 1.69247 2.13815 1.68385
threshold=112.50000000000001 154.50000000000003 27.050000000000004 6.5000000000000009 30.500000000000004 9.0000000000000018 30.950000000000003 40.95000000000001 96.500000000000014 41.500000000000007 29.850000000000005 28.500000000000004 1.0000000180025095e-35 9.5000000000000018 25.500000000000004 38.500000000000007 2.5000000000000004 30.500000000000004 84.500000000000014 107.00000000000001 192.50000000000003 31.500000000000004 77.000000000000014 25.700000000000006 24.500000000000004 22.500000000000004 87.000000000000014 79.000000000000014 40.500000000000007 32.500000000000007
decision_type=2 2 2 2 2 2 2 2 2 2 2 2 2 2 2 2 2 2 2 2 2 2 2 2 2 2 2 2 2 2
left_child=3 2 16 6 5 14 15 18 13 -10 23 12 -7 -5 -4 -1 -2 -18 20 -20 21 22 -6 -3 -11 -8 27 28 29 -27
right_child=1 10 4 8 7 11 25 -9 9 24 -12 -13 -14 -15 -16 -17 17 -19 19 -21 -22 -23 -24 -25 -26 26 -28 -29 -30 -31
leaf_value=-0.12003820716380818 -0.12681921308426505 0.094115154967392201 0.13156482828192986 -0.13220842540445463 0.093007498616760123 0.019364598850185915 -0.1034744563515639 0.17663362461721796 0.15055449330576648 -0.063731187467305786 0.10648483595450342 0.040946999326068843 -0.080663018468588629 0.0087035057101299673 0.021620469921661667 -9.1610784268209605e-05 0.05631998441566935 -0.0701724220933021 -0.085005136414855173 0.073264520092226337 -0.041755306737936496 0.18649070740767934 -0.017939957041625518 -0.020132531088808053 0.059729937851113357 -0.036188181448678469 -0.10351688556920571 0.041185725593126922 0.0551864428855844 -0.13281314436938646
leaf_weight=18.301591128110889 3.5460236966609937 2.3717034161090877 2.9625111818313625 2.3011523485183698 7.8164211511612027 2.8586758971214286 3.6623508632183102 2.8536253720521918 2.4741130620241165 1.9979709535837171 19.662475720047951 2.6924107521772376 9.4582735449075681 1.8685174137353895 3.9513191282749176 1.407749980688094 1.5935031026601789 4.4197878688573837 2.587663695216178 2.4103057533502579 2.5545563697814933 2.4229568541049948 4.1683343946933746 2.8728433698415756 2.3370690196752548 7.9455889314413088 2.3400088250637046 3.2719081789255133 1.9874395877122868 2.333114355802536
leaf_count=134 22 10 13 13 33 15 21 12 11 10 85 12 52 10 17 8 10 25 12 10 11 10 18 12 10 43 12 17 10 13
internal_value=0 0.0360201 0.0118272 -0.0588643 0.028584 -0.00557118 -0.0768775 0.0587603 0.00881512 0.0565046 0.0907026 -0.0397971 -0.0574473 -0.0690628 0.0687306 -0.111471 -0.0700997 -0.0366523 0.0434432 -0.00867849 0.058801 0.0766301 0.0544196 0.0315329 0.0028281 -0.0452247 -0.0332922 -0.0227164 -0.0397619 -0.0581206
internal_weight=0 81.2034 56.2964 52.2286 46.7371 21.9232 41.2498 24.8139 10.9788 6.80915 24.907 15.0094 12.3169 4.16967 6.91383 19.7093 9.55931 6.01329 21.9602 4.99797 16.9623 14.4077 11.9848 5.24455 4.33504 21.5404 17.8781 15.5381 12.2661 10.2787
internal_count=691 379 272 312 215 109 258 106 54 31 107 79 67 23 30 142 57 35 94 22 72 61 51 22 20 116 95 83 66 56
shrinkage=0.1


Tree=9
num_leaves=31
num_cat=0
split_feature=7 5 4 2 5 6 6 3 4 5 4 5 2 6 7 2 7 3 4 5 0 3 5 0 0 5 7 2 6 6
split_gain=15.3321 9.87543 7.15098 4.63877 3.68827 4.08541 2.92918 2.80892 2.57527 5.02626 3.6843 3.28162 2.74602 3.90454 3.1476 2.72666 2.53983 2.41041 2.33145 2.30932 2.04072 2.35564 2.25521 2.00528 3.16592 2.96097 2.07153 2.1407 1.87082 1.80948
threshold=26.500000000000004 30.950000000000003 141.00000000000003 53.000000000000007 26.250000000000004 0.20350000000000004 0.63850000000000018 32.500000000000007 45.500000000000007 43.000000000000007 69.000000000000014 38.45000000000001 74.500000000000014 0.25650000000000006 40.500000000000007 77.000000000000014 37.500000000000007 37.500000000000007 39.000000000000007 35.95000000000001 3.5000000000000004 11.500000000000002 23.950000000000003 7.5000000000000009 3.5000000000000004 36.150000000000013 42.500000000000007 71.000000000000014 0.30250000000000005 0.16150000000000003
decision_type=2 2 2 2 2 2 2 2 2 2 2 2 2 2 2 2 2 2 2 2 2 2 2 2 2 2 2 2 2 2
left_child=1 -1 4 -3 20 16 7 18 9 12 -10 15 -7 -14 -15 -12 -6 -9 28 -16 -2 22 -22 24 25 -4 27 -26 -5 -18
right_child=2 3 23 6 5 8 -8 17 10 -11 11 -13 13 14 19 -17 29 -19 -20 -21 21 -23 -24 -25 26 -27 -28 -29 -30 -31
leaf_value=-0.1026475684767866 -0.12192125705072976 0.10208138488070073 0.14990131330830905 0.03445982493123468 -0.1142034330290487 0.062508817374179446 0.041103474619726993 0.061530859443517077 -0.13588129704166585 0.17106500972882668 6.0835802322638465e-06 -0.089671181060533775 -0.1109439675450157 -0.03620555445289976 0.094009855590886565 0.1229336649959164 0.055513416940812133 -0.053494147617473113 -0.13431398130696268 -0.019609853474900518 0.10213161985314075 -0.0958798833141776 -0.039420936329294491 0.13106521010810965 0.035751144220800619 0.034461288713097019 0.080629321701661927 -0.10072093258617859 -0.1005247518975543 -0.060527919428465617
leaf_weight=19.362962670624256 2.76423332095146 3.3602355420589474 4.8452669084072166 2.1479340791702288 3.336188539862631 15.008940875530245 5.1524793058633795 3.3978855162858954 1.9691211730241764 2.8103487193584433 4.9377586394548398 2.360978826880455 2.5278625935316112 5.3652366846799842 6.189415514469145 2.8434940576553345 2.659079909324646 3.9277232140302658 4.4817737638950348 2.5160434693098068 2.003205344080925 2.6512527167797089 2.568833664059639 4.7984550148248664 2.304246485233306 4.1037184298038483 2.5101479440927505 2.293354332447052 1.9670029580593107 2.7166653871536255
leaf_count=144 20 15 21 11 19 69 25 18 11 12 24 11 12 26 28 13 12 21 27 11 12 17 15 21 11 19 11 11 11 13
internal_value=0 -0.0493053 0.0233701 -0.00703551 0.00707298 0.0171839 -0.0244335 -0.0456413 0.0289513 0.042907 -0.0107079 0.0135946 0.031512 0.0034837 0.0240411 0.0449274 -0.0456642 -0.000141338 -0.0844137 0.0611716 -0.0488505 -0.0208876 0.0225993 0.0743424 0.0573911 0.0969642 0.0075667 -0.0323232 -0.0300649 -0.00312877
internal_weight=0 43.798 86.0838 24.435 65.2287 55.2411 21.0748 15.9223 46.5292 34.4178 12.1114 10.1422 31.6075 16.5986 14.0707 7.78125 8.71193 7.32561 8.59671 8.70546 9.98753 7.22329 4.57204 20.8552 16.0567 8.94899 7.10775 4.5976 4.11494 5.37575
internal_count=691 272 419 128 325 261 113 88 217 158 59 48 146 77 65 37 44 39 49 39 64 44 27 94 73 40 33 22 22 25
shrinkage=0.1


Tree=10
num_leaves=31
num_cat=0
split_feature=1 1 7 7 4 4 6 3 1 1 2 6 4 1 7 7 4 6 6 2 6 4 2 0 3 6 1 6 3 7
split_gain=22.6693 6.31084 5.75646 4.92383 4.73038 4.63462 3.42101 5.12801 3.62738 3.72536 2.94672 2.73066 2.26213 3.61993 2.09092 3.71263 3.86413 2.8246 2.02784 1.96823 2.47533 1.90441 1.89403 1.75563 1.69101 3.15955 1.78795 1.60534 1.57447 1.45014
threshold=123.50000000000001 166.50000000000003 28.500000000000004 24.500000000000004 144.50000000000003 22.500000000000004 0.23850000000000002 31.500000000000004 96.500000000000014 116.50000000000001 81.000000000000014 0.72850000000000004 267.50000000000006 130.50000000000003 62.500000000000007 41.500000000000007 119.50000000000001 0.33550000000000008 1.1605000000000001 81.000000000000014 0.37900000000000006 60.500000000000007 71.000000000000014 6.5000000000000009 29.500000000000004 0.49450000000000005 117.50000000000001 0.29800000000000004 32.500000000000007 48.500000000000007
decision_type=2 2 2 2 2 2 2 2 2 2 2 2 2 2 2 2 2 2 2 2 2 2 2 2 2 2 2 2 2 2
left_child=2 3 10 12 5 6 22 8 -8 19 24 14 13 -2 15 16 23 -18 -13 20 -10 -15 -4 -5 26 -26 -1 -12 -3 -17
right_child=1 28 4 11 -6 -7 7 -9 9 -11 27 18 -14 21 -16 29 17 -19 -20 -21 -22 -23 -24 -25 25 -27 -28 -29 -30 -31
leaf_value=-0.10912167664181385 -0.10275770823993202 0.075123788755467602 -0.010749222144823668 0.068712885872419568 0.077874886320176626 -0.10504105933885644 -0.09770859172560753 0.14152712486052982 0.15324264288251543 -0.079308018035455119 0.082796202286359033 0.144316488557654 -0.13796086668721266 0.10880651552159432 -0.065978781987008489 0.11573632081288564 -0.12345271436419383 0.0061830326719651794 0.024170545656917355 -0.025410908580005033 0.018891470678470912 -0.03025347179305702 -0.12910673117900315 -0.028114918974126948 -0.092215384814528761 0.025181545533163083 -0.01164032677975228 -0.058153602640814921 0.14269771901777778 0.046306343943244295
leaf_weight=17.537161760032184 2.8222791701555234 10.291624933481215 2.4707391858100953 7.3717087656259626 4.9224832952022544 6.1599048003554335 3.4490181580185917 2.7117363214492789 2.8363417237997037 2.7369193732738495 1.7707861587405198 3.8987125903367987 1.9668244644999502 2.1591748744249348 2.2077821642160407 5.3752564787864667 3.1376001685857764 3.6198978126049042 2.1961244940757751 2.1067586243152618 2.6550732478499413 1.8106902092695234 2.9861883372068405 2.5101855099201202 6.0459418892860395 3.6927327960729599 2.1076691150665274 1.4862706884741781 5.1853707879781714 6.8314850777387619
leaf_count=138 17 45 13 33 21 37 22 12 13 14 10 17 11 10 11 23 15 17 10 10 14 11 18 11 40 20 12 10 25 31
internal_value=0 0.0425414 -0.0419847 0.0239243 -0.0125564 -0.0283908 -0.00688285 0.015822 -0.00890781 0.0207267 -0.0717689 0.0398267 -0.0435215 -0.0161743 0.0278155 0.0349942 0.00426665 -0.0540086 0.101025 0.05676 0.0882845 0.04538 -0.0755179 0.0441168 -0.0817724 -0.0477006 -0.098663 0.0184775 0.0977636 0.0768799
internal_weight=0 61.3847 65.6757 45.9077 33.0352 28.1127 21.9528 16.4958 13.7841 10.3351 32.6406 37.1488 8.75897 6.79214 31.0539 28.8461 16.6394 6.7575 6.09484 7.59817 5.49141 3.96987 5.45693 9.88189 29.3835 9.73867 19.6448 3.25706 15.477 12.2067
internal_count=691 287 404 217 174 153 116 85 73 51 230 168 49 38 141 130 76 32 27 37 27 21 31 44 210 60 150 20 70 54
shrinkage=0.1


Tree=11
num_leaves=31
num_cat=0
split_feature=1 1 5 6 3 1 5 7 3 7 5 3 5 7 3 6 2 1 3 6 7 0 7 7 6 3 1 2 3 2
split_gain=19.2422 7.16281 5.38585 5.33102 4.08877 3.44643 3.93414 3.37573 2.69611 3.1375 2.32533 4.07777 2.30265 2.08018 2.01249 1.92607 1.73986 4.77593 3.54705 2.28769 2.5369 1.62775 1.79174 1.6106 1.52172 2.79905 3.00852 2.88653 1.91342 2.90163
threshold=112.50000000000001 154.50000000000003 27.050000000000004 0.66050000000000009 29.500000000000004 151.50000000000003 42.250000000000007 31.500000000000004 9.0000000000000018 27.500000000000004 35.150000000000013 31.500000000000004 26.450000000000003 53.500000000000007 32.500000000000007 0.52250000000000008 77.000000000000014 127.50000000000001 17.500000000000004 0.25450000000000006 42.500000000000007 2.5000000000000004 30.500000000000004 24.500000000000004 0.46400000000000002 36.500000000000007 94.500000000000014 59.000000000000007 23.500000000000004 73.000000000000014
decision_type=2 2 2 2 2 2 2 2 2 2 2 2 2 2 2 2 2 2 2 2 2 2 2 2 2 2 2 2 2 2
left_child=3 2 21 12 -5 6 7 8 9 -4 11 -10 -1 23 -6 24 19 -18 -19 -9 -21 -2 -23 -3 25 26 -14 -28 -29 -30
right_child=1 13 5 4 14 -7 -8 16 10 -11 -12 -13 15 -15 -16 -17 17 18 -20 20 -22 22 -24 -25 -26 -27 27 28 29 -31
leaf_value=-0.11449202789140384 -0.12168062685421883 0.015866575845873265 0.10536546756001408 -0.053758010585022276 0.14670182611197977 -0.10192171182210077 0.11258355141870967 0.16367120925439488 -0.062356579887335839 -0.046061665668188007 -0.096597103371751966 0.08647680226641094 -0.084578308949823711 -0.0048831568166680332 0.022008539714881221 -0.12445671565344928 -0.093859243786569638 -0.024480349143545077 0.11575727808484366 -0.00073609917814729936 0.12102078633589441 0.061117559284443707 -0.065197408797897524 0.097922383856020132 0.023627210819278738 -0.12866663442033971 -0.13547389427611325 -0.026482266296708884 -0.020388280028278721 0.14678238106762506
leaf_weight=8.7813471034169179 3.0310495570301992 2.7642654031515184 3.3850496709346798 5.0185738354921323 2.148948609828949 2.0910987928509703 5.0351559817790976 2.3484399765729922 4.885347366333006 2.2966088205575943 4.4786761030554771 2.9539607763290405 7.4196109101176395 2.8087936341762534 3.254656620323658 3.5453713759779921 2.7597650587558729 2.996502012014389 4.5304796099662781 4.1296850144863129 2.9221474826335907 1.5410316735506056 4.1393082737922668 17.76444810628891 2.8119908422231665 4.1167317479848853 1.3470924049615849 4.0589943602681142 1.9222201034426687 2.2579304799437523
leaf_count=81 22 13 15 31 10 10 23 10 31 10 25 14 51 13 17 25 13 13 20 18 13 10 25 81 15 26 9 25 11 11
internal_value=0 0.0295988 0.00944119 -0.0517974 0.0112353 0.0234272 0.0295626 0.0184706 -0.0128297 0.0441564 -0.0391145 -0.00627408 -0.0699142 0.0758299 0.0715976 -0.0556691 0.0470881 0.0186698 0.0599285 0.0781863 0.0497177 -0.0625053 -0.0309291 0.0868733 -0.0454797 -0.0546798 -0.0367692 0.000234339 0.0224225 0.0699098
internal_weight=0 76.8618 53.5243 46.6835 10.4222 44.8129 42.7218 37.6867 17.9996 5.68166 12.318 7.83931 36.2613 23.3375 5.40361 27.4799 19.687 10.2867 7.52698 9.40027 7.05183 8.71139 5.68034 20.5287 23.9346 21.1226 17.0058 9.58624 8.23914 4.18015
internal_count=691 379 272 312 58 215 205 182 95 25 70 45 254 107 27 173 87 46 33 41 31 57 35 94 148 133 107 56 47 22
shrinkage=0.1


Tree=12
num_leaves=31
num_cat=0
split_feature=1 5 1 0 5 6 1 0 6 0 4 5 0 6 2 0 1 2 5 0 3 2 4 6 5 1 5 2 6 5
split_gain=16.2303 7.05457 4.85303 3.6162 4.90335 4.28209 3.47566 4.10982 3.22434 4.02643 3.1334 3.19051 2.38016 2.28774 2.50946 4.25361 3.56126 2.96422 3.59342 2.07178 1.64376 1.54021 2.1593 2.99611 2.5799 2.08849 3.35009 1.84055 1.7233 1.29531
threshold=123.50000000000001 26.450000000000003 166.50000000000003 6.5000000000000009 45.350000000000001 0.76900000000000002 99.500000000000014 9.5000000000000018 0.2185 5.5000000000000009 252.50000000000003 42.050000000000004 1.5000000000000002 0.24050000000000002 73.000000000000014 2.5000000000000004 142.50000000000003 69.000000000000014 29.950000000000003 6.5000000000000009 32.500000000000007 89.000000000000014 36.500000000000007 0.6725000000000001 33.650000000000013 111.50000000000001 33.750000000000007 63.000000000000007 0.24550000000000002 35.45000000000001
decision_type=2 2 2 2 2 2 2 2 2 2 2 2 2 2 2 2 2 2 2 2 2 2 2 2 2 2 2 2 2 2
left_child=1 -1 8 4 21 6 -5 -8 9 -2 11 13 -12 -10 17 -16 19 18 -15 -17 -4 22 25 29 -25 27 -27 -3 -29 -24
right_child=2 3 20 5 -6 -7 7 -9 10 -11 12 -13 -14 14 15 16 -18 -19 -20 -21 -22 -23 23 24 -26 26 -28 28 -30 -31
leaf_value=-0.10598538246185041 -0.1022623872494663 -0.12146508091069226 0.063099731137827131 -0.092468439258046597 0.11827099767252564 0.15405851412959273 0.11560614733965274 -0.044643291505316929 0.13419042016394564 0.042054692459652709 -0.14190887305611624 0.1322341572680375 0.0054625490982701981 -0.060890068846589242 -0.097355130279921001 0.036683010733842995 0.089273879021083247 0.12907885019414431 0.080974638042140723 -0.083572596560873957 0.13486867687974591 -0.13232159134262564 -0.061081213379062888 -0.066231476589470595 0.080345106461215399 0.10692272016042813 -0.051248068301909921 -0.084348308592742963 0.014515170763309704 -0.12441594694645047
leaf_weight=11.996781177818773 4.3661178573966017 2.1178773269057265 9.8395918458700162 2.8737784847617132 1.9675575345754612 2.2009496539831153 3.3852898627519608 3.0353913754224777 2.0540186762809816 3.4694429785013199 1.5872860699892033 3.6363673955202094 3.5402411594986916 3.0544153749942797 3.5980161130428305 2.758827790617941 5.0669560134410858 3.9917241930961609 4.2978634834289551 2.9802044928073883 4.7231417000293723 1.8661870583891857 7.96801605820656 2.4610851481556884 2.3449584394693375 3.0812205150723448 2.3683204054832458 2.5813241526484472 5.5627410411834717 5.4295715391635895
leaf_count=114 23 16 45 18 9 10 15 13 9 16 9 17 17 17 21 14 23 18 19 14 25 11 58 14 11 16 12 18 32 37
internal_value=0 -0.0372217 0.0362821 -0.0204696 -0.0354236 0.0286368 -0.00106336 0.0398479 0.0198522 -0.0383614 0.0323266 0.0441487 -0.040158 0.0326275 0.0245255 -0.00317966 0.0281775 0.0597039 0.0220387 -0.0257642 0.0863766 -0.0438751 -0.0390083 -0.06245 0.00528598 -0.0118483 0.0381831 -0.0384171 -0.0168204 -0.0867486
internal_weight=0 61.241 58.9642 49.2443 37.7489 11.4954 9.29446 6.42068 44.4015 7.83556 36.5659 31.4384 5.12753 27.802 25.748 14.404 10.806 11.344 7.35228 5.73903 14.5627 35.7813 33.9151 18.2036 4.80604 15.7115 5.44954 10.2619 8.14407 13.3976
internal_count=691 404 287 290 234 56 46 28 217 39 178 152 26 135 126 72 51 54 36 28 70 225 214 120 25 94 28 66 50 95
shrinkage=0.1


Tree=13
num_leaves=31
num_cat=0
split_feature=1 7 1 1 2 0 6 4 6 3 0 2 4 3 6 1 0 4 0 3 6 0 0 0 7 6 7 1 6 4
split_gain=13.7557 6.17597 3.5469 3.00307 2.94735 2.81982 2.53876 2.30721 2.19695 2.02157 1.82149 1.79598 2.57718 2.49142 2.40217 2.27137 1.70919 2.28907 2.83529 1.58894 1.46263 1.42949 1.35532 2.37169 3.4993 1.83596 1.67913 1.70609 1.52901 1.37813
threshold=127.50000000000001 28.500000000000004 166.50000000000003 94.500000000000014 54.500000000000007 7.5000000000000009 0.20050000000000004 192.50000000000003 0.17650000000000002 30.500000000000004 9.5000000000000018 79.000000000000014 121.00000000000001 29.500000000000004 0.49450000000000005 114.50000000000001 4.5000000000000009 78.500000000000014 3.5000000000000004 32.500000000000007 0.29250000000000004 2.5000000000000004 1.5000000000000002 6.5000000000000009 33.500000000000007 0.58250000000000013 43.500000000000007 114.50000000000001 0.28100000000000008 17.000000000000004
decision_type=2 2 2 2 2 2 2 2 2 2 2 2 2 2 2 2 2 2 2 2 2 2 2 2 2 2 2 2 2 2
left_child=1 11 4 9 -2 7 -5 8 -6 -3 -7 13 15 -1 21 -13 17 18 -10 -4 -18 -15 -8 26 -25 28 27 -24 -26 -29
right_child=2 3 19 6 5 10 22 -9 16 -11 -12 12 -14 14 -16 -17 20 -19 -20 -21 -22 -23 23 24 25 -27 -28 29 -30 -31
leaf_value=-0.097562091820531383 0.10810331710860371 -0.10379333768230103 0.058036774053022468 -0.058882770738523965 -0.099443750767236605 0.11709767881540889 0.072831332244156624 -0.059393096468633472 -0.032351387812243566 0.0095288416563625369 0.020107270355028156 -0.021213955365731604 -0.12399723189728862 -0.11907329387140984 0.024306434935353734 0.14001669252858068 0.040884135803385319 0.098979575311244253 0.098280934691314908 0.13050972965839522 -0.064510211360375144 -0.0042541683002887704 -0.10244708168531427 0.16384485415391423 0.038112087431504307 0.081771549992978351 0.046083478580875449 0.05192474882521389 -0.078202773213775043 -0.06589761426317095
leaf_weight=16.690294019877918 3.5591239780187598 4.2766775935888282 9.6389700174331647 4.2675871923565891 1.6055798977613509 3.5967220067977896 4.7239006608724621 5.783554606139659 5.1492203101515788 2.4911605715751648 4.1942455619573593 2.7874127998948088 1.501796133816242 3.1767127960920316 4.0891479179263115 1.2727181166410444 2.1585516631603232 4.6318329870700836 2.4529838114976883 4.4089619666337958 3.3763612359762192 1.6462112367153166 3.1056499928236025 2.0685019418597204 2.1671420559287071 2.6887492015957832 2.6760048717260361 2.1074934750795369 2.3618658408522606 1.8768196552991865
leaf_count=151 17 32 45 25 9 17 22 31 26 15 19 20 10 25 22 7 10 23 11 25 16 12 20 10 10 15 14 11 11 10
internal_value=0 -0.0312414 0.0380826 -0.00229285 0.0216522 0.0123138 0.0121359 -0.00396586 0.0125799 -0.0620808 0.0648832 -0.0635779 -0.0120729 -0.074767 -0.032077 0.0293266 0.0227022 0.0435632 0.00979941 0.0807825 -0.0234076 -0.079882 0.024883 0.0129945 0.0491766 0.0163144 -0.0214103 -0.0468848 -0.0225458 -0.00357574
internal_weight=0 65.9758 50.5561 34.8116 36.5082 32.9491 28.0437 25.1581 19.3745 6.76784 7.79097 31.1643 5.56193 25.6024 8.91207 4.06013 17.769 12.234 7.6022 14.0479 5.53491 4.82292 23.7761 19.0522 9.28626 7.21776 9.76597 7.08996 4.52901 3.98431
internal_count=691 442 249 195 179 162 148 126 95 47 36 247 37 210 59 27 86 60 37 70 26 37 123 101 46 36 55 41 21 21
shrinkage=0.1


Tree=14
num_leaves=31
num_cat=0
split_feature=1 5 5 1 6 7 7 1 7 4 7 4 0 6 6 5 5 5 5 4 5 6 6 5 4 5 0 6 1 1
split_gain=11.6615 4.80654 4.74401 3.68037 3.65533 3.49213 4.89196 3.59547 3.02347 2.86439 2.8131 3.76073 2.65796 1.84201 1.61148 2.74874 2.02793 2.04107 2.01502 1.81227 1.57542 1.5166 1.6981 1.37824 1.66866 2.11302 3.0922 1.77086 1.13609 0.996874
threshold=112.50000000000001 28.250000000000004 26.450000000000003 165.50000000000003 0.66050000000000009 26.500000000000004 60.500000000000007 145.50000000000003 37.500000000000007 69.000000000000014 41.500000000000007 252.50000000000003 1.0000000180025095e-35 0.52250000000000008 0.52750000000000019 38.750000000000007 40.95000000000001 35.150000000000013 30.600000000000005 119.50000000000001 34.250000000000007 0.23350000000000001 0.62950000000000006 40.95000000000001 36.500000000000007 32.45000000000001 1.5000000000000002 0.29250000000000004 125.50000000000001 121.50000000000001
decision_type=2 2 2 2 2 2 2 2 2 2 2 2 2 2 2 2 2 2 2 2 2 2 2 2 2 2 2 2 2 2
left_child=2 5 -1 10 13 -2 7 28 9 -6 11 12 20 23 16 18 17 29 -16 -20 -3 -12 -23 24 25 26 -4 -27 -7 -14
right_child=1 3 4 -5 8 6 -8 -9 -10 -11 21 -13 14 -15 15 -17 -18 -19 19 -21 -22 22 -24 -25 -26 27 -28 -29 -30 -31
leaf_value=-0.1113385172020341 -0.10546406743057622 0.0063677979705804499 -0.11498868700012187 0.086335572010813502 -0.10900505134979235 0.021166526316160068 -0.13938364114982926 0.1086799519882124 0.10319668819299024 0.04300520958713562 9.6047350639115139e-05 -0.095101262177794965 0.043019895470086666 -0.11964537005952292 -0.020024759812897582 -0.040278045219472841 0.073907800546939878 -0.1110462242475061 0.17206321465613866 0.049830774975786259 0.12106851741479552 0.11169198446384472 0.020270469582611226 0.042230051154354728 -0.078854879636619399 -0.10142089307844866 0.067395364274249511 0.010374915165941065 -0.065681922655166036 -0.031572748652551615
leaf_weight=8.2520010471343976 4.05609456449747 1.7979677841067339 1.1990640386939135 11.85856458544731 2.0816418752074224 3.5342131927609426 2.0307992920279494 3.7184539288282394 3.3854279518127441 3.06453937292099 2.841739907860755 3.1859920769929877 2.479003310203554 2.9966751560568801 1.7383034005761127 3.2092459946870804 2.0642856210470191 2.6342018172144881 2.2211914509534836 2.6722649857401848 3.5853793397545815 6.5564300417900068 2.9440402984619141 2.0404157713055602 8.0999751910567266 3.8118171915411949 4.1364756599068642 2.2551353275775909 2.6249007135629654 6.4614849984645844
leaf_count=94 31 10 11 63 12 21 12 16 16 17 13 17 14 25 10 15 10 16 10 13 18 31 14 12 62 25 25 13 14 31
internal_value=0 0.0231013 -0.0435086 0.0368455 -0.0265835 -0.0253258 0.00197002 0.0310319 0.0298005 -0.0184833 0.023625 0.0080032 0.0193841 -0.0461864 0.00485364 0.035695 -0.0173995 -0.0336837 0.07246 0.105313 0.08276 0.0641903 0.083362 -0.0359681 -0.0441494 -0.0194958 0.0264079 -0.0598655 -0.0158467 -0.0108898
internal_weight=0 72.2146 41.3232 56.2501 33.0712 15.9645 11.9084 9.87757 8.53161 5.14618 44.3915 32.0493 28.8633 24.5396 23.48 9.84101 13.639 11.5747 6.63176 4.89346 5.38335 12.3422 9.50047 21.5429 19.5025 11.4025 5.33554 6.06695 6.15911 8.94049
internal_count=691 379 312 285 218 94 63 51 45 29 222 164 147 173 119 48 71 61 33 23 28 58 45 148 136 74 36 38 35 45
shrinkage=0.1


Tree=15
num_leaves=31
num_cat=0
split_feature=1 5 5 0 2 0 5 6 1 0 1 4 5 6 6 5 3 6 0 5 2 4 6 5 1 3 5 5 5 3
split_gain=10.1041 5.79122 3.30721 3.29816 3.28744 2.31801 3.46002 3.24584 2.60705 2.65542 2.21602 2.56555 2.45861 3.76935 3.23216 2.55851 1.99871 1.93065 1.89574 2.25863 1.55187 1.80586 2.48705 2.29834 1.58145 3.77694 2.0324 4.67923 1.53729 1.51011
threshold=123.50000000000001 26.450000000000003 29.950000000000003 1.5000000000000002 79.000000000000014 6.5000000000000009 45.350000000000001 0.76900000000000002 99.500000000000014 8.5000000000000018 165.50000000000003 252.50000000000003 42.050000000000004 0.42050000000000004 0.30250000000000005 38.750000000000007 30.500000000000004 0.26750000000000007 4.5000000000000009 25.950000000000003 89.000000000000014 36.500000000000007 0.50950000000000017 32.850000000000001 94.500000000000014 31.500000000000004 33.750000000000007 30.950000000000003 35.750000000000007 18.500000000000004
decision_type=2 2 2 2 2 2 2 2 2 2 2 2 2 2 2 2 2 2 2 2 2 2 2 2 2 2 2 2 2 2
left_child=1 -1 3 -2 18 6 20 8 -7 -10 11 12 13 14 -4 -15 -13 -6 -5 -20 21 24 -23 -24 25 -3 27 29 -25 -26
right_child=2 5 10 4 17 7 -8 -9 9 -11 -12 16 -14 15 -16 -17 -18 -19 19 -21 -22 22 23 28 26 -27 -28 -29 -30 -31
leaf_value=-0.10130921795742076 -0.08837186796767664 -0.11681240760804468 0.025036702523191748 0.10179205926384274 0.014792887650864749 -0.085628428293744757 0.10042946337364907 0.14073835734267723 0.11244910609761463 -0.021002673233487958 0.084418289971593799 0.03296981416051905 0.1228252314554811 0.097991156852513292 -0.097203915348464412 -0.024542372882296604 -0.10297605223453328 -0.12550460963939777 0.082039087299550742 -0.057093003965499482 -0.12992272699841298 -0.087177599935956529 -0.087530025874801201 0.096925309433534293 0.028908304648582267 0.090494814955538905 -0.03315369386097064 0.15498398153556409 -0.021313617000954764 -0.11539734442166683
leaf_weight=9.7571299001574499 3.9241582378745106 3.0518691092729595 6.9161096066236585 3.9792280718684179 1.8602042570710176 2.6043054535984975 1.950181871652602 1.955530360341071 2.5268436223268509 3.6373104900121689 10.470033571124075 2.0126157552003852 3.3517821580171576 8.2453575953841192 3.1473779678344727 2.1479324102401725 2.3375818878412247 2.0749308168888092 2.1907272487878799 2.4963309168815613 1.6927318051457394 9.5902117118239421 2.36725840717554 2.0865276008844376 1.8270444497466072 1.2342754453420637 4.7274205461144447 2.5749153941869736 2.3247429952025414 1.2024352103471754
leaf_count=114 27 27 32 20 9 18 9 10 12 16 59 11 17 41 15 10 12 11 11 12 11 78 19 10 10 7 26 13 13 11
internal_value=0 -0.0314197 0.0291226 -0.00831588 0.016614 -0.0163841 -0.0289648 0.0242413 -0.0017397 0.0337026 0.0451389 0.030534 0.0434364 0.0304288 -0.0131943 0.0726677 -0.0400808 -0.0591836 0.0510318 0.00793722 -0.0366866 -0.0315933 -0.0544067 -0.00804268 -0.00604753 -0.0571144 0.0151375 0.0558721 0.0346133 -0.0283683
internal_weight=0 55.1107 55.1544 16.5256 12.6014 45.3536 34.6296 10.724 8.76846 6.16415 38.6288 28.1588 23.8086 20.4568 10.0635 10.3933 4.3502 3.93514 8.66629 4.68706 32.6794 30.9867 16.3687 6.77853 14.618 4.28614 10.3318 5.6044 4.41127 3.02948
internal_count=691 404 287 90 63 290 234 56 46 28 197 138 115 98 47 51 23 20 43 23 225 214 120 42 94 34 60 34 23 21
shrinkage=0.1


end of trees

feature_importances:
BMI=86
DiabetesPedigreeFunction=75
Glucose=74
Age=68
Pregnancies=52
BloodPressure=44
SkinThickness=43
Insulin=38

parameters:
[boosting: gbdt]
[objective: binary]
[metric: binary_logloss]
[tree_learner: serial]
[device_type: cpu]
[data: ]
[valid: ]
[num_iterations: 10000]
[learning_rate: 0.1]
[num_leaves: 31]
[num_threads: 8]
[force_col_wise: 0]
[force_row_wise: 0]
[histogram_pool_size: -1]
[max_depth: -1]
[min_data_in_leaf: 10]
[min_sum_hessian_in_leaf: 0.001]
[bagging_fraction: 0.9]
[pos_bagging_fraction: 1]
[neg_bagging_fraction: 1]
[bagging_freq: 0]
[bagging_seed: 28170]
[feature_fraction: 0.9]
[feature_fraction_bynode: 1]
[feature_fraction_seed: 31103]
[extra_trees: 0]
[extra_seed: 10443]
[early_stopping_round: 50]
[first_metric_only: 0]
[max_delta_step: 0]
[lambda_l1: 0]
[lambda_l2: 0]
[min_gain_to_split: 0]
[drop_rate: 0.1]
[max_drop: 50]
[skip_drop: 0.5]
[xgboost_dart_mode: 0]
[uniform_drop: 0]
[drop_seed: 311]
[top_rate: 0.2]
[other_rate: 0.1]
[min_data_per_group: 100]
[max_cat_threshold: 32]
[cat_l2: 10]
[cat_smooth: 10]
[max_cat_to_onehot: 4]
[top_k: 20]
[monotone_constraints: ]
[monotone_constraints_method: basic]
[monotone_penalty: 0]
[feature_contri: ]
[forcedsplits_filename: ]
[refit_decay_rate: 0.9]
[cegb_tradeoff: 1]
[cegb_penalty_split: 0]
[cegb_penalty_feature_lazy: ]
[cegb_penalty_feature_coupled: ]
[path_smooth: 0]
[interaction_constraints: ]
[verbosity: -1]
[saved_feature_importance_type: 0]
[max_bin: 255]
[max_bin_by_feature: ]
[min_data_in_bin: 3]
[bin_construct_sample_cnt: 200000]
[data_random_seed: 64]
[is_enable_sparse: 1]
[enable_bundle: 1]
[use_missing: 1]
[zero_as_missing: 0]
[feature_pre_filter: 1]
[pre_partition: 0]
[two_round: 0]
[header: 0]
[label_column: ]
[weight_column: ]
[group_column: ]
[ignore_column: ]
[categorical_feature: ]
[forcedbins_filename: ]
[objective_seed: 25835]
[num_class: 1]
[is_unbalance: 0]
[scale_pos_weight: 1]
[sigmoid: 1]
[boost_from_average: 1]
[reg_sqrt: 0]
[alpha: 0.9]
[fair_c: 1]
[poisson_max_delta_step: 0.7]
[tweedie_variance_power: 1.5]
[lambdarank_truncation_level: 20]
[lambdarank_norm: 1]
[label_gain: ]
[eval_at: ]
[multi_error_top_k: 1]
[auc_mu_weights: ]
[num_machines: 1]
[local_listen_port: 12400]
[time_out: 120]
[machine_list_filename: ]
[machines: ]
[gpu_platform_id: -1]
[gpu_device_id: -1]
[gpu_use_dp: 0]

end of parameters

pandas_categorical:[]
