tree
version=v3
num_class=1
num_tree_per_iteration=1
label_index=0
max_feature_idx=7
objective=binary sigmoid:1
feature_names=Pregnancies Glucose BloodPressure SkinThickness Insulin BMI DiabetesPedigreeFunction Age
feature_infos=[0:17] [0:199] [0:114] [0:99] [0:846] [0:67.099999999999994] [0.078:2.4199999999999999] [21:81]
tree_sizes=3281 3267 3287 3278 3284 3285 3275 3289 3281 3291 3298 3297 3300 3311 3297 3307 3308 3310 3302

Tree=0
num_leaves=31
num_cat=0
split_feature=1 5 7 5 6 1 1 1 2 3 6 5 5 7 5 1 6 2 4 4 6 6 2 7 4 1 1 7 1 6
split_gain=127.486 37.6109 28.0212 17.1572 14.4836 11.9193 10.6319 9.69551 7.43852 7.38762 6.74648 7.56037 6.42838 6.1089 5.88837 4.22792 3.80826 3.73864 2.99092 2.9363 3.4894 2.84044 2.76085 6.05613 2.48248 2.45103 2.44711 2.44711 2.35535 1.81561
threshold=127.50000000000001 29.950000000000003 28.500000000000004 26.450000000000003 0.63850000000000018 157.50000000000003 145.50000000000003 99.500000000000014 85.500000000000014 32.500000000000007 0.43450000000000005 41.900000000000006 30.950000000000003 28.500000000000004 33.250000000000007 110.50000000000001 0.50250000000000006 69.000000000000014 90.500000000000014 24.000000000000004 0.29250000000000004 0.25850000000000006 73.000000000000014 40.500000000000007 24.000000000000004 145.50000000000003 103.50000000000001 41.500000000000007 120.50000000000001 0.29950000000000004
decision_type=2 2 2 2 2 2 2 2 2 2 2 2 2 2 2 2 2 2 2 2 2 2 2 2 2 2 2 2 2 2
left_child=2 6 12 -4 7 10 -2 -5 9 15 11 22 -1 -12 -6 27 21 26 -16 20 -8 24 -3 -24 -14 -15 -18 -9 -17 -7
right_child=1 5 3 4 14 29 19 8 -10 -11 13 -13 16 25 18 28 17 -19 -20 -21 -22 -23 23 -25 -26 -27 -28 -29 -30 -31
leaf_value=-0.74141493404745828 -0.68744375767864629 -0.49878066594043807 -0.72621488845787452 -0.69350174686290078 -0.36637033091316329 -0.420892233571453 -0.48631851676140037 -0.48631851676140048 -0.69350174686290078 -0.66078860526792704 -0.52993603888803209 -0.38454429846592653 -0.5735535610146637 -0.33167457467606992 -0.59224678478322013 -0.35546595038150552 -0.62906677099401309 -0.68571290362600223 -0.44270099463476875 -0.44605618864450969 -0.66078860526792693 -0.74802364952119027 -0.69350174686290078 -0.48631851676140042 -0.70211046833526225 -0.44605618864450969 -0.48631851676140042 -0.62906677099401309 -0.48631851676140042 -0.35338892551833245
leaf_weight=30.263067126274109 8.2535637617111188 3.2097192406654376 9.1706264019012433 9.1706264019012469 3.6682505607604963 5.5023758411407497 2.2926566004753104 2.2926566004753131 3.6682505607604972 3.438984900712966 3.6682505607604972 2.7511879205703726 2.2926566004753131 5.043844521045683 3.2097192406654358 2.2926566004753113 2.5219222605228406 4.8145788609981537 2.2926566004753113 2.9804535806179047 2.2926566004753113 7.3365011215209961 3.668250560760498 2.2926566004753113 4.3560475409030914 2.9804535806179047 2.2926566004753113 2.5219222605228424 3.4389849007129669 14.443736582994459
leaf_count=132 36 14 40 40 16 24 10 10 16 15 16 12 10 22 14 10 11 21 10 13 10 32 16 10 19 13 10 11 15 63
internal_value=-0.592743 -0.476888 -0.662202 -0.604108 -0.572998 -0.428927 -0.608953 -0.610088 -0.566756 -0.533511 -0.477002 -0.529936 -0.710902 -0.42303 -0.46451 -0.492008 -0.671799 -0.623402 -0.529936 -0.523327 -0.573554 -0.705121 -0.573554 -0.613816 -0.657781 -0.374159 -0.561091 -0.561091 -0.433977 -0.372011
internal_weight=0 59.3798 99.0428 45.1653 35.9947 43.5605 15.8193 26.8241 17.6535 13.9852 23.6144 11.9218 53.8774 11.6925 9.17063 10.5462 23.6144 9.62916 5.50238 7.56577 4.58531 13.9852 9.17063 5.96091 6.6487 8.0243 4.81458 4.81458 5.73164 19.9461
internal_count=691 259 432 197 157 190 69 117 77 61 103 52 235 51 40 46 103 42 24 33 20 61 40 26 29 35 21 21 25 87
shrinkage=1


Tree=1
num_leaves=31
num_cat=0
split_feature=1 5 7 5 1 1 1 2 5 2 7 4 3 5 4 4 0 7 7 5 3 4 1 0 7 7 7 0 7 5
split_gain=102.318 28.4639 24.1611 14.4784 11.2894 8.75631 8.73273 7.65316 5.84061 5.7847 11.3452 8.40246 2.7525 2.73681 2.63425 7.72117 2.76029 9.45517 7.51606 2.27781 3.06161 2.16592 1.82695 2.7447 1.80931 2.21967 1.98326 4.09642 1.7739 1.61425
threshold=127.50000000000001 29.950000000000003 28.500000000000004 26.450000000000003 99.500000000000014 165.50000000000003 145.50000000000003 87.000000000000014 30.950000000000003 60.500000000000007 30.500000000000004 252.50000000000003 10.500000000000002 28.450000000000003 111.00000000000001 17.000000000000004 5.5000000000000009 34.500000000000007 40.500000000000007 34.350000000000001 30.500000000000004 177.00000000000003 111.50000000000001 1.5000000000000002 50.500000000000007 36.500000000000007 42.500000000000007 6.5000000000000009 42.500000000000007 27.850000000000005
decision_type=2 2 2 2 2 2 2 2 2 2 2 2 2 2 2 2 2 2 2 2 2 2 2 2 2 2 2 2 2 2
left_child=2 6 8 -4 28 9 29 14 -1 -3 11 -11 -10 -8 15 16 17 -6 -18 20 -14 -16 23 -21 25 -12 -27 -28 -5 -2
right_child=1 5 3 4 7 -7 13 -9 12 10 24 -13 19 -15 21 -17 18 -19 -20 22 -22 -23 -24 -25 -26 26 27 -29 -30 -31
leaf_value=-0.14071159105444417 -0.11573609629477669 0.2283480667440595 -0.12561876675577763 -0.089985999180131143 -0.11828703757499713 0.20101761234923263 0.10041708219478195 -0.074340343526819161 0.017234806270754504 0.059368178374204321 0.19624942865015116 -0.15804391106957158 -0.094259320189543042 -0.029502274659291439 0.21001409352860786 -0.11167964085366555 0.23288133200984507 0.14494399378487122 0.029277434423822624 -0.12877796559012858 0.050721874829242286 0.084789072546891567 -0.15139651363550019 -0.012420756503060244 0.21717593110278283 0.0478208673503418 0.043368200754677927 0.21732082278462239 -0.003585418483608039 -0.01554141954489794
leaf_weight=28.850299000740051 5.788730859756468 3.5646508783102062 8.7893205881118757 8.0772123038768751 2.3403398543596321 15.942564159631727 5.3754259198904029 3.8270794153213492 2.9377742558717754 7.7204009443521517 3.5826628655195227 2.3093461394309998 3.5609869360923794 2.3217455744743347 2.3930728882551184 2.2835043817758551 3.5393209159374237 3.2728457897901535 3.7173849642276764 4.6630285680294019 2.4646892845630646 3.2666049152612686 5.8102725446224204 3.5864749699831009 2.8705562502145758 3.7809801697731 2.3909293115139008 3.1207562834024429 3.3667432069778434 2.2264349460601807
leaf_count=132 26 15 40 36 10 66 23 17 13 33 15 10 16 10 10 10 15 14 16 21 11 14 26 16 12 16 10 13 15 10
internal_value=0 0.101123 -0.0642567 -0.0105265 0.0175075 0.141363 -0.0148469 0.0556266 -0.110736 0.108948 0.0924355 0.00930911 -0.0731743 0.0612287 0.0795248 0.0577827 0.0878504 0.0351935 0.128581 -0.0863978 -0.0349575 0.137738 -0.108444 -0.0781916 0.145385 0.129379 0.103598 0.141861 -0.0645675 -0.0879042
internal_weight=0 60.9952 96.747 44.8734 36.0841 45.2828 15.7123 24.6402 51.8735 29.3403 25.7756 10.0297 23.0232 7.69717 20.8131 15.1534 12.8699 5.61319 7.25671 20.0855 6.02568 5.65968 14.0598 8.2495 15.7459 12.8753 9.29267 5.51169 11.444 8.01517
internal_count=691 259 432 197 157 190 69 106 235 124 109 43 103 33 89 65 55 24 31 90 27 24 63 37 66 54 39 23 51 36
shrinkage=0.1


Tree=2
num_leaves=31
num_cat=0
split_feature=5 7 6 7 5 4 5 4 4 6 2 3 2 0 4 0 0 5 2 0 6 4 6 6 6 7 5 0 5 5
split_gain=44.8779 27.6167 10.2242 8.11485 6.3204 6.13371 5.94517 5.7824 5.47437 5.37753 8.13845 5.96079 4.85931 6.2232 4.27522 3.95903 5.87891 4.26792 3.37317 3.17045 2.90344 2.88094 2.84859 7.26 2.7575 2.68236 3.56805 4.21986 2.64883 2.5839
threshold=27.850000000000005 30.500000000000004 0.63850000000000018 27.500000000000004 30.450000000000003 126.50000000000001 41.900000000000006 17.000000000000004 87.500000000000014 0.32700000000000001 67.000000000000014 26.500000000000004 53.000000000000007 4.5000000000000009 114.50000000000001 5.5000000000000009 9.5000000000000018 36.150000000000013 73.000000000000014 3.5000000000000004 0.36550000000000005 159.50000000000003 0.49850000000000005 0.5525000000000001 0.43450000000000005 54.500000000000007 26.450000000000003 7.5000000000000009 31.750000000000004 31.750000000000004
decision_type=2 2 2 2 2 2 2 2 2 2 2 2 2 2 2 2 2 2 2 2 2 2 2 2 2 2 2 2 2 2
left_child=3 2 6 -1 -4 7 12 9 -9 10 -3 28 -2 22 25 17 -17 -12 19 -7 -8 -6 29 -24 -10 26 27 -5 -11 -14
right_child=1 5 4 14 21 18 20 8 24 11 15 -13 13 -15 -16 16 -18 -19 -20 -21 -22 -23 23 -25 -26 -27 -28 -29 -30 -31
leaf_value=-0.12937349446934326 0.059226474983087134 0.18171298584469486 -0.10121454755769888 -0.12709174036268897 0.049128544183596197 0.15350560255627399 0.11375630702803921 -0.10132754464582966 -0.014910322938245877 0.13353520421505594 -0.12635366428963929 0.19963507020285934 -0.050691882838377902 0.062523950633972647 0.064653704640796492 0.12843627196763227 -0.072015977007506615 0.04691973326635604 0.16658555099577915 0.007944587126241973 -0.032784092946626396 0.15379054056174518 0.067596961455863719 -0.15044485749724973 0.12789719317459683 -0.12753751015960638 0.032017689014294616 0.019234200187235248 0.033770247726140949 -0.12381043636185252
leaf_weight=22.157002672553062 3.1860919445753089 3.1171378195285788 2.1522372364997855 5.7108732759952598 7.6001108884811384 2.7000526487827328 3.2433301061391822 3.8152738809585554 2.7584352195262909 4.5608952939510363 3.5941537320613843 5.9544408470392218 6.9811701178550782 3.1804504543542853 3.1539111137390128 4.0378291606903076 2.2945221960544586 2.3515926748514175 10.477987125515936 3.3564613312482834 2.3186567425727844 4.0217052847146988 3.5934419035911551 2.6555709540843964 2.6521076858043671 4.5901131480932227 4.6309627741575232 3.0094359815120697 6.3899012804031372 15.706731140613554
leaf_count=106 14 13 10 27 33 11 14 17 12 19 16 25 32 14 14 17 10 10 43 14 10 17 16 12 11 21 20 14 27 72
internal_value=0 0.0327151 -0.0183132 -0.0871093 0.0561959 0.0807365 -0.0434271 0.0602271 -0.00959529 0.0801701 0.0374134 0.119108 -0.0585666 -0.0702518 -0.0427179 0.000778873 0.0558026 -0.0578226 0.132246 0.0728371 0.0526672 0.0853466 -0.0848452 -0.0250618 0.0550902 -0.0615928 -0.0389212 -0.0765937 0.0753213 -0.101312
internal_weight=0 112.7 54.6395 43.2523 13.7741 58.0608 40.8654 41.5263 9.22582 32.3005 15.3952 16.9052 35.3035 32.1174 21.0953 12.2781 6.33235 5.94575 16.5345 6.05651 5.56199 11.6218 28.9369 6.24901 5.41054 17.9414 13.3513 8.72031 10.9508 22.6879
internal_count=691 489 244 202 60 245 184 177 40 137 66 71 160 146 96 53 27 26 68 25 24 50 132 28 23 82 61 41 46 104
shrinkage=0.1


Tree=3
num_leaves=31
num_cat=0
split_feature=1 5 7 5 1 1 1 2 5 2 7 4 5 1 0 5 7 1 4 2 3 1 0 7 0 1 7 5 1 2
split_gain=76.3794 18.8868 17.9741 10.6784 8.35519 6.91941 6.04418 5.5195 4.94029 4.55856 6.14691 3.07874 2.4133 5.1365 3.59723 2.39036 1.8842 1.95697 1.76903 1.75094 3.34536 4.1751 3.82408 1.70893 3.15935 1.49644 1.47738 1.45198 1.28577 1.34345
threshold=127.50000000000001 29.950000000000003 28.500000000000004 26.450000000000003 99.500000000000014 145.50000000000003 157.50000000000003 87.000000000000014 30.950000000000003 60.500000000000007 30.500000000000004 192.50000000000003 33.750000000000007 99.500000000000014 1.5000000000000002 28.450000000000003 49.500000000000007 136.50000000000003 137.50000000000003 79.000000000000014 32.500000000000007 110.50000000000001 6.5000000000000009 49.500000000000007 1.5000000000000002 101.50000000000001 42.500000000000007 37.250000000000007 122.50000000000001 67.000000000000014
decision_type=2 2 2 2 2 2 2 2 2 2 2 2 2 2 2 2 2 2 2 2 2 2 2 2 2 2 2 2 2 2
left_child=2 5 8 -4 26 23 9 19 -1 -3 11 -11 13 -10 -14 -7 17 -12 25 20 21 22 -6 24 -2 -16 27 -5 29 -23
right_child=1 6 3 4 7 15 -8 -9 12 10 16 -13 14 -15 18 -17 -18 -19 -20 -21 -22 28 -24 -25 -26 -27 -28 -29 -30 -31
leaf_value=-0.1298073857914083 -0.1404786754695827 0.1901127536514732 -0.11554347267485475 -0.11146735444897614 -0.083916861129983672 0.091972360395771391 0.1560732658411578 -0.068992318257523652 -0.10779105763124119 0.035207713234893495 0.13850056602717575 -0.10371904570386437 -0.13111826820965308 0.082349324561631562 -0.06494751753517039 -0.029424686637724396 0.17905399220626894 0.049468902300652193 -0.10636531454616603 0.12216954455607949 -0.032529270161338823 0.13777462104808536 0.087446660736710841 -0.14524590643353441 0.020627753410420797 0.040152058048823963 -0.0052240923973373155 -0.015851099991579826 0.16768980990123517 0.032752863017699155
leaf_weight=26.127626925706863 2.0483618676662427 3.4590085148811367 8.1459882557392103 5.60889685153961 2.5583938807249167 5.4510759264230728 21.597463548183441 3.7147500813007346 2.7467973083257702 6.0808363109827059 4.3889842182397825 2.162397563457489 8.3289202898740786 2.9429831355810165 2.3975191563367826 2.3090497851371765 2.9735668003559104 5.6432311087846756 2.5444730967283249 4.0633079111576071 3.8788585513830176 2.4671550393104535 2.6522421836853027 2.5446236282587051 2.9998999536037445 3.1147687584161758 3.3733008056879044 2.2154857069253922 3.1771488785743713 2.405809611082077
leaf_count=132 10 14 40 26 11 23 87 17 13 26 18 10 40 13 11 10 12 23 12 17 17 10 11 12 14 14 15 10 13 10
internal_value=0 0.0855617 -0.0581321 -0.0121211 0.0112063 -0.0105556 0.11743 0.0434498 -0.100381 0.0836523 0.0663222 -0.0012361 -0.0655521 -0.00944281 -0.0850356 0.0558503 0.109141 0.0884193 -0.0373962 0.0631497 0.0491578 0.0730518 0.00330811 -0.0784242 -0.0447421 -0.00556004 -0.0605437 -0.0843935 0.118195 0.0859248
internal_weight=0 61.6585 92.4644 44.2613 36.1153 15.353 46.3055 24.9177 48.2031 24.708 21.249 8.24323 22.0755 5.68978 16.3857 7.76013 13.0058 10.0322 8.05676 21.2029 17.1396 13.2607 5.21064 7.59289 5.04826 5.51229 11.1977 7.82438 8.05011 4.87296
internal_count=691 259 432 197 157 69 190 106 235 103 89 36 103 26 77 33 53 41 37 89 72 55 22 36 24 25 51 36 33 20
shrinkage=0.1


Tree=4
num_leaves=31
num_cat=0
split_feature=1 7 5 5 6 1 0 1 1 5 4 6 2 1 1 6 2 0 6 0 5 2 1 6 6 5 5 2 6 6
split_gain=62.8626 15.7155 15.1704 9.14939 8.86998 6.05709 5.77504 5.73101 5.01102 4.6614 3.77951 4.19236 3.34369 4.33283 3.3284 2.68534 3.22075 2.56335 2.51975 2.40272 2.21844 2.19205 2.32614 1.96343 3.6046 1.87326 2.46487 3.27019 1.85667 2.11809
threshold=127.50000000000001 28.500000000000004 29.950000000000003 26.450000000000003 0.63850000000000018 94.500000000000014 1.5000000000000002 145.50000000000003 165.50000000000003 30.950000000000003 252.50000000000003 0.35650000000000004 85.500000000000014 110.50000000000001 142.50000000000003 0.50250000000000006 69.000000000000014 8.5000000000000018 0.25850000000000006 3.5000000000000004 31.750000000000004 74.500000000000014 161.50000000000003 0.25350000000000006 0.42850000000000005 34.150000000000013 39.95000000000001 77.000000000000014 1.1490000000000002 0.31350000000000006
decision_type=2 2 2 2 2 2 2 2 2 2 2 2 2 2 2 2 2 2 2 2 2 2 2 2 2 2 2 2 2 2
left_child=1 9 7 -3 5 -5 -6 -2 10 -1 11 14 13 23 -4 18 -17 -15 -11 -12 -13 22 -9 -7 -25 -22 -27 -28 29 -10
right_child=2 3 8 4 6 12 -8 21 28 15 19 20 -14 17 -16 16 -18 -19 -20 -21 25 -23 -24 24 -26 26 27 -29 -30 -31
leaf_value=-0.12475973737512357 -0.073256163204917568 -0.10986408830669572 -0.018437686089815494 -0.10948921860620198 -0.043408766194677595 -0.076970349555619655 0.13668246930556621 0.023923911199439169 0.10497425866855054 -0.045687470519474874 -0.076155383142714916 0.20991092640012021 -0.085155970976015002 0.11242558437606015 0.10052582666187751 0.037979394987401688 -0.080403914786658953 -0.010683291479235009 -0.13639811482568628 0.068314432153069871 0.042933760605061544 -0.020975158134345372 0.16009432621056977 0.098190841393404171 -0.073982143833615996 0.18171923452379302 0.16599434509761912 0.0065350348198716882 0.07025170069166406 0.18972161733069803
leaf_weight=24.547867611050606 7.3423719555139524 7.7319748848676673 4.5326261967420631 5.871495425701144 2.3620443940162641 3.962284013628965 7.2336859852075577 2.6149030178785324 4.2362145781517055 6.0499822944402712 2.2508142888545981 2.7068428695201865 3.3741269558668128 5.7722117006778699 4.8881690353155136 4.6841108053922635 4.5116673707962036 2.3923130184412003 6.2008930295705795 2.356393963098526 3.1286162286996833 2.8143744170665741 2.4113458096981049 2.6030968874692917 2.2819426953792572 4.9690779447555524 2.4712586104869843 2.6817117780447006 2.4915122985839835 9.7064397186040861
leaf_count=132 36 40 19 28 10 18 30 11 17 29 10 11 16 24 20 21 21 10 32 10 13 12 10 11 10 20 10 11 10 39
internal_value=0 -0.0542302 0.0770025 -0.0112031 0.0100738 -0.0199946 0.092352 -0.0097678 0.105383 -0.0950035 0.0810597 0.0961866 0.00578134 0.0238178 0.0432889 -0.0609445 -0.0201023 0.0763531 -0.0916015 -0.00226513 0.127416 0.049686 0.0892517 -0.024663 0.0177639 0.110564 0.131467 0.0830084 0.149764 0.163973
internal_weight=0 89.5797 61.6027 43.5852 35.8532 26.2575 9.59573 15.183 46.4197 45.9945 29.9855 25.3783 20.386 17.0118 9.4208 21.4467 9.19578 8.16452 12.2509 4.60721 15.9575 7.84062 5.02625 8.84732 4.88504 13.2507 10.122 5.15297 16.4342 13.9427
internal_count=691 432 259 197 157 117 40 69 190 235 124 104 89 73 39 103 42 34 61 20 65 33 21 39 21 54 41 21 66 56
shrinkage=0.1


Tree=5
num_leaves=31
num_cat=0
split_feature=1 7 5 5 6 1 7 7 1 0 1 5 7 6 2 5 3 2 7 0 3 0 1 6 5 7 6 5 3 2
split_gain=52.1103 11.7441 11.5969 8.69142 7.29365 5.69357 4.83008 7.57649 4.63143 4.59705 4.31602 3.89761 4.22202 5.09272 4.53316 3.767 3.64966 4.66488 3.04459 2.64467 3.99719 2.57004 2.56407 2.40819 2.15974 1.83205 1.61305 1.3278 1.31225 1.19768
threshold=124.50000000000001 28.500000000000004 29.950000000000003 26.450000000000003 0.63850000000000018 157.50000000000003 26.500000000000004 59.500000000000007 94.500000000000014 6.5000000000000009 154.50000000000003 41.900000000000006 42.500000000000007 0.73650000000000004 81.000000000000014 30.950000000000003 36.500000000000007 83.000000000000014 41.500000000000007 7.5000000000000009 25.500000000000004 1.5000000000000002 142.50000000000003 0.40050000000000008 33.750000000000007 34.500000000000007 0.91100000000000014 33.000000000000007 28.500000000000004 67.000000000000014
decision_type=2 2 2 2 2 2 2 2 2 2 2 2 2 2 2 2 2 2 2 2 2 2 2 2 2 2 2 2 2 2
left_child=1 15 6 -3 8 11 -2 10 28 26 18 12 13 14 27 -1 17 19 -8 20 25 24 -13 -14 -17 -10 -6 -4 -5 -29
right_child=2 3 5 4 9 -7 7 -9 16 -11 -12 22 23 -15 -16 21 -18 -19 -20 -21 -22 -23 -24 -25 -26 -27 -28 29 -30 -31
leaf_value=-0.11998599125939213 -0.095715953063310044 -0.11746418841473615 0.074668157707979063 -0.13929965206558673 0.067697031084932177 0.12807271728896474 -0.046503008502459038 -0.14732265984785733 0.067679268636642226 0.16294360606175351 0.14786571044244548 0.21332037206677207 0.04126362603248581 0.11413168788996156 -0.10849863893383992 -0.0071805064582411765 -0.091998286329280851 -0.10216439007826555 0.091465623822547582 -0.020191452135645965 -0.018321938580002983 -0.023803126228587976 0.071462092280006745 0.15905118094310211 -0.12213318408196093 0.18395587386804438 -0.04178858021550471 0.040937046655392627 -0.038225418544795435 -0.053615021636215766
leaf_weight=22.106950491666794 4.4934404492378262 6.9401478618383399 3.1470593661069959 3.6171121746301678 3.1655619442462903 21.380548745393753 3.7503297030925733 2.1050815135240546 2.5251174718141574 3.9107212126255035 3.6677412241697311 2.4243138432502738 3.1129639148712149 3.872618004679679 3.7801784276962271 2.0985095202922839 3.4304994791746131 2.4782781153917304 2.7888207584619522 3.8152431249618521 2.7216033339500427 9.8578950166702253 2.6856463551521301 3.9234660416841507 7.3904021382331848 2.9242767691612244 2.3406452387571335 2.6334647983312607 1.9918423891067503 2.7268384695053101
leaf_count=127 23 38 13 18 13 87 17 10 11 16 15 10 13 16 17 10 16 12 13 16 12 47 11 16 39 12 10 11 10 12
internal_value=0 -0.0545192 0.0648352 -0.0157638 0.00567592 0.089123 -0.00697438 0.0254132 -0.0241175 0.0800382 0.0610384 0.0597034 0.0422873 0.0141358 -0.0173796 -0.0917855 0.000734495 0.0227276 0.0123379 0.0485503 0.0806476 -0.0595618 0.138764 0.106941 -0.096711 0.130076 0.0211556 0.0231084 -0.103406 -0.00716251
internal_weight=0 81.3148 66.4925 39.861 32.9209 49.6871 16.8054 12.312 23.504 9.41693 10.2069 28.3065 23.1966 16.1602 12.2875 41.4538 17.895 14.4645 6.53915 11.9862 8.171 19.3468 5.10996 7.03643 9.48891 5.44939 5.50621 8.50736 5.60895 5.3603
internal_count=691 407 284 184 146 206 78 55 107 39 45 119 98 69 53 223 79 63 30 51 35 96 21 29 49 23 23 36 28 23
shrinkage=0.1


Tree=6
num_leaves=31
num_cat=0
split_feature=1 7 5 5 4 4 5 1 1 3 0 1 2 0 2 7 4 2 0 3 4 0 7 7 0 3 5 5 7 4
split_gain=43.459 12.0455 10.2664 6.70773 4.98664 8.01298 4.2331 4.0378 3.73314 3.52128 8.41704 4.00782 4.8159 4.41963 3.09037 5.0659 5.87717 2.3878 2.41707 2.37433 1.79729 2.44961 1.78996 1.73942 2.88019 1.38632 1.3221 1.2607 1.56177 1.88002
threshold=127.50000000000001 28.500000000000004 29.950000000000003 26.450000000000003 111.00000000000001 17.000000000000004 30.950000000000003 145.50000000000003 165.50000000000003 21.500000000000004 4.5000000000000009 94.500000000000014 83.000000000000014 7.5000000000000009 60.500000000000007 30.500000000000004 252.50000000000003 54.500000000000007 1.5000000000000002 29.500000000000004 24.000000000000004 5.5000000000000009 34.500000000000007 49.500000000000007 1.5000000000000002 30.500000000000004 23.150000000000002 40.650000000000013 50.500000000000007 66.500000000000014
decision_type=2 2 2 2 2 2 2 2 2 2 2 2 2 2 2 2 2 2 2 2 2 2 2 2 2 2 2 2 2 2
left_child=1 6 7 26 5 9 -1 23 14 11 -11 -5 13 22 -4 16 -16 -8 -19 -6 21 -9 -13 24 -2 -12 -3 28 29 -17
right_child=2 3 8 4 19 -7 17 20 -10 10 25 12 -14 -15 15 27 -18 18 -20 -21 -22 -23 -24 -25 -26 -27 -28 -29 -30 -31
leaf_value=-0.11647801571385215 -0.12971539135442445 -0.033229623873077964 0.15240081713008069 -0.13492958861085161 0.16391220162565864 -0.11270722762974356 0.0526184569577339 -0.073740411561736691 0.12630752972577536 -0.098667291214054445 0.06970622210104481 0.032229965348761123 -0.10726825662262429 -0.064202780542583257 0.037934152355728785 0.095969989304460976 -0.15024307001585097 -0.10158425206055632 -0.029001579506504779 0.04064993428570704 0.098372424096731845 0.070877525512869508 0.13967679872121339 -0.13571954856492185 0.03269545663706102 0.16624224151344172 -0.12856456325139309 0.15100692136323307 0.14130031821584724 0.010721745757754203
leaf_weight=21.47336134314537 1.7631527781486491 2.0838457792997351 3.6547732502222088 2.2802601754665437 2.4449232518672934 6.0233445018529883 1.9430790543556238 2.2664390951395035 15.9196620285511 2.2260255962610227 2.4657905548810959 2.8263675421476346 2.6802433282136908 2.5873014330863953 7.8367691189050692 5.8579858839511889 2.1056662946939468 8.8484207540750521 9.5287226736545545 4.3308730125427246 3.1808535754680634 2.4238734841346741 3.4344716966152191 2.2873148918151855 2.8681971579790115 3.7498927861452103 4.8177296668291092 2.7143319547176352 2.8940294533967963 4.6329300701618195
leaf_count=132 10 12 15 12 10 29 9 10 66 11 11 12 13 11 33 24 10 48 46 18 13 10 14 12 14 16 28 11 12 19
internal_value=0 -0.0475218 0.0637614 -0.00966728 0.00807663 -0.0103885 -0.0855189 -0.00864013 0.0872357 0.01731 0.0681895 -0.0137944 0.0101656 0.0457382 0.0662901 0.0542051 -0.0019191 -0.0528029 -0.0639494 0.0851269 0.040347 0.00099567 0.0911714 -0.0643714 -0.0291343 0.127946 -0.0997794 0.0888657 0.0762641 0.0583232
internal_weight=0 83.7447 60.406 41.9511 35.0495 28.2737 41.7936 14.7898 45.6161 22.2504 8.44171 13.8086 11.5284 8.84814 29.6965 26.0417 9.94244 20.3202 18.3771 6.7758 7.87117 4.69031 6.26084 6.91866 4.63135 6.21568 6.90158 16.0993 13.3849 10.4909
internal_count=691 432 259 197 157 129 235 69 190 100 38 62 50 37 124 109 43 103 94 28 33 20 26 36 24 27 40 66 55 43
shrinkage=0.1


Tree=7
num_leaves=31
num_cat=0
split_feature=1 5 1 0 5 6 7 7 7 1 7 7 0 0 6 6 6 1 2 2 5 6 5 5 6 0 2 7 5 0
split_gain=36.4073 9.55191 7.78824 7.78147 5.95955 5.6315 5.75136 3.89487 3.88009 3.89217 3.75053 9.10649 4.319 7.17807 2.79503 4.03082 3.81317 2.80258 3.06041 4.18643 2.50701 2.40598 5.72522 3.61626 2.77951 2.30451 2.10906 2.05493 1.79018 1.52257
threshold=124.50000000000001 26.450000000000003 166.50000000000003 6.5000000000000009 30.050000000000004 0.63850000000000018 40.500000000000007 24.500000000000004 29.500000000000004 114.50000000000001 54.500000000000007 41.500000000000007 3.5000000000000004 1.5000000000000002 0.73350000000000015 0.58900000000000008 0.43450000000000005 140.50000000000003 71.000000000000014 81.000000000000014 35.850000000000001 0.50250000000000006 32.850000000000001 39.050000000000004 0.14250000000000004 1.5000000000000002 71.000000000000014 35.500000000000007 34.95000000000001 2.5000000000000004
decision_type=2 2 2 2 2 2 2 2 2 2 2 2 2 2 2 2 2 2 2 2 2 2 2 2 2 2 2 2 2 2
left_child=1 -1 4 8 10 6 -5 -6 21 27 11 12 13 -2 15 16 17 20 -19 -20 -9 24 -23 25 -3 -24 -11 -10 -29 -26
right_child=2 3 -4 5 7 -7 -8 14 9 26 -12 -13 -14 -15 -16 -17 -18 18 19 -21 -22 22 23 -25 29 -27 -28 28 -30 -31
leaf_value=-0.11218491141593928 -0.13065060532871606 0.023010592557645787 0.11018450264349747 0.092537517342936748 -0.015387417620808409 0.14205222611199456 -0.073690054955517878 0.050693360645348677 -0.09533860127795718 0.12288940874196977 -0.13560383535421794 0.14197353532702711 -0.15965860286237055 0.094898683484566052 0.13631968428103289 -0.046161900269740368 0.16424746547827107 0.18912164720850111 -0.032776325576364444 0.1329578475016614 -0.085545121393552054 -0.130222488633121 0.0006068356984294741 -0.070777875401210402 -0.12769282806364476 0.14662108679525787 -0.0021645628831375744 -0.054610813090871457 0.046227305768262644 -0.060738202947583114
leaf_weight=17.763259813189507 2.5341702103614789 1.8497399687767089 17.936114057898521 3.6036832332611066 6.1738112717866889 3.8633681237697592 4.9275185167789459 3.39115434885026 4.4837578833103198 2.7030956745147696 2.3993075191974631 3.313177451491355 2.6424615681171417 3.1835502088069916 5.4929035305976859 3.2512760907411566 3.7666690647602072 2.1934685558080655 3.0013329684734344 3.096648246049881 2.2447839975357056 3.9000963270664197 2.0574842393398285 2.6610945910215378 10.770168915390967 2.2772970348596573 2.6914721876382828 3.881652757525444 3.2218121737241745 4.960743084549903
leaf_count=116 15 10 76 16 27 16 23 14 23 11 13 14 12 15 23 14 16 9 13 13 10 23 10 13 65 10 12 19 14 26
internal_value=0 -0.0480434 0.0541757 -0.0283493 0.0326573 0.0418866 -0.00347351 0.0561276 -0.0474996 -0.00966705 -0.0217329 0.00167181 -0.0539304 -0.00506778 0.0728276 0.0561769 0.0749816 0.0508395 0.0878234 0.051386 -0.00357018 -0.0700608 -0.0331387 0.020984 -0.092944 0.0773161 0.0604971 -0.0423328 -0.00887518 -0.106579
internal_weight=0 75.6162 64.6208 57.853 46.6847 12.3946 8.5312 32.612 45.4584 16.9818 14.0727 11.6734 8.36018 5.71772 26.4382 20.9453 17.6941 13.9274 8.29145 6.09798 5.63594 28.4766 10.896 6.99588 17.5807 4.33478 5.39457 11.5872 7.10346 15.7309
internal_count=691 407 284 291 208 55 39 139 236 79 69 56 42 30 112 89 75 59 35 26 24 157 56 33 101 20 23 56 33 91
shrinkage=0.1


Tree=8
num_leaves=31
num_cat=0
split_feature=1 5 5 7 4 4 1 7 7 4 5 5 7 3 0 2 1 0 0 3 3 1 2 1 1 1 5 0 4 0
split_gain=30.4565 8.69545 6.59773 6.53219 4.03386 4.58248 3.8409 3.49908 4.79954 3.1927 2.99591 3.5474 3.01915 2.90818 6.00361 3.21276 4.15341 3.05651 2.56095 2.42959 3.0404 3.17137 2.57742 2.26191 2.01814 2.14529 1.88183 1.80795 1.70455 1.64492
threshold=124.50000000000001 26.450000000000003 29.950000000000003 28.500000000000004 147.00000000000003 41.500000000000007 157.50000000000003 26.500000000000004 56.500000000000007 24.000000000000004 41.900000000000006 39.95000000000001 24.500000000000004 21.500000000000004 4.5000000000000009 83.000000000000014 94.500000000000014 7.5000000000000009 5.5000000000000009 9.0000000000000018 29.500000000000004 113.50000000000001 67.000000000000014 142.50000000000003 148.50000000000003 142.50000000000003 37.250000000000007 1.5000000000000002 90.500000000000014 3.5000000000000004
decision_type=2 2 2 2 2 2 2 2 2 2 2 2 2 2 2 2 2 2 2 2 2 2 2 2 2 2 2 2 2 2
left_child=1 -1 7 19 5 13 10 -2 9 18 11 12 -4 15 -15 16 -5 -18 -9 -3 -21 22 -22 -12 25 26 29 -24 -7 -14
right_child=2 3 6 4 -6 28 -8 8 -10 -11 23 -13 24 14 -16 -17 17 -19 -20 20 21 -23 27 -25 -26 -27 -28 -29 -30 -31
leaf_value=-0.10886795805314359 -0.08660188059814973 0.01561923732809508 -0.043950628670960314 -0.12998772390940752 0.081348844982346513 -0.13507541800687889 0.10164230421634723 -0.07409059737162782 -0.10025948694229303 0.1197055170516282 0.18604109337623714 -0.078347630716566752 0.1277152485355523 -0.090361958526288436 0.10679425842952645 -0.1358279399882861 0.073359455470776408 -0.059004222435174815 0.067189581363764531 -0.11688009524513482 0.054230981988927729 -0.13549916305187062 -0.12344155245965754 0.051120905817967854 -0.020497821424359131 0.14101516977862422 -0.03102518008007718 -0.0048448542542641896 -0.021718348118916087 0.036262756617041862
leaf_weight=16.537383556365967 4.0314392000436774 3.2689053267240551 3.3067457675933936 1.937512949109087 5.5385234355926505 3.5180305093526831 20.007760360836983 2.38322566449642 2.5529184490442267 4.1585178375244141 2.3330726623535147 2.7280334532260886 3.3646616488695162 2.0798686295747739 6.0004535764455795 2.0400524884462348 5.692158102989195 2.5155522525310516 2.7793061882257462 10.106622979044916 3.5002580434083921 2.7399450093507758 2.2826995253562927 2.6584210246801376 2.5813920497894278 3.7008590549230567 2.1480050235986701 2.9421836137771606 2.129443347454071 4.7339532077312469
leaf_count=116 23 18 15 11 23 19 87 11 14 18 10 12 14 11 26 11 24 11 12 64 18 15 15 11 11 16 10 15 10 20
internal_value=0 -0.0451176 0.0496484 -0.0263891 0.00388452 -0.0126723 0.0682932 -0.00610617 0.0212237 0.0544964 0.0440784 0.0285698 0.0432743 0.00952695 0.0560464 -0.0213211 0.0017045 0.0327918 0.00196915 -0.0647197 -0.076894 -0.0416458 -0.0121731 0.114184 0.0607245 0.075757 0.0521872 -0.0566586 -0.0923329 0.0742577
internal_weight=0 72.8296 63.4683 56.2922 31.4516 25.9131 47.5629 15.9054 11.874 9.32105 27.5551 22.5637 19.8356 20.2656 8.08032 12.1853 10.1452 8.20771 5.16253 24.8406 21.5717 11.4651 8.72514 4.99149 16.5289 13.9475 10.2466 5.22488 5.64747 8.09861
internal_count=691 407 284 291 146 123 206 78 55 41 119 98 86 94 37 57 46 35 23 145 127 63 48 21 71 60 44 30 29 34
shrinkage=0.1


Tree=9
num_leaves=31
num_cat=0
split_feature=5 7 6 7 5 6 2 2 5 7 6 6 3 5 6 4 6 6 7 7 5 0 2 6 5 2 2 6 5 5
split_gain=14.8657 7.30389 4.62754 4.55316 3.23223 4.53088 4.09339 3.64107 3.48663 3.17434 3.07942 3.48253 5.96758 3.03434 5.08047 2.61232 3.31628 3.04586 2.35885 2.65784 2.58337 2.6397 1.76081 1.48932 3.40624 2.01944 2.41326 1.82449 1.57669 1.80225
threshold=27.850000000000005 30.500000000000004 1.1780000000000002 26.500000000000004 41.900000000000006 0.49850000000000005 85.500000000000014 53.000000000000007 31.750000000000004 24.500000000000004 0.21100000000000002 0.18950000000000003 29.500000000000004 40.95000000000001 0.83950000000000014 126.50000000000001 0.5465000000000001 0.75250000000000006 55.500000000000007 48.500000000000007 26.250000000000004 7.5000000000000009 73.000000000000014 0.74250000000000005 36.650000000000013 84.500000000000014 89.000000000000014 0.68950000000000011 29.750000000000004 34.050000000000004
decision_type=2 2 2 2 2 2 2 2 2 2 2 2 2 2 2 2 2 2 2 2 2 2 2 2 2 2 2 2 2 2
left_child=3 2 4 -1 5 7 -6 -2 9 -9 11 12 -3 23 -15 16 -7 -18 19 20 21 -5 -17 25 -25 27 -27 28 -12 -30
right_child=1 10 -4 18 6 15 -8 8 -10 -11 13 -13 -14 14 -16 22 17 -19 -20 -21 -22 -23 -24 24 -26 26 -28 -29 29 -31
leaf_value=-0.1061962159011824 0.053689173084576353 0.104823182445857 0.13061837060625076 -0.10857076811082167 -0.017511938606807047 0.089269011727904107 0.13355280077605125 -0.093378823473272865 -0.10339458182263422 0.042893121323737342 0.12389622686555864 -0.10436076677981898 -0.10021650287759054 0.18186740325186782 -0.0095794727491290838 0.10630004628646204 -0.11783379732013861 0.017128464455396435 -0.10374875372585589 0.083227734484951257 0.022711690913357119 0.021009083975848108 -0.0093927699914222347 0.1222672554605768 -0.015557506796886045 -0.11010212373264693 0.027384394070231761 -0.038270917775838457 0.011279498966522302 0.071941766973212862
leaf_weight=13.025427207350733 2.5692326724529293 3.9366071820259076 2.1937433928251258 5.1161072701215762 4.5854782015085211 2.0802193731069547 2.946225717663765 3.0003445446491268 12.99433822929859 3.9728380590677261 2.8002130836248496 2.7560014873743057 2.2199131399393082 4.1627416908740988 2.0781304538249969 3.732721969485282 3.6037909537553787 3.1198000907897949 3.4476015716791144 2.4513641744852057 5.3069448173046112 2.2694738805294037 2.0314817577600479 5.866977855563162 2.5824636369943619 1.9883437007665623 3.566992923617363 2.3865885138511649 9.1641740202903765 10.519264593720434
leaf_count=96 12 17 10 36 22 10 13 20 75 19 13 13 11 18 10 17 20 16 21 11 25 13 10 26 11 10 17 10 42 47
internal_value=0 0.0177271 -0.0111776 -0.0608587 -0.0181465 -0.0302702 0.041581 -0.0583653 -0.0727835 -0.0157405 0.0427808 -0.0109332 0.0308901 0.0533919 0.118118 0.013193 -0.0210718 -0.0552102 -0.0290947 -0.0120992 -0.0305101 -0.0687529 0.0655264 0.0430009 0.0801429 0.0326863 -0.0218242 0.0448625 0.0536869 0.0436988
internal_weight=0 100.859 46.8302 31.6169 44.6365 37.1048 7.5317 22.5368 19.9675 6.97318 54.0284 8.91252 6.15652 45.1159 6.24087 14.568 8.80381 6.72359 18.5915 15.1439 12.6925 7.38558 5.7642 38.875 8.44944 30.4256 5.55534 24.8702 22.4837 19.6834
internal_count=691 489 244 202 234 199 35 126 114 39 245 41 28 204 28 73 46 36 106 85 74 49 27 176 37 139 27 112 102 89
shrinkage=0.1


Tree=10
num_leaves=31
num_cat=0
split_feature=1 1 1 0 6 7 1 3 3 0 2 7 1 1 6 7 0 6 2 2 6 6 4 1 3 1 1 3 4 7
split_gain=23.493 6.21729 5.79347 4.6196 3.98919 3.85605 4.70934 3.52731 4.20482 3.4719 3.15682 2.70671 2.30237 2.75761 1.96992 1.69631 1.65303 4.05457 2.49772 3.10523 2.01234 1.63831 3.62307 3.62708 3.35146 3.05615 4.08921 3.84246 1.60443 1.40534
threshold=124.50000000000001 99.500000000000014 165.50000000000003 6.5000000000000009 0.23850000000000002 33.500000000000007 114.50000000000001 30.500000000000004 32.500000000000007 7.5000000000000009 54.500000000000007 24.500000000000004 130.50000000000003 138.50000000000003 0.25350000000000006 57.500000000000007 3.5000000000000004 0.31600000000000006 74.500000000000014 83.000000000000014 0.56050000000000011 0.50950000000000017 41.500000000000007 114.50000000000001 12.500000000000002 119.50000000000001 103.50000000000001 28.500000000000004 131.00000000000003 35.500000000000007
decision_type=2 2 2 2 2 2 2 2 2 2 2 2 2 2 2 2 2 2 2 2 2 2 2 2 2 2 2 2 2 2
left_child=1 7 9 21 -5 -6 -7 -1 -9 10 -2 12 -12 -14 -11 -4 17 -13 28 -20 -19 22 23 29 -23 26 -26 -28 -18 -3
right_child=2 3 15 4 5 6 -8 8 -10 14 11 16 13 -15 -16 -17 18 20 19 -21 -22 24 -24 -25 25 -27 27 -29 -30 -31
leaf_value=-0.10161037477249507 0.097994317400265485 -0.1011625236519185 0.10457825555245968 -0.076021632908111147 0.18463280075109614 0.098009878331479922 -0.088166517551508894 0.066463636315872793 -0.087421187454745683 0.0043018376544716247 -0.13733170431641101 -0.052934708081315278 0.075439027709222048 -0.072717593817571244 0.10674185033942125 0.010536939174574961 -0.012661337632936896 0.13798247669137956 0.080424437028333171 -0.039543530041155482 0.027777641533003689 -0.10691907624420185 -0.10495006397864987 0.048571946412767061 -0.079737471532560875 -0.086303727284436749 -0.017266760006823482 0.15529672916427689 -0.12613722198979035 -0.0008112428673252523
leaf_weight=19.275762222707275 3.6394041255116454 4.1378317624330574 15.20338872075081 2.2987175956368437 2.2464506179094297 3.7535939067602158 2.1294369548559189 3.1750801876187316 4.0286311954259872 2.5931541472673398 2.2451459467411068 2.7931694537401217 2.0213430672883987 3.3192548602819443 6.7990199998021126 2.1950098574161521 2.89847607910633 3.8311628252267838 4.8210663571953756 3.9052928388118744 2.9195851534605026 2.666469879448413 8.2175477817654592 4.7592267245054245 1.8258476182818393 2.107952818274498 2.0254785194993019 3.555364653468132 2.1854678243398666 2.1056788712739944
leaf_count=133 17 29 69 12 11 17 11 17 23 12 13 14 10 16 31 10 13 16 21 18 14 16 55 25 11 10 11 16 10 10
internal_value=0 -0.04138 0.0438686 -0.0173766 0.0402908 0.0731797 0.030621 -0.0792983 -0.0195955 0.0245417 0.00989732 -0.000465347 -0.0523627 -0.0166423 0.0784584 0.0927139 0.0163916 0.0483949 -0.00572507 0.0267354 0.0903207 -0.0365275 -0.0547114 -0.01719 -0.00783558 0.0199325 0.0501674 0.0926675 -0.0614419 -0.0673182
internal_weight=0 68.3091 61.3699 41.8296 10.4282 8.12948 5.88303 26.4795 7.20371 43.9715 34.5794 30.94 7.58574 5.3406 9.39217 17.3984 23.3542 9.54392 13.8103 8.72636 6.75075 31.4014 19.2203 11.0027 12.1811 9.51464 7.40669 5.58084 5.08394 6.24351
internal_count=691 407 284 234 51 39 28 173 40 205 162 145 39 26 43 79 106 44 62 39 30 183 119 64 64 48 38 27 23 39
shrinkage=0.1


Tree=11
num_leaves=31
num_cat=0
split_feature=1 7 5 7 5 1 5 6 6 5 6 3 0 2 6 1 0 0 5 6 5 3 1 6 2 1 6 6 6 6
split_gain=19.6802 6.46841 5.10532 3.97933 3.56278 3.51836 2.60843 2.60072 2.58615 2.54617 3.16155 4.13272 3.09605 2.61879 2.51984 2.971 2.19235 5.09526 7.3477 2.11875 2.36495 2.07573 2.21661 2.43622 2.35216 2.01314 1.86037 2.60243 2.42733 1.81147
threshold=127.50000000000001 28.500000000000004 29.950000000000003 56.500000000000007 30.950000000000003 94.500000000000014 23.150000000000002 0.31350000000000006 0.72600000000000009 26.450000000000003 0.52750000000000019 27.500000000000004 6.5000000000000009 81.000000000000014 1.0740000000000001 165.50000000000003 1.5000000000000002 3.5000000000000004 25.950000000000003 0.73350000000000015 34.150000000000013 10.500000000000002 113.50000000000001 0.50250000000000006 67.000000000000014 146.50000000000003 0.15850000000000003 0.20350000000000004 0.25850000000000006 0.28100000000000008
decision_type=2 2 2 2 2 2 2 2 2 2 2 2 2 2 2 2 2 2 2 2 2 2 2 2 2 2 2 2 2 2
left_child=1 4 6 5 -1 8 -2 26 -3 -7 11 13 -12 -11 15 19 -8 -18 -19 20 -9 -6 23 -23 -25 -22 -4 -28 -29 -13
right_child=2 3 7 -5 21 9 16 14 -10 10 12 29 -14 -15 -16 -17 17 18 -20 -21 25 22 -24 24 -26 -27 27 28 -30 -31
leaf_value=-0.10318689951847407 -0.13257157605552605 -0.093764519403019053 0.10281216142932439 -0.13481453734054394 0.045533079386380598 -0.063643130148206981 -0.075462483519313867 -0.023561598444147226 0.043375884627253732 0.06590086223139946 0.033029047356507482 -0.018214181371132759 0.16079037339362301 -0.057085283732332598 0.0080749975503359266 0.1405256592492955 0.15253859740818332 0.13558473470935825 -0.083598621089961175 0.13377461951999625 0.1111032092221827 -0.07258259989408973 -0.1128040733257735 0.083345527752417936 -0.052618843072303627 0.016223534888602412 -0.087365310263216825 0.08550391233747949 -0.023370971837251352 -0.13131362268546518
leaf_weight=15.472657360136507 1.5271403938531865 5.6476324647665015 2.4248255342245093 2.3100184649229041 2.5736942738294628 3.4449897259473827 2.5920092016458502 3.4664684832096198 1.8176085650920866 8.2914960235357338 5.3279484957456571 3.4455267339944831 2.9452548325061798 2.1883099377155295 4.3908186405897132 7.9543093740940085 2.4512038975954038 2.2307030409574509 4.8652580082416534 3.6030962765216819 5.5955256521701795 5.7147512510418874 4.2543220967054358 2.8332902789115906 2.3095597773790359 3.7250085771083832 2.3393701612949362 4.1840142458677274 4.010602667927742 2.4043912887573242
leaf_count=132 9 36 11 14 13 25 16 15 9 36 23 18 13 12 20 39 11 10 23 17 25 39 26 13 12 16 10 19 18 11
internal_value=0 -0.0359008 0.0436448 -0.00763621 -0.0681419 0.000636335 -0.00939765 0.0610308 -0.0603741 0.0168749 0.0281493 0.00263383 0.078512 0.0402199 0.0778028 0.0903791 0.00609796 0.0282412 -0.0146956 0.0660424 0.0469569 -0.037482 -0.0516202 -0.0276466 0.0222864 0.073184 0.0238401 0.00566149 0.0322185 -0.0646995
internal_weight=0 70.9815 55.3604 37.8232 33.1583 35.5132 13.6663 41.694 7.46524 28.0479 24.6029 16.3297 8.2732 10.4798 28.7352 24.3444 12.1392 9.54716 7.09596 16.3901 12.787 17.6856 15.1119 10.8576 5.14285 9.32053 12.9588 10.534 8.19462 5.84992
internal_count=691 432 259 197 235 183 69 190 45 138 113 77 36 48 132 112 60 44 33 73 56 103 90 64 25 41 58 47 37 29
shrinkage=0.1


Tree=12
num_leaves=31
num_cat=0
split_feature=1 1 0 5 6 0 5 0 5 5 6 4 6 5 2 1 6 4 1 2 2 2 3 5 4 3 5 3 6 3
split_gain=17.1071 6.85806 3.99787 4.64771 3.56822 4.41175 2.46402 2.15659 2.13324 2.66949 4.34942 1.83126 1.72878 1.70669 2.63905 2.90074 2.23791 2.69717 1.80114 2.21458 3.04508 2.81184 4.96899 1.92711 2.45069 1.70781 1.60608 1.60259 1.45013 1.41133
threshold=106.50000000000001 165.50000000000003 7.5000000000000009 26.250000000000004 0.66050000000000009 1.5000000000000002 38.150000000000013 11.500000000000002 27.850000000000005 30.850000000000005 0.44000000000000006 88.500000000000014 0.93250000000000011 45.350000000000001 81.000000000000014 141.50000000000003 0.19300000000000003 167.50000000000003 128.50000000000003 60.500000000000007 67.000000000000014 71.000000000000014 15.500000000000002 32.850000000000001 78.500000000000014 27.500000000000004 25.700000000000006 18.500000000000004 0.23850000000000002 32.500000000000007
decision_type=2 2 2 2 2 2 2 2 2 2 2 2 2 2 2 2 2 2 2 2 2 2 2 2 2 2 2 2 2 2
left_child=4 2 3 -2 6 -6 7 -1 26 -10 -11 -7 13 14 16 25 27 18 19 -18 -21 -22 -23 24 -20 -16 -4 -5 -8 -3
right_child=1 29 8 12 5 11 28 -9 9 10 -12 -13 -14 -15 15 -17 17 -19 23 20 21 22 -24 -25 -26 -27 -28 -29 -30 -31
leaf_value=-0.094324030578827933 -0.080873525996045525 0.060595046220802577 0.062448606394962226 0.012962950124745061 -0.1280350908330847 0.0019879905764387737 -0.073138406009701937 0.025403538339012877 0.17627991068906421 -0.023367243746554075 0.12601602496267714 0.12005279935774456 0.0698665934315265 0.072708057398677015 -0.1244689018713131 0.021239126323386065 -0.074377194930468446 -0.040855944763639372 -0.033842746329713409 0.11212257869032057 -0.090820933349367597 0.15956718693755523 -0.047858619710823974 0.12288668894287064 0.10744706688669339 -0.016551455913184899 -0.067927055808310668 -0.1057641980173526 0.048029819100731015 0.12286942015356922
leaf_weight=23.122021034359939 6.6396992653608313 10.812796980142595 1.790088810026645 2.0473240837454822 1.9038068205118168 3.3282875716686249 1.6942979544401158 1.6091577410697926 2.2999370098113996 3.7782925665378571 4.0258428454399109 2.1704539060592651 4.1656568944454184 3.2233304530382147 4.2716579958796483 3.9477894455194473 2.3252551779151025 5.4036799892783156 2.7080877572298032 3.3512824028730375 2.428898423910141 2.0316004604101181 2.676251508295536 4.1008053570985794 2.2456028312444687 2.2329564988613129 2.0011661052703857 2.5566064342856407 2.3683786317706108 5.4854486584663382
leaf_count=172 51 52 11 10 13 18 10 8 11 17 19 11 19 14 25 18 14 28 13 16 12 9 15 18 10 12 10 15 13 27
internal_value=0 0.0231125 0.00955412 -0.00229124 -0.0587577 0.00316534 -0.0746774 -0.0865338 0.0575964 0.0815973 0.0536936 0.0485903 0.00820346 0.00256436 -0.0027772 -0.0463816 0.0115213 0.0224082 0.0380412 0.0139159 0.033491 -0.0034329 0.0416528 0.0721817 0.0302066 -0.0874221 -0.00636854 -0.0529674 -0.00250216 0.0815545
internal_weight=0 86.5501 70.2518 56.3565 36.1964 7.40255 28.7939 24.7312 13.8953 10.1041 7.80414 5.49874 49.7168 45.5511 42.3278 10.4524 31.8754 27.2715 21.8678 12.8133 10.488 7.13675 4.70785 9.0545 4.95369 6.50461 3.79125 4.60393 4.06268 16.2982
internal_count=691 446 367 299 245 42 203 180 68 47 36 29 248 229 215 55 160 135 107 66 52 36 24 41 23 37 21 25 23 79
shrinkage=0.1


Tree=13
num_leaves=31
num_cat=0
split_feature=1 1 7 6 6 6 7 7 2 6 6 6 3 6 6 6 0 1 2 7 4 0 0 4 1 3 1 6 0 7
split_gain=14.4458 5.85491 3.77576 2.82009 2.75186 2.46402 2.22595 4.53111 2.60085 2.30995 1.98318 3.63986 1.90367 2.9343 1.73927 2.92146 3.40662 4.28343 2.61522 1.72767 2.48976 1.58241 1.41676 1.41525 1.89433 1.9135 1.33276 1.24041 3.10885 1.26727
threshold=106.50000000000001 154.50000000000003 25.500000000000004 0.19300000000000003 0.14150000000000001 0.70700000000000018 56.500000000000007 41.500000000000007 1.0000000180025095e-35 0.20550000000000004 0.52750000000000019 0.5525000000000001 23.500000000000004 0.23150000000000001 0.38150000000000006 0.31600000000000006 4.5000000000000009 120.50000000000001 65.500000000000014 53.500000000000007 365.00000000000006 6.5000000000000009 4.5000000000000009 195.00000000000003 138.50000000000003 28.500000000000004 136.50000000000003 0.34250000000000008 3.5000000000000004 36.500000000000007
decision_type=2 2 2 2 2 2 2 2 2 2 2 2 2 2 2 2 2 2 2 2 2 2 2 2 2 2 2 2 2 2
left_child=2 3 -1 4 -2 12 7 8 -5 -10 14 -12 -4 -14 15 16 -11 -18 -16 20 27 -15 -7 24 25 -13 -8 28 -3 -29
right_child=1 19 5 6 -6 22 26 -9 9 10 11 23 13 21 18 -17 17 -19 -20 -21 -22 -23 -24 -25 -26 -27 -28 29 -30 -31
leaf_value=-0.097799359457714577 0.026724102380320414 -0.023345110625073502 -0.079013013670172494 0.11601328114813908 -0.095452356288064324 -0.01970180029702822 -0.12464046740127351 0.078656962102878772 0.12425889701102617 -0.089398160162602491 0.13482349287508089 -0.0041023738907835184 -0.1273381856965313 -0.018963829365578611 0.0035874240346072889 0.063184021825180361 0.13910291873944772 -0.064176900780823332 -0.12522796306429296 -0.0017389465859304961 -0.010367830207253369 0.083792376096381835 0.091550209123858819 -0.066880180355064753 -0.058007445617351099 0.090741094276928308 0.0012814317608101802 0.14153473027214869 0.11008474110625639 0.06720982233072248
leaf_weight=13.044990241527556 2.9127466827630988 2.8399270772934058 8.9531254246830994 1.9531332477927197 5.0221769884228706 2.3098067119717589 1.7840792238712304 10.039533719420431 1.3888088613748539 5.5134285315871256 2.3200880587101009 4.8202305063605291 1.7447087690234164 4.072031557559967 2.7271752282977095 4.0658525228500357 1.938730403780937 2.2276197597384453 3.733935609459877 3.433397263288497 2.9153603315353385 2.3714325129985809 2.2692356705665588 2.6072557047009459 2.7160893380641928 3.807528629899025 1.5892670154571531 5.9958953857421857 4.5341193825006485 3.7156704366207123
leaf_count=111 17 13 65 10 29 14 13 48 8 36 10 28 11 23 17 19 10 11 23 17 14 11 10 13 13 18 9 30 21 19
internal_value=0 0.0212937 -0.0552747 0.00501063 -0.0506039 -0.0297349 0.0133006 0.0186195 0.00348267 -0.00232155 -0.0071408 0.0188431 -0.0471432 -0.012296 -0.028064 -0.00794959 -0.0378282 0.0304154 -0.0708562 0.0637952 0.0750448 0.0188542 0.0354313 -0.000444568 0.0148249 0.0377531 -0.0653155 0.089619 0.0586976 0.113098
internal_weight=0 84.602 34.7653 61.1677 7.93492 21.7203 53.2328 49.8594 39.8199 37.8667 36.4779 16.2712 17.1413 8.18817 20.2067 13.7456 9.67978 4.16635 6.46111 23.4344 20.001 6.44346 4.57904 13.9511 11.3438 8.62776 3.37335 17.0856 7.37405 9.71157
internal_count=691 446 245 332 46 134 286 264 216 206 198 82 110 45 116 76 57 21 40 114 97 34 24 72 59 46 22 83 34 49
shrinkage=0.1


Tree=14
num_leaves=31
num_cat=0
split_feature=1 5 0 7 1 6 5 7 6 4 7 5 5 5 3 5 6 3 1 6 3 0 3 5 3 5 7 6 6 6
split_gain=12.5967 5.29729 3.5419 3.4484 3.38155 2.56381 2.40559 2.36337 2.34665 2.78086 2.75557 2.17595 2.15187 2.15361 2.09243 2.03925 2.57355 2.47888 2.21438 1.80376 1.71914 1.29163 1.29095 1.25344 1.15171 1.4229 2.75984 1.14142 1.87307 2.24871
threshold=123.50000000000001 26.450000000000003 6.5000000000000009 38.500000000000007 166.50000000000003 0.66050000000000009 45.350000000000001 29.500000000000004 0.31600000000000006 288.00000000000006 27.500000000000004 41.400000000000006 30.950000000000003 34.350000000000001 30.500000000000004 39.750000000000007 0.72850000000000004 25.500000000000004 137.50000000000003 0.50250000000000006 24.500000000000004 1.5000000000000002 32.500000000000007 32.850000000000001 32.500000000000007 29.650000000000002 41.500000000000007 0.26850000000000002 0.21600000000000003 0.24050000000000002
decision_type=2 2 2 2 2 2 2 2 2 2 2 2 2 2 2 2 2 2 2 2 2 2 2 2 2 2 2 2 2 2
left_child=1 -1 6 -4 8 20 7 12 10 11 23 15 -3 14 -14 16 17 -10 -19 -15 -5 -21 -6 -2 25 -9 -27 28 -12 -30
right_child=4 2 3 5 22 -7 -8 24 9 -11 27 -13 13 19 -16 -17 -18 18 -20 21 -22 -23 -24 -25 -26 26 -28 -29 29 -31
leaf_value=-0.095547419740647788 -0.13369973688045741 -0.11531950498486195 0.10857638389331455 -0.10927121983806065 0.05196186726253188 0.082125744639359677 0.091051367981673736 -0.049259313714147469 0.071259897471169689 -0.060176497865733647 -0.013304117427923007 0.11319735368171642 -0.037599037832757122 -0.10445127276063947 0.096479569336663046 -0.063487784624547836 0.10304911850759457 -0.093129927016172342 0.022226217568618627 -0.083125751104019152 0.011133056830018858 0.023458953954046527 0.11439839399291914 -0.025704932510063547 -0.06189100814449186 0.086248393878908813 -0.033720343230336756 -0.053396349814634939 0.14827667223660704 0.010932112415488748
leaf_weight=11.263693645596502 2.1794147118926075 5.3496597185730961 3.7629764676094037 2.4573302194476128 9.7350734323263151 2.0728423744440079 1.4745157957077015 3.1046239882707578 5.3625884130597239 2.6863496601581565 5.6112519800662977 4.1255530565977088 3.1181501299142829 5.8413644134998304 1.8571991324424741 1.958735555410384 5.2235549315810195 2.5644006729125977 4.7396958619356155 1.9537458419799802 2.2918088436126709 2.7196552753448486 5.0188003033399573 2.120315358042717 3.0246478393673888 4.1570850163698196 3.5594164729118347 2.1904574334621421 2.1360253840684891 2.6975821405649185
leaf_count=114 14 50 18 14 49 10 7 17 28 14 27 19 20 46 10 9 27 14 22 11 11 13 27 11 16 22 18 10 10 13
internal_value=0 -0.0339861 -0.0191523 0.0317246 0.0318191 -0.0106665 -0.0340452 -0.0393632 0.0178146 0.0363054 -0.0112956 0.0471162 -0.0606399 -0.0417558 0.0124498 0.0333814 0.0439873 0.0196311 -0.0182743 -0.0674047 -0.0511673 -0.0210995 0.0732008 -0.0804445 -0.00733892 0.00790911 0.03091 0.0122354 0.0259994 0.0716262
internal_weight=0 58.0087 46.745 10.585 58.3498 6.82198 36.1601 34.6855 43.5959 26.6609 16.935 23.9745 20.8398 15.4901 4.97535 19.849 17.8902 12.6667 7.3041 10.5148 4.74914 4.6734 14.7539 4.29973 13.8458 10.8211 7.7165 12.6353 10.4449 4.83361
internal_count=691 397 283 53 294 35 230 223 218 133 85 119 150 100 30 100 91 64 36 70 25 24 76 25 73 57 40 60 50 23
shrinkage=0.1


Tree=15
num_leaves=31
num_cat=0
split_feature=1 1 5 0 5 0 5 6 5 5 6 6 0 2 0 6 5 4 6 6 4 6 5 6 2 1 4 6 6 3
split_gain=10.8627 4.28953 3.41094 2.99094 3.20315 2.21113 3.64414 2.73773 1.6539 2.08354 3.5098 1.45505 1.44305 1.40048 2.55679 1.26911 2.44048 1.92192 1.25378 1.58699 1.4051 1.82965 1.78819 1.95751 1.981 2.35526 1.71003 2.15071 1.60937 1.60096
threshold=106.50000000000001 165.50000000000003 28.950000000000003 7.5000000000000009 26.250000000000004 1.5000000000000002 37.850000000000001 0.70700000000000018 27.850000000000005 30.850000000000005 0.44000000000000006 0.40750000000000003 11.500000000000002 63.000000000000007 2.5000000000000004 1.1490000000000002 35.45000000000001 141.00000000000003 0.11950000000000001 0.12850000000000003 252.50000000000003 0.35000000000000003 45.350000000000001 0.93250000000000011 81.000000000000014 141.50000000000003 167.50000000000003 0.19300000000000003 0.70700000000000018 27.500000000000004
decision_type=2 2 2 2 2 2 2 2 2 2 2 2 2 2 2 2 2 2 2 2 2 2 2 2 2 2 2 2 2 2
left_child=2 3 -1 4 13 -4 7 12 11 -10 -11 -5 -7 14 -2 16 17 -3 -6 -20 22 -22 23 24 26 29 27 -21 -29 -26
right_child=1 15 5 8 18 6 -8 -9 9 10 -12 -13 -14 -15 -16 -17 -18 -19 19 20 21 -23 -24 -25 25 -27 -28 28 -30 -31
leaf_value=-0.10054803656321575 -0.11711302668930096 0.0014218141092897851 -0.080173361062795892 0.046679050751413272 -0.12174123103435125 -0.071792590018039656 0.078008101218438736 0.063313271773755689 0.16023418886365184 -0.021826577880872652 0.11594029937487114 -0.081222904191614542 0.035018684150442562 -0.11875483067747575 0.075488820766208178 -0.0047200844339661385 0.13094993119418086 0.10534304492859553 0.14386982206094051 -0.069057989820003648 0.011127596582261872 -0.12090615055532478 0.094607457267043116 0.076122072430492266 -0.11902538911671999 0.031727926033081243 -0.052111795868693217 0.043343946065248613 -0.036267908561311839 -0.0097794892505186845
leaf_weight=9.4838706701993924 1.3785537481307977 4.541616737842558 6.1703717708587673 2.1252539455890651 0.75969604402780433 9.0288957655429858 3.6603446006774893 2.3148533403873435 2.0994571149349195 3.6823483109474182 3.714754194021225 1.5296383723616598 1.4709394872188557 3.1037900522351265 1.378429554402828 2.1137724071741095 5.2838882058858871 2.9262566715478897 0.84126937389373679 2.3369259908795419 2.2789492830634108 1.9455101341009138 2.4019224196672431 3.586311310529708 3.7074155136942846 2.8319066762924194 3.6025677472352973 17.964629888534549 2.9572075232863417 2.10198575258255
leaf_count=101 13 22 47 11 6 61 18 11 11 17 19 10 7 27 11 11 30 16 4 13 12 10 11 17 23 13 20 92 15 12
internal_value=0 0.0184939 -0.0501998 0.00761252 -0.00294784 -0.029114 -0.00999087 -0.0351266 0.0503127 0.0723127 0.0473586 -0.00685022 -0.0568292 -0.0726834 -0.0208164 0.0670454 0.0789415 0.0421429 0.00568987 0.00776925 0.00526468 -0.0496785 0.0108588 0.00571265 -0.00139978 -0.043047 0.0119982 0.0219282 0.0320912 -0.0794975
internal_weight=0 81.1941 32.1293 66.3285 53.1771 22.6454 16.475 12.8147 13.1515 9.49656 7.3971 3.65489 10.4998 5.86077 2.75698 14.8655 12.7518 7.46787 47.3163 46.5566 45.7153 4.22446 41.4909 39.089 35.5026 8.64131 26.8613 23.2588 20.9218 5.8094
internal_count=691 446 245 367 299 144 97 79 68 47 36 21 68 51 24 79 68 38 248 242 238 22 216 205 188 48 140 120 107 35
shrinkage=0.1


Tree=16
num_leaves=31
num_cat=0
split_feature=5 7 0 3 5 6 6 6 6 3 7 0 5 6 6 4 3 3 3 6 2 4 5 7 7 5 6 5 6 5
split_gain=5.90074 3.43868 3.19201 2.85219 4.10131 2.1468 2.25611 3.98598 2.19341 4.01234 2.38123 1.69522 3.17459 2.24847 2.00077 1.7939 1.57994 1.53139 1.42357 1.39881 2.38215 1.39489 1.3614 1.33709 1.68876 1.44729 2.52782 1.61745 1.67096 1.9164
threshold=26.250000000000004 24.500000000000004 2.5000000000000004 9.0000000000000018 33.400000000000006 0.20050000000000004 1.3925000000000003 1.2020000000000002 0.18150000000000002 29.500000000000004 30.500000000000004 6.5000000000000009 40.650000000000013 0.23550000000000001 0.42250000000000004 273.00000000000006 34.500000000000007 16.500000000000004 23.500000000000004 0.22950000000000001 69.000000000000014 131.00000000000003 36.150000000000013 53.500000000000007 45.500000000000007 30.950000000000003 0.39700000000000008 33.150000000000013 0.28450000000000003 34.250000000000007
decision_type=2 2 2 2 2 2 2 2 2 2 2 2 2 2 2 2 2 2 2 2 2 2 2 2 2 2 2 2 2 2
left_child=2 3 -1 -2 -5 8 7 11 9 10 -3 13 14 -7 18 23 -6 19 -13 -4 -21 -19 -18 24 25 26 -15 -27 -29 -30
right_child=1 5 17 4 16 6 -8 -9 -10 -11 -12 12 -14 15 -16 -17 22 21 -20 20 -22 -23 -24 -25 -26 27 -28 28 29 -31
leaf_value=-0.10766409506146657 0.056665364898988137 -0.045147786409128011 -0.047191171698087717 -0.11251737474199081 -0.053313798852593554 0.094460431725904681 -0.088196091393148851 0.16358075769948849 -0.099429478103690738 -0.10294627313568455 0.097601303331526612 -0.04439500869813566 0.14509284302931635 0.023750106937949666 0.064624423276526011 0.091395183238228928 0.12320247703297325 -0.11408681438360641 0.037131795536076886 0.16414731826416182 -0.011480354976265608 0.028129467360969759 0.0018171580987487905 -0.073435566502371361 0.078001531563087534 0.058385089055636788 -0.088620809995238248 -0.062218171068449929 -0.064975426824273208 0.02963681598513886
leaf_weight=7.0538268759846678 3.0946795120835331 1.7213951498270015 2.1261690482497198 6.0341701060533515 3.9394830390810949 3.0326834246516219 1.7314229905605305 2.0821783989667884 2.8281357660889626 2.4394603744149208 3.638699397444725 4.2730100452899986 2.8255782127380362 3.6184152066707629 8.6623571738600713 2.2675819694995871 1.2197541967034338 2.2759846597909932 4.2942287772893906 1.2679156213998797 1.9757230058312414 0.98951021581888188 3.8100606501102448 2.3377020061016074 2.8813951760530463 5.4424012601375606 4.4809650108218193 3.8522447347641018 2.6291844546794882 11.5272084698081
leaf_count=78 16 10 18 55 27 16 10 10 16 15 17 23 15 21 47 12 7 23 21 10 15 6 22 13 14 28 27 23 15 61
internal_value=0 0.00845723 -0.0577574 -0.0307444 -0.0487739 0.0177234 0.0244458 0.0274834 -0.0239853 0.00337087 0.0517574 0.0229219 0.0468469 0.0115166 0.030735 0.00507294 -0.00588994 -0.0169906 -0.00353065 0.0158491 0.0571713 -0.0709924 0.0312537 -0.000250572 0.00471823 -0.0019745 -0.0384189 0.0106124 -0.00382496 0.012065
internal_weight=0 94.6644 15.6891 18.0981 15.0035 76.5662 65.9386 64.2071 10.6277 7.79955 5.36009 62.125 20.0552 42.0698 17.2296 39.0371 8.9693 8.6353 8.56724 5.36981 3.24364 3.26549 5.02981 36.7695 34.4318 31.5504 8.09938 23.451 18.0086 14.1564
internal_count=691 541 150 127 111 414 356 346 58 42 27 336 106 230 91 214 56 72 44 43 25 29 29 202 189 175 48 127 99 76
shrinkage=0.1


Tree=17
num_leaves=31
num_cat=0
split_feature=1 1 7 5 5 0 2 0 6 0 2 4 4 6 6 7 1 5 5 6 7 4 0 1 2 5 1 5 2 2
split_gain=8.82188 4.11444 3.23396 2.59326 2.10407 1.82255 2.33775 1.66103 1.81936 2.45115 1.67372 1.36858 1.78435 3.99393 1.34764 1.22505 1.39001 1.1614 1.84784 3.26875 1.68095 1.94371 1.55768 2.19609 2.97322 1.78848 1.55258 1.80187 1.40518 2.15439
threshold=101.50000000000001 165.50000000000003 25.500000000000004 26.250000000000004 27.550000000000004 2.5000000000000004 63.000000000000007 6.5000000000000009 0.43450000000000005 8.5000000000000018 77.000000000000014 87.500000000000014 41.500000000000007 0.29450000000000004 0.26150000000000007 57.500000000000007 173.50000000000003 45.350000000000001 38.050000000000004 0.93250000000000011 24.500000000000004 81.500000000000014 3.5000000000000004 120.50000000000001 73.000000000000014 31.250000000000004 129.50000000000003 39.45000000000001 67.000000000000014 75.500000000000014
decision_type=2 2 2 2 2 2 2 2 2 2 2 2 2 2 2 2 2 2 2 2 2 2 2 2 2 2 2 2 2 2
left_child=2 3 -1 5 -4 -2 -7 17 9 14 -11 12 13 -6 -9 16 -3 18 19 20 21 -5 23 25 -25 -22 27 -20 -24 -30
right_child=1 15 4 7 11 6 -8 8 -10 10 -12 -13 -14 -15 -16 -17 -18 -19 26 -21 22 -23 28 24 -26 -27 -28 -29 29 -31
leaf_value=-0.10440676311066628 -0.11339547147289886 0.13267472490201845 -0.11072339939188119 0.0028260379330059698 -0.089097060829824618 0.076971018512716538 -0.061421674097256664 0.11400345786899167 0.078707682431801262 -0.092561626908154365 0.022230885261351141 0.050484164501495878 -0.097395068857776351 0.071513592776720869 0.0048322513381222933 -0.0093998566550809633 0.055182359724529173 0.061414264328513296 -0.15043915439263625 0.12835521973900701 -0.090594021169954297 -0.10279143615089359 0.056680042535952803 0.12275421079145155 -0.0053926641034020666 0.039273793993995137 -0.0017147724412907872 -0.027211121548084138 -0.075098258421991096 0.016617704624664536
leaf_weight=8.6189743876457232 2.8437681645154935 3.1056826114654532 2.4736877381801596 4.051184847950938 2.7783745899796468 1.8435911461710928 3.6120347529649734 2.4684118330478686 6.649722918868064 2.6244128048419952 2.4614221155643463 2.8918905183672896 2.6546536907553673 3.4970953986048698 2.0865092128515244 2.0066707432270041 9.0888338387012464 3.0119674056768408 2.1227809190750104 2.1244019120931616 1.9054585918784157 3.0575066283345222 2.4284547716379157 4.5066164508461952 3.0264333561062813 2.3911456763744354 4.9301042556762695 2.6906014680862427 4.9787336736917478 5.2743832468986511
leaf_count=95 32 18 30 24 19 14 30 12 37 12 12 15 17 20 10 10 51 14 14 11 14 26 11 21 16 14 24 16 24 28
internal_value=0 0.0138625 -0.0560246 0.0040459 -0.0268546 -0.0484884 -0.0146554 0.0109897 0.0384687 0.0107139 -0.0370048 -0.00930558 -0.0286676 0.000405523 0.0639945 0.0630036 0.074918 0.00136285 -0.00279632 0.00828027 0.000212966 -0.0426009 0.0126297 0.0387308 0.0712707 -0.01832 -0.0411575 -0.0815567 -0.0117179 -0.027918
internal_weight=0 85.2908 22.9147 71.0896 14.2957 8.29939 5.45563 62.7903 16.2905 9.64076 5.08583 11.822 8.93012 6.27547 4.55492 14.2012 12.1945 46.4998 43.4878 33.7443 31.6199 7.10869 24.5112 11.8297 7.53305 4.2966 9.74349 4.81338 12.6816 10.2531
internal_count=691 495 196 416 101 76 44 340 83 46 24 71 56 39 22 79 69 257 243 189 178 50 128 65 37 28 54 30 63 52
shrinkage=0.1


Tree=18
num_leaves=31
num_cat=0
split_feature=1 1 7 5 5 5 5 5 6 2 1 5 6 5 2 2 2 6 7 7 5 0 6 7 7 4 6 0 7 4
split_gain=7.51802 3.55412 3.00258 3.00043 1.92859 1.76231 1.64388 2.58687 2.28557 1.91621 1.67724 3.79198 2.23627 2.08975 1.9013 1.94958 3.10363 1.56563 1.39196 1.39156 1.88407 1.58307 1.36227 1.34784 1.28364 1.9988 1.10904 2.57699 1.37909 1.05573
threshold=101.50000000000001 154.50000000000003 25.500000000000004 26.250000000000004 27.550000000000004 22.950000000000003 41.900000000000006 39.95000000000001 0.93250000000000011 85.500000000000014 129.50000000000003 33.750000000000007 0.13750000000000004 32.550000000000004 74.500000000000014 60.500000000000007 67.000000000000014 0.26350000000000007 42.500000000000007 34.500000000000007 32.050000000000004 3.5000000000000004 0.72600000000000009 28.500000000000004 53.500000000000007 365.00000000000006 0.34250000000000008 3.5000000000000004 36.500000000000007 126.50000000000001
decision_type=2 2 2 2 2 2 2 2 2 2 2 2 2 2 2 2 2 2 2 2 2 2 2 2 2 2 2 2 2 2
left_child=2 3 -1 5 -4 -2 7 8 10 23 11 12 -5 29 15 -13 -17 -14 -15 20 21 -19 -6 -8 25 26 27 -3 -28 -12
right_child=1 24 4 6 22 -7 9 -9 -10 -11 13 14 17 18 -16 16 -18 19 -20 -21 -22 -23 -24 -25 -26 -27 28 -29 -30 -31
leaf_value=-0.10209950054598245 0.011903628425048596 -0.03297109565988883 -0.10961586140366092 -0.12091603213174261 -0.029165377364411146 -0.095260137352132943 -0.043775508288232533 -0.09389989956523373 0.088822096249311117 0.11857043365904295 -0.029153828367526571 -0.10304768169958392 0.072597084050228647 0.038986963346721096 -0.10503193102186292 0.10992376609472235 -0.050384307072037282 -0.11822029195515611 0.13896352785232022 0.059399446745938625 0.053465021062112685 0.0057296701767766533 0.048469027044450635 0.065965306880632402 -0.0095234190235155836 -0.020284072136497668 0.13064438789451868 0.093902309295027964 0.046396748333303373 0.044106585675351397
leaf_weight=7.9660588055849102 2.2642770856618872 2.6641275882721009 2.2597418688237658 1.0638685002923036 8.5547700300812703 4.761780072003603 2.1758100911974898 2.6594484075903884 3.2172058671712866 2.7620819807052612 5.5849833413958532 2.1683559045195562 5.3175285533070555 4.1370801925659171 4.7015975713729858 1.9376605972647665 3.2058087363839149 2.2577805481851083 2.0992604047060013 3.1185039728879929 2.1617357283830643 1.8954546302556989 3.0718410462141028 2.3046248257160187 3.2142728120088568 2.6800182312726966 5.0399075374007207 4.0115357041358948 3.1620865613222122 3.0365322157740593
leaf_count=95 22 13 30 9 56 49 11 14 18 13 28 12 29 19 31 11 18 22 11 15 10 9 15 14 17 14 30 21 19 16
internal_value=0 0.0127169 -0.0531588 0.000861836 -0.0250834 -0.0607246 0.00861576 0.00198765 0.00754297 0.0530588 0.00141706 -0.013067 0.0191059 0.0285452 -0.0554205 -0.0235196 0.0100074 0.0292046 0.0726408 0.00474475 -0.0222452 -0.061652 -0.00865376 0.0126725 0.0485764 0.0592127 0.073533 0.0432696 0.0981647 -0.00335122
internal_weight=0 83.6033 21.8524 62.8314 13.8864 7.02606 55.8053 48.5628 45.9034 7.24252 42.6862 27.8283 15.8149 14.8579 12.0134 7.31183 5.14347 14.751 6.23634 9.43347 6.31497 4.15324 11.6266 4.48043 20.7719 17.5577 14.8777 6.67566 8.20199 8.62152
internal_count=691 495 196 381 101 71 310 272 258 38 240 166 94 74 72 41 29 85 30 56 41 31 71 25 114 97 83 34 49 44
shrinkage=0.1


end of trees

feature_importances:
BMI=109
DiabetesPedigreeFunction=104
Glucose=86
Age=75
Pregnancies=60
BloodPressure=55
Insulin=43
SkinThickness=38

parameters:
[boosting: gbdt]
[objective: binary]
[metric: binary_logloss]
[tree_learner: serial]
[device_type: cpu]
[data: ]
[valid: ]
[num_iterations: 10000]
[learning_rate: 0.1]
[num_leaves: 31]
[num_threads: 8]
[force_col_wise: 0]
[force_row_wise: 0]
[histogram_pool_size: -1]
[max_depth: -1]
[min_data_in_leaf: 10]
[min_sum_hessian_in_leaf: 0.001]
[bagging_fraction: 0.9]
[pos_bagging_fraction: 1]
[neg_bagging_fraction: 1]
[bagging_freq: 0]
[bagging_seed: 28170]
[feature_fraction: 0.9]
[feature_fraction_bynode: 1]
[feature_fraction_seed: 31103]
[extra_trees: 0]
[extra_seed: 10443]
[early_stopping_round: 50]
[first_metric_only: 0]
[max_delta_step: 0]
[lambda_l1: 0]
[lambda_l2: 0]
[min_gain_to_split: 0]
[drop_rate: 0.1]
[max_drop: 50]
[skip_drop: 0.5]
[xgboost_dart_mode: 0]
[uniform_drop: 0]
[drop_seed: 311]
[top_rate: 0.2]
[other_rate: 0.1]
[min_data_per_group: 100]
[max_cat_threshold: 32]
[cat_l2: 10]
[cat_smooth: 10]
[max_cat_to_onehot: 4]
[top_k: 20]
[monotone_constraints: ]
[monotone_constraints_method: basic]
[monotone_penalty: 0]
[feature_contri: ]
[forcedsplits_filename: ]
[refit_decay_rate: 0.9]
[cegb_tradeoff: 1]
[cegb_penalty_split: 0]
[cegb_penalty_feature_lazy: ]
[cegb_penalty_feature_coupled: ]
[path_smooth: 0]
[interaction_constraints: ]
[verbosity: -1]
[saved_feature_importance_type: 0]
[max_bin: 255]
[max_bin_by_feature: ]
[min_data_in_bin: 3]
[bin_construct_sample_cnt: 200000]
[data_random_seed: 64]
[is_enable_sparse: 1]
[enable_bundle: 1]
[use_missing: 1]
[zero_as_missing: 0]
[feature_pre_filter: 1]
[pre_partition: 0]
[two_round: 0]
[header: 0]
[label_column: ]
[weight_column: ]
[group_column: ]
[ignore_column: ]
[categorical_feature: ]
[forcedbins_filename: ]
[objective_seed: 25835]
[num_class: 1]
[is_unbalance: 0]
[scale_pos_weight: 1]
[sigmoid: 1]
[boost_from_average: 1]
[reg_sqrt: 0]
[alpha: 0.9]
[fair_c: 1]
[poisson_max_delta_step: 0.7]
[tweedie_variance_power: 1.5]
[lambdarank_truncation_level: 20]
[lambdarank_norm: 1]
[label_gain: ]
[eval_at: ]
[multi_error_top_k: 1]
[auc_mu_weights: ]
[num_machines: 1]
[local_listen_port: 12400]
[time_out: 120]
[machine_list_filename: ]
[machines: ]
[gpu_platform_id: -1]
[gpu_device_id: -1]
[gpu_use_dp: 0]

end of parameters

pandas_categorical:[]
