tree
version=v3
num_class=1
num_tree_per_iteration=1
label_index=0
max_feature_idx=7
objective=binary sigmoid:1
feature_names=Pregnancies Glucose BloodPressure SkinThickness Insulin BMI DiabetesPedigreeFunction Age
feature_infos=[0:17] [0:199] [0:122] [0:99] [0:846] [0:67.099999999999994] [0.078:2.4199999999999999] [21:81]
tree_sizes=1964 1983 2179 2194 1766 1760 1980 1872 1978 1979 1875 2088 1775 2087 2080 1876 1871 1977 2078 1982 2079 1878 1980 1879 1772 1986 2084 2093 1769 1981 1781 1879 1976 1879 2088 1980 1978 2084 1885 1778 1981 1881 2198 1881 1991 1978 2089 1991 1980

Tree=0
num_leaves=18
num_cat=0
split_feature=1 5 7 5 1 1 1 6 6 5 6 1 6 6 4 0 2
split_gain=127.862 31.1519 29.9785 14.526 13.7846 13.4324 10.0488 9.93229 9.27078 8.01069 3.2179 2.7662 2.59346 2.42475 0.694113 0.444186 7.10543e-15
threshold=127.50000000000001 29.950000000000003 28.500000000000004 26.450000000000003 154.50000000000003 94.500000000000014 145.50000000000003 0.56050000000000011 0.4215000000000001 30.950000000000003 0.49850000000000005 111.50000000000001 0.27950000000000003 0.34450000000000003 167.50000000000003 2.5000000000000004 63.000000000000007
decision_type=2 2 2 2 2 2 2 2 2 2 2 2 2 2 2 2 2
left_child=2 6 9 -4 8 -5 -2 11 -3 15 12 -7 -11 -6 -15 16 -1
right_child=1 4 3 5 13 7 -8 -9 -10 10 -12 -13 -14 14 -16 -17 -18
leaf_value=-0.62166071546035473 -0.58478893050417136 -0.52272142582792924 -0.60862523593039097 -0.59390775904172211 -0.45871722133580672 -0.55301643495682173 -0.50371065068116583 -0.46983571858195233 -0.45924928172478485 -0.57515576146156489 -0.5571350917870338 -0.51661900250378567 -0.61514297569537291 -0.41329672234858894 -0.43525335818187183 -0.60732168797739461 -0.62166071546035484
leaf_weight=11.855755224823957 8.1363026052713376 11.623289436101915 7.671371027827262 7.2064394503831855 7.6713710278272655 10.925892069935804 7.2064394503831855 7.9038368165493003 11.390823647379873 8.6012341827154213 9.298631548881529 9.9960289150476438 7.671371027827262 7.4389052391052228 6.9739736616611481 6.9739736616611472 12.088221013545988
leaf_count=51 35 50 33 31 33 47 31 34 49 37 40 43 33 32 30 30 52
internal_value=-0.542599 -0.485164 -0.577246 -0.546152 -0.464227 -0.532851 -0.546707 -0.517587 -0.491306 -0.601303 -0.580599 -0.535627 -0.594007 -0.436008 -0.423921 -0.618426 -0.621661
internal_weight=0 60.4411 100.193 43.7036 45.0984 36.0322 15.3427 28.8258 23.0141 56.4892 25.5712 20.9219 16.2726 22.0842 14.4129 30.9179 23.944
internal_count=691 260 431 188 194 155 66 124 99 243 110 90 70 95 62 133 103
shrinkage=1


Tree=1
num_leaves=18
num_cat=0
split_feature=1 1 7 7 1 6 6 0 6 3 6 1 2 6 6 2 0
split_gain=114.999 30.5255 21.2911 14.2741 10.5268 6.43695 5.45099 9.46657 4.66155 3.11745 3.23639 3.17275 2.08396 0.640126 0.300201 0.0957722 6.71028e-05
threshold=123.50000000000001 154.50000000000003 28.500000000000004 24.500000000000004 94.500000000000014 0.31600000000000006 0.25250000000000006 6.5000000000000009 0.32700000000000001 29.500000000000004 0.40750000000000003 110.50000000000001 77.000000000000014 0.61450000000000016 0.57650000000000012 69.000000000000014 1.5000000000000002
decision_type=2 2 2 2 2 2 2 2 2 2 2 2 2 2 2 2 2
left_child=2 3 9 -2 -4 -5 -6 -8 -3 11 -11 14 -7 -10 15 16 -1
right_child=1 8 4 5 6 12 7 -9 13 10 -12 -13 -14 -15 -16 -17 -18
leaf_value=-0.076946301335810541 -0.031907896546525948 0.061488704730538295 -0.055680667784063581 0.011252803168028951 -0.02946475805968244 0.039870410839759868 -0.0068096984173890056 0.061140827902033505 0.11528066299012672 -0.059457293799029004 -0.013079804758350261 -0.035068992719958912 0.073373235617793311 0.096279223059020855 -0.063212652166368719 -0.07000627079364162 -0.077148645743157745
leaf_weight=8.4190913438797086 9.5261230915784818 9.461775481700899 9.1587051898241025 13.263876482844354 8.1119326204061526 9.1541741490364092 13.756375685334207 8.1696298420429212 8.100801810622217 8.2517085969448072 6.9132866263389579 7.0874312222003928 9.4158918112516385 9.7875752896070463 7.0818413197994223 6.8522408604621878 7.9817973375320426
leaf_count=37 41 40 40 57 35 39 59 35 34 36 30 31 40 41 31 30 35
internal_value=0 0.0488887 -0.0366482 0.021788 -0.00875477 0.0378562 0.00555315 0.0185087 0.0898715 -0.0574389 -0.0383151 -0.0651886 0.0568579 0.104884 -0.0722257 -0.0749707 -0.0770448
internal_weight=0 68.7102 91.784 41.3601 39.1966 31.8339 30.0379 21.926 27.3502 52.5874 15.165 37.4224 18.5701 17.8884 30.335 23.2531 16.4009
internal_count=691 292 399 177 169 136 129 94 115 230 66 164 79 75 133 102 72
shrinkage=0.05


Tree=2
num_leaves=20
num_cat=0
split_feature=1 1 7 5 5 1 7 2 5 0 1 1 7 4 1 4 0 1 2
split_gain=103.71 26.684 19.8403 14.9319 12.9508 9.90001 8.64101 9.61492 6.38565 4.23021 4.67913 3.96439 2.17791 1.61912 2.3164 1.11234 0.423567 0.000280574 1.18642e-05
threshold=123.50000000000001 154.50000000000003 28.500000000000004 27.350000000000005 26.450000000000003 94.500000000000014 31.500000000000004 73.000000000000014 30.950000000000003 6.5000000000000009 111.50000000000001 165.50000000000003 41.500000000000007 102.50000000000001 101.50000000000001 131.00000000000003 2.5000000000000004 101.50000000000001 63.000000000000007
decision_type=2 2 2 2 2 2 2 2 2 2 2 2 2 2 2 2 2 2 2
left_child=2 3 8 -2 -4 -6 7 -5 16 10 -7 -3 -8 14 -10 -13 17 18 -1
right_child=1 11 4 6 5 9 12 -9 13 -11 -12 15 -14 -15 -16 -17 -18 -19 -20
leaf_value=-0.074954172815797679 -0.044030064584966479 0.056949186066103566 -0.069747157838304194 0.044206295566406734 -0.047487140807243318 -0.020883712724319253 0.040472720401478403 -0.033587592976136317 -0.04407862720859014 0.046260808835505283 0.034139350997326394 0.085333161714235203 0.075012255633394254 -0.056037062378165296 -0.006054372925979587 0.10976964011595913 -0.060728095274809248 -0.075383312681499115 -0.075045070314095172
leaf_weight=7.77288162708283 7.3573428541421881 9.1799706220626849 7.0420745164155951 8.4391366988420469 6.9866817146539679 8.5948063284158724 9.0079945772886294 7.5032740235328665 9.2708215266466194 9.432265639305113 7.0193832516670218 9.6832876950502413 9.2512825876474363 7.2569418251514426 7.051915004849433 8.9716653227806074 6.7185226380825034 6.9223876446485511 6.6705705672502518
leaf_count=35 32 38 31 36 31 37 38 32 41 40 30 40 39 32 31 37 30 31 30
internal_value=0 0.045963 -0.0352382 0.0205885 -0.00835446 0.00514194 0.034489 0.00759271 -0.0555713 0.0198228 0.00385199 0.0838484 0.0579726 -0.0363872 -0.027651 0.0970853 -0.0716783 -0.0751216 -0.0749962
internal_weight=0 69.394 90.7393 41.559 39.0752 32.0331 34.2017 15.9424 51.664 25.0465 15.6142 27.8349 18.2593 23.5797 16.3227 18.655 28.0844 21.3658 14.4435
internal_count=691 292 399 177 169 138 145 68 230 107 67 115 77 104 72 77 126 96 65
shrinkage=0.05


Tree=3
num_leaves=20
num_cat=0
split_feature=1 7 5 5 6 1 1 6 1 5 6 5 6 6 4 4 0 1 6
split_gain=93.8646 24.2429 23.9558 12.07 11.3966 8.89614 8.26254 7.81303 7.5872 7.19095 3.50105 3.00191 2.80369 2.51794 0.877104 0.547513 0.432999 0.00207513 4.00857e-05
threshold=127.50000000000001 28.500000000000004 29.950000000000003 26.450000000000003 0.63400000000000012 165.50000000000003 99.500000000000014 0.43700000000000006 145.50000000000003 30.950000000000003 0.25250000000000006 36.550000000000004 0.49850000000000005 0.27950000000000003 131.00000000000003 125.50000000000001 2.5000000000000004 105.50000000000001 0.45250000000000007
decision_type=2 2 2 2 2 2 2 2 2 2 2 2 2 2 2 2 2 2 2
left_child=1 9 8 -3 6 7 -5 11 -2 16 -8 -4 13 -11 -7 -9 17 18 -1
right_child=2 3 5 4 -6 14 10 15 -10 12 -12 -13 -14 -15 -16 -17 -18 -19 -20
leaf_value=-0.073122266741780434 -0.040032539780639705 -0.061494894967309033 0.0054833797687088735 -0.050528128761247071 0.057679320517453551 0.083826664982054142 -0.01720753782732681 0.08600489574312567 0.030076641230952529 -0.027510992095174869 0.026816794396780502 0.048632498214102649 -0.011453599338043881 -0.067782357766047283 0.10705992862996845 0.066596041056186869 -0.058912350498675985 -0.074245109276020405 -0.073284096103222618
leaf_weight=9.2974863499403053 8.0023530125617963 7.3398724049329749 8.5572439134120994 7.8586972355842617 8.9750549644231779 8.1128138899803179 7.2264443188905743 7.2807496935129148 7.453066259622573 8.2957721203565615 12.040268674492834 7.6203044056892386 9.1219700723886472 7.2943250685930243 8.1363644748926145 7.2536080628633499 6.5827788412570944 6.5893151313066474 6.5031510591506949
leaf_count=43 35 33 36 35 38 33 31 30 31 37 51 32 40 33 33 30 30 30 30
internal_value=0 -0.0308142 0.0477713 -0.00304424 0.00883983 0.0655417 -0.00731982 0.0497123 -0.00622379 -0.053285 0.0103044 0.0258084 -0.0334707 -0.0463532 0.0954601 0.0763186 -0.0701854 -0.0734997 -0.0731889
internal_weight=0 97.1251 62.4165 43.4403 36.1005 46.9611 27.1254 30.7119 15.4554 53.6848 19.2667 16.1775 24.7121 15.5901 16.2492 14.5344 28.9727 22.39 15.8006
internal_count=691 431 260 188 155 194 117 128 66 243 82 68 110 70 66 60 133 103 73
shrinkage=0.05


Tree=4
num_leaves=16
num_cat=0
split_feature=7 5 4 5 5 6 4 6 2 6 3 5 0 3 5
split_gain=49.6456 23.8552 18.6141 12.2936 9.3394 9.28611 7.77236 6.61099 3.75715 2.27152 1.63776 1.5194 1.36412 1.53449 0.0866081
threshold=28.500000000000004 30.950000000000003 141.00000000000003 27.350000000000005 41.900000000000006 0.49850000000000005 17.000000000000004 0.25250000000000006 77.000000000000014 0.25950000000000006 26.500000000000004 31.750000000000004 1.5000000000000002 13.500000000000002 26.300000000000001
decision_type=2 2 2 2 2 2 2 2 2 2 2 2 2 2 2
left_child=1 12 3 -2 5 9 7 -5 -4 -3 11 -9 14 -14 -1
right_child=2 4 8 6 -6 -7 -8 10 -10 -11 -12 -13 13 -15 -16
leaf_value=-0.072827368524815791 -0.03065538276074985 -0.01792363152442316 0.049778947482781853 0.0053269492918488195 0.04394554884352328 0.019604646843981381 -0.0095396058451319987 0.057682011018850045 0.093502821060814673 -0.052698712533937445 0.069147259337361391 0.028894328664671842 -0.032747262094485231 -0.063085292875904253 -0.06554531317358471
leaf_weight=11.114004597067835 13.028361305594442 8.382991656661039 12.082196459174158 12.689831063151358 8.2442014366388303 11.425286978483198 13.159572184085844 8.1087058484554344 8.2803217619657499 10.676740631461142 7.4462088197469702 10.543103486299513 7.1983310580253628 9.9009056240320188 6.4543183892965308
leaf_count=52 58 37 50 54 35 49 56 34 34 48 31 44 33 46 30
internal_value=0 -0.0302384 0.0258453 0.0127727 -0.00326935 -0.0160379 0.0236645 0.0349296 0.0675591 -0.0374037 0.0493236 0.0414095 -0.0603671 -0.0503138 -0.0701521
internal_weight=0 73.3968 85.3383 64.9758 38.7292 30.485 51.9474 38.7878 20.3625 19.0597 26.098 18.6518 34.6676 17.0992 17.5683
internal_count=691 330 361 277 169 134 219 163 84 85 109 78 161 79 82
shrinkage=0.05


Tree=5
num_leaves=16
num_cat=0
split_feature=7 5 4 5 5 6 4 6 2 6 3 5 0 5 5
split_gain=45.0622 22.3166 16.5522 11.1012 8.39484 8.47771 6.95096 5.87358 3.31229 2.12892 1.4426 1.33834 1.32763 1.51464 0.0859958
threshold=28.500000000000004 30.950000000000003 141.00000000000003 27.350000000000005 41.900000000000006 0.49850000000000005 17.000000000000004 0.25250000000000006 77.000000000000014 0.25950000000000006 26.500000000000004 31.750000000000004 1.5000000000000002 25.450000000000003 26.300000000000001
decision_type=2 2 2 2 2 2 2 2 2 2 2 2 2 2 2
left_child=1 12 3 -2 5 9 7 -5 -4 -3 11 -9 14 -14 -1
right_child=2 4 8 6 -6 -7 -8 10 -10 -11 -12 -13 13 -15 -16
leaf_value=-0.071236111852769943 -0.0294122122030776 -0.017121094824770904 0.046937055004592061 0.005054194243325455 0.041375758556004449 0.018536076684951733 -0.0090831262246710027 0.054215382648331159 0.087791479661600044 -0.050967192538463428 0.064941832408244526 0.027306446927320462 -0.065272595797700603 -0.035089511325786492 -0.063883939756398347
leaf_weight=10.802060514688494 12.903321012854574 8.3383051455020958 12.170642718672754 12.705506280064581 8.3164759427309018 11.478326708078383 13.130628407001494 8.1935222595930153 8.3753711432218534 10.492219328880308 7.5296876281499854 10.596938446164129 7.5846428871154812 9.1958521455526334 6.2951129078865042
leaf_count=52 58 37 50 54 35 49 56 34 34 48 31 44 36 43 30
internal_value=0 -0.029103 0.0244674 0.012112 -0.00312376 -0.015334 0.022385 0.0329729 0.0635909 -0.0359799 0.04645 0.03904 -0.0587231 -0.048732 -0.0685291
internal_weight=0 72.503 85.6056 65.0596 38.6253 30.3089 52.1563 39.0257 20.546 18.8305 26.3201 18.7905 33.8777 16.7805 17.0972
internal_count=691 330 361 277 169 134 219 163 84 85 109 78 161 79 82
shrinkage=0.05


Tree=6
num_leaves=18
num_cat=0
split_feature=1 1 7 7 1 6 3 6 6 6 0 1 0 4 1 7 2
split_gain=79.6576 19.2454 14.1125 9.85775 7.34971 4.36405 3.30027 3.30691 2.93987 2.58704 2.96824 2.28893 1.70866 0.857143 0.492975 0.579494 0.0032499
threshold=123.50000000000001 154.50000000000003 29.500000000000004 24.500000000000004 99.500000000000014 0.31600000000000006 29.500000000000004 0.41350000000000003 0.34450000000000003 0.25850000000000006 5.5000000000000009 110.50000000000001 3.5000000000000004 167.50000000000003 94.500000000000014 22.500000000000004 63.000000000000007
decision_type=2 2 2 2 2 2 2 2 2 2 2 2 2 2 2 2 2
left_child=2 3 6 -2 -4 -5 11 -8 -3 -6 -11 14 -7 -10 16 -16 -1
right_child=1 8 4 5 9 12 7 -9 13 10 -12 -13 -14 -15 15 -17 -18
leaf_value=-0.06979851086724391 -0.027853188154826514 0.051057532738220647 -0.040911695754344612 0.0088958108238190777 -0.017350904641017073 0.065255088498360578 -0.05009378812367922 -0.0034067837126648642 0.094514491512189172 -0.0011645402534137409 0.040575453692939314 -0.032197020996538546 0.034464587083428408 0.072305896862316199 -0.069446805423747468 -0.049482333830478648 -0.071359632375754697
leaf_weight=6.4789135903120059 9.1748782843351346 11.03848145902157 11.549098983407019 13.349272549152372 7.3439940512180355 7.258861348032954 8.604301840066908 6.782865345478057 9.2059206962585467 9.2194859236478823 7.9166138768196097 7.2892324179410926 11.879459187388418 8.2274481505155546 6.037130504846572 9.1339998394250852 6.8675262928009033
leaf_count=32 41 45 52 57 32 30 40 30 37 39 33 34 49 33 30 44 33
internal_value=0 0.0395653 -0.0320072 0.017913 -0.00803333 0.030838 -0.0488795 -0.0295135 0.0712487 0.00747786 0.0181187 -0.0572016 0.0461429 0.0840334 -0.0635929 -0.0574269 -0.0706018
internal_weight=0 70.1343 87.2232 41.6625 36.0292 32.4876 51.194 15.3872 28.4719 24.4801 17.1361 35.8068 19.1383 17.4334 28.5176 15.1711 13.3464
internal_count=691 292 399 177 156 136 243 70 115 104 72 173 79 70 139 74 65
shrinkage=0.05


Tree=7
num_leaves=17
num_cat=0
split_feature=1 1 5 7 7 5 1 6 6 1 3 3 5 1 1 7
split_gain=72.2695 17.7329 13.417 13.1216 12.5677 8.80858 6.64029 4.40412 3.0016 2.21169 3.29951 1.2466 0.684538 0.507026 0.306795 0.0065417
threshold=123.50000000000001 165.50000000000003 26.450000000000003 30.500000000000004 24.500000000000004 30.050000000000004 106.50000000000001 0.4215000000000001 0.34250000000000008 112.50000000000001 29.500000000000004 20.500000000000004 35.45000000000001 94.500000000000014 106.50000000000001 25.500000000000004
decision_type=2 2 2 2 2 2 2 2 2 2 2 2 2 2 2 2
left_child=2 4 14 9 -2 -6 8 11 -5 10 13 -7 -3 -4 15 -1
right_child=1 12 3 6 5 7 -8 -9 -10 -11 -12 -13 -14 -15 -16 -17
leaf_value=-0.067738476925386815 -0.027924864561121605 0.069635361478742483 -0.070112035673209561 -0.039930555377644401 -0.0017892670583473408 0.045254913899885514 0.034489832537988811 0.069264503156105481 0.0043306103634506181 -0.01824480438460056 -0.025914157626177398 0.016419712373951501 0.088571338857158413 -0.052089337545071494 -0.055752443015955423 -0.069829248258220164
leaf_weight=8.5007599890232104 10.073706820607184 10.180469334125521 7.9173243492841738 6.7761095017194775 11.930125266313551 7.257270351052286 12.069917514920233 14.119410023093222 8.8113005459308607 9.5137570649385435 11.475959837436674 7.7517254650592804 8.984832286834715 7.6953785866498947 6.608913078904151 6.6821055859327307
leaf_count=44 45 41 39 30 51 30 50 57 38 43 53 32 36 37 32 33
internal_value=0 0.0374942 -0.0308413 -0.019344 0.0221197 0.0343981 0.00664829 0.0492194 -0.0149105 -0.0389841 -0.0462679 0.0303623 0.0785127 -0.0612288 -0.0647445 -0.0686586
internal_weight=0 70.2975 86.0515 64.2597 51.1322 41.0585 27.6573 29.1284 15.5874 36.6024 27.0887 15.009 19.1653 15.6127 21.7918 15.1829
internal_count=691 292 399 290 215 170 118 119 68 172 129 62 77 76 109 77
shrinkage=0.05


Tree=8
num_leaves=18
num_cat=0
split_feature=5 7 5 6 7 4 4 3 6 3 2 0 5 2 2 6 2
split_gain=34.6299 22.1718 9.17266 8.78997 8.42153 4.59417 6.11496 3.63793 2.59612 3.66972 2.27855 2.07 2.04763 2.03167 0.901036 0.649187 0.00424147
threshold=27.850000000000005 30.500000000000004 41.900000000000006 0.49850000000000005 27.500000000000004 141.00000000000003 17.000000000000004 30.500000000000004 0.32700000000000001 14.500000000000002 77.000000000000014 2.5000000000000004 25.700000000000006 75.500000000000014 71.000000000000014 0.40150000000000008 63.000000000000007
decision_type=2 2 2 2 2 2 2 2 2 2 2 2 2 2 2 2 2
left_child=4 2 3 11 15 6 8 -5 13 -10 -7 14 -6 -3 -2 16 -1
right_child=1 5 -4 7 12 10 -8 -9 9 -11 -12 -13 -14 -15 -16 -17 -18
leaf_value=-0.067510519871151822 -0.03636551251105425 0.041701317808187283 0.036420300676833058 -0.0096924563552271206 -0.030546243070345265 0.039154866135683399 -0.0047983705074977961 0.036643013816603252 0.030563428259405685 0.076930470649911195 0.076835349082267829 -0.019015671076909824 0.0028267031390088546 0.0048234682723520116 -0.059666984803696491 -0.050350527766512942 -0.06929371559498182
leaf_weight=7.0805639773607272 9.7103011757135445 7.1293471902608854 9.2422338277101499 9.9993218481540698 10.264731749892237 8.1270222663879412 11.514031633734701 7.3497426360845557 9.7773923575878161 7.572135165333747 7.9237430095672599 11.752167046070097 8.3230217695236188 7.843736469745636 7.2435445338487616 8.0054961293935758 6.3034168630838394
leaf_count=37 47 30 39 45 48 33 49 31 40 31 32 53 36 33 34 41 32
internal_value=0 0.0137908 -0.00903827 -0.0181608 -0.0402205 0.0348702 0.0264903 0.00993706 0.0376361 0.0508001 0.0577565 -0.0351423 -0.0156029 0.0223826 -0.0463211 -0.0616135 -0.0683503
internal_weight=0 115.185 55.2973 46.0551 39.9772 59.8874 43.8366 17.3491 32.3226 17.3495 16.0508 28.706 18.5878 14.9731 16.9538 21.3895 13.384
internal_count=691 497 249 210 194 248 183 76 134 71 65 134 84 63 81 110 69
shrinkage=0.05


Tree=9
num_leaves=18
num_cat=0
split_feature=1 1 5 7 7 6 1 5 4 6 1 6 1 6 4 1 7
split_gain=63.7509 15.375 11.907 10.9258 10.7278 7.71594 5.83714 4.19173 4.39034 2.66173 2.03931 1.89577 1.2128 1.00108 0.713828 0.319272 0.00745579
threshold=123.50000000000001 165.50000000000003 26.450000000000003 30.500000000000004 24.500000000000004 0.73050000000000004 106.50000000000001 30.050000000000004 144.50000000000003 0.34250000000000008 112.50000000000001 0.49300000000000005 140.50000000000003 0.30550000000000005 131.00000000000003 106.50000000000001 25.500000000000004
decision_type=2 2 2 2 2 2 2 2 2 2 2 2 2 2 2 2 2
left_child=2 4 15 10 -2 7 9 -6 12 -5 11 13 -9 -4 -3 16 -1
right_child=1 14 3 6 5 -7 -8 8 -10 -11 -12 -13 -14 -15 -16 -17 -18
leaf_value=-0.065567593001361987 -0.026011156388747833 0.064055956393035712 -0.043879220408715509 -0.039200377976529061 -0.0035682943511810062 0.078225929800418856 0.030693041621925918 0.035790010705679366 0.0022614728863219794 0.0024943362603669513 -0.017069434801337668 -0.02645069483290512 0.063850230457865559 -0.068642893062565755 0.083403562647019161 -0.053096762278230507 -0.06786311294129109
leaf_weight=7.9623677432537097 9.886762931942938 9.9290727972984332 9.6472144126892143 6.7305707335472134 10.952497348189352 7.4012590348720542 12.184994623064993 8.0458380281925219 7.3476190716028205 8.8750439286231977 9.4062463343143445 9.5705113261938077 7.3854248970746985 7.0734567791223517 9.170545279979704 6.3203943073749533 6.3649329096078873
leaf_count=44 45 40 48 30 47 30 50 33 30 38 43 45 30 36 37 32 33
internal_value=0 0.0350794 -0.0294748 -0.0187479 0.0207541 0.0319947 0.00476028 0.0218508 0.0340727 -0.0154882 -0.0370492 -0.0441974 0.0492197 -0.0543552 0.0733456 -0.0624578 -0.0665874
internal_weight=0 70.119 84.1357 63.488 51.0194 41.1326 27.7906 33.7314 22.7789 15.6056 35.6974 26.2912 15.4313 16.7207 19.0996 20.6477 14.3273
internal_count=691 292 399 290 215 170 118 140 93 68 172 129 63 84 77 109 77
shrinkage=0.05


Tree=10
num_leaves=17
num_cat=0
split_feature=1 1 5 7 5 7 1 2 1 0 1 3 4 1 1 7
split_gain=58.0055 14.085 11.3755 10.0741 8.35202 5.33774 5.28102 4.67777 2.06409 1.95281 1.93139 3.18317 0.673777 0.53667 0.324548 0.0061214
threshold=123.50000000000001 154.50000000000003 26.450000000000003 30.500000000000004 27.350000000000005 41.500000000000007 99.500000000000014 73.000000000000014 165.50000000000003 6.5000000000000009 112.50000000000001 29.500000000000004 131.00000000000003 94.500000000000014 106.50000000000001 25.500000000000004
decision_type=2 2 2 2 2 2 2 2 2 2 2 2 2 2 2 2
left_child=2 4 14 10 -2 7 -5 -6 -3 -8 11 13 -10 -4 15 -1
right_child=1 8 3 6 5 -7 9 -9 12 -11 -12 -13 -14 -15 -16 -17
leaf_value=-0.064579913674001427 -0.03590098484565972 0.04131979116929646 -0.067564587874223536 -0.028448532299393404 0.035343426392025992 0.056427497612946048 0.0051930561734795152 -0.0077657822657112843 0.060971795919470134 0.037327217060219291 -0.016311482643935511 -0.022618024002529574 0.079812202453135417 -0.048451766097166421 -0.051730547487235372 -0.066695588090623897
leaf_weight=7.686918258666994 6.7845300287008277 9.3683983385562914 7.417138487100603 8.4485097080469149 11.956828117370607 9.6189752966165525 11.045820057392122 13.283841237425802 9.9101626724004763 8.2658770680427534 9.3525641113519651 11.09328545629978 9.1056012362241727 7.2754380255937576 6.1668776124715796 6.1577871590852737
leaf_count=44 32 38 39 38 50 39 46 56 40 34 43 53 37 37 32 33
internal_value=0 0.0333682 -0.0284366 -0.0179901 0.0148554 0.0247338 0.00452288 0.0126556 0.0605295 0.0189473 -0.0357758 -0.0428356 0.0699934 -0.0581003 -0.0612712 -0.0655209
internal_weight=0 70.0283 82.9102 62.8986 41.6442 34.8596 27.7602 25.2407 28.3842 19.3117 35.1384 25.7859 19.0158 14.6926 20.0116 13.8447
internal_count=691 292 399 290 177 145 118 106 115 80 172 129 77 76 109 77
shrinkage=0.05


Tree=11
num_leaves=19
num_cat=0
split_feature=1 7 1 1 7 6 6 0 1 3 6 1 0 4 6 6 3 0
split_gain=52.8142 13.8018 10.983 7.80684 6.16227 4.25494 3.34599 4.40274 5.11651 2.1664 3.20936 3.15441 1.42628 0.642301 0.381462 0.31309 0.0969025 0.00127582
threshold=127.50000000000001 28.500000000000004 165.50000000000003 94.500000000000014 24.500000000000004 0.31600000000000006 0.22400000000000003 6.5000000000000009 114.50000000000001 29.500000000000004 0.42850000000000005 112.50000000000001 3.5000000000000004 131.00000000000003 0.23750000000000002 0.57650000000000012 22.500000000000004 1.5000000000000002
decision_type=2 2 2 2 2 2 2 2 2 2 2 2 2 2 2 2 2 2
left_child=1 9 4 -3 -2 14 -5 8 -8 11 -11 15 -7 -4 -6 16 17 -1
right_child=2 3 13 6 5 12 7 -9 -10 10 -12 -13 -14 -15 -16 -17 -18 -19
leaf_value=-0.064293855587292031 -0.017287514185045795 -0.047830042917957061 0.058141740283741306 -0.025468868308791678 0.017989650465975074 0.061780743487745982 -0.028330712699308876 0.039297252645151694 0.026230368774952547 -0.049681028663802848 -0.002447182293818375 -0.021309738521578317 0.034730916248956807 0.076600988963893502 0.0018199153021579977 -0.049062579982375468 -0.057092761366499656 -0.065273785316413854
leaf_weight=6.6956780552864164 8.3596452474594098 8.3236737847328168 9.8737896829843539 6.7405464798212043 7.2022843807935697 7.892880946397784 8.8273326754570061 10.515192881226538 8.3720276206731779 7.7280862629413587 6.7263848483562469 6.9727187156677237 12.73767703771591 9.0151911377906782 7.3897814303636551 5.6978644281625739 5.9288377910852423 6.5913316458463669
leaf_count=39 38 40 40 30 30 32 39 44 35 39 30 34 52 37 31 31 33 37
internal_value=0 -0.0248523 0.0351069 -0.00437275 0.0213049 0.0304644 0.00612568 0.0138099 -0.00177235 -0.0437576 -0.0277008 -0.0510363 0.0450797 0.0669518 0.0098009 -0.059356 -0.0624082 -0.06478
internal_weight=0 89.1197 62.4712 42.7788 43.5823 35.2226 34.4551 27.7146 17.1994 46.3409 14.4545 31.8864 20.6306 18.889 14.5921 24.9137 19.2158 13.287
internal_count=691 431 260 188 183 145 148 118 74 243 69 174 84 77 61 140 109 76
shrinkage=0.05


Tree=12
num_leaves=16
num_cat=0
split_feature=1 5 5 7 1 6 1 6 7 1 3 4 1 5 7
split_gain=48.1459 12.4301 10.7386 8.74967 6.04711 4.91411 5.64754 4.29619 3.68896 1.72897 3.00812 1.56503 0.543585 0.319247 0.0108379
threshold=123.50000000000001 29.950000000000003 26.450000000000003 30.500000000000004 154.50000000000003 0.63400000000000012 106.50000000000001 0.4215000000000001 28.500000000000004 112.50000000000001 29.500000000000004 66.500000000000014 94.500000000000014 23.050000000000004 25.500000000000004
decision_type=2 2 2 2 2 2 2 2 2 2 2 2 2 2 2
left_child=2 8 13 9 7 6 -5 -3 -2 10 12 -6 -4 -1 -15
right_child=1 4 3 5 11 -7 -8 -9 -10 -11 -12 -13 -14 14 -16
leaf_value=-0.051780026306046535 -0.035469260523562661 0.0078870814179964593 -0.065522486633665999 -0.030795359357440263 0.076253090605975127 0.03689581603986964 0.024574756272216679 0.04677413173517133 0.011535080990425876 -0.014894451362380743 -0.020522573837487228 0.050105685986590667 -0.045746008774117441 -0.063331247399873433 -0.066469794914224486
leaf_weight=7.8845616877079037 6.509840443730357 14.20856547355652 6.9615480005741137 11.818559154868131 10.312938675284387 8.2328977137804014 7.5452892929315558 14.201601102948187 11.633855298161505 9.2317471057176572 10.852268591523169 12.857494637370108 6.9370481371879578 5.3058446049690229 5.7115273326635361
leaf_count=46 31 59 39 53 42 34 31 58 49 43 53 53 37 32 31
internal_value=0 0.0302657 -0.0264957 -0.0163768 0.0427866 0.00453772 -0.00921992 0.0273258 -0.00532977 -0.0333611 -0.040249 0.0617436 -0.0556517 -0.0594613 -0.0649583
internal_weight=0 69.7243 80.4813 61.5794 51.5806 27.5967 19.3638 28.4102 18.1437 33.9826 24.7509 23.1704 13.8986 18.9019 11.0174
internal_count=691 292 399 290 212 118 84 117 80 172 129 95 76 109 63
shrinkage=0.05


Tree=13
num_leaves=19
num_cat=0
split_feature=1 7 5 1 5 6 1 5 6 3 1 6 5 1 1 0 1 5
split_gain=43.9034 12.2827 11.6105 6.93008 5.50524 4.60111 4.49713 3.8452 5.59325 4.43908 3.56072 2.69235 2.43442 2.26735 1.37395 0.528349 0.0145828 0.000663519
threshold=127.50000000000001 28.500000000000004 29.950000000000003 94.500000000000014 30.950000000000003 0.43350000000000005 145.50000000000003 27.350000000000005 0.56050000000000011 27.500000000000004 154.50000000000003 0.61450000000000016 33.650000000000013 155.50000000000003 110.50000000000001 2.5000000000000004 106.50000000000001 25.050000000000004
decision_type=2 2 2 2 2 2 2 2 2 2 2 2 2 2 2 2 2 2
left_child=1 4 6 -3 15 10 -2 -5 9 -9 -4 -7 -6 -13 -14 16 17 -1
right_child=2 3 5 7 12 11 -8 8 -10 -11 -12 13 14 -15 -16 -17 -18 -19
leaf_value=-0.062121461029772174 -0.03384307120941827 -0.045600839830546788 0.010636532611359613 -0.030222295835789899 0.0031212932188791741 0.084379299122864099 0.020916924026184572 0.019100542231253046 0.049355018084677758 -0.028533429861515233 0.049684967459978795 0.028439314348883634 -0.021705771060136075 0.066101047684031702 -0.051232271957657352 -0.04518386030298626 -0.065649628239384569 -0.062874544286517745
leaf_weight=6.4359584003686958 7.4733821898698789 8.0526792854070646 12.761450231075289 6.0504117757081977 6.0482759773731258 7.5477215647697475 7.5239492505788803 12.071366429328924 7.9151377230882636 8.2226278632879239 10.760996595025061 7.632340386509898 9.4198659658432025 8.388581305742262 6.7725565433502188 5.176234319806098 5.1639837324619284 5.3614145517349243
leaf_count=41 35 40 53 30 30 31 31 51 32 35 44 31 48 35 32 30 29 33
internal_value=0 -0.0231378 0.0319428 -0.0038633 -0.041515 0.0441447 -0.00637076 0.00594708 0.0137048 -0.000199573 0.0285003 0.0597584 -0.0239453 0.0481591 -0.0340554 -0.0591665 -0.0634337 -0.0624637
internal_weight=0 86.6905 62.0884 42.3122 44.3783 47.0911 14.9973 34.2595 28.2091 20.294 23.5224 23.5686 22.2407 16.0209 16.1924 22.1376 16.9614 11.7974
internal_count=691 431 260 188 243 194 66 148 118 86 97 97 110 66 80 133 103 74
shrinkage=0.05


Tree=14
num_leaves=19
num_cat=0
split_feature=1 1 5 7 7 6 6 1 7 4 2 2 7 4 4 3 1 7
split_gain=40.2445 10.4537 9.93294 7.9072 7.57122 6.357 4.01572 4.97448 3.57393 3.4799 1.70624 3.1866 2.30032 0.905964 0.687862 0.467827 0.340901 0.00498649
threshold=123.50000000000001 165.50000000000003 26.450000000000003 24.500000000000004 30.500000000000004 0.73050000000000004 0.63400000000000012 106.50000000000001 41.500000000000007 119.50000000000001 79.000000000000014 67.000000000000014 24.500000000000004 49.500000000000007 131.00000000000003 17.500000000000004 106.50000000000001 25.500000000000004
decision_type=2 2 2 2 2 2 2 2 2 2 2 2 2 2 2 2 2 2
left_child=2 3 16 -2 10 8 7 -6 9 -5 11 12 -4 -13 -3 -10 17 -1
right_child=1 14 4 5 6 -7 -8 -9 15 -11 -12 13 -14 -15 -16 -17 -18 -19
leaf_value=-0.061426263425291464 -0.024780800501367516 0.050786696048253123 -0.040399980694134412 0.021112459867735717 -0.028783342724790717 0.067759743029707248 0.033481141076014104 0.023317883267859253 0.02605616418527891 -0.021668593832995652 -0.0077132304168926608 -0.040972282262871418 -0.0007161870782642168 -0.068419878871122441 0.070174615924787159 0.044002318181554659 -0.047451564342547721 -0.063464373712800629
leaf_weight=6.6569339632987994 9.6519654244184476 9.6461466699838656 7.4779558330774325 10.781433567404749 11.60970444977284 7.3175780773162833 8.2574790865182859 7.5675973892211905 7.2139885276555997 8.5016532689332944 6.2517011910676947 5.5960444360971433 7.1370422095060349 6.496484249830246 8.701929956674574 7.3125674575567245 5.625105842947959 5.464699998497963
leaf_count=44 45 40 41 45 53 30 34 31 30 35 31 30 36 34 37 30 32 33
internal_value=0 0.0276352 -0.0247386 0.0159474 -0.0150752 0.0255057 0.00432896 -0.00822356 0.0163605 0.00225087 -0.0312269 -0.0367309 -0.0210209 -0.055718 0.0599818 0.0350901 -0.0576244 -0.0623451
internal_weight=0 69.1273 78.1407 50.7792 60.394 41.1272 27.4348 19.1773 33.8096 19.2831 32.9592 26.7075 14.615 12.0925 18.3481 14.5266 17.7467 12.1216
internal_count=691 292 399 215 290 170 118 84 140 80 172 141 77 64 77 60 109 77
shrinkage=0.05


Tree=15
num_leaves=17
num_cat=0
split_feature=1 5 5 0 7 1 5 6 2 7 1 6 0 6 1 7
split_gain=36.7075 9.99494 9.51121 7.42873 4.9195 4.78435 3.4852 3.47751 3.06488 2.99152 1.32905 1.07919 0.658873 0.402291 0.349768 0.00414853
threshold=123.50000000000001 29.950000000000003 26.450000000000003 6.5000000000000009 34.500000000000007 154.50000000000003 30.950000000000003 0.4215000000000001 67.000000000000014 28.500000000000004 111.50000000000001 0.34450000000000003 3.5000000000000004 0.37700000000000006 106.50000000000001 25.500000000000004
decision_type=2 2 2 2 2 2 2 2 2 2 2 2 2 2 2 2
left_child=2 9 14 4 6 7 13 -3 -8 -2 -10 -7 -13 -4 15 -1
right_child=1 5 3 -5 -6 11 8 -9 10 -11 -12 12 -14 -15 -16 -17
leaf_value=-0.060745753045831422 -0.03338536181384695 0.0066120590213173463 -0.065018134842484851 0.019694042261665087 0.0077343783506655999 0.040241713639835926 7.6606926922337542e-05 0.041630597421346491 -0.04775515277066919 0.0093458146603810997 -0.018634627140839483 0.073756382891825192 0.052402779026769576 -0.046184889977881595 -0.046288524186963963 -0.062640508959460203
leaf_weight=6.4014046043157595 6.3153498172760036 14.233302786946298 5.2815235555171949 12.570305541157721 9.9249536693096143 8.0285256206989306 9.9321653097867983 14.124936297535895 9.1481838673353213 11.654132246971129 6.853537678718566 7.2425878345966321 7.2072131186723709 6.1225162446498871 5.4817897081375113 5.2648092806339264
leaf_count=44 31 59 31 54 43 33 50 58 47 49 32 31 31 33 32 33
internal_value=0 0.0263809 -0.0238767 -0.014468 -0.0235539 0.0377108 -0.0318707 0.0240544 -0.0217409 -0.005672 -0.0352828 0.0549394 0.0631057 -0.0549071 -0.0567059 -0.0616008
internal_weight=0 68.806 76.9812 59.8332 47.2629 50.8366 37.3379 28.3582 25.9339 17.9695 16.0017 22.4783 14.4498 11.404 17.148 11.6662
internal_count=691 292 399 290 236 212 193 117 129 80 79 95 62 64 109 77
shrinkage=0.05


Tree=16
num_leaves=17
num_cat=0
split_feature=1 1 5 7 0 5 7 5 2 5 4 1 4 1 7 7
split_gain=33.4775 9.23804 9.11787 6.92479 6.77385 5.04756 4.541 3.33839 2.83648 1.81187 4.08934 1.26366 0.66693 0.359089 0.277053 0.00345882
threshold=123.50000000000001 165.50000000000003 26.450000000000003 24.500000000000004 6.5000000000000009 30.050000000000004 34.500000000000007 30.950000000000003 67.000000000000014 33.000000000000007 137.50000000000003 111.50000000000001 131.00000000000003 106.50000000000001 24.500000000000004 25.500000000000004
decision_type=2 2 2 2 2 2 2 2 2 2 2 2 2 2 2 2
left_child=2 3 13 -2 6 -5 7 14 -9 -7 -11 -10 -3 15 -4 -1
right_child=1 12 4 5 -6 9 -8 8 11 10 -12 -13 -14 -15 -16 -17
leaf_value=-0.060112640822313657 -0.02409616190204401 0.046971529532255453 -0.061833790861253707 -0.0041796876638387345 0.018646949268490486 0.053385691776277125 0.0073347719705046839 7.2775035695155226e-05 -0.046391339894006581 0.045265401407395378 -0.00022129659770842426 -0.017813594957485076 0.066315265873115967 -0.04515908254634099 -0.046020368422205485 -0.061876655110490612
leaf_weight=6.151705816388132 9.541508883237837 9.4623116701841372 5.370447024703024 11.940762951970099 12.611274361610411 8.793767988681795 9.9419437050819379 9.9324918389320391 8.951317369937895 11.797965779900553 8.5017044097185117 6.8120300918817511 8.4219838529825193 5.3415391296148291 5.7198437452316284 5.0682904869318008
leaf_count=44 45 40 35 51 54 36 43 50 47 48 35 32 37 32 29 33
internal_value=0 0.0251937 -0.0230265 0.0142716 -0.0138712 0.0231931 -0.0226474 -0.0307505 -0.020855 0.0344277 0.0262151 -0.0340416 0.0560808 -0.0558296 -0.053678 -0.0609095
internal_weight=0 68.46 75.9009 50.5757 59.3393 41.0342 46.7281 36.7861 25.6958 29.0934 20.2997 15.7633 17.8843 16.5615 11.0903 11.22
internal_count=691 292 399 215 290 170 236 193 129 119 83 79 77 109 64 77
shrinkage=0.05


Tree=17
num_leaves=18
num_cat=0
split_feature=1 7 5 1 5 6 1 5 6 6 5 1 4 6 1 3 1
split_gain=30.6022 9.6993 8.93624 5.97269 5.17601 3.86265 3.65015 3.26242 2.66323 2.65707 2.34079 1.92849 1.88127 2.37007 1.42057 0.374532 0.0103746
threshold=127.50000000000001 28.500000000000004 29.950000000000003 94.500000000000014 30.950000000000003 0.43350000000000005 145.50000000000003 34.250000000000007 0.61450000000000016 0.22400000000000003 33.650000000000013 155.50000000000003 17.000000000000004 0.38400000000000006 110.50000000000001 13.500000000000002 102.50000000000001
decision_type=2 2 2 2 2 2 2 2 2 2 2 2 2 2 2 2 2
left_child=1 4 6 -3 15 7 -2 -4 -7 -5 -6 -10 13 -11 -12 -1 -17
right_child=2 3 5 9 10 8 -8 -9 11 12 14 -13 -14 -15 -16 16 -18
leaf_value=-0.047007427708713585 -0.032173415423814314 -0.042884411020920041 4.7602702543786353e-05 -0.02264426066293208 0.0065937308827780433 0.077301568238382551 0.017462395821297143 0.038404299230471901 0.022508505250678847 0.041548010643479176 -0.017658910779301065 0.057863817321098521 -0.0033858287696779499 0.0035969464477177645 -0.048341238526773016 -0.060211655857803296 -0.063196013854907251
leaf_weight=7.2031944543123272 7.3061211109161359 7.6574400961399069 9.1395277976989764 6.521039053797721 5.8437291979789761 7.2558954358100918 7.5123910158872604 14.0902152210474 7.5486348122358304 8.6479236781597191 8.9824604988098127 7.8867344707250595 10.752363726496695 7.8465931415557852 6.5040924549102774 7.422551214694975 4.7922842353582382
leaf_count=50 35 40 38 30 30 31 31 59 31 37 48 35 47 34 32 53 30
internal_value=0 -0.0200528 0.0267509 -0.00301571 -0.037373 0.0376455 -0.00701005 0.0233132 0.0523178 0.00602519 -0.0203703 0.0405734 0.0128867 0.0234943 -0.030545 -0.05605 -0.0613825
internal_weight=0 82.1737 60.7395 41.4254 40.7483 45.921 14.8185 23.2297 22.6913 33.7679 21.3303 15.4354 27.2469 16.4945 15.4866 19.418 12.2148
internal_count=691 431 260 188 243 194 66 97 97 148 110 66 118 71 80 133 83
shrinkage=0.05


Tree=18
num_leaves=19
num_cat=0
split_feature=1 5 1 6 7 6 1 4 0 7 4 5 4 3 0 4 1 7
split_gain=28.0957 8.60009 8.20482 6.54492 6.0487 5.54876 5.3992 6.18683 5.15498 3.18285 3.18667 2.78614 2.37609 1.32772 0.78861 0.647944 0.367745 0.0034766
threshold=123.50000000000001 26.450000000000003 165.50000000000003 0.63400000000000012 24.500000000000004 0.73050000000000004 94.500000000000014 41.500000000000007 2.5000000000000004 41.500000000000007 119.50000000000001 34.050000000000004 119.50000000000001 27.500000000000004 6.5000000000000009 131.00000000000003 106.50000000000001 25.500000000000004
decision_type=2 2 2 2 2 2 2 2 2 2 2 2 2 2 2 2 2 2
left_child=1 16 4 6 -2 9 13 11 -5 10 -6 -8 -9 -3 -11 -4 17 -1
right_child=2 3 15 8 5 -7 7 12 -10 14 -12 -13 -14 -15 -16 -17 -18 -19
leaf_value=-0.059023583155822748 -0.023249609984268539 -0.064710039595811425 0.043682038864103857 -0.015941461104206404 0.017453059132324079 0.061264081569470032 0.026759121104089647 -0.055539862211098016 0.044543976032828801 0.018743999466899468 -0.023529833769217558 -0.01432954629930239 -0.015105507984810926 -0.032186814394970162 0.042099379276255872 0.06302440329603208 -0.043499004708110564 -0.060853788200110281
leaf_weight=5.6930930912494642 9.4168961197137815 6.8329879343509656 9.2701170444488543 6.4936962425708753 10.772383302450182 7.1338593512773505 9.8031874299049431 7.1542192399501783 7.6991530954837799 7.2093483805656415 8.4747111499309522 7.1237862259149543 7.3825739622116089 5.8031185865402222 7.2480873465538025 8.1242004036903364 5.1154757291078559 4.7677536755800247
leaf_count=44 45 41 40 31 45 30 46 38 33 30 35 33 36 32 30 37 32 33
internal_value=0 -0.0214814 0.0231183 -0.0126625 0.012874 0.0212037 -0.0221671 -0.01108 0.0168699 0.0127245 -0.000592167 0.00946679 -0.0350051 -0.0497738 0.030453 0.0527161 -0.0544853 -0.0598577
internal_weight=0 73.869 67.6496 58.2927 50.2553 40.8384 44.0999 31.4638 14.1928 33.7045 19.2471 16.927 14.5368 12.6361 14.4574 17.3943 15.5763 10.4608
internal_count=691 399 292 290 215 170 226 153 64 140 80 79 74 73 60 77 109 77
shrinkage=0.05


Tree=19
num_leaves=18
num_cat=0
split_feature=1 5 1 6 5 1 3 0 6 7 7 3 0 7 5 1 0
split_gain=25.6514 8.2349 7.62227 5.97403 5.48009 5.10647 5.05211 4.62702 3.00966 3.6157 2.36141 1.60435 0.836809 0.643649 0.379304 0.366144 0.0068745
threshold=123.50000000000001 26.450000000000003 165.50000000000003 0.63400000000000012 30.050000000000004 94.500000000000014 14.500000000000002 2.5000000000000004 0.73350000000000015 35.500000000000007 28.500000000000004 28.500000000000004 2.5000000000000004 37.500000000000007 23.050000000000004 109.50000000000001 2.5000000000000004
decision_type=2 2 2 2 2 2 2 2 2 2 2 2 2 2 2 2 2
left_child=1 14 4 5 12 11 -7 -5 9 -6 15 -3 -2 -4 -1 -8 -16
right_child=2 3 13 7 8 6 10 -9 -10 -11 -12 -13 -14 -15 16 -17 -18
leaf_value=-0.044317692242611631 -0.026560747554550759 -0.063756628720986905 0.04259662679673494 -0.015224485914156255 -0.0031443903614080462 0.018983832403495604 -0.030937547894384767 0.042092319446570867 0.052460095712222501 0.033140150399606105 -0.0063261086777990491 -0.0270691998986065 -0.0028880267758965043 0.062216884876979385 -0.059065364818950708 -0.048774028106228343 -0.061869181953829268
leaf_weight=6.2759152203798285 6.2476418167352668 7.2258289232850057 9.8637048155069369 6.4604015499353391 13.100395262241365 9.8766721636056918 5.8997160196304339 7.7391232848167419 7.0625566989183417 14.426557362079619 9.8899463117122632 5.071304976940155 9.2752852290868741 7.2542212307453147 4.5094685032963735 5.616167351603508 4.2432579845190048
leaf_count=46 31 45 44 31 55 44 35 33 30 59 43 28 40 33 35 31 28
internal_value=0 -0.0207271 0.0221057 -0.0121511 0.012266 -0.0213284 -0.0105974 0.0160147 0.0233426 0.0158719 -0.0242462 -0.0486268 -0.0124158 0.0509113 -0.0536984 -0.0396362 -0.0604246
internal_weight=0 72.8078 67.2304 57.7792 50.1124 43.5796 31.2825 14.1995 34.5895 27.527 21.4058 12.2971 15.5229 17.1179 15.0286 11.5159 8.75273
internal_count=691 399 292 290 215 226 153 64 144 114 109 73 71 77 109 66 63
shrinkage=0.05


Tree=20
num_leaves=19
num_cat=0
split_feature=5 5 6 7 0 4 4 2 5 0 3 2 4 3 4 6 5 3
split_gain=15.4008 7.56659 8.72458 6.11481 4.3327 3.36442 3.3226 4.63784 3.15755 2.90605 2.49593 5.77431 3.20091 1.57071 1.1541 0.682487 0.657241 0.131213
threshold=26.300000000000001 40.95000000000001 0.73050000000000004 30.500000000000004 2.5000000000000004 45.500000000000007 109.00000000000001 77.000000000000014 31.750000000000004 2.5000000000000004 31.500000000000004 69.000000000000014 39.000000000000007 10.500000000000002 94.500000000000014 0.28350000000000003 33.750000000000007 16.500000000000004
decision_type=2 2 2 2 2 2 2 2 2 2 2 2 2 2 2 2 2 2
left_child=4 2 3 10 17 -3 7 8 -5 -4 12 -12 15 -6 -14 -2 -8 -1
right_child=1 5 9 6 13 -7 16 -9 -10 -11 11 -13 14 -15 -16 -17 -18 -19
leaf_value=-0.063873220547232809 0.0029610085188926378 0.061027298259448082 0.010912236379552071 -0.0094774858423607999 0.0012035294102613983 0.016535634900454364 0.017025762279453301 -0.023142257399963683 0.035279201368359582 0.051878785739990135 0.031234254319282007 -0.034747937675089845 -0.065118279407742202 -0.037294495478434858 -0.034485659429670759 -0.021291217563249379 0.03872912096650772 -0.052640707798365285
leaf_weight=7.3550754263997096 5.4005749225616473 8.1772300750017184 7.7456188499927547 6.811316177248961 6.0523026138544065 8.845231890678404 7.0013262033462507 13.680963188409804 9.3504608422517759 9.8138620257377607 6.5405651330947858 6.7251560986042023 4.9525689631700507 4.712392620742321 8.1095684617757779 6.2673799619078636 6.9519490003585815 4.0215089023113251
leaf_count=53 30 36 36 30 34 40 30 59 40 43 32 33 32 29 42 33 30 29
internal_value=0 0.00710725 0.00182989 -0.00503536 -0.0383876 0.0379085 0.00769842 -0.00171853 0.0164167 0.0338081 -0.019713 -0.00221591 -0.0290988 -0.0156495 -0.0461002 -0.0100659 0.027839 -0.0599026
internal_weight=0 116.374 99.3513 81.7918 22.1413 17.0225 43.796 29.8427 16.1618 17.5595 37.9958 13.2657 24.7301 10.7647 13.0621 11.668 13.9533 11.3766
internal_count=691 546 470 391 145 76 189 129 70 79 202 65 137 63 74 63 60 82
shrinkage=0.05


Tree=21
num_leaves=17
num_cat=0
split_feature=1 5 1 0 7 5 7 5 2 2 5 4 4 1 7 7
split_gain=22.8938 7.42918 6.90705 5.09373 5.01885 3.5496 3.51452 3.16424 2.76779 2.10771 1.80021 3.48528 0.673719 0.408313 0.367347 0.00268337
threshold=123.50000000000001 26.450000000000003 165.50000000000003 6.5000000000000009 24.500000000000004 30.050000000000004 34.500000000000007 30.950000000000003 67.000000000000014 79.000000000000014 33.000000000000007 137.50000000000003 131.00000000000003 106.50000000000001 25.500000000000004 25.500000000000004
decision_type=2 2 2 2 2 2 2 2 2 2 2 2 2 2 2 2
left_child=1 13 4 6 -2 -6 7 14 -9 -10 -7 -12 -4 15 -3 -1
right_child=2 3 12 -5 5 10 -8 8 9 -11 11 -13 -14 -15 -16 -17
leaf_value=-0.057652238422674078 -0.021713504005597566 -0.059832664817587436 0.039432698812456285 0.016351282543966141 -0.0038157214853368408 0.047768614731126875 0.0065336222991356262 0.0033407360529973274 -0.046124820336818299 -0.0078046223033474728 0.038121049765029724 -0.0042084389426564391 0.059567267276165771 -0.040407952572379079 -0.040642245389632986 -0.059350440932536712
leaf_weight=5.0560171604156476 9.2142883241176587 5.3808400854468328 8.9788194298744219 12.505629047751425 11.874148592352865 8.6414820998907107 9.8870024532079679 9.6052621454000491 9.1050591021776182 5.9224282652139655 11.654188662767412 8.3448718935251218 7.7326863557100287 4.7277048304677001 4.6476536840200424 4.3083685338497162
leaf_count=44 45 40 40 54 51 36 43 50 50 29 48 35 37 32 24 33
internal_value=0 -0.019876 0.0209395 -0.011846 0.011594 0.0191692 -0.0197616 -0.0272623 -0.017623 -0.0310226 0.0286986 0.0204585 0.0487493 -0.0523862 -0.050939 -0.0584335
internal_weight=0 71.146 66.4405 57.0539 49.729 40.5147 44.5482 34.6612 24.6327 15.0275 28.6405 19.9991 16.7115 14.0921 10.0285 9.36439
internal_count=691 399 292 290 215 170 236 193 129 79 119 83 77 109 64 77
shrinkage=0.05


Tree=22
num_leaves=18
num_cat=0
split_feature=1 1 5 5 5 6 6 5 6 6 3 1 6 5 4 2 5
split_gain=21.3088 10.0836 7.35549 4.77131 5.94533 4.51848 4.36202 2.81716 2.6601 4.17079 2.46342 1.84388 1.82676 1.57646 0.958237 0.612274 0.214575
threshold=106.50000000000001 154.50000000000003 26.850000000000005 40.95000000000001 38.050000000000004 0.73350000000000015 0.66050000000000009 38.150000000000013 0.38400000000000006 0.52750000000000019 14.500000000000002 94.500000000000014 0.34450000000000003 29.950000000000003 167.50000000000003 67.000000000000014 31.150000000000002
decision_type=2 2 2 2 2 2 2 2 2 2 2 2 2 2 2 2 2
left_child=6 2 15 4 5 8 7 11 10 -10 -4 16 -3 -13 -14 -2 -1
right_child=1 12 3 -5 -6 -7 -8 -9 9 -11 -12 13 14 -15 -16 -17 -18
leaf_value=-0.052435807829779683 -0.021471310521563321 0.023716144389989979 0.034061463407401155 0.04390816978706822 -0.03971283032943293 0.046858098262364034 0.0040476102470693269 -0.0053023945129008184 -0.041180365923057086 0.011561420496895538 0.00028091889517701569 -0.051965481650737735 0.062752182869668827 -0.017734586285150455 0.037265716463333327 -0.045276317743128548 -0.06505236298791911
leaf_weight=7.3346132859587687 4.832311347126959 10.554494753479959 9.3863359093666094 8.745189040899275 6.7669744342565528 7.1987112313508979 7.3084098175168029 5.2937961518764487 6.915511190891265 8.1848870068788511 12.697913832962511 5.8431982547044736 7.9514063447713834 7.9255644530057907 6.8783343136310577 6.1247422099113464 6.2347940653562546
leaf_count=59 32 45 40 37 30 31 38 27 33 35 59 46 37 40 33 33 36
internal_value=0 0.0125756 0.00288812 0.00977857 0.00394342 0.0105995 -0.0308679 -0.0386877 0.00358011 -0.0125927 0.0146385 -0.0451525 0.0396154 -0.0322615 0.050931 -0.0347778 -0.0582328
internal_weight=0 96.2368 70.8526 59.8955 51.1503 44.3834 39.9404 32.632 37.1846 15.1004 22.0842 27.3382 25.3842 13.7688 14.8297 10.9571 13.5694
internal_count=691 445 330 265 228 198 246 208 167 68 99 181 115 86 70 65 95
shrinkage=0.05


Tree=23
num_leaves=17
num_cat=0
split_feature=1 1 6 7 4 3 2 6 6 7 6 3 7 7 4 0
split_gain=19.5444 9.25988 4.09787 3.8122 5.86531 3.28536 3.68565 3.85787 2.93639 2.57217 1.74154 1.60333 1.13629 1.0271 0.911244 0.00193653
threshold=106.50000000000001 154.50000000000003 0.66050000000000009 24.500000000000004 49.500000000000007 28.500000000000004 73.000000000000014 0.39200000000000007 0.52750000000000019 41.500000000000007 0.34450000000000003 23.500000000000004 30.500000000000004 25.500000000000004 167.50000000000003 1.5000000000000002
decision_type=2 2 2 2 2 2 2 2 2 2 2 2 2 2 2 2
left_child=2 3 11 4 -2 6 7 -5 -7 -8 -3 12 15 -13 -12 -1
right_child=1 10 -4 5 -6 8 9 -9 -10 -11 14 13 -14 -15 -16 -17
leaf_value=-0.057936942535040531 0.012786647116268727 0.022613947609993926 0.0038398477609928126 0.038328082375107271 -0.049742684767379149 0.0077864912317285777 -0.036275142685762096 -0.011643349792750394 0.044274606413078232 0.0021057717430378359 0.061001140111149016 -0.040697131218694518 -0.031525220721080369 -0.014698370100094324 0.035922461202969172 -0.059313142031241474
leaf_weight=4.7424213960766846 7.2399012893438321 10.516458451747896 7.3183893263339987 8.7906885072588903 7.7806920632719994 12.769626230001451 8.7029924541711825 6.8890571370720854 9.7038054615259153 8.7581614404916746 7.7751645445823652 6.7537086009979239 6.1596543192863455 8.6825594455003721 6.781267374753952 5.5451620444655418
leaf_count=42 40 45 38 40 44 56 39 33 41 37 37 45 33 44 33 44
internal_value=0 0.0120134 -0.0299022 0.00274741 -0.0196036 0.0087841 -0.00122329 0.0163726 0.0235417 -0.0170241 0.0381174 -0.0376471 -0.0485095 -0.0260734 0.049318 -0.0586787
internal_weight=0 95.7078 39.2019 70.6349 15.0206 55.6143 33.1409 15.6797 22.4734 17.4612 25.0729 31.8835 16.4472 15.4363 14.5564 10.2876
internal_count=691 445 246 330 84 246 149 73 97 76 115 208 119 89 70 86
shrinkage=0.05


Tree=24
num_leaves=16
num_cat=0
split_feature=1 5 5 1 0 7 2 7 5 2 2 6 5 7 0
split_gain=18.1059 6.76175 6.1731 5.88929 4.49762 4.09119 4.59056 3.06375 3.03078 2.66767 1.90633 1.77669 0.446398 0.377739 0.005609
threshold=123.50000000000001 26.450000000000003 40.95000000000001 154.50000000000003 6.5000000000000009 41.500000000000007 73.000000000000014 34.500000000000007 30.950000000000003 67.000000000000014 79.000000000000014 0.34450000000000003 23.050000000000004 25.500000000000004 2.5000000000000004
decision_type=2 2 2 2 2 2 2 2 2 2 2 2 2 2 2
left_child=1 12 3 5 7 6 -2 8 13 -10 -11 -5 -1 -3 -14
right_child=2 4 -4 11 -6 -7 -8 -9 9 10 -12 -13 14 -15 -16
leaf_value=-0.039675105316648786 0.0093249991010923416 -0.058873515994351137 0.055563798436506662 0.016867066283065359 0.015978028811098992 0.024953316648229789 -0.03447175483353241 0.0063987802295453868 0.0048014947268505527 -0.044156592989581078 -0.0072814049017114503 0.046634493772714183 -0.057208807785380157 -0.03886156690341841 -0.059935651805031312
leaf_weight=5.3435227647423726 12.426093339920046 4.9505216926336271 9.6772374957799894 8.8873600363731402 12.421732038259504 11.101964518427847 11.538905858993528 9.8226611912250501 9.4318399131298083 8.7138802558183652 5.863040715456008 11.49759781360626 3.7947310209274292 4.5028742104768753 3.7489131242036819
leaf_count=46 56 40 43 38 54 47 52 43 50 50 29 56 35 24 28
internal_value=0 -0.0180933 0.0187156 0.012285 -0.0105427 -0.000138654 -0.0117627 -0.0181535 -0.0253607 -0.0159183 -0.0293249 0.0336566 -0.0507319 -0.0493414 -0.0585639
internal_weight=0 68.5937 65.1292 55.4519 55.7066 35.067 23.965 43.2848 33.4622 24.0088 14.5769 20.385 12.8872 9.4534 7.54364
internal_count=691 399 292 249 290 155 108 236 193 129 79 94 109 64 63
shrinkage=0.05


Tree=25
num_leaves=18
num_cat=0
split_feature=1 1 0 5 4 6 5 0 6 7 1 6 1 5 4 6 5
split_gain=16.9552 7.78062 5.52154 5.68466 5.57321 3.87438 2.66674 2.43959 4.21918 2.71407 2.38569 2.1914 1.87788 1.47382 0.73734 0.212983 0.028704
threshold=106.50000000000001 165.50000000000003 7.5000000000000009 26.300000000000001 226.50000000000003 0.66050000000000009 38.150000000000013 1.0000000180025095e-35 0.34250000000000008 30.500000000000004 123.50000000000001 0.51450000000000007 94.500000000000014 29.950000000000003 131.00000000000003 0.26750000000000007 30.050000000000004
decision_type=2 2 2 2 2 2 2 2 2 2 2 2 2 2 2 2 2
left_child=5 2 3 -2 7 6 12 -5 9 -9 -10 -4 15 -14 -3 -1 -17
right_child=1 14 11 4 -6 -7 -8 8 10 -11 -12 -13 13 -15 -16 16 -18
leaf_value=-0.047131505112983696 -0.04091631586092985 0.033364676158948829 0.015252281293467519 0.03531777020888073 -0.037886323904623188 0.0044807701813426703 -0.0035178750891583679 -0.035975751510323277 0.00054510355085115962 0.0034080248078848445 0.033555527037582633 0.05325652078557478 -0.049932263293907486 -0.01566377326330666 0.055132924234791283 -0.057827407083420872 -0.063694325918124572
leaf_weight=3.9640755504369798 8.0901423022150976 8.4816127419471723 8.8559008091688138 7.9407397359609595 6.9556219875812522 7.2429012954235068 5.1924168914556494 7.5080781802535084 9.5363147333264369 10.481220781803129 12.846633598208426 6.6349967569112769 5.2751773819327337 7.7428877130150795 7.1859451681375495 3.6640695556998235 4.8369093686342239
leaf_count=32 51 40 37 36 30 38 27 41 45 43 55 30 46 40 37 33 30
internal_value=0 0.0111661 0.00477139 -0.00177098 0.00395906 -0.0284109 -0.0361771 0.00998354 0.0050006 -0.0130293 0.0194913 0.0315301 -0.0428317 -0.02955 0.0433487 -0.0567025 -0.0611656
internal_weight=0 94.5172 78.8496 63.3588 55.2686 37.9184 30.6755 48.313 40.3722 17.9893 22.3829 15.4909 25.4831 13.0181 15.6676 12.4651 8.50098
internal_count=691 445 368 301 250 246 208 220 184 84 100 67 181 86 77 95 63
shrinkage=0.05


Tree=26
num_leaves=19
num_cat=0
split_feature=5 5 6 0 7 4 2 0 4 0 7 4 3 3 3 6 5 5
split_gain=10.7636 5.34848 6.16319 4.39633 3.66539 4.3895 5.1836 2.9151 2.83584 2.51406 2.42084 2.29287 3.62223 1.60598 1.46657 1.02204 0.950626 0.0679216
threshold=26.300000000000001 40.95000000000001 0.73050000000000004 2.5000000000000004 28.500000000000004 109.00000000000001 83.000000000000014 7.5000000000000009 45.500000000000007 2.5000000000000004 39.500000000000007 36.500000000000007 31.500000000000004 14.500000000000002 10.500000000000002 0.28950000000000004 32.45000000000001 24.650000000000002
decision_type=2 2 2 2 2 2 2 2 2 2 2 2 2 2 2 2 2 2
left_child=3 2 4 17 11 6 7 13 -3 -4 -7 15 16 -6 -5 -2 -13 -1
right_child=1 8 9 14 5 10 -8 -9 -10 -11 -12 12 -14 -15 -16 -17 -18 -19
leaf_value=-0.055435314695549701 0.014882960365905008 0.05376603590248679 0.0070730683174290892 0.0056805085158794684 0.027589410891683715 0.0046962191980067444 -0.042201957557796918 -0.021579150022933338 0.012267951145527957 0.045884069978272553 0.043817793331051569 -0.033691764269556619 -0.0024519620447943282 -0.0025044708442607038 -0.03338728631899731 -0.015961586598768375 -0.063515177330192588 -0.064146371717226133
leaf_weight=5.9953959360718745 5.3319036588072795 7.8784851580858257 7.5112901628017452 5.6094400733709318 10.638944253325468 7.5248546302318564 7.8599397689104071 7.7358460724353781 8.6224970668554288 9.3873806893825513 8.3337474167346937 5.4414930641651171 7.196271374821662 7.6003443822264662 4.2013839706778526 5.4113339334726334 5.2499049752950668 3.5703020915389061
leaf_count=54 32 36 36 34 46 33 35 34 40 43 37 38 38 36 29 32 30 28
internal_value=0 0.00580127 0.00124725 -0.0345669 -0.00466127 0.00354883 -0.0066248 0.00414067 0.0320814 0.028633 0.0252547 -0.0189112 -0.0298768 0.0150492 -0.0110499 -0.000653338 -0.0483363 -0.0586866
internal_weight=0 111.724 95.2233 19.3765 78.3246 49.6937 33.8351 25.9751 16.501 16.8987 15.8586 28.6309 17.8877 18.2393 9.81082 10.7432 10.6914 9.5657
internal_count=691 546 470 145 391 221 151 116 76 79 70 170 106 82 63 64 68 82
shrinkage=0.05


Tree=27
num_leaves=19
num_cat=0
split_feature=1 1 5 5 5 6 7 6 5 1 2 1 6 5 4 5 6 5
split_gain=15.2249 7.11864 5.61687 3.54577 5.4243 3.54933 4.57517 3.47283 2.44846 2.43158 2.56335 1.86134 1.43631 1.39522 0.915042 0.500496 0.204477 0.0230253
threshold=106.50000000000001 154.50000000000003 26.850000000000005 40.95000000000001 38.050000000000004 0.73350000000000015 40.500000000000007 0.66050000000000009 38.150000000000013 121.50000000000001 73.000000000000014 94.500000000000014 0.34450000000000003 29.950000000000003 167.50000000000003 24.050000000000004 0.26850000000000002 30.050000000000004
decision_type=2 2 2 2 2 2 2 2 2 2 2 2 2 2 2 2 2 2
left_child=7 2 15 4 5 6 9 8 11 -4 -11 16 -3 -13 -14 -2 -1 -18
right_child=1 12 3 -5 -6 -7 -8 -9 -10 10 -12 13 14 -15 -16 -17 17 -19
leaf_value=-0.046441911157154847 -0.018907403134150114 0.020009806678404862 0.010958322626624625 0.037937149470009528 -0.038803088769282831 0.041996250053098899 0.032244515066188487 0.0037002046528559285 -0.0037746523019483837 -0.0013819931308297079 -0.041640264296130318 -0.048847178316820623 0.056862418808842845 -0.014822559513289556 0.030897507235337154 -0.041236246958107778 -0.057239878635617747 -0.062702585451579335
leaf_weight=3.9085305929184013 4.3837030977010709 10.312847316265108 10.78978778421879 8.6683622151613218 6.6373002380132666 7.1241513341665259 10.021919310092924 7.2368902266025534 5.2002210095524779 8.6516005843877775 7.2821569442749015 4.9656742960214597 7.2678395956754667 7.6619777828454971 6.3647235929965973 5.8702986612915993 3.3174759149551392 4.6088653355836868
leaf_count=33 28 45 56 37 30 31 41 38 27 37 33 46 37 40 33 37 32 30
internal_value=0 0.0105812 0.00247362 0.00839363 0.00332316 0.00969669 0.00343451 -0.0273547 -0.0349313 -0.00736988 -0.0197811 -0.0415545 0.0340892 -0.0282023 0.04474 -0.0316904 -0.0558011 -0.0604162
internal_weight=0 93.3747 69.4293 59.1753 50.5069 43.8696 36.7455 36.8996 29.6627 26.7235 15.9338 24.4625 23.9454 12.6277 13.6326 10.254 11.8349 7.92634
internal_count=691 445 330 265 228 198 167 246 208 126 70 181 115 86 70 65 95 62
shrinkage=0.05


Tree=28
num_leaves=16
num_cat=0
split_feature=1 1 6 5 4 1 1 5 2 1 3 3 2 4 0
split_gain=14.0012 6.02066 5.8304 4.24374 5.00511 4.42115 5.63052 2.10477 2.0546 2.01901 2.01642 1.79759 1.36969 0.747107 0.00112411
threshold=111.50000000000001 165.50000000000003 0.66050000000000009 27.850000000000005 17.000000000000004 127.50000000000001 141.50000000000003 26.450000000000003 77.000000000000014 94.500000000000014 27.500000000000004 28.500000000000004 73.000000000000014 131.00000000000003 1.5000000000000002
decision_type=2 2 2 2 2 2 2 2 2 2 2 2 2 2 2
left_child=2 3 7 12 8 -6 -7 14 -5 11 -11 -9 -2 -3 -1
right_child=1 13 -4 4 5 6 -8 9 -10 10 -12 -13 -14 -15 -16
leaf_value=-0.055356277138515077 -0.0052685159586958255 0.030473907993595867 0.0098708235172639113 0.042161920082342833 -0.02631859510145736 0.047661039298200314 -0.0095805467572101788 -0.060581359698161967 0.013548734026475462 0.00056801860775699403 -0.03402183148100632 -0.018831944511842766 -0.036883954235577693 0.052847898202853988 -0.056606565078440599
leaf_weight=3.1204067617654792 7.9701239690184575 8.2042457014322263 10.692632153630255 13.040588691830637 11.420171841979029 7.2027890384197262 10.645193576812742 6.1605431139469164 12.090730771422384 9.1899979710578936 7.780311092734336 4.4339486882090569 6.008444145321846 6.8432172685861579 4.2411947697401047
leaf_count=36 44 40 56 57 55 31 46 47 52 50 40 28 30 37 42
internal_value=0 0.0120159 -0.022435 0.00571481 0.012029 -0.00202463 0.0135201 -0.0323253 0.0283961 -0.0259822 -0.0152903 -0.0431086 -0.0188579 0.0406491 -0.0560766
internal_weight=0 83.4255 45.619 68.378 54.3995 29.2682 17.848 34.9264 25.1313 27.5648 16.9703 10.5945 13.9786 15.0475 7.3616
internal_count=691 392 299 315 241 132 77 243 109 165 90 75 74 77 78
shrinkage=0.05


Tree=29
num_leaves=18
num_cat=0
split_feature=1 1 0 4 2 7 6 6 1 3 6 3 2 6 7 6 3
split_gain=12.8126 6.20149 4.84105 4.03569 3.21796 3.2468 3.79487 3.12069 2.30737 1.95763 3.2124 2.65155 2.5805 1.82219 0.726683 0.445434 0.0154104
threshold=106.50000000000001 165.50000000000003 7.5000000000000009 226.50000000000003 81.000000000000014 25.500000000000004 0.29250000000000004 0.19300000000000003 96.500000000000014 27.500000000000004 0.52750000000000019 14.500000000000002 77.000000000000014 0.51450000000000007 37.500000000000007 0.50500000000000012 26.500000000000004
decision_type=2 2 2 2 2 2 2 2 2 2 2 2 2 2 2 2 2
left_child=4 2 3 7 5 15 -7 -2 -8 11 -11 12 -9 -4 -3 16 -1
right_child=1 14 13 -5 -6 6 8 9 -10 10 -12 -13 -14 -15 -16 -17 -18
leaf_value=-0.05604066206904218 -0.028328271457643585 0.029934283435356913 0.014482888686743326 -0.037588305866221167 0.010137693226688328 -0.049824131713153912 -0.023770853454858132 0.023292005213898646 0.020842688528017968 0.0015339022256605692 0.042133880169029692 -0.024451699904615622 -0.014109801591342706 0.049466661766145809 0.052408570668051019 -0.037712283360074643 -0.060320161782324112
leaf_weight=4.6632214635610598 7.1862261369824401 8.5787898153066617 8.8180346041917783 7.1242403760552397 5.3425141274929038 6.1961922869086292 5.7675370797514898 11.886430621147161 5.8254549503326416 11.316226445138456 8.555741995573042 8.686862498521803 7.5351463556289664 6.4410771727561942 6.1934656649827948 3.9863814041018477 3.8325037062168121
leaf_count=51 39 44 37 32 30 39 37 57 30 54 38 47 34 30 33 30 29
internal_value=0 0.00966543 0.00400958 -0.00217345 -0.0256385 -0.0319525 -0.0182359 0.00240004 -0.00135264 0.00700235 0.0190139 -0.00148956 0.00878092 0.02925 0.0393569 -0.0515011 -0.0579712
internal_weight=0 92.3222 77.55 62.2909 35.6138 30.2713 17.7892 55.1666 11.593 47.9804 19.872 28.1084 19.4216 15.2591 14.7723 12.4821 8.49573
internal_count=691 445 368 301 246 216 106 269 67 230 92 138 91 67 77 110 80
shrinkage=0.05


Tree=30
num_leaves=16
num_cat=0
split_feature=1 5 5 1 0 7 2 7 5 2 2 6 5 7 7
split_gain=11.9072 5.61889 4.86218 4.09803 3.67022 3.02007 4.68867 2.32281 2.97265 2.66374 1.69873 1.45735 0.530567 0.421399 0.00640483
threshold=123.50000000000001 26.450000000000003 41.900000000000006 154.50000000000003 6.5000000000000009 41.500000000000007 73.000000000000014 34.500000000000007 30.950000000000003 67.000000000000014 79.000000000000014 0.34450000000000003 23.050000000000004 26.500000000000004 26.500000000000004
decision_type=2 2 2 2 2 2 2 2 2 2 2 2 2 2 2
left_child=1 12 3 5 7 6 -2 8 13 -10 -11 -5 -1 -3 -14
right_child=2 4 -4 11 -6 -7 -8 -9 9 10 -12 -13 14 -15 -16
leaf_value=-0.034819941225394918 0.010737479454795959 -0.057788195782481559 0.050987536374280606 0.013161049269545323 0.015560451983089108 0.021519345986393362 -0.03343920969939828 0.0056804967648653362 0.0082258275187920768 -0.041384882632531962 -0.0058771726067136411 0.040827664101520035 -0.055591343182945563 -0.035614739670323615 -0.058755955376146377
leaf_weight=4.4878517240285856 12.694174602627756 4.5581684634089488 8.3062456250190717 8.6175008863210696 12.142682641744612 10.933998525142668 11.400316730141638 9.6988703310489637 9.040359131991865 8.1188361048698408 5.7567289844155303 10.632845282554625 3.071130707859993 4.0435288175940514 3.335131511092186
leaf_count=46 58 42 39 38 54 47 53 43 50 50 29 57 35 22 28
internal_value=0 -0.0152801 0.0153619 0.00991009 -0.00859915 -0.000274681 -0.0101647 -0.0157167 -0.0223013 -0.0128935 -0.0266534 0.0284426 -0.0480033 -0.0473648 -0.0572389
internal_weight=0 64.2533 62.5851 54.2788 53.3592 35.0285 24.0945 41.2165 31.5176 22.9159 13.8756 19.2503 10.8941 8.6017 6.40626
internal_count=691 399 292 253 290 158 111 236 193 129 79 95 109 64 63
shrinkage=0.05


Tree=31
num_leaves=17
num_cat=0
split_feature=1 1 0 5 4 5 7 1 1 5 3 3 7 7 4 7
split_gain=11.1311 5.32383 4.21091 4.16878 4.60549 3.14109 2.53096 1.99081 1.66027 1.47571 1.5612 3.88204 1.21869 0.840315 0.765038 0.0018667
threshold=106.50000000000001 165.50000000000003 7.5000000000000009 26.300000000000001 226.50000000000003 26.450000000000003 25.500000000000004 112.50000000000001 92.500000000000014 30.050000000000004 10.500000000000002 31.500000000000004 44.500000000000007 32.500000000000007 131.00000000000003 25.500000000000004
decision_type=2 2 2 2 2 2 2 2 2 2 2 2 2 2 2 2
left_child=5 2 3 -2 7 15 8 -5 -7 -9 -11 -12 -4 -8 -3 -1
right_child=1 14 12 4 -6 6 13 9 -10 10 11 -13 -14 -15 -16 -17
leaf_value=-0.054642860524815443 -0.037209770831185984 0.02659415900012941 0.040416318313047671 -0.014759003383169279 -0.035610949003555742 -0.059274569829629122 0.0068965570348755298 -0.0047043729809295417 -0.016504481808853073 0.032753802444327289 -0.017164787950535585 0.028541293042198702 0.011930180768117275 -0.014849464672686356 0.049873182211974204 -0.056329658935675264
leaf_weight=3.3958247900009146 7.3997132554650298 7.8574954867362958 8.2339271157979947 7.8156930208206168 6.8264901489019385 4.7176439166069049 7.167025193572047 9.2009660452604276 4.3716259300708771 11.43000850081444 7.9970570504665401 11.085702002048491 6.9017832875251761 11.68591985106468 6.4072996973991394 3.1724554821848869
leaf_count=44 51 40 36 42 30 41 41 42 31 49 37 50 31 56 37 33
internal_value=0 0.00899636 0.00379181 -0.00200091 0.00279223 -0.0243448 -0.0170312 0.00830795 -0.0387036 0.0128475 0.0181402 0.00938714 0.0274268 -0.00658262 0.0370504 -0.0554576
internal_weight=0 91.1561 76.8913 61.7556 54.3559 34.5105 27.9422 47.5294 9.08927 39.7137 30.5128 19.0828 15.1357 18.8529 14.2648 6.56828
internal_count=691 445 368 301 250 246 169 220 72 178 136 87 67 97 77 77
shrinkage=0.05


Tree=32
num_leaves=18
num_cat=0
split_feature=5 0 5 6 4 4 4 7 3 2 0 0 7 3 4 3 5
split_gain=7.60721 4.47556 4.00471 4.42936 2.31623 2.29624 6.5248 4.87948 3.99254 3.92089 2.2361 1.87507 2.46289 1.3598 0.919476 0.69673 0.0698691
threshold=26.300000000000001 2.5000000000000004 40.95000000000001 0.73050000000000004 45.500000000000007 109.00000000000001 36.500000000000007 39.500000000000007 31.500000000000004 83.000000000000014 2.5000000000000004 7.5000000000000009 30.500000000000004 10.500000000000002 78.500000000000014 16.500000000000004 24.650000000000002
decision_type=2 2 2 2 2 2 2 2 2 2 2 2 2 2 2 2 2
left_child=1 16 3 5 -4 6 9 8 -7 11 -5 12 15 -3 -8 -2 -1
right_child=2 13 4 10 -6 7 14 -9 -10 -11 -12 -13 -14 -15 -16 -17 -18
leaf_value=-0.054488736426628638 0.010049988461730372 0.0095678779660230001 0.048092478454757649 0.0038590498571170542 0.0098198906963480898 -0.029330146729183916 -0.057712074377491131 0.040048181991468236 0.01959906495419958 -0.033173369805085867 0.041100386425726082 -0.015905310028307595 0.028706504778025783 -0.029824679838133375 -0.029558286851271348 -0.01452596822827297 -0.064054534553503989
leaf_weight=4.9981342181563395 5.393117964267736 5.2414908483624441 7.5193788707256308 7.3109871000051525 8.3353220075368863 9.240561239421373 5.7018213495612127 8.0626423805952054 7.5967466533184043 7.4839375466108313 8.9835217595100385 6.900124102830886 12.828801393508909 3.7638227120041847 5.9018667563796043 6.198533907532692 3.0884459391236305
leaf_count=54 28 34 36 36 40 49 42 37 37 35 43 31 57 29 34 41 28
internal_value=0 -0.031142 0.00477004 0.000754323 0.0279714 -0.00435997 -0.0104963 0.00806252 -0.007254 -0.000659329 0.024391 0.00710978 0.0136128 -0.00689647 -0.0433925 -0.00309179 -0.0581421
internal_weight=0 17.0919 107.457 91.6027 15.8547 75.3082 50.4082 24.9 16.8373 38.8045 16.2945 31.3206 24.4205 9.00531 11.6037 11.5917 8.08658
internal_count=691 145 546 470 76 391 268 123 86 192 79 157 126 63 76 69 82
shrinkage=0.05


Tree=33
num_leaves=17
num_cat=0
split_feature=1 1 2 7 6 6 6 1 3 4 2 7 0 4 3 0
split_gain=9.88591 4.93425 2.91604 2.88591 3.60493 2.76593 2.0529 2.01542 1.80405 3.38486 2.5295 2.20545 1.40605 1.091 0.517296 0.00193893
threshold=106.50000000000001 154.50000000000003 81.000000000000014 25.500000000000004 0.29250000000000004 0.19300000000000003 0.23550000000000001 96.500000000000014 31.500000000000004 82.500000000000014 73.000000000000014 28.500000000000004 6.5000000000000009 66.500000000000014 31.500000000000004 1.5000000000000002
decision_type=2 2 2 2 2 2 2 2 2 2 2 2 2 2 2 2
left_child=2 5 3 14 -5 -2 -7 -6 9 10 -8 -10 13 -3 15 -1
right_child=1 12 -4 4 7 6 8 -9 11 -11 -12 -13 -14 -15 -16 -17
leaf_value=-0.055457677393645502 -0.025202922605931023 0.035803835098160715 0.010888303075399961 -0.04844079940070467 -0.021827932757719982 0.03464221899765773 0.023633749193340811 0.020405636578104076 -0.0068310682581061129 -0.027029082851471539 -0.0090396725487202675 0.028174931858160897 0.046657780977810343 0.0083985750942409034 -0.032269939953567882 -0.05701747577470552
leaf_weight=3.8145283609628695 8.3387189731001836 6.3019092828035381 5.2585965469479552 5.9220010638237026 5.5375194177031499 5.5016047731041899 11.260071486234667 5.7663889825344086 7.2416350096464184 11.070883035659788 12.498894989490507 11.881780833005903 7.420661360025405 8.570484980940817 3.1225358843803406 4.1707481816411018
leaf_count=47 45 32 30 39 37 29 55 30 34 58 58 51 39 44 20 43
internal_value=0 0.00847482 -0.0233068 -0.0296532 -0.0168393 0.00176453 0.0055468 -0.000283598 0.00257994 -0.00419479 0.00644522 0.0149189 0.0288809 0.0200111 -0.049525 -0.0562724
internal_weight=0 90.0866 33.5923 28.3337 17.2259 67.7936 59.4549 11.3039 53.9533 34.8298 23.759 19.1234 22.2931 14.8724 11.1078 7.98528
internal_count=691 445 246 216 106 330 285 67 256 171 113 85 115 76 110 90
shrinkage=0.05


Tree=34
num_leaves=19
num_cat=0
split_feature=5 0 5 0 6 2 5 7 5 6 3 0 2 2 5 4 7 3
split_gain=6.89887 4.25328 3.61943 3.62674 4.3643 2.49873 3.1315 4.35544 3.61611 3.34086 2.57348 2.48688 1.95144 2.22946 1.55841 1.17272 0.587478 0.17331
threshold=26.300000000000001 2.5000000000000004 45.250000000000007 6.5000000000000009 0.51450000000000007 53.000000000000007 38.550000000000004 34.500000000000007 40.95000000000001 0.74150000000000016 29.500000000000004 8.5000000000000018 69.000000000000014 77.000000000000014 33.650000000000013 94.500000000000014 41.500000000000007 16.500000000000004
decision_type=2 2 2 2 2 2 2 2 2 2 2 2 2 2 2 2 2 2
left_child=1 17 3 5 11 -2 7 9 -8 10 12 -5 -7 -14 -9 -12 -3 -1
right_child=2 16 -4 4 -6 6 8 14 -10 -11 15 -13 13 -15 -16 -17 -18 -19
leaf_value=-0.063132427797354743 0.024838047927621589 -0.018006327384509295 0.040275443492918006 0.023740288113863098 0.044333374644757742 -0.04721512096734537 -0.056635005809510676 0.0070701609757866076 -0.0022451836635997624 0.023634805196656304 -0.015699002074114874 -0.015329281104240195 0.0065959744542234801 -0.038403294217892507 0.037770255913869163 0.016054870903282569 0.0078817573979274545 -0.047370632629260334
leaf_weight=4.9408584125340012 6.9951200634241095 5.026767395436762 6.6366833448410025 7.4165618866682115 9.8746096193790418 8.2771610841155105 6.1111321002244932 10.351260080933573 6.112656831741333 5.8168105334043494 5.5662561282515508 9.0347290933132154 5.7111938521265966 5.3132298141717911 6.8820692449808112 6.0876712873578072 3.8852550387382507 2.6954746544361115
leaf_count=53 37 42 31 34 48 57 31 47 31 29 34 40 35 31 31 30 21 29
internal_value=0 -0.0301846 0.00452347 0.00214001 0.0180564 -0.00358228 -0.00658402 -0.00141148 -0.0294367 -0.011132 -0.017665 0.00228404 -0.0288672 -0.0150915 0.0193301 0.000888294 -0.00672025 -0.0575688
internal_weight=0 16.5484 106.187 99.5505 26.3259 73.2246 66.2294 54.0057 12.2238 36.7723 30.9555 16.4513 19.3016 11.0244 17.2333 11.6539 8.91202 7.63633
internal_count=691 145 546 515 122 393 356 294 62 216 187 74 123 66 78 64 63 82
shrinkage=0.05


Tree=35
num_leaves=18
num_cat=0
split_feature=1 1 0 4 2 6 0 6 3 6 3 2 6 2 6 2 4
split_gain=8.80212 4.57013 3.41559 3.43853 2.66332 2.74746 3.54441 2.40979 1.5265 2.80497 1.90365 2.16598 1.42443 1.38329 1.49223 0.899788 0.793292
threshold=106.50000000000001 165.50000000000003 7.5000000000000009 226.50000000000003 81.000000000000014 0.29250000000000004 6.5000000000000009 0.19300000000000003 27.500000000000004 0.52750000000000019 14.500000000000002 77.000000000000014 0.51450000000000007 73.000000000000014 0.49300000000000005 64.500000000000014 131.00000000000003
decision_type=2 2 2 2 2 2 2 2 2 2 2 2 2 2 2 2 2
left_child=4 2 3 7 5 15 13 -2 10 -10 11 -9 -4 14 -7 -1 -3
right_child=1 16 12 -5 -6 6 -8 8 9 -11 -12 -13 -14 -15 -16 -17 -18
leaf_value=-0.031591357113463489 -0.025636680383193573 0.023811404704027095 0.011770318134269469 -0.035211145986474589 0.010240077320077624 -0.06042456227010097 0.02453392279301643 0.020701414123173525 0.00045133194589190681 0.03869423876345339 -0.021395946191855426 -0.013892757085340129 0.043229156707351953 -0.0026715898538258978 -0.022226627348304481 -0.06341814783673469 0.048076570578945432
leaf_weight=3.6893162988126296 6.7985728830099097 7.5594973713159543 8.80101130902767 6.9413241222500792 5.2611530199646941 4.3976228944957274 3.9604358151555052 11.672915369272237 11.162534609436991 8.4050843566656095 8.3009729459881765 7.3887378275394431 6.0868985801935187 3.7016572132706633 6.1080327183008194 5.5787798091769218 6.075164295732975
leaf_count=38 39 40 37 32 30 43 19 57 54 38 47 34 30 26 47 43 37
internal_value=0 0.00797989 0.00317203 -0.00209411 -0.0223471 -0.028596 -0.0172949 0.00218434 0.00621465 0.0168782 -0.00141109 0.00729191 0.0246322 -0.0289551 -0.0382161 -0.050749 0.0346232
internal_weight=0 89.1927 75.5581 60.6701 32.697 27.4358 18.1677 53.7288 46.9302 19.5676 27.3626 19.0617 14.8879 14.2073 10.5057 9.2681 13.6347
internal_count=691 445 368 301 246 216 135 269 230 92 138 91 67 116 90 81 77
shrinkage=0.05


Tree=36
num_leaves=18
num_cat=0
split_feature=1 5 5 1 0 2 1 2 2 0 4 1 0 2 6 5 1
split_gain=8.20341 4.80099 3.85857 2.96959 3.63893 2.28916 1.7051 1.66855 3.9684 1.63746 3.11257 1.58083 2.01904 1.85746 1.1288 1.09125 0.0108968
threshold=129.50000000000003 26.300000000000001 29.950000000000003 87.500000000000014 6.5000000000000009 65.500000000000014 145.50000000000003 60.500000000000007 67.000000000000014 7.5000000000000009 144.50000000000003 123.50000000000001 2.5000000000000004 79.000000000000014 0.40150000000000008 23.050000000000004 106.50000000000001
decision_type=2 2 2 2 2 2 2 2 2 2 2 2 2 2 2 2 2
left_child=1 15 6 -3 7 -4 -2 -5 -9 10 14 12 13 -10 -7 -1 -17
right_child=2 3 5 4 -6 9 -8 8 11 -11 -12 -13 -14 -15 -16 16 -18
leaf_value=-0.023729183858067798 -0.028488922627563886 -0.035712486026009675 0.052228643734435323 -0.028526558798681545 0.021871495233100949 0.014464161322355474 0.0084150623412912531 0.031216311132288867 -0.023479411389987805 0.039653673447487478 -0.012256132645622198 0.010392999309490412 -0.034884330759868451 0.016707195269057371 0.043261592850489666 -0.05481826876792787 -0.059164940355984533
leaf_weight=4.3664038181304914 5.5818489193916303 7.228655043989419 6.084762677550315 8.4501099213957769 12.687144502997397 8.2809018045663887 7.125692144036293 6.5686517357826224 5.9782826602459007 6.9947494715452185 8.3412086293101293 6.1209796965122214 9.9690080285072309 5.5399755984544754 5.7767976224422446 3.1377166621387005 2.6678003370761871
leaf_count=49 30 53 30 50 55 37 31 37 42 36 42 28 49 27 30 42 23
internal_value=0 -0.0107555 0.0158463 -0.0055742 -0.00163561 0.0243141 -0.00779519 -0.00863207 -0.00371324 0.0185355 0.0119407 -0.0120238 -0.0184096 -0.00415072 0.026298 -0.042613 -0.0568157
internal_weight=0 72.7147 48.186 62.5428 55.3142 35.4784 12.7075 42.627 34.1769 29.3937 22.3989 27.6082 21.4873 11.5183 14.0577 10.1719 5.80552
internal_count=691 455 236 341 288 175 61 233 183 145 109 146 118 69 67 114 65
shrinkage=0.05


Tree=37
num_leaves=19
num_cat=0
split_feature=1 1 7 4 7 7 6 2 2 7 6 1 6 1 4 3 3 0
split_gain=7.53873 4.03262 2.92616 6.24171 3.9451 3.5223 4.55027 2.99232 2.43132 2.71953 3.17406 1.9655 2.39172 1.73785 0.813482 0.574098 0.316167 0.00148786
threshold=106.50000000000001 165.50000000000003 24.500000000000004 49.500000000000007 53.500000000000007 41.500000000000007 0.74150000000000016 67.000000000000014 81.000000000000014 25.500000000000004 0.29250000000000004 119.50000000000001 0.28450000000000003 96.500000000000014 131.00000000000003 31.500000000000004 25.500000000000004 1.5000000000000002
decision_type=2 2 2 2 2 2 2 2 2 2 2 2 2 2 2 2 2 2
left_child=8 2 3 -2 5 6 7 -4 9 15 -11 -9 -13 -12 -3 17 -7 -1
right_child=1 14 4 -5 -6 16 -8 11 -10 10 13 12 -14 -15 -16 -17 -18 -19
leaf_value=-0.054732531515184014 0.016344890791797125 0.021756196334997913 0.020720598891922598 -0.049379707680532306 -0.026738589897382998 0.041435853574425863 0.040699811109450861 0.012162142365410043 0.010051183881388683 -0.045751301595362205 -0.019784794241789173 -0.044032932569153464 -0.0059365902971699781 0.019971716862973103 0.046707708295438029 -0.029187101407702365 0.026271094282278792 -0.056185700420510909
leaf_weight=3.3522768355906063 7.0507199689745885 7.3700889796018583 9.2791789919137937 7.4074101820588112 7.3057202696800223 7.2093819826841337 7.2202696502208701 5.8126300796866444 5.2488038316369048 5.4990908689796951 5.3175763227045518 6.9675054550170925 10.080373533070086 5.6900579929351807 5.8669541403651237 2.9351305589079857 6.568618431687355 3.7118208967149258
leaf_count=47 41 40 45 47 33 31 34 30 30 39 37 33 44 30 37 20 30 43
internal_value=0 0.00737446 0.00287843 -0.0173281 0.00771184 0.0124483 0.00483194 -0.00322587 -0.0210393 -0.027196 -0.0147308 -0.0129458 -0.0215066 0.000766111 0.0328153 -0.0477735 0.0342061 -0.0554961
internal_weight=0 88.1389 74.9018 14.4581 60.4437 53.138 39.36 32.1397 31.7548 26.506 16.5067 22.8605 17.0479 11.0076 13.237 9.99923 13.778 7.0641
internal_count=691 445 368 88 280 247 186 152 246 216 106 107 77 67 77 110 61 90
shrinkage=0.05


Tree=38
num_leaves=17
num_cat=0
split_feature=1 5 5 7 6 2 2 5 5 0 0 4 5 5 7 1
split_gain=7.11665 4.42381 3.40196 2.63965 3.07941 2.53742 2.11277 1.72506 1.54021 1.49082 1.46535 2.79563 1.70212 1.11034 0.304907 0.00953414
threshold=129.50000000000003 26.300000000000001 29.950000000000003 24.500000000000004 0.73350000000000015 67.000000000000014 65.500000000000014 32.350000000000001 32.45000000000001 3.5000000000000004 7.5000000000000009 144.50000000000003 34.95000000000001 23.050000000000004 35.500000000000007 106.50000000000001
decision_type=2 2 2 2 2 2 2 2 2 2 2 2 2 2 2 2
left_child=1 13 14 7 5 -5 -4 -3 -7 -10 11 12 -8 -1 -2 -15
right_child=2 3 6 4 -6 8 10 -9 9 -11 -12 -13 -14 15 -16 -17
leaf_value=-0.022253183419541314 0.0014314731466891612 -0.048636153656427081 0.050106548510145149 0.014950769026024997 0.024825134950778118 0.00097681311795924587 0.0053592658385333463 -0.010954625995149183 -0.0030518005378407228 -0.033516070017011866 0.037607672388843986 -0.011972457432765891 0.040565815272959299 -0.05446373347456604 -0.014287955310061405 -0.05864923322776288
leaf_weight=4.2096619047224504 5.4579722434282285 4.9133935607969743 5.9244167208671561 10.344862930476664 10.019799917936323 10.755138590931894 6.2214472591877037 7.9545036256313324 6.1337323635816601 11.631016962230204 6.8139867335557929 8.2442928627133352 7.6599121242761612 2.9149921350181103 7.0948590487241745 2.5515314638614655
leaf_count=49 30 49 30 55 45 53 29 49 34 56 36 42 38 42 31 23
internal_value=0 -0.0101195 0.0148664 -0.00519396 0.000109797 -0.00626211 0.0229026 -0.0253427 -0.0139565 -0.0229975 0.0173336 0.0110898 0.0247867 -0.0415541 -0.00745315 -0.0564173
internal_weight=0 71.4286 47.4169 61.7524 48.8846 38.8648 34.8641 12.8679 28.5199 17.7647 28.9396 22.1257 13.8814 9.67619 12.5528 5.46652
internal_count=691 455 236 341 243 198 175 98 143 90 145 109 67 114 61 65
shrinkage=0.05


Tree=39
num_leaves=16
num_cat=0
split_feature=1 5 5 1 1 0 3 6 2 2 4 0 0 5 1
split_gain=6.57346 4.12242 3.77542 2.49203 2.37166 3.88638 1.88638 2.59818 2.72407 1.46801 2.63698 2.50342 1.20002 0.614763 0.0043751
threshold=123.50000000000001 26.450000000000003 40.95000000000001 154.50000000000003 87.500000000000014 6.5000000000000009 14.500000000000002 0.49300000000000005 73.000000000000014 73.000000000000014 119.50000000000001 3.5000000000000004 6.5000000000000009 23.050000000000004 104.50000000000001
decision_type=2 2 2 2 2 2 2 2 2 2 2 2 2 2 2
left_child=1 13 3 9 -3 6 -6 8 -8 10 -2 -11 -5 -1 -15
right_child=2 4 -4 12 5 -7 7 -9 -10 11 -12 -13 -14 14 -16
leaf_value=-0.028492293590931181 0.031765420888469821 -0.033756625242460765 0.042717462406093101 0.012090486687805539 0.0093862772759039093 0.024621297827397148 -0.051655356315590685 8.4401681129383561e-05 -0.0056337166019701157 -0.03652001621649105 -0.011048809730270566 0.0021627186074466365 0.039497365350699948 -0.054202657017141713 -0.057190395041980882
leaf_weight=3.6154507920145971 7.2335048466920835 6.9014718607068053 8.3854902833700162 11.294151507318022 8.753027778118847 10.302389100193976 7.7798285670578498 11.185627810657023 5.4804657958447933 6.2754079028964069 7.1526353657245636 12.54122184216976 6.1791718304157248 2.49691516533494 2.4059746526181698
leaf_count=46 34 53 43 59 44 45 57 57 34 33 33 55 35 38 25
internal_value=0 -0.0119635 0.0116406 0.00649823 -0.00652652 -0.00220647 -0.0105317 -0.0176635 -0.0326347 -0.00154528 0.0104786 -0.0107381 0.0217825 -0.0441342 -0.0556688
internal_weight=0 58.9212 59.0616 50.6761 50.4028 43.5013 33.1989 24.4459 13.2603 33.2028 14.3861 18.8166 17.4733 8.51834 4.90289
internal_count=691 399 292 249 290 237 192 148 91 155 67 88 94 109 63
shrinkage=0.05


Tree=40
num_leaves=18
num_cat=0
split_feature=1 5 5 7 7 6 5 5 3 2 5 6 5 1 5 7 7
split_gain=6.067 3.37144 3.61585 4.0314 6.79868 3.1869 3.50883 2.74292 2.30792 2.58104 2.02889 1.98332 1.65257 2.39777 0.898042 0.235749 0.00133838
threshold=106.50000000000001 40.95000000000001 38.050000000000004 54.500000000000007 40.500000000000007 0.52750000000000019 31.250000000000004 26.450000000000003 29.500000000000004 63.000000000000007 30.600000000000005 0.66050000000000009 38.150000000000013 94.500000000000014 31.150000000000002 26.500000000000004 26.500000000000004
decision_type=2 2 2 2 2 2 2 2 2 2 2 2 2 2 2 2 2
left_child=7 2 3 4 5 8 -7 16 9 -2 -11 12 13 15 -6 -9 -1
right_child=1 -3 -4 -5 14 6 -8 11 -10 10 -12 -13 -14 -15 -16 -17 -18
leaf_value=-0.053181229852429929 0.014361480616133624 0.031653749654320544 -0.027874092469027507 -0.029455845741626796 0.055477538084576838 -0.0076911135287039568 0.040306543316559119 -0.041977778319881781 0.014287610239221288 -0.009468736172491686 -0.044707002606201245 0.011963108403381875 0.0052866044945804299 -0.01059302443398435 0.030129355048168629 -0.060777007905747749 -0.054863127707530747
leaf_weight=2.7558535449206856 5.0418959632515969 11.632875248789786 8.5540049374103528 6.9185818359255782 6.0882229655981055 6.6745119020342818 8.8650931268930417 3.4755064882338109 8.1965413689613325 8.4231854528188723 7.9307936355471602 6.1393762379884711 4.6790552735328665 8.1510099172592145 8.2007445394992811 3.2060317024588585 2.0722379721701145
leaf_count=50 32 58 42 34 27 37 43 40 42 51 39 30 27 49 40 23 27
internal_value=0 0.00661098 0.00272121 0.00666625 0.0108721 0.00135571 0.0196908 -0.0193299 -0.00827242 -0.0169149 -0.0265574 -0.0128225 -0.0206213 -0.0287942 0.0409297 -0.0509983 -0.0539031
internal_weight=0 86.5265 74.8936 66.3396 59.421 45.132 15.5396 30.4791 29.5924 21.3959 16.354 25.651 19.5116 14.8325 14.289 6.68154 4.82809
internal_count=691 445 387 345 311 244 80 246 164 122 90 169 139 112 67 63 77
shrinkage=0.05


Tree=41
num_leaves=17
num_cat=0
split_feature=1 5 5 1 7 2 0 7 5 2 2 0 5 7 7 7
split_gain=5.6926 3.77032 3.27303 2.28287 2.09595 3.97239 2.08572 1.5298 2.81586 2.57756 1.27745 1.02206 0.63249 0.429933 0.393598 0.00528087
threshold=123.50000000000001 26.450000000000003 41.900000000000006 154.50000000000003 41.500000000000007 73.000000000000014 6.5000000000000009 34.500000000000007 30.950000000000003 67.000000000000014 79.000000000000014 6.5000000000000009 23.050000000000004 32.500000000000007 26.500000000000004 28.500000000000004
decision_type=2 2 2 2 2 2 2 2 2 2 2 2 2 2 2 2
left_child=1 12 3 4 5 -2 7 8 14 -10 -11 13 -1 -5 -3 -14
right_child=2 6 -4 11 -6 -7 -8 -9 9 10 -12 -13 15 -15 -16 -17
leaf_value=-0.026917526561665153 0.0096754388251575132 -0.056170189887727831 0.041878484632006226 0.021632912453487654 0.017131619502374927 -0.031928656561733736 0.012285877174019463 0.005577850675228169 0.013087015493725672 -0.036578231068473487 -0.0046757166984728749 0.037641782395572872 -0.053721541444988599 0.0021704169629564404 -0.033061652117901477 -0.057129830148336558
leaf_weight=3.4404184557497484 12.304853767156603 3.5599411092698601 7.420830972492694 5.8548353016376513 10.608725056052206 10.749892897903917 11.723271384835241 9.4699339717626554 8.4391677752137202 7.1328706294298154 5.6024963930249214 6.0497010424733153 2.4556811638176441 5.5060781463980675 3.8199014514684677 2.1156450062990189
leaf_count=46 58 42 39 31 47 53 54 43 50 50 29 35 41 29 22 22
internal_value=0 -0.0112789 0.01085 0.00634175 -0.00126042 -0.00972358 -0.0061523 -0.011837 -0.0176125 -0.00834304 -0.0225438 0.0210406 -0.0431113 0.0122004 -0.0442089 -0.0552989
internal_weight=0 57.7593 58.4949 51.0741 33.6635 23.0547 49.7476 38.0243 28.5544 21.1745 12.7354 17.4106 8.01174 11.3609 7.37984 4.57133
internal_count=691 399 292 253 158 111 290 236 193 129 79 95 109 60 64 63
shrinkage=0.05


Tree=42
num_leaves=20
num_cat=0
split_feature=1 1 7 7 4 6 6 6 6 7 0 2 6 7 1 6 2 4 4
split_gain=5.27233 3.16451 3.37058 4.1128 4.90293 3.68449 2.96306 2.24369 2.59094 3.07456 3.44481 2.12721 2.61082 2.92588 1.41583 1.37355 0.983698 0.851648 0.661616
threshold=106.50000000000001 165.50000000000003 54.500000000000007 41.500000000000007 226.50000000000003 0.52750000000000019 0.69550000000000012 0.40350000000000003 0.19300000000000003 35.500000000000007 2.5000000000000004 81.000000000000014 0.29250000000000004 25.500000000000004 96.500000000000014 0.34050000000000008 64.500000000000014 131.00000000000003 63.500000000000007
decision_type=2 2 2 2 2 2 2 2 2 2 2 2 2 2 2 2 2 2 2
left_child=11 2 3 4 5 7 -7 8 -2 10 -10 12 16 18 -15 -5 -1 -3 -14
right_child=1 17 -4 15 -6 6 -8 -9 9 -11 -12 -13 13 14 -16 -17 -18 -19 -20
leaf_value=-0.026125200304519106 -0.03053708203558736 0.017873330850213129 -0.033615402366169056 0.044569366922479224 -0.042504868883644603 0.052074368499864659 0.0072618977548212053 -0.032866215092283345 -0.00024053900915077132 -0.018089775979538477 0.051883912852595249 0.010949479204512655 -0.056967312154662469 -0.016706986998044772 0.019864306530477355 0.013914551133169435 -0.062025081513816527 0.044218374524228804 -0.023512992985384475
leaf_weight=3.1472599357366624 5.1117228716611924 6.9806830361485463 6.0324596315622321 7.1268424838781339 6.3004301451146594 5.9325674772262564 9.7531153224408609 6.0507602095603934 6.8587935045361537 6.6488894820213309 5.8932320103049278 5.1391715519130221 3.1400779820978668 5.0085863880813104 5.6116155348718166 7.4992806762456894 4.8466746434569359 5.4724777862429619 2.7919105291366577
leaf_count=38 33 40 28 30 30 27 50 34 41 29 30 30 39 37 30 36 43 37 29
internal_value=0 0.00614972 0.00218611 0.00540113 -0.00112586 0.00451112 0.0242107 -0.00559903 0.00113167 0.0094757 0.0238483 -0.0183021 -0.0244264 -0.0130941 0.00261694 0.0288517 -0.0478911 0.0294505 -0.0412219
internal_weight=0 85.6613 73.2081 67.1756 52.5495 46.2491 15.6857 30.5634 24.5126 19.4009 12.752 29.6853 24.5461 16.5522 10.6202 14.6261 7.99393 12.4532 5.93199
internal_count=691 445 368 340 274 244 77 167 133 100 71 246 216 135 67 66 81 77 68
shrinkage=0.05


Tree=43
num_leaves=17
num_cat=0
split_feature=1 5 5 7 1 0 3 5 5 6 1 7 2 1 5 7
split_gain=4.85158 3.54556 3.04627 2.19527 1.91796 3.22573 1.67373 2.381 2.72512 1.81507 1.41073 1.14398 2.00817 0.945859 0.646411 0.00455359
threshold=123.50000000000001 26.450000000000003 40.95000000000001 24.500000000000004 87.500000000000014 6.5000000000000009 14.500000000000002 32.050000000000004 38.250000000000007 0.44350000000000006 154.50000000000003 41.500000000000007 73.000000000000014 177.50000000000003 23.050000000000004 28.500000000000004
decision_type=2 2 2 2 2 2 2 2 2 2 2 2 2 2 2 2
left_child=1 14 3 -2 -3 6 -6 -8 9 -9 11 12 -5 -12 -1 -16
right_child=2 4 -4 10 5 -7 7 8 -10 -11 13 -13 -14 -15 15 -17
leaf_value=-0.025630651080277973 -0.018230665429550135 -0.031020420941934374 0.038708654991803912 0.013188338403938925 0.0093711122708586541 0.022738244494000772 -0.042722326829020552 -0.013284897701678773 -0.033771031376511107 0.026688527315712973 0.03283052940396116 0.01608360665926592 -0.021976294967891032 0.0070416399363965529 -0.053488584124902108 -0.056744658974647477
leaf_weight=3.3087949305772772 8.1772888600826246 6.4483351260423651 7.9914975613355628 7.826867461204535 8.6359177157282812 10.215609401464461 6.2861256636679199 5.4313242286443728 6.1136971041560164 5.9517351612448692 8.8719885870814306 10.557990267872809 8.4360309541225416 5.9333207905292502 2.3034203909337521 2.011368915438652
leaf_count=46 47 53 43 34 44 45 51 34 33 30 47 47 38 36 41 22
internal_value=0 -0.0105332 0.010052 0.00545376 -0.00560588 -0.00176201 -0.00948237 -0.0163284 -0.00684569 0.00761557 0.0101065 0.00326765 -0.00505256 0.0224955 -0.0422567 -0.0550064
internal_weight=0 56.7063 57.795 49.8035 49.0827 42.6344 32.4188 23.7829 17.4968 11.3831 41.6262 26.8209 16.2629 14.8053 7.62358 4.31479
internal_count=691 399 292 249 290 237 192 148 97 64 202 119 72 83 109 63
shrinkage=0.05


Tree=44
num_leaves=18
num_cat=0
split_feature=5 5 0 7 0 6 5 0 7 6 6 6 2 5 6 7 3
split_gain=4.55922 3.36515 4.33842 2.03929 3.56171 3.64856 2.45197 2.56881 4.51715 2.85639 2.58311 1.97034 1.86999 1.49163 1.24786 0.325762 0.210403
threshold=45.45000000000001 26.300000000000001 2.5000000000000004 56.500000000000007 6.5000000000000009 0.51450000000000007 38.45000000000001 1.0000000180025095e-35 24.500000000000004 0.25000000000000006 0.34250000000000008 0.4215000000000001 69.000000000000014 40.95000000000001 0.27950000000000003 43.500000000000007 16.500000000000004
decision_type=2 2 2 2 2 2 2 2 2 2 2 2 2 2 2 2 2
left_child=1 2 16 4 6 14 7 -3 11 -10 -11 -9 -12 -8 -6 -4 -1
right_child=-2 3 15 -5 5 -7 13 8 9 10 12 -13 -14 -15 -16 -17 -18
leaf_value=-0.064155651689155463 0.043355607981684731 0.029312864030489844 -0.010323100678314875 -0.027106972358876061 0.01834586352086735 0.047096100289238996 -0.039040628049663607 -0.052481333707700806 0.030651851374903262 -0.029830488808230644 -0.010608410684364753 -0.0050996092655960007 0.020195500779671725 -0.0060800296326253061 -0.011077460649414714 0.010094680670974986 -0.044548963213103414
leaf_weight=3.9294117055833322 5.7210636436939231 7.3633482605218878 4.2592628076672554 6.0597854778170577 7.9973927810788172 8.0150871202349645 6.556829519569872 5.5627875477075559 8.5882707685232145 6.5288570858538177 8.9189556911587733 3.6232146620750427 11.007158048450945 7.2035576999187469 6.5587654635310173 3.6087120845913887 2.0993510372936726
leaf_count=53 28 44 43 29 36 43 35 49 46 34 47 28 56 39 32 20 29
internal_value=0 -0.00244779 -0.025413 0.000947914 0.00288147 0.0200053 -0.00303265 0.00196904 -0.0025832 0.00559784 -0.00253562 -0.0337927 0.00640763 -0.0217858 0.0050882 -0.000958316 -0.0573282
internal_weight=0 107.881 13.8967 93.984 87.9242 22.5712 65.353 51.5926 44.2292 35.0432 26.455 9.186 19.9261 13.7604 14.5562 7.86797 6.02876
internal_count=691 663 145 518 489 111 378 304 260 183 137 77 103 74 68 63 82
shrinkage=0.05


Tree=45
num_leaves=18
num_cat=0
split_feature=1 5 5 7 7 7 4 7 4 7 4 7 7 4 3 3 1
split_gain=4.40475 2.77644 3.25127 3.2013 4.22613 2.61171 2.53952 2.67932 2.2981 2.29603 1.90554 1.90008 2.1992 1.85883 0.886994 0.452815 0.201118
threshold=111.50000000000001 40.95000000000001 38.050000000000004 54.500000000000007 40.500000000000007 22.500000000000004 202.00000000000003 36.500000000000007 86.000000000000014 29.500000000000004 48.500000000000007 30.500000000000004 40.500000000000007 49.500000000000007 24.500000000000004 23.500000000000004 98.500000000000014
decision_type=2 2 2 2 2 2 2 2 2 2 2 2 2 2 2 2 2
left_child=5 2 3 4 6 16 7 9 10 13 11 15 -13 -2 -6 -7 -1
right_child=1 -3 -4 -5 14 8 -8 -9 -10 -11 -12 12 -14 -15 -16 -17 -18
leaf_value=-0.055213868750545264 0.019299330972991642 0.030330010416681125 -0.026137729202631473 -0.027009760485214758 0.048086859326512063 -0.043428329925610659 -0.028080046784737245 -0.022500230327574151 0.014322624220857602 0.034678422705963413 -0.045096545919708318 0.026278304027609174 -0.016463772278854219 -0.013988425057404528 0.021843659941407152 -0.017377625199156362 -0.035616340966568981
leaf_weight=3.0085585899651042 9.1010335311293655 10.718957804143427 8.4130794331431371 6.1165699139237395 6.9526969194412214 3.5036030411720374 5.6487837210297576 5.800680808722972 8.0004055164754373 9.5105561763048154 4.7211653850972644 5.3230036310851556 6.9243690818548203 7.7780070155858985 5.9969899952411652 3.1840627789497375 2.3176430463790894
leaf_count=45 48 56 42 31 32 43 31 28 51 47 37 31 37 46 31 25 30
internal_value=0 0.00674468 0.00287426 0.00716349 0.011279 -0.0142929 0.00284146 0.0082676 -0.00884271 0.0150307 -0.0166771 -0.00959115 0.00211297 0.00396005 0.0359337 -0.0310253 -0.0466862
internal_weight=0 76.0374 65.3184 56.9053 50.7887 36.9828 37.8391 32.1903 31.6566 26.3896 23.6562 18.935 12.2474 16.879 12.9497 6.68767 5.3262
internal_count=691 392 336 294 263 299 200 169 224 141 173 136 68 94 63 68 75
shrinkage=0.05


Tree=46
num_leaves=19
num_cat=0
split_feature=1 5 5 6 1 3 3 3 2 4 1 1 2 6 1 5 4 2
split_gain=4.24266 4.02202 2.94296 2.37145 3.13793 2.19279 1.56495 1.44001 1.42727 2.22906 2.49243 1.75555 1.72193 1.36862 1.32845 1.20905 0.877654 0.239605
threshold=165.50000000000003 45.45000000000001 26.300000000000001 0.73050000000000004 92.500000000000014 38.500000000000007 13.500000000000002 28.500000000000004 83.000000000000014 17.000000000000004 127.50000000000001 110.50000000000001 63.000000000000007 0.33550000000000008 114.50000000000001 33.45000000000001 131.00000000000003 69.000000000000014
decision_type=2 2 2 2 2 2 2 2 2 2 2 2 2 2 2 2 2 2
left_child=1 2 6 4 7 8 14 -4 9 10 11 -6 -11 -14 -1 -5 -2 -8
right_child=16 -3 3 15 5 -7 17 -9 -10 12 -12 -13 13 -15 -16 -17 -18 -19
leaf_value=-0.0383884341243887 0.015984257729308626 0.039117820715928384 -0.057825038218321606 0.029318493698394388 0.0088196738514406681 -0.025057135091557534 -0.039509280316901145 -0.012421910726307148 -0.016494422341340763 -0.031265482419084209 -0.0056152762046382879 0.043678390995052233 -0.017264873595552201 0.015118773613823988 0.0052850221424759541 0.00084103223588968378 0.043174522131191738 -0.061559766535270115
leaf_weight=3.1085569895803911 6.780576251447199 5.2455665320157996 3.9875174537301055 7.70288387686014 6.5292941480875042 9.3755792602896673 2.4420511350035667 3.1071733683347702 9.3167551383376104 5.4726713374257114 8.7701008170843107 8.0834414884448034 5.4921593144536009 8.0372447595000249 3.958485908806324 7.2213707566261292 5.2779291048645973 2.4862242676317692
leaf_count=51 40 25 43 39 36 48 38 25 45 34 39 37 30 41 25 34 37 24
internal_value=0 -0.00350438 -0.00585556 -0.00251356 -0.00646567 -0.00280959 -0.0290069 -0.0379404 0.00122478 0.00511969 0.0154563 0.0281027 -0.0075999 0.00197288 -0.0139255 0.0155392 0.0278853 -0.0506333
internal_weight=0 100.337 95.0915 83.0962 68.1719 61.0772 11.9953 7.09469 51.7017 42.3849 23.3828 14.6127 19.0021 13.5294 7.06704 14.9243 12.0585 4.92828
internal_count=691 614 589 451 378 310 138 68 262 217 112 73 105 71 76 73 77 62
shrinkage=0.05


Tree=47
num_leaves=18
num_cat=0
split_feature=1 5 5 6 6 0 3 7 6 5 6 5 1 4 4 7 1
split_gain=4.12244 2.88263 2.64616 1.81783 2.92538 2.8331 1.5849 1.57337 1.21753 2.54287 2.26634 1.21465 1.18647 0.989965 0.552706 0.384684 0.00641363
threshold=129.50000000000003 26.300000000000001 29.950000000000003 0.19300000000000003 0.26050000000000006 6.5000000000000009 30.500000000000004 31.500000000000004 0.42850000000000005 34.250000000000007 0.68650000000000011 23.050000000000004 112.50000000000001 97.500000000000014 71.500000000000014 35.500000000000007 106.50000000000001
decision_type=2 2 2 2 2 2 2 2 2 2 2 2 2 2 2 2 2
left_child=1 11 15 -3 -5 6 7 12 9 -4 -10 -1 14 -8 -6 -2 -13
right_child=2 3 8 4 5 -7 13 -9 10 -11 -12 16 -14 -15 -16 -17 -18
leaf_value=-0.015187868589383808 0.0018965459207550411 -0.026585619365048625 -0.010727983768232793 0.025641213932853686 -0.060537132211826855 0.017855652640644686 -0.014199633648562339 -0.0039323418681562689 0.051727901697238426 0.026769882863442424 0.011901021033327387 -0.05308385947341307 -0.016395390562444784 0.014020989006115661 -0.03177040459746467 -0.016000982853327142 -0.057004199279136782
leaf_weight=3.5188090875744811 5.2734590619802457 7.9072852954268447 8.0203180313110369 8.668675307184456 3.5620347037911433 9.4661301895976049 5.8343582749366742 7.6731150969862929 6.4914304390549642 10.362893104553221 7.9424471482634544 2.0601725243031979 5.962424099445343 6.649288222193718 3.1431588977575302 6.9712667614221573 2.1135913394391537
leaf_count=49 30 52 37 47 39 45 36 35 37 52 49 42 31 31 25 31 23
internal_value=0 -0.00804173 0.0115427 -0.00428022 -0.000819111 -0.00624293 -0.0131926 -0.0217998 0.0189439 0.0104101 0.0298126 -0.0368263 -0.0326226 0.000831796 -0.0470523 -0.00829302 -0.0550691
internal_weight=0 66.559 45.0618 58.8665 50.9592 42.2905 32.8244 20.3407 32.8171 18.3832 14.4339 7.69257 12.6676 12.4836 6.70519 12.2447 4.17376
internal_count=691 455 236 341 289 242 197 130 175 89 86 114 95 67 64 61 65
shrinkage=0.05


Tree=48
num_leaves=18
num_cat=0
split_feature=1 5 5 2 6 5 7 2 2 6 5 0 5 1 5 7 1
split_gain=3.75125 2.70961 2.40942 1.77662 1.73478 2.2614 1.69805 1.60276 4.17032 2.19113 1.50107 1.32655 2.5234 2.04358 1.20153 0.347847 0.0054686
threshold=129.50000000000003 26.300000000000001 29.950000000000003 67.000000000000014 0.43350000000000005 36.650000000000013 22.500000000000004 67.000000000000014 60.500000000000007 0.73350000000000015 35.45000000000001 1.5000000000000002 32.45000000000001 105.50000000000001 23.050000000000004 35.500000000000007 106.50000000000001
decision_type=2 2 2 2 2 2 2 2 2 2 2 2 2 2 2 2 2
left_child=1 14 15 -4 10 -6 -3 8 -8 11 -5 -9 -13 -14 -1 -2 -16
right_child=2 6 3 4 5 -7 7 9 -10 -11 -12 12 13 -15 16 -17 -18
leaf_value=-0.014599189665904093 0.0018008384708818976 -0.02934940511353093 0.040862438227516874 -0.015278313202875258 0.051465640072238084 0.0057371000757308402 -0.010391907155521832 0.0074113431352978753 0.042155004108311855 0.018041686194414479 0.016452734576817223 0.0014804381818866279 -0.010018081854103161 -0.048531686131537279 -0.052926979850922443 -0.015220485169048096 -0.05663005098262458
leaf_weight=3.4787065200507632 5.2759691029787046 5.9764120727777472 6.8045508712530127 7.2306214645504969 5.1275968402624112 5.7190466821193695 8.7235474996268731 6.4143264964222935 6.6573990955948821 7.1496114283800116 7.6920714825391769 9.6279042437672633 6.0990470200777036 7.913038082420826 1.9653586447238924 6.9625381529331207 2.0234570018947124
leaf_count=49 30 56 37 33 32 34 51 41 36 33 39 50 35 39 42 31 23
internal_value=0 -0.0077112 0.011032 0.0181385 0.0121381 0.0273546 -0.00409428 -0.00122397 0.0123522 -0.00683666 0.00107782 -0.012755 -0.0182268 -0.0317679 -0.0360756 -0.00788266 -0.0548055
internal_weight=0 66.0288 44.8124 32.5739 25.7693 10.8466 58.5613 52.5849 15.3809 37.2039 14.9227 30.0543 23.64 14.0121 7.46752 12.2385 3.98882
internal_count=691 455 236 175 138 66 341 285 87 198 72 165 124 74 114 61 65
shrinkage=0.05


end of trees

feature_importances:
Glucose=164
BMI=153
DiabetesPedigreeFunction=127
Age=116
Insulin=72
BloodPressure=69
Pregnancies=67
SkinThickness=56

parameters:
[boosting: gbdt]
[objective: binary]
[metric: binary_logloss]
[tree_learner: serial]
[device_type: cpu]
[data: ]
[valid: ]
[num_iterations: 10000]
[learning_rate: 0.05]
[num_leaves: 31]
[num_threads: 8]
[force_col_wise: 0]
[force_row_wise: 0]
[histogram_pool_size: -1]
[max_depth: -1]
[min_data_in_leaf: 30]
[min_sum_hessian_in_leaf: 0.001]
[bagging_fraction: 1]
[pos_bagging_fraction: 1]
[neg_bagging_fraction: 1]
[bagging_freq: 0]
[bagging_seed: 2096]
[feature_fraction: 0.9]
[feature_fraction_bynode: 1]
[feature_fraction_seed: 11868]
[extra_trees: 0]
[extra_seed: 27321]
[early_stopping_round: 50]
[first_metric_only: 0]
[max_delta_step: 0]
[lambda_l1: 0]
[lambda_l2: 0]
[min_gain_to_split: 0]
[drop_rate: 0.1]
[max_drop: 50]
[skip_drop: 0.5]
[xgboost_dart_mode: 0]
[uniform_drop: 0]
[drop_seed: 16328]
[top_rate: 0.2]
[other_rate: 0.1]
[min_data_per_group: 100]
[max_cat_threshold: 32]
[cat_l2: 10]
[cat_smooth: 10]
[max_cat_to_onehot: 4]
[top_k: 20]
[monotone_constraints: ]
[monotone_constraints_method: basic]
[monotone_penalty: 0]
[feature_contri: ]
[forcedsplits_filename: ]
[refit_decay_rate: 0.9]
[cegb_tradeoff: 1]
[cegb_penalty_split: 0]
[cegb_penalty_feature_lazy: ]
[cegb_penalty_feature_coupled: ]
[path_smooth: 0]
[interaction_constraints: ]
[verbosity: -1]
[saved_feature_importance_type: 0]
[max_bin: 255]
[max_bin_by_feature: ]
[min_data_in_bin: 3]
[bin_construct_sample_cnt: 200000]
[data_random_seed: 11197]
[is_enable_sparse: 1]
[enable_bundle: 1]
[use_missing: 1]
[zero_as_missing: 0]
[feature_pre_filter: 1]
[pre_partition: 0]
[two_round: 0]
[header: 0]
[label_column: ]
[weight_column: ]
[group_column: ]
[ignore_column: ]
[categorical_feature: ]
[forcedbins_filename: ]
[objective_seed: 28156]
[num_class: 1]
[is_unbalance: 0]
[scale_pos_weight: 1]
[sigmoid: 1]
[boost_from_average: 1]
[reg_sqrt: 0]
[alpha: 0.9]
[fair_c: 1]
[poisson_max_delta_step: 0.7]
[tweedie_variance_power: 1.5]
[lambdarank_truncation_level: 20]
[lambdarank_norm: 1]
[label_gain: ]
[eval_at: ]
[multi_error_top_k: 1]
[auc_mu_weights: ]
[num_machines: 1]
[local_listen_port: 12400]
[time_out: 120]
[machine_list_filename: ]
[machines: ]
[gpu_platform_id: -1]
[gpu_device_id: -1]
[gpu_use_dp: 0]

end of parameters

pandas_categorical:[]
