tree
version=v3
num_class=1
num_tree_per_iteration=1
label_index=0
max_feature_idx=7
objective=binary sigmoid:1
feature_names=Pregnancies Glucose BloodPressure SkinThickness Insulin BMI DiabetesPedigreeFunction Age
feature_infos=[0:17] [0:199] [0:122] [0:99] [0:846] [0:67.099999999999994] [0.078:2.4199999999999999] [21:81]
tree_sizes=1970 1866 1980 1980 1965 1975 1866 2093 1876 2080 2089 1864 2090 2098 2084 2093 2084 1978 1976 1974 1987 1877 1981 1987 1974 2087 2086 1881 2088 1981 1883 2197 1988 1876 1882 1984 1991 1885 2091 1980 1985 1878 2293 1880 1879 1985 1674 2092 1880 1879 1983 2197 2084 2195 2094 1780 2094 1984 1777

Tree=0
num_leaves=18
num_cat=0
split_feature=1 5 7 1 5 1 6 1 5 7 6 6 4 4 0 0 1
split_gain=123.784 37.1472 30.0844 16.6679 15.2604 14.347 11.0235 8.63857 6.33872 5.92614 3.50799 2.87124 1.25012 1.17992 0.389425 7.10543e-15 7.10543e-15
threshold=127.50000000000001 29.950000000000003 28.500000000000004 157.50000000000003 26.450000000000003 91.500000000000014 0.56250000000000011 145.50000000000003 30.950000000000003 30.500000000000004 0.49550000000000005 0.22450000000000003 70.500000000000014 66.500000000000014 2.5000000000000004 1.5000000000000002 99.500000000000014
decision_type=2 2 2 2 2 2 2 2 2 2 2 2 2 2 2 2 2
left_child=2 7 8 9 -4 -6 11 -2 14 -3 12 -7 -10 -5 15 16 -1
right_child=1 3 4 13 5 6 -8 -9 10 -11 -12 -13 -14 -15 -16 -17 -18
leaf_value=-0.70122842705148813 -0.66646967376771193 -0.5981847471038394 -0.68899849534052993 -0.49331958796519682 -0.67454493968212459 -0.64252475483888827 -0.54583635354754723 -0.59115904165286326 -0.66453863191861318 -0.54825063717543321 -0.6411905804704201 -0.60254552979754861 -0.69434909046407411 -0.51856008532611075 -0.68827908759282641 -0.70122842705148813 -0.70122842705148813
leaf_weight=7.0410132408142125 8.6309194564819318 10.675084590911867 8.1766605377197248 8.1766605377197283 7.4952721595764151 6.8138837814331117 7.7224016189575186 6.8138837814331046 6.8138837814331072 13.400638103485106 9.9936962127685529 13.173508644104002 7.2681427001953125 10.675084590911863 7.7224016189575186 9.0851783752441406 7.2681427001953125
leaf_count=31 38 47 36 36 33 30 34 30 30 59 44 58 32 47 34 40 32
internal_value=-0.624451 -0.566747 -0.658621 -0.542822 -0.627465 -0.613173 -0.596572 -0.633244 -0.68311 -0.570391 -0.663846 -0.616175 -0.679925 -0.507612 -0.698015 -0.701228 -0.701228
internal_weight=0 58.3723 98.5742 42.9275 43.3817 35.2051 27.7098 15.4448 55.1925 24.0757 24.0757 19.9874 14.082 18.8517 31.1167 23.3943 14.3092
internal_count=691 257 434 189 191 155 122 68 243 106 106 88 62 83 137 103 63
shrinkage=1


Tree=1
num_leaves=17
num_cat=0
split_feature=1 1 7 1 6 6 0 1 7 6 3 6 1 4 3 7
split_gain=111.003 29.5265 27.9929 12.6492 7.18852 5.85925 5.38665 5.63184 3.85132 3.24843 3.83546 2.04872 1.98604 0.717847 0.200223 6.58613e-05
threshold=127.50000000000001 154.50000000000003 28.500000000000004 94.500000000000014 0.31850000000000006 0.2185 6.5000000000000009 114.50000000000001 30.500000000000004 0.49550000000000005 28.500000000000004 0.34250000000000008 112.50000000000001 165.50000000000003 24.500000000000004 23.500000000000004
decision_type=2 2 2 2 2 2 2 2 2 2 2 2 2 2 2 2
left_child=2 4 9 -4 -2 -5 7 -7 -6 12 -11 -3 14 -13 15 -1
right_child=1 11 3 5 8 6 -8 -9 -10 10 -12 13 -14 -15 -16 -17
leaf_value=-0.074862522022413489 -0.0044358180901348234 0.07630786054980794 -0.051280639050916468 -0.027638069760444806 0.019791292207364988 -0.021147967499599858 0.051932043557725252 0.039134600221944843 0.063272435192227292 -0.057405908528728344 -0.0096933266462177897 0.11583889034221606 -0.043045062523993649 0.094549789665142076 -0.066391245017110592 -0.075059174191726627
leaf_weight=9.094218268990522 13.706651151180266 9.3157657235860842 10.294073477387427 7.2146006822586051 9.8017120957374591 8.9013580977916735 10.051733061671255 6.8605614602565756 10.600357964634894 11.155916661024095 6.7669608294963828 8.4284764975309354 7.7908695340156546 7.4681551754474631 11.361202612519262 8.0057723671197873
leaf_count=41 60 40 46 32 43 39 44 30 46 50 30 36 35 32 51 36
internal_value=0 0.0538969 -0.0328462 -0.00288622 0.0235687 0.0121971 0.0233306 0.00509073 0.0423829 -0.0568044 -0.0393915 0.0949265 -0.0654133 0.105837 -0.0715363 -0.0749546
internal_weight=0 59.3211 97.4973 43.3223 34.1087 33.0283 25.8137 15.7619 20.4021 54.1749 17.9229 25.2124 36.2521 15.8966 28.4612 17.1
internal_count=691 257 434 191 149 145 113 69 89 243 80 108 163 68 128 77
shrinkage=0.05


Tree=2
num_leaves=18
num_cat=0
split_feature=1 5 7 5 1 1 1 5 7 0 7 4 1 5 0 1 5
split_gain=99.7999 30.9232 26.0882 14.0009 12.035 11.787 7.29448 5.98791 4.69396 4.32286 6.67561 2.74241 2.05668 0.921718 0.39142 0.000162689 2.52047e-05
threshold=127.50000000000001 29.950000000000003 28.500000000000004 26.450000000000003 91.500000000000014 157.50000000000003 145.50000000000003 30.950000000000003 30.500000000000004 6.5000000000000009 34.500000000000007 102.50000000000001 101.50000000000001 34.250000000000007 2.5000000000000004 105.50000000000001 25.250000000000004
decision_type=2 2 2 2 2 2 2 2 2 2 2 2 2 2 2 2 2
left_child=2 6 7 -4 -5 8 -2 14 -3 10 -6 12 -9 -7 15 16 -1
right_child=1 5 3 4 9 13 -8 11 -10 -11 -12 -13 -14 -15 -16 -17 -18
leaf_value=-0.073124228779839026 -0.04111227934442245 0.023899641023922624 -0.062500035297383377 -0.046618294926251996 -0.022517569447152816 0.086736668059464228 0.027705382691122118 -0.040523156697396756 0.067874283123354431 0.050335742174203529 0.039937037672718258 -0.061097973840240419 -0.004364225780900532 0.10885370901359617 -0.05999300960552742 -0.073475376482153035 -0.073251979715166102
leaf_weight=9.0814136266708427 8.5644014924764615 10.804302573204042 7.994664564728736 7.2521714866161338 8.2130457162857109 7.6609304845333126 6.9962463825941077 8.8251547813415545 13.84427462518215 10.859915390610693 8.9314627945423108 7.4905989021062842 7.0934841036796561 12.232264548540114 7.3958880305290213 6.5216123610734931 6.7164303660392752
leaf_count=42 38 47 36 33 36 32 30 40 59 47 39 34 32 51 34 30 31
internal_value=0 0.0505076 -0.0315902 -0.00275947 0.0107871 0.0717057 -0.0101711 -0.0550627 0.0485987 0.0256531 0.0100183 -0.0361499 -0.0244104 0.100336 -0.0699619 -0.0732653 -0.0731785
internal_weight=0 60.1024 96.3758 43.2513 35.2566 44.5418 15.5606 53.1246 24.6486 28.0044 17.1445 23.4092 15.9186 19.8932 29.7153 22.3195 15.7978
internal_count=691 257 434 191 155 189 68 243 106 122 75 106 72 83 137 103 73
shrinkage=0.05


Tree=3
num_leaves=18
num_cat=0
split_feature=1 5 7 5 6 1 1 1 5 6 6 7 6 4 4 0 6
split_gain=89.966 27.2416 24.3316 12.8877 11.7096 10.2876 8.64707 6.63896 5.76734 4.7892 3.15143 2.99275 2.66181 1.18484 0.886637 0.38406 0.000197521
threshold=127.50000000000001 29.950000000000003 28.500000000000004 26.450000000000003 0.63850000000000018 157.50000000000003 99.500000000000014 145.50000000000003 30.950000000000003 0.33300000000000002 0.49550000000000005 35.500000000000007 0.25350000000000006 70.500000000000014 66.500000000000014 2.5000000000000004 0.41950000000000004
decision_type=2 2 2 2 2 2 2 2 2 2 2 2 2 2 2 2 2
left_child=2 7 8 -4 6 9 -5 -2 15 -3 13 -11 -8 -10 -7 16 -1
right_child=1 5 3 4 -6 14 12 -9 10 11 -12 -13 -14 -15 -16 -17 -18
leaf_value=-0.071491158837786117 -0.03959189869689881 0.016131107501215738 -0.060711580900749462 -0.049573429109158032 0.059353440828543116 0.10550446575437647 -0.010331405614634654 0.02613231546005991 -0.035331514112724081 0.041883285926802655 -0.013169956822062887 0.085166004383608995 0.028526701675621588 -0.065107908578333318 0.084402287540174203 -0.058317745623132557 -0.071795949926477434
leaf_weight=12.403800860047346 8.4515304416418058 8.8735890984535235 7.8230389952659598 8.113397568464281 9.0260202884674055 8.8119139522314089 7.5006705224514034 7.0452170372009268 6.53270471096039 8.6370456367731112 9.7422013580799085 7.4288302510976783 10.685508519411085 6.8376586437225342 11.440052732825277 7.2321079671382895 9.3017938137054426
leaf_count=59 38 38 36 37 39 36 33 30 30 37 44 31 46 32 47 34 44
internal_value=0 0.0474941 -0.0304075 -0.00264441 0.0102149 0.0671108 -0.0066495 -0.00971199 -0.0534225 0.0456133 -0.0347993 0.0618971 0.0125001 -0.0505593 0.0935841 -0.0682968 -0.0716218
internal_weight=0 60.6882 95.1989 43.1486 35.3256 45.1914 26.2996 15.4967 52.0503 24.9395 23.1126 16.0659 18.1862 13.3704 20.252 28.9377 21.7056
internal_count=691 257 434 191 155 189 116 68 243 106 106 68 79 62 83 137 103
shrinkage=0.05


Tree=4
num_leaves=18
num_cat=0
split_feature=5 7 5 7 4 6 6 3 5 2 0 0 2 2 2 6 7
split_gain=50.5304 32.9199 14.7785 7.26189 6.44029 6.25292 5.55998 4.68759 3.45023 2.75394 2.40916 2.29175 2.27299 2.16858 0.915157 0.321585 0.0025149
threshold=27.850000000000005 30.500000000000004 41.900000000000006 27.500000000000004 141.00000000000003 0.49950000000000006 0.43450000000000005 27.500000000000004 33.400000000000006 75.500000000000014 2.5000000000000004 6.5000000000000009 75.500000000000014 73.000000000000014 71.000000000000014 0.40150000000000008 22.500000000000004
decision_type=2 2 2 2 2 2 2 2 2 2 2 2 2 2 2 2 2
left_child=3 2 5 15 6 10 7 12 -7 -6 14 -8 -3 -5 -2 16 -1
right_child=1 4 -4 13 9 8 11 -9 -10 -11 -12 -13 -14 -15 -16 -17 -18
leaf_value=-0.071588889125461949 -0.037594323384766759 0.053239108662085068 0.048623470952740881 -0.0096848930449583565 0.047300800283591037 -0.020268973035862604 0.036909928538375575 -0.011399966571586284 0.025696673842623249 0.088871609531852469 -0.018563887033888352 0.073275861651183757 0.015767502916539201 -0.042851860101870032 -0.060702313999884988 -0.05842642885218699 -0.07025511898945995
leaf_weight=7.9560283422470111 9.8364830017089897 7.8771078586578431 8.8309784382581693 10.736839398741724 7.2025530934333828 8.1366457641124743 8.75231482088566 8.7675407379865629 8.193348675966261 8.9154170751571638 12.022297099232672 8.5786086767911893 8.3231944590806943 9.1099912971258146 7.5912224352359763 7.89417541027069 6.3591360300779343
leaf_count=38 46 34 38 49 30 37 37 38 36 37 54 36 36 41 35 38 31
internal_value=0 0.0173104 -0.010598 -0.0468877 0.0434006 -0.0220219 0.0331525 0.0180495 0.00279365 0.0702951 -0.035782 0.0549106 0.0339874 -0.024909 -0.0476598 -0.0665285 -0.0709964
internal_weight=0 113.028 54.611 42.0562 58.4167 45.78 42.2988 24.9678 16.33 16.118 29.45 17.3309 16.2003 19.8468 17.4277 22.2093 14.3152
internal_count=691 494 246 197 248 208 181 108 73 67 135 73 70 90 81 107 69
shrinkage=0.05


Tree=5
num_leaves=18
num_cat=0
split_feature=5 7 5 7 6 4 6 3 5 2 0 0 2 2 2 6 7
split_gain=46.2376 29.4212 13.3093 6.98578 5.75726 5.68637 4.92398 4.18708 3.10784 2.40783 2.26605 2.01093 2.00972 1.99916 0.871901 0.316781 0.00205697
threshold=27.850000000000005 30.500000000000004 41.900000000000006 27.500000000000004 0.49950000000000006 141.00000000000003 0.43450000000000005 27.500000000000004 33.400000000000006 75.500000000000014 2.5000000000000004 6.5000000000000009 73.000000000000014 75.500000000000014 71.000000000000014 0.40150000000000008 22.500000000000004
decision_type=2 2 2 2 2 2 2 2 2 2 2 2 2 2 2 2 2
left_child=3 2 4 15 10 6 7 13 -6 -7 14 -8 -5 -3 -2 16 -1
right_child=1 5 -4 12 8 9 11 -9 -10 -11 -12 -13 -14 -15 -16 -17 -18
leaf_value=-0.070105827173438037 -0.036239977934017835 0.049911661249199483 0.045677622532225369 -0.0092319699272052948 -0.019389912121643267 0.044556859039992125 0.034797462240837108 -0.010863166025854779 0.024231767022157694 0.0832176618854059 -0.017741621768147701 0.068688485819662345 -0.041308949698495294 0.014919018771639198 -0.059008987066232088 -0.056919905527518515 -0.068881208256687365
leaf_weight=7.7240006625652331 9.6974723190069252 7.9793692231178346 8.9278659075498563 10.70134347677231 8.0816843211650866 7.2621872723102596 8.8177070319652575 8.7414299398660642 8.2526544332504255 9.0415757149457914 11.952339634299276 8.6908716708421689 8.9810614138841611 8.3558613210916501 7.422902286052703 7.7028415054082862 6.166559562087059
leaf_count=38 46 34 38 49 37 30 37 38 36 37 54 36 41 36 35 38 31
internal_value=0 0.016404 -0.0101303 -0.0454139 -0.0211032 0.0408864 0.0312729 0.0170663 0.00264922 0.065997 -0.0344484 0.0516202 -0.0238687 0.0320121 -0.046112 -0.0650524 -0.0695622
internal_weight=0 113.224 54.3349 41.2758 45.4071 58.889 42.5852 25.0767 16.3343 16.3038 29.0727 17.5086 19.6824 16.3352 17.1204 21.5934 13.8906
internal_count=691 494 246 197 208 248 181 108 73 67 135 73 90 70 81 107 69
shrinkage=0.05


Tree=6
num_leaves=17
num_cat=0
split_feature=1 7 1 1 6 6 0 1 6 6 3 1 0 7 6 3
split_gain=76.0191 19.2275 18.5487 10.0167 4.85922 4.41683 4.1749 4.54664 3.35161 2.63811 3.05046 1.93224 1.39124 0.700602 0.215787 0.0047231
threshold=127.50000000000001 28.500000000000004 154.50000000000003 94.500000000000014 0.31850000000000006 0.2185 6.5000000000000009 114.50000000000001 0.56250000000000011 0.49550000000000005 28.500000000000004 112.50000000000001 6.5000000000000009 32.500000000000007 0.25000000000000006 23.500000000000004
decision_type=2 2 2 2 2 2 2 2 2 2 2 2 2 2 2 2
left_child=1 9 4 -3 -2 -5 7 -7 -6 11 -11 14 13 -4 -1 -16
right_child=2 3 12 5 8 6 -8 -9 -10 10 -12 -13 -14 -15 15 -17
leaf_value=-0.059710204975704756 -0.0042561109969036339 -0.048405609523694326 0.075431507715486401 -0.026191899483978855 0.055393351315858291 -0.021656166401272877 0.042954676643080641 0.032140168486138161 0.015321535054111636 -0.051095983199339792 -0.0076276827680405368 -0.035380979073152186 0.09013074545689953 0.055179245500997204 -0.068172367043090099 -0.070028357436006466
leaf_weight=11.403982475399973 13.593193724751471 9.940167084336279 9.3347725719213539 7.1082123368978491 9.8339489400386828 8.8708154857158679 10.350639596581457 7.0481958836317053 11.117179438471792 10.244181230664255 6.6600841283798209 7.1538234502077094 9.3465712517499906 7.8711592406034461 7.8049528747796995 6.1121514141559601
leaf_count=58 60 46 38 32 42 39 44 30 47 50 30 35 38 32 40 30
internal_value=0 -0.0286599 0.0431788 -0.00434707 0.0190252 0.00877387 0.0182351 0.00216234 0.0341303 -0.0499884 -0.03397 -0.0583265 0.0746022 0.0661668 -0.0648092 -0.0689875
internal_weight=0 92.6972 61.0968 43.318 34.5443 33.3779 26.2697 15.919 20.9511 49.3792 16.9043 32.4749 26.5525 17.2059 25.3211 13.9171
internal_count=691 434 257 191 149 145 113 69 89 243 80 163 108 70 128 70
shrinkage=0.05


Tree=7
num_leaves=19
num_cat=0
split_feature=1 5 7 5 1 1 6 1 5 2 7 3 6 6 5 0 5 6
split_gain=68.8105 19.6457 18.0129 10.4507 9.29995 7.59741 7.38315 5.37088 5.04463 4.5328 3.99593 3.72754 2.34866 1.22483 0.707527 0.401228 0.00268518 0.000638806
threshold=127.50000000000001 29.950000000000003 28.500000000000004 26.450000000000003 91.500000000000014 157.50000000000003 0.56250000000000011 145.50000000000003 30.950000000000003 71.000000000000014 35.500000000000007 28.500000000000004 0.49550000000000005 0.26250000000000007 34.250000000000007 2.5000000000000004 27.750000000000004 0.39950000000000002
decision_type=2 2 2 2 2 2 2 2 2 2 2 2 2 2 2 2 2 2
left_child=2 7 8 -4 -5 9 11 -2 15 -3 -11 -6 13 -10 -7 16 17 -1
right_child=1 5 3 4 6 14 -8 -9 12 10 -12 -13 -14 -15 -16 -17 -18 -19
leaf_value=-0.066405349075448886 -0.036049093177722473 0.068403944890282273 -0.057807463490133049 -0.04430273888245867 0.020907793306741789 0.067894163955520739 0.05976404015383488 0.023399007513169787 -0.029799811452857917 -0.0048174106530977203 0.044474459153340216 -0.022847591259986876 -0.012582299024924137 -0.061149412913357695 0.0868959290499835 -0.052832591415621744 -0.067968679563591178 -0.067101697564625321
leaf_weight=7.8106879591941887 8.1542933434247953 8.5656704455614108 7.4991938322782508 7.0521729886531821 12.348316952586179 7.9647531956434277 8.2325925379991514 7.1139943301677695 6.2590251415967959 7.0960964262485531 9.7757717669010145 8.0343967080116254 9.6857744753360731 6.2038694322109222 12.726542204618452 6.6028704643249503 6.0200566053390494 5.6947673559188843
leaf_count=42 38 36 36 33 53 32 34 30 31 30 40 35 44 31 51 34 31 30
internal_value=0 0.0408108 -0.0276223 -0.00415407 0.00712671 0.0570827 0.0198014 -0.00835028 -0.0486064 0.0387818 0.0237429 0.00366043 -0.0310515 -0.0454052 0.0795815 -0.0634874 -0.0670904 -0.066699
internal_weight=0 61.3971 91.4437 43.1667 35.6675 46.1288 28.6153 15.2683 48.2771 25.4375 16.8719 20.3827 22.1487 12.4629 20.6913 26.1284 19.5255 13.5055
internal_count=691 257 434 191 155 189 122 68 243 106 70 88 106 62 83 137 103 72
shrinkage=0.05


Tree=8
num_leaves=17
num_cat=0
split_feature=5 7 5 7 6 4 4 2 6 5 2 2 0 2 6 7
split_gain=37.6604 22.6975 10.6022 6.12493 4.9148 4.32204 4.36201 4.76046 4.52781 2.4831 2.10461 1.97751 1.87105 0.855369 0.328869 0.00406601
threshold=27.850000000000005 30.500000000000004 41.900000000000006 27.500000000000004 0.49950000000000006 141.00000000000003 17.000000000000004 74.500000000000014 0.41950000000000004 33.400000000000006 75.500000000000014 73.000000000000014 2.5000000000000004 71.000000000000014 0.40150000000000008 22.500000000000004
decision_type=2 2 2 2 2 2 2 2 2 2 2 2 2 2 2 2
left_child=3 2 4 14 12 6 7 -3 -9 -6 -7 -5 13 -2 15 -1
right_child=1 5 -4 11 9 10 -8 8 -10 -11 -12 -13 -14 -15 -16 -17
leaf_value=-0.067389796584965161 -0.03287850368824799 0.059088620640405702 0.040335539598725038 -0.0076096702078366531 -0.017399026197566999 0.03764923504241028 0.00071435545627134705 -0.001252037059940748 0.049963229159241174 0.021796876729456762 0.073582802659705931 -0.039765512043104134 -0.016668772335389267 -0.056014436259261113 -0.053204342430185847 -0.065592325598742784
leaf_weight=7.1579491794109362 9.2418843209743553 13.746882677078249 8.9898598939180356 10.495964974164965 7.8771980851888683 7.345776870846751 11.24163508415222 10.440929830074312 7.3558060377836219 8.2963556796312314 9.1511515229940397 8.7814358472824079 11.704016819596289 7.0368902236223212 7.1455155760049811 5.6135552674531937
leaf_count=38 46 58 38 49 37 30 48 45 30 36 37 41 54 35 38 31
internal_value=0 0.014569 -0.00915829 -0.0423484 -0.0192348 0.0358403 0.0274572 0.0369879 0.0199164 0.00270683 0.0575823 -0.0222576 -0.0319167 -0.0428796 -0.061794 -0.0665997
internal_weight=0 112.428 53.1462 39.1944 44.1563 59.2822 42.7853 31.5436 17.7967 16.1736 16.4969 19.2774 27.9828 16.2788 19.917 12.7715
internal_count=691 494 246 197 208 248 181 133 75 73 67 90 135 81 107 69
shrinkage=0.05


Tree=9
num_leaves=19
num_cat=0
split_feature=1 5 7 5 1 1 6 1 5 2 7 4 1 1 4 0 5 6
split_gain=60.6776 16.1535 15.56 9.1108 8.35509 6.7522 6.43099 4.78073 4.70466 4.03638 3.34409 2.767 1.7602 1.583 0.846295 0.407214 0.00392769 0.000831808
threshold=127.50000000000001 29.950000000000003 28.500000000000004 26.450000000000003 91.500000000000014 157.50000000000003 0.56250000000000011 145.50000000000003 30.950000000000003 71.000000000000014 35.500000000000007 102.50000000000001 101.50000000000001 111.50000000000001 66.500000000000014 2.5000000000000004 27.750000000000004 0.39950000000000002
decision_type=2 2 2 2 2 2 2 2 2 2 2 2 2 2 2 2 2 2
left_child=2 7 8 -4 -5 9 13 -2 15 -3 -11 12 -10 -6 -7 16 17 -1
right_child=1 5 3 4 6 14 -8 -9 11 10 -12 -13 -14 -15 -16 -17 -18 -19
leaf_value=-0.064374125281243241 -0.033546601488523543 0.063339201813724086 -0.055829946105855822 -0.043492381994619453 -0.010671238368963977 0.085589962920024271 0.054526324958724372 0.02289411029048603 -0.033148099939052565 -0.0048292187866803837 0.040237418846357745 -0.055799292187686547 0.0014216104543716516 0.017195444462619551 0.065180447007030504 -0.050479518189796263 -0.066299783710423041 -0.065194893434391804
leaf_weight=7.2818345129489952 7.930429741740225 8.680781692266466 7.2618925720453253 6.977093130350112 10.852645695209509 8.9720802307128924 8.3308942615985853 7.1206686645746231 8.0852797180414218 7.0723150074481991 9.8483785539865476 6.8608148396015158 6.7616482824087134 9.6080158799886686 11.706302791833876 6.2953122258186331 5.7342472821474066 5.3584278225898743
leaf_count=42 38 36 36 33 47 36 34 30 40 30 40 34 32 41 47 34 31 30
internal_value=0 0.0381517 -0.026424 -0.0047693 0.00559724 0.0527853 0.0174932 -0.00684452 -0.0465159 0.0356211 0.021401 -0.0295391 -0.0174042 0.00241453 0.0740359 -0.0614543 -0.0652144 -0.0647221
internal_weight=0 61.331 89.4081 43.0305 35.7686 46.2799 28.7916 15.0511 46.3776 25.6015 16.9207 21.7077 14.8469 20.4607 20.6784 24.6698 18.3745 12.6403
internal_count=691 257 434 191 155 189 122 68 243 106 70 106 72 88 83 137 103 72
shrinkage=0.05


Tree=10
num_leaves=19
num_cat=0
split_feature=1 7 5 5 1 1 5 1 2 7 0 7 4 1 4 0 5 1
split_gain=55.1516 14.5876 14.5225 8.43663 7.62049 6.21976 4.61351 4.35285 3.56759 3.00226 2.90579 5.32539 2.61523 1.62387 0.784589 0.41006 0.00322997 0.00014694
threshold=127.50000000000001 28.500000000000004 29.950000000000003 26.450000000000003 91.500000000000014 157.50000000000003 30.950000000000003 145.50000000000003 71.000000000000014 35.500000000000007 6.5000000000000009 34.500000000000007 102.50000000000001 101.50000000000001 66.500000000000014 2.5000000000000004 27.750000000000004 99.500000000000014
decision_type=2 2 2 2 2 2 2 2 2 2 2 2 2 2 2 2 2 2
left_child=1 6 7 -3 -5 8 15 -2 -4 -10 11 -6 13 -8 -7 16 17 -1
right_child=2 3 5 4 10 14 12 -9 9 -11 -12 -13 -14 -15 -16 -17 -18 -19
leaf_value=-0.063643350545232083 -0.032321523487831648 -0.054418776288086612 0.059591849361747329 -0.042055585850608035 -0.025349364374597769 0.081715635677247642 -0.031958662658879228 0.021642095897748688 -0.0045927347340549169 0.038091024247666833 0.036322345985660587 0.029867133320182971 -0.054350953412002412 0.0013497775903353129 0.062029880664034032 -0.049255953783738905 -0.065255662170232751 -0.063992400179513395
leaf_weight=6.7325502038002067 7.8222622871398908 7.0822830945253363 8.7630709558725375 6.8577576726675025 8.2643926888704353 8.9285918474197405 7.9698720425367373 7.1550585627555847 7.0648493468761471 9.8822315484285337 11.324723064899443 9.2588632553815824 6.6956791877746573 6.7653222978115082 11.68625423312187 6.1332544088363639 5.5396315902471533 5.4606398940086365
leaf_count=40 38 36 36 33 36 36 40 30 30 40 47 39 34 32 47 34 31 32
internal_value=0 -0.0255031 0.0362582 -0.00456757 0.00532049 0.0500958 -0.0452791 -0.00654169 0.0336904 0.0202971 0.0165828 0.00382569 -0.0284399 -0.0166659 0.0705561 -0.0604001 -0.0642545 -0.0637997
internal_weight=0 88.085 61.3023 42.788 35.7057 46.325 45.2969 14.9773 25.7102 16.9471 28.848 17.5233 21.4309 14.7352 20.6148 23.8661 17.7328 12.1932
internal_count=691 434 257 191 155 189 243 68 106 70 122 75 106 72 83 137 103 72
shrinkage=0.05


Tree=11
num_leaves=17
num_cat=0
split_feature=1 7 1 1 6 6 0 1 6 6 3 3 0 7 6 3
split_gain=50.1758 13.6813 12.2321 7.31128 4.01804 3.57667 3.51863 3.7977 3.06747 2.44425 2.6305 2.14343 1.27991 0.607166 0.278677 0.00976344
threshold=127.50000000000001 28.500000000000004 154.50000000000003 94.500000000000014 0.31850000000000006 0.2185 6.5000000000000009 114.50000000000001 0.56250000000000011 0.49550000000000005 28.500000000000004 9.0000000000000018 6.5000000000000009 32.500000000000007 0.25650000000000006 25.500000000000004
decision_type=2 2 2 2 2 2 2 2 2 2 2 2 2 2 2 2
left_child=1 9 4 -3 -2 -5 7 -7 -6 11 -11 -1 13 -4 -13 -16
right_child=2 3 12 5 8 6 -8 -9 -10 10 -12 14 -14 -15 15 -17
leaf_value=-0.028275874665783018 -0.00632123545050457 -0.043566229115081734 0.060570202747625659 -0.025164971975784978 0.048783894060189112 -0.02179965284647277 0.037693605636985872 0.027381253335786337 0.010573110699347174 -0.045368542500038127 -0.0037386005706688918 -0.053729950823091899 0.074958030534325315 0.041740134556817854 -0.063716546971630997 -0.066493673714610055
leaf_weight=6.7945087552070644 13.547548145055769 9.2994749099016172 9.3626293838024193 7.0019128024578086 9.9328791648149508 8.7544366121292132 10.3780670017004 7.1157769709825507 11.146129593253134 9.2093344777822477 6.4538574963808051 9.038316413760187 9.3178534209728223 7.8874677121639243 5.8837025612592679 6.8488038927316666
leaf_count=39 60 46 38 32 42 39 44 30 47 50 30 52 38 32 35 37
internal_value=0 -0.0246162 0.0345055 -0.00437522 0.0149243 0.0065858 0.0150555 0.000251743 0.0285788 -0.0440888 -0.0282154 -0.0527927 0.060026 0.0519603 -0.0604442 -0.0652104
internal_weight=0 86.7782 61.1945 42.5497 34.6266 33.2502 26.2483 15.8702 21.079 44.2285 15.6632 28.5653 26.568 17.2501 21.7708 12.7325
internal_count=691 434 257 191 149 145 113 69 89 243 80 163 108 70 124 72
shrinkage=0.05


Tree=12
num_leaves=19
num_cat=0
split_feature=1 5 7 5 6 1 1 5 1 6 4 7 1 1 4 0 5 6
split_gain=45.5977 12.8788 12.8343 7.81081 7.40371 5.63742 5.25354 4.62238 3.70645 2.95049 2.53974 1.56207 1.5066 1.2266 0.74875 0.431169 0.00238585 0.000479058
threshold=127.50000000000001 29.950000000000003 28.500000000000004 26.450000000000003 0.63850000000000018 101.50000000000001 157.50000000000003 30.950000000000003 145.50000000000003 0.33300000000000002 102.50000000000001 35.500000000000007 101.50000000000001 111.50000000000001 66.500000000000014 2.5000000000000004 27.750000000000004 0.39950000000000002
decision_type=2 2 2 2 2 2 2 2 2 2 2 2 2 2 2 2 2 2
left_child=2 8 7 -4 5 -5 9 15 -2 -3 12 -11 -9 -7 -8 16 17 -1
right_child=1 6 3 4 -6 13 14 10 -10 11 -12 -13 -14 -15 -16 -17 -18 -19
leaf_value=-0.062066412966983821 -0.031528954098953274 0.008003147948635058 -0.052964014553543375 -0.040387514836189124 0.043376350776408903 -0.0077782765044098869 0.075851618620281891 -0.029308294098489247 0.018240321390867696 0.029187375605262769 -0.052103930635230999 0.059849307766592821 0.0031699867972366188 0.01951818899193623 0.056494598100698651 -0.046933007260755166 -0.063636348842487325 -0.06272163616646996
leaf_weight=6.574821084737783 7.7460043579339963 9.1168571561574954 6.8743381947278968 9.024310305714609 9.3768156915903074 6.9150271266698864 8.7854501307010668 7.6928302049636859 7.2350002974271774 8.9828440099954623 6.4009956121444693 7.7266552299261084 6.6637137532234192 10.166103199124334 11.58132830262184 5.8176661431789389 5.2010829448699942 4.8455991894006729
leaf_count=42 38 38 36 43 39 30 36 40 30 37 34 31 32 43 47 34 31 30
internal_value=0 0.0327917 -0.0237404 -0.00418336 0.00526741 -0.00842095 0.0458565 -0.042917 -0.00749313 0.0308826 -0.0259114 0.0433658 -0.0142332 0.00846764 0.0648445 -0.0586482 -0.0627487 -0.0623444
internal_weight=0 61.1741 85.5533 42.3566 35.4823 26.1054 46.1931 43.1967 14.981 25.8264 20.7575 16.7095 14.3565 17.0811 20.3668 22.4392 16.6215 11.4204
internal_count=691 257 434 191 155 116 189 243 68 106 106 68 72 73 83 137 103 72
shrinkage=0.05


Tree=13
num_leaves=19
num_cat=0
split_feature=1 7 5 5 6 1 1 5 2 2 6 2 3 6 5 0 5 6
split_gain=41.5444 12.0388 11.6544 7.23966 6.65178 5.24432 4.90365 4.53571 4.03832 3.24774 2.83933 2.07959 1.55624 1.51776 0.670142 0.436564 0.00197816 0.000397315
threshold=127.50000000000001 28.500000000000004 29.950000000000003 26.450000000000003 0.63850000000000018 99.500000000000014 157.50000000000003 30.950000000000003 73.000000000000014 71.000000000000014 0.44000000000000006 64.500000000000014 29.500000000000004 0.25350000000000006 34.250000000000007 2.5000000000000004 27.750000000000004 0.39950000000000002
decision_type=2 2 2 2 2 2 2 2 2 2 2 2 2 2 2 2 2 2
left_child=1 7 8 -3 5 -5 9 15 -2 -4 -11 -9 -13 -7 -8 16 17 -1
right_child=2 3 6 4 -6 13 14 11 -10 10 -12 12 -14 -15 -16 -17 -18 -19
leaf_value=-0.061340418980510125 0.0201709903060142 -0.051680079088270651 0.053885471197742486 -0.043475658514702913 0.040992068820232104 -0.011192004485624706 0.050750163468211498 -0.0043195401589092445 -0.031953571914078445 -0.0029673571009884714 0.037918370128324219 -0.018692339611776566 -0.053576571231503514 0.017962498225138911 0.069444526681136778 -0.045822496240744075 -0.062797178339326576 -0.061948627913312043
leaf_weight=6.3263002336025291 7.0856554806232435 6.6973903477191916 8.8398268669843691 7.4491538405418423 9.4247980713844282 7.4860183149576214 7.8380081206560162 7.6579991430044201 7.8131860941648483 8.9048565775156039 8.1168798953294736 6.0129211246967298 6.8271975666284561 11.058576434850691 12.343137755990027 5.664642170071601 5.0118515342473975 4.6653272211551666
leaf_count=42 32 36 36 37 39 33 32 39 36 37 33 31 36 46 51 34 31 30
internal_value=0 -0.0229159 0.0312743 -0.00400752 0.00500702 -0.00804042 0.0437124 -0.0418017 -0.00716395 0.029298 0.0165292 -0.0249414 -0.0372406 0.00619351 0.062184 -0.0577515 -0.0619739 -0.0615986
internal_weight=0 84.2822 60.9416 42.1159 35.4185 25.9937 46.0427 42.1662 14.8988 25.8616 17.0217 20.4981 12.8401 18.5446 20.1811 21.6681 16.0035 10.9916
internal_count=691 434 257 191 155 116 189 243 68 106 70 106 67 79 83 137 103 72
shrinkage=0.05


Tree=14
num_leaves=19
num_cat=0
split_feature=1 7 5 5 1 1 6 2 5 6 2 7 3 1 5 4 2 5
split_gain=37.8501 11.3341 10.5692 8.99873 6.35345 4.59951 3.7054 3.66883 3.0534 4.89735 2.90658 2.65822 2.29775 1.34032 0.994584 0.729642 0.165013 0.00283565
threshold=127.50000000000001 30.500000000000004 29.950000000000003 26.850000000000005 106.50000000000001 157.50000000000003 0.29250000000000004 73.000000000000014 32.050000000000004 0.49550000000000005 71.000000000000014 35.500000000000007 29.500000000000004 105.50000000000001 33.000000000000007 66.500000000000014 57.000000000000007 27.150000000000002
decision_type=2 2 2 2 2 2 2 2 2 2 2 2 2 2 2 2 2 2
left_child=1 8 7 -3 6 10 -5 -2 13 12 -4 -12 -10 16 -6 -7 -1 -18
right_child=2 3 5 4 14 15 -8 -9 9 -11 11 -13 -14 -15 -16 -17 17 -19
leaf_value=-0.051014194295296217 0.019049655538271461 -0.057894632453148201 0.050991919625623217 -0.041780957264609307 0.046721262133855287 0.070752201029551209 0.0076606656365632497 -0.030682097877383449 -0.02197821300469259 0.0032819043928192329 -0.0075482712652647985 0.032488084298158484 -0.066173951513313442 -0.035482519039752865 0.020576420142613294 0.051440424556247213 -0.06145323053148527 -0.063053753234486892
leaf_weight=4.7099497318267849 7.1265204995870572 5.8484755158424369 8.8734313696622866 6.3179352134466198 7.2900876998901349 8.5656729638576525 9.4694364070892316 7.7322158515453339 5.5371159315109271 9.148949980735777 7.1404611617326763 9.8859566897153837 6.2723208963871002 9.9710156470537168 7.2601824849843979 11.40139280259609 6.1812191009521467 5.010734423995018
leaf_count=31 32 32 36 30 30 36 42 36 30 43 30 40 35 59 30 47 41 31
internal_value=0 -0.0221235 0.0298194 -0.00110628 0.00984135 0.041692 -0.0121253 -0.00682984 -0.0383634 -0.0241781 0.0277898 0.0156978 -0.0454518 -0.0498542 0.0336757 0.059725 -0.0588656 -0.0621698
internal_weight=0 83.0174 60.7257 36.1861 30.3376 45.8669 15.7874 14.8587 46.8313 20.9584 25.8998 17.0264 11.8094 25.8729 14.5503 19.9671 15.9019 11.192
internal_count=691 434 257 164 132 189 72 68 270 108 106 70 65 162 60 83 103 72
shrinkage=0.05


Tree=15
num_leaves=19
num_cat=0
split_feature=1 7 5 5 6 1 5 1 1 6 7 2 3 2 5 0 5 6
split_gain=34.5027 10.6783 9.60041 6.20335 5.66874 4.62464 4.41405 4.32254 3.36942 2.62852 2.21296 1.93268 1.43734 1.35371 0.650033 0.460632 0.00148766 0.000265335
threshold=127.50000000000001 28.500000000000004 29.950000000000003 26.450000000000003 0.63850000000000018 99.500000000000014 30.950000000000003 157.50000000000003 145.50000000000003 0.31850000000000006 30.500000000000004 64.500000000000014 29.500000000000004 74.500000000000014 34.250000000000007 2.5000000000000004 27.750000000000004 0.39950000000000002
decision_type=2 2 2 2 2 2 2 2 2 2 2 2 2 2 2 2 2 2
left_child=1 6 8 -3 5 -5 15 9 -2 -4 -11 -8 -13 -7 -9 16 17 -1
right_child=2 3 7 4 -6 13 11 14 -10 10 -12 12 -14 -15 -16 -17 -18 -19
leaf_value=-0.060134129443438711 -0.029807035494387131 -0.049142098834317111 0.0040206103388148963 -0.041458291481346166 0.037688520973042365 0.017692546276846716 -0.0031089189407952542 0.046108364825310194 0.017893600982998456 0.017408329332602768 0.053560596756193873 -0.017350388105515806 -0.051408148215648479 -0.0095283142597798898 0.064711450141338195 -0.043593801529601663 -0.061429696674272539 -0.060649602569843697
leaf_weight=5.8809793591499346 7.5807493627071363 6.332628831267356 8.7184140235185641 7.2328914701938656 9.4697874635457975 10.354427039623262 7.5586037933826473 7.7052912861108807 7.2356514185667038 7.532868608832362 9.6627200543880445 5.9188540726900083 6.4998991936445236 8.1719478070735914 12.022515267133711 5.3562757968902579 4.6755592823028556 4.3378491848707199
leaf_count=42 38 36 36 37 39 44 39 32 30 31 39 31 36 35 51 34 31 30
internal_value=0 -0.0213551 0.0284579 -0.0035809 0.00460899 -0.00755192 -0.0397185 0.03981 -0.00651223 0.0263845 0.0377234 -0.0230432 -0.035176 0.00568548 0.0574455 -0.0561688 -0.060691 -0.0603529
internal_weight=0 81.7897 60.4582 41.5617 35.2291 25.7593 40.228 45.6418 14.8164 25.914 17.1956 19.9774 12.4188 18.5264 19.7278 20.2507 14.8944 10.2188
internal_count=691 434 257 191 155 116 243 189 68 106 70 106 67 79 83 137 103 72
shrinkage=0.05


Tree=16
num_leaves=19
num_cat=0
split_feature=1 7 5 5 1 5 1 2 2 4 7 0 7 1 4 0 5 1
split_gain=31.4793 10.004 8.72489 5.75536 5.2591 4.33763 4.06394 3.33792 2.67604 2.4635 2.3338 2.13528 4.99478 1.3529 0.719722 0.468021 0.00124122 0.000134281
threshold=127.50000000000001 28.500000000000004 29.950000000000003 26.450000000000003 94.500000000000014 30.950000000000003 157.50000000000003 73.000000000000014 71.000000000000014 102.50000000000001 35.500000000000007 6.5000000000000009 34.500000000000007 101.50000000000001 66.500000000000014 2.5000000000000004 27.750000000000004 99.500000000000014
decision_type=2 2 2 2 2 2 2 2 2 2 2 2 2 2 2 2 2 2
left_child=1 5 7 -3 -5 15 8 -2 -4 13 -10 12 -6 -7 -8 16 17 -1
right_child=2 3 6 4 11 9 14 -9 10 -11 -12 -13 -14 -15 -16 -17 -18 -19
leaf_value=-0.059579333393565061 0.018355915950752248 -0.047996540447543791 0.047325960852989048 -0.034326747957560959 -0.025327543193445452 -0.025337495340355488 0.066470127472582616 -0.029260885249012297 -0.0082825122630134779 -0.048954465787945517 0.029232233856255414 0.031385167425383623 0.02859364447485568 0.0060575443597144238 0.047030604582100642 -0.042565812780512288 -0.060749953609816491 -0.059951000895976825
leaf_weight=5.3929263055324572 7.1292835325002653 6.1639003306627265 8.88286340236664 7.0205113440752021 8.1468213200569206 7.2702268064022082 8.2976218760013598 7.6078574806451797 7.150146588683131 5.9794742763042441 9.8662380874156934 10.886645495891569 9.0830193310976011 6.4989854395389557 11.172386407852171 5.2149721086025229 4.4960277676582328 4.4236304759979248
leaf_count=40 32 36 36 36 36 40 36 36 30 34 40 45 38 32 47 34 31 32
internal_value=0 -0.0206134 0.0271988 -0.00343286 0.00438471 -0.0386795 0.0380559 -0.00622564 0.0250811 -0.0221566 0.0134688 0.0140507 0.00309798 -0.0105192 0.0553152 -0.0553895 -0.0600619 -0.0597468
internal_weight=0 80.5771 60.1064 41.3009 35.137 39.2762 45.3693 14.7371 25.8992 19.7487 17.0164 28.1165 17.2298 13.7692 19.47 19.5276 14.3126 9.81656
internal_count=691 434 257 191 155 243 189 68 106 106 70 119 74 72 83 137 103 72
shrinkage=0.05


Tree=17
num_leaves=18
num_cat=0
split_feature=1 7 1 5 5 6 5 1 7 5 4 1 2 1 2 1 5
split_gain=28.7161 9.37514 8.10926 6.35683 5.34078 5.14343 4.25793 4.021 2.97242 2.63752 2.32578 1.24028 1.21404 1.02444 0.873493 0.449514 0.000962237
threshold=127.50000000000001 28.500000000000004 154.50000000000003 27.850000000000005 26.450000000000003 0.63850000000000018 30.950000000000003 101.50000000000001 28.500000000000004 34.750000000000007 102.50000000000001 101.50000000000001 79.000000000000014 111.50000000000001 69.000000000000014 106.50000000000001 25.250000000000004
decision_type=2 2 2 2 2 2 2 2 2 2 2 2 2 2 2 2 2
left_child=1 6 3 -2 -3 7 15 -6 -5 -10 11 -8 14 -9 -4 16 -1
right_child=2 4 12 8 5 -7 10 13 9 -11 -12 -13 -14 -15 -16 -17 -18
leaf_value=-0.059377248713221878 -0.036187399817567911 -0.046885801281920471 0.04265280253622513 -0.00026680545689060727 -0.0357045589553023 0.035670021258290364 -0.024392552917182578 -0.008435597093166762 0.013787491610071168 0.052658833772839697 -0.047775587565220941 0.0057398436464788337 0.031905896263577711 0.016487255666590366 0.06548240999893791 -0.043029055585077094 -0.060237347680789435
leaf_weight=6.8862879276275653 6.0788657665252677 5.9986567348241797 7.62597224116326 10.956131145358087 8.4496135562658328 9.4612319171428663 7.1767012029886263 6.907250031828883 8.8485497534275073 8.6103448718786222 5.8246319890022269 6.5153385847806931 8.3589376509189588 10.229464307427405 9.2989462465047819 5.7754973620176306 6.1612468063831329
leaf_count=52 31 36 32 46 43 39 40 30 37 35 34 32 36 43 40 41 44
internal_value=0 -0.0198971 0.0259862 0.0102194 -0.00329069 0.00417095 -0.0376757 -0.00747668 0.0201473 0.032958 -0.0213118 -0.0100541 0.0474962 0.00644167 0.0551959 -0.0546426 -0.0597834
internal_weight=0 79.3859 59.7777 34.4939 41.0462 35.0476 38.3397 25.5863 28.415 17.4589 19.5167 13.692 25.2839 17.1367 16.9249 18.823 13.0475
internal_count=691 434 257 149 191 155 243 116 118 72 106 72 108 73 72 137 96
shrinkage=0.05


Tree=18
num_leaves=18
num_cat=0
split_feature=1 5 1 0 5 7 7 4 5 6 6 5 0 5 6 5 7
split_gain=26.2689 8.9751 8.26148 6.68533 5.4151 4.74959 3.76825 4.62417 3.19392 2.18963 2.67117 2.16726 1.39429 0.872401 0.43637 0.393058 0.0105507
threshold=124.50000000000001 26.450000000000003 154.50000000000003 6.5000000000000009 27.450000000000003 34.500000000000007 41.500000000000007 137.50000000000003 30.950000000000003 0.49950000000000006 0.25850000000000006 34.750000000000007 6.5000000000000009 34.050000000000004 0.37550000000000006 23.050000000000004 27.500000000000004
decision_type=2 2 2 2 2 2 2 2 2 2 2 2 2 2 2 2 2
left_child=1 15 4 5 -2 8 7 11 14 10 -10 -6 13 -4 -3 -1 -17
right_child=2 3 12 -5 6 -7 -8 -9 9 -11 -12 -13 -14 -15 -16 16 -18
leaf_value=-0.0445726390795355 -0.034464600167483282 -0.062644604197723205 0.023899229718092711 0.019380328098035936 0.0042828374011588269 0.010360310046668372 0.043536824535415609 -0.021588648565634767 -0.0053848019443199094 -0.00045051315204508815 -0.049473588910594529 0.042772238231354495 0.061691735657749436 0.047173593977480638 -0.042604369497452381 -0.05900254559094753 -0.062363634072259505
leaf_weight=6.4118861854076377 6.1063490062952033 5.062965013086794 7.1921293586492601 13.425143703818319 7.2691785991191882 9.5145049542188627 9.418519049882887 9.202827110886572 5.7874435186386135 9.3867198973894101 8.4535161852836591 7.3608528077602386 8.7169812917709333 9.146673232316969 5.8607939779758453 4.7688158601522428 4.5746685266494751
leaf_count=47 33 34 30 59 31 42 39 41 33 44 48 30 38 40 36 37 29
internal_value=0 -0.0206725 0.0231012 -0.01151 0.00881392 -0.0209211 0.0167617 0.00618039 -0.0295351 -0.0191986 -0.0315562 0.0236481 0.0455437 0.0369285 -0.0518927 -0.054106 -0.0606482
internal_weight=0 73.2465 64.4135 57.4911 39.3577 44.0659 33.2514 23.8329 34.5514 23.6277 14.241 14.63 25.0558 16.3388 10.9238 15.7554 9.34348
internal_count=691 409 282 296 174 237 141 102 195 125 81 61 108 70 70 113 66
shrinkage=0.05


Tree=19
num_leaves=18
num_cat=0
split_feature=1 5 1 7 7 1 5 6 2 2 7 1 0 5 5 5 7
split_gain=23.972 8.58328 7.58765 6.11869 5.09806 4.3967 3.24755 2.83454 1.96699 3.12245 2.32784 1.80033 1.30213 0.820563 0.393536 0.302583 0.00880076
threshold=124.50000000000001 26.450000000000003 154.50000000000003 30.500000000000004 24.500000000000004 110.50000000000001 29.950000000000003 0.33300000000000002 79.000000000000014 64.500000000000014 24.500000000000004 94.500000000000014 6.5000000000000009 34.050000000000004 23.050000000000004 32.850000000000001 27.500000000000004
decision_type=2 2 2 2 2 2 2 2 2 2 2 2 2 2 2 2 2
left_child=1 14 4 8 -2 11 -6 -8 9 10 -3 -5 13 -4 -1 -11 -16
right_child=2 3 12 5 6 -7 7 -9 -10 15 -12 -13 -14 -15 16 -17 -18
leaf_value=-0.043662174476279736 -0.023103651400235441 -0.034727118720574011 0.02276315229446953 -0.030008088163985799 -0.007971633117037363 0.033805137887685813 0.0060869929948442585 0.043504227353921995 -0.0010581167963421561 -0.061981503042528724 0.010201912143454072 0.0028781694417823181 0.059462609266382839 0.045416244108056503 -0.05848732841348725 -0.045438307430761327 -0.061618812968420249
leaf_weight=6.2231372147798529 9.6761814802885038 6.682774551212793 7.1739924997091356 6.316523537039763 8.2289103865623492 9.2942395359277707 8.2634089142084139 13.062629505991934 5.8348527029156676 4.5371501818299276 5.0703070461750031 12.198726817965506 8.5946932137012464 9.0286013931035978 4.5751832425594312 7.0728855580091476 4.4028199762105942
leaf_count=47 46 42 30 33 40 38 34 54 32 31 28 52 38 40 37 40 29
internal_value=0 -0.0199418 0.0220814 -0.01104 0.00839705 0.00574467 0.0187103 0.0290058 -0.0270265 -0.0335121 -0.0153446 -0.00834106 0.043731 0.0353862 -0.0533251 -0.0519033 -0.060023
internal_weight=0 72.2086 64.0284 57.0075 39.2311 27.8095 29.5549 21.326 29.198 23.3631 11.7531 18.5153 24.7973 16.2026 15.2011 11.61 8.978
internal_count=691 409 282 296 174 123 128 88 173 141 70 85 108 70 113 71 66
shrinkage=0.05


Tree=20
num_leaves=18
num_cat=0
split_feature=5 7 5 7 6 4 4 2 6 2 2 2 6 6 5 6 3
split_gain=15.645 8.39374 5.62408 4.82666 3.67195 2.25022 3.35448 4.88903 2.61619 2.19146 2.17414 2.1176 1.75737 3.03924 1.32687 0.476077 0.00366588
threshold=27.850000000000005 30.500000000000004 41.900000000000006 27.500000000000004 0.49950000000000006 141.00000000000003 17.000000000000004 74.500000000000014 0.40150000000000008 73.000000000000014 75.500000000000014 60.500000000000007 0.24050000000000002 0.36300000000000004 32.850000000000001 0.40150000000000008 14.500000000000002
decision_type=2 2 2 2 2 2 2 2 2 2 2 2 2 2 2 2 2
left_child=3 2 4 15 11 6 7 -3 -9 -5 -7 -2 -13 -14 -6 16 -1
right_child=1 5 -4 9 14 10 -8 8 -10 -11 -12 12 13 -15 -16 -17 -18
leaf_value=-0.06122684620609823 0.00074478403555883145 0.047263290774219091 0.03056957147969748 0.0032476608712256475 -0.012528239190729299 0.017503311959427274 -0.0078441644513274067 -0.010650483392330459 0.028813564853029862 -0.033136462620541367 0.054854430579257984 -0.055345488147082428 -0.00072607392703803481 -0.051372297533929079 0.017788713867160535 -0.041030530493647827 -0.05918796469620477
leaf_weight=4.9219126701354998 5.4697036966681507 13.19513848423958 8.3961505740880948 8.9948751926422137 6.2294271737337104 7.0859443843364707 10.987138673663138 9.5393204987049121 7.5024364143609992 7.6654642671346656 8.6543958783149701 6.6101186797022846 6.6640997380018216 5.3324250802397728 8.580003470182417 4.9937683939933768 3.9933081269264221
leaf_count=37 31 58 38 49 34 30 48 43 32 41 37 38 35 31 39 38 32
internal_value=0 0.00903149 -0.00654148 -0.0316461 -0.0145544 0.0219575 0.0158168 0.0244145 0.00672311 -0.0134928 0.0380398 -0.0266047 -0.0346445 -0.0232382 0.00503621 -0.0533904 -0.0603136
internal_weight=0 104.246 47.2819 30.5693 38.8858 56.9644 41.224 30.2369 17.0418 16.6603 15.7403 24.0763 18.6066 11.9965 14.8094 13.909 8.91522
internal_count=691 494 246 197 208 248 181 133 75 90 67 135 104 66 73 107 69
shrinkage=0.05


Tree=21
num_leaves=17
num_cat=0
split_feature=1 5 1 0 7 7 5 5 2 2 2 0 5 0 5 7
split_gain=21.4672 7.80205 6.74545 5.53666 4.35943 3.86674 3.05747 2.67876 2.60363 2.48137 1.35804 1.21802 0.73365 0.676189 0.411844 0.0089192
threshold=124.50000000000001 26.450000000000003 154.50000000000003 6.5000000000000009 24.500000000000004 34.500000000000007 30.950000000000003 29.950000000000003 67.000000000000014 79.000000000000014 73.000000000000014 6.5000000000000009 34.050000000000004 2.5000000000000004 23.050000000000004 27.500000000000004
decision_type=2 2 2 2 2 2 2 2 2 2 2 2 2 2 2 2
left_child=1 14 4 5 -2 6 13 -6 -8 -10 -9 12 -4 -3 -1 -16
right_child=2 3 11 -5 7 -7 8 10 9 -11 -12 -13 -14 -15 15 -17
leaf_value=-0.041962746899605267 -0.02139165187997915 -0.061353481505575062 0.021548305190003187 0.017219081857897271 -0.0068241553909240017 0.0085288217109034583 0.0034719307569234699 0.044335256706497836 -0.04884769870549454 -0.0061585902232903439 0.017738720474349854 0.057008883533275739 0.043108698682515559 -0.035435704355429275 -0.057591740699177586 -0.060843967250317682
leaf_weight=5.8635861277580252 9.5087438896298391 5.8843584433197957 7.1285853683948543 13.442374989390371 8.1467200815677661 9.5239745378494245 9.0210049152374285 7.3197558969259289 8.1327069327235204 5.8545784056186667 13.940210685133932 8.3933690339326841 8.8366388082504255 4.3971312195062637 4.2198547869920713 4.2128052487969398
leaf_count=47 46 45 30 59 40 42 48 30 47 30 58 38 40 25 37 29
internal_value=0 -0.0191567 0.020954 -0.0107748 0.00803801 -0.0195641 -0.0276013 0.0175542 -0.0174719 -0.0309796 0.0268958 0.0415887 0.0334818 -0.0502691 -0.0521399 -0.0592165
internal_weight=0 70.5524 63.274 56.2561 38.9154 42.8138 33.2898 29.4067 23.0083 13.9873 21.26 24.3586 15.9652 10.2815 14.2962 8.43266
internal_count=691 409 282 296 174 237 195 128 125 77 88 108 70 70 113 66
shrinkage=0.05


Tree=22
num_leaves=18
num_cat=0
split_feature=1 1 6 5 5 5 3 6 0 3 5 1 2 2 3 5 1
split_gain=19.8165 8.6991 7.30646 7.24895 5.32872 6.92829 4.18206 3.57045 2.68731 2.25478 2.22716 2.15062 1.23261 0.88071 0.486447 0.149511 0.167837
threshold=111.50000000000001 154.50000000000003 0.65900000000000014 41.900000000000006 38.050000000000004 27.050000000000004 14.500000000000002 0.52750000000000019 6.5000000000000009 27.500000000000004 30.600000000000005 129.50000000000003 79.000000000000014 69.000000000000014 27.500000000000004 27.850000000000005 99.500000000000014
decision_type=2 2 2 2 2 2 2 2 2 2 2 2 2 2 2 2 2
left_child=2 3 8 4 5 -2 -7 11 10 -4 15 -8 13 -3 -12 16 -1
right_child=1 12 9 -5 -6 6 7 -9 -10 -11 14 -13 -14 -15 -16 -17 -18
leaf_value=-0.057970412455696389 -0.036063815246897883 0.03511852813836247 -0.013816808477598787 0.047803341767425067 -0.043876938905593299 0.03662320058776513 -0.033884930520517581 0.027881372272974287 -0.010454704752447993 0.030209424906217693 -0.018413978013802509 0.0041044272921021549 0.02385055906084111 0.058574826449402276 -0.036970647641386814 -0.064079525821495939 -0.044341343228739262
leaf_weight=6.6523161232471484 8.8004936799406988 7.3372456133365693 5.5758305490016919 8.261833116412161 6.8029562681913367 12.605456948280333 6.9796546697616595 7.9337297007441512 7.9750920161604872 6.0785608142614365 6.0336778238415709 7.990399032831192 7.9416105002164832 8.8030270636081678 8.5165205523371679 4.7812081128358832 3.4203209653496742
leaf_count=58 54 32 32 35 31 55 37 35 39 28 34 34 36 40 50 32 29
internal_value=0 0.0146297 -0.0254199 0.00434896 -0.00267499 0.00365082 0.0134936 0.000763811 -0.0361972 0.00914588 -0.0431792 -0.0136078 0.039977 0.0479118 -0.0292756 -0.0567985 -0.0533424
internal_weight=0 83.4564 49.0335 59.3745 51.1127 44.3097 35.5092 22.9038 37.3791 11.6544 29.404 14.9701 24.0819 16.1403 14.5502 14.8538 10.0726
internal_count=691 389 302 281 246 215 161 106 242 60 203 71 108 72 84 119 87
shrinkage=0.05


Tree=23
num_leaves=18
num_cat=0
split_feature=1 1 0 6 2 7 6 6 0 7 7 3 0 7 1 6 7
split_gain=18.2786 8.99658 5.09685 4.78393 3.6754 5.45489 3.31053 2.72964 2.57642 2.47005 1.72536 1.73349 1.18735 0.506349 0.42217 0.0782565 0.00418585
threshold=106.50000000000001 154.50000000000003 7.5000000000000009 0.65900000000000014 54.500000000000007 30.500000000000004 0.31850000000000006 0.5525000000000001 3.5000000000000004 42.500000000000007 25.500000000000004 23.500000000000004 6.5000000000000009 32.500000000000007 94.500000000000014 0.20800000000000002 22.500000000000004
decision_type=2 2 2 2 2 2 2 2 2 2 2 2 2 2 2 2 2
left_child=3 2 4 10 -2 6 15 -8 -7 -10 14 -12 13 -3 16 -6 -1
right_child=1 12 -4 -5 5 8 7 -9 9 -11 11 -13 -14 -15 -16 -17 -18
leaf_value=-0.057933783968243238 0.035308974391746815 0.038674242562573138 0.031632302374598763 0.0047771199192552082 -0.048711781505536983 0.035867210987523296 0.0085330443365982493 -0.031528853930413034 -0.018874724950360262 0.021180234935242723 -0.042333969615044986 -0.011047122314187766 0.053857398710977236 0.020638173222087323 -0.040560569783855444 -0.040192377912048001 -0.060240161071551418
leaf_weight=3.7545460015535372 5.4460258409380904 8.4218444824218768 12.470441684126852 8.3051935806870443 5.2699984237551707 6.901846811175349 9.6888616532087344 7.5770384818315497 8.5485806465148908 7.0009209066629401 9.60983904451132 8.2094105482101423 8.1674145907163602 7.2338987439870825 4.9910335168242455 5.5177643746137619 4.1326414123177528
leaf_count=33 28 38 56 43 33 30 49 37 37 31 59 43 38 32 39 33 32
internal_value=0 0.0119402 0.00272631 -0.0288889 -0.00371629 -0.00792444 -0.0226246 -0.00904788 0.0104439 -0.000840603 -0.0379972 -0.02792 0.0384029 0.0303405 -0.0519408 -0.0443542 -0.0591423
internal_weight=0 92.2446 68.4215 39.0027 55.951 50.505 28.0537 17.2659 22.4513 15.5495 30.6975 17.8192 23.8232 15.6557 12.8782 10.7878 7.88719
internal_count=691 442 334 249 278 250 152 86 98 68 206 102 108 70 104 66 65
shrinkage=0.05


Tree=24
num_leaves=18
num_cat=0
split_feature=1 1 5 7 6 4 2 5 6 6 7 7 2 5 2 5 2
split_gain=16.7473 8.24974 6.60388 5.24977 4.48502 3.70164 3.8166 2.26185 1.77141 2.18241 1.55175 1.21658 1.16763 1.04019 0.852149 0.338253 0.139966
threshold=106.50000000000001 154.50000000000003 26.850000000000005 30.500000000000004 0.65900000000000014 41.500000000000007 73.000000000000014 29.650000000000002 0.51550000000000018 0.26150000000000007 25.500000000000004 38.500000000000007 79.000000000000014 23.850000000000005 69.000000000000014 32.850000000000001 60.500000000000007
decision_type=2 2 2 2 2 2 2 2 2 2 2 2 2 2 2 2 2
left_child=4 2 13 5 7 15 -7 16 9 -5 -9 -12 14 -2 -3 -4 -1
right_child=1 12 3 8 -6 6 -8 10 -10 -11 11 -13 -14 -15 -16 -17 -18
leaf_value=-0.048225040602273866 -0.014648415091826886 0.032065260573787502 0.0040489784261305943 0.029162953978075778 0.004531205801975394 0.00088916185389910157 -0.050621710699553985 -0.04632250858220701 0.037742432473497893 -0.0054022422993635104 0.00067638947432514644 -0.030666040383847033 0.021081055553313979 -0.046920009367489621 0.055404666297808436 0.020558358135264125 -0.059629359599754322
leaf_weight=4.5974710211157817 4.1519524827599508 7.2015486955642727 5.7538919523358363 9.9931877404451424 8.3177987337112409 7.3676004782319051 7.0245476290583611 6.467711046338084 12.52781769633293 8.4096919745206815 5.7728666514158231 6.6771786510944366 7.7939727306365958 6.2642053589224815 8.5589240640401822 6.7331483066082001 6.4861216247081757
leaf_count=41 27 32 30 42 43 37 38 45 52 35 33 32 36 43 40 30 55
internal_value=0 0.0113989 0.00259095 0.00919404 -0.0279559 -0.0069691 -0.0242524 -0.0369628 0.02324 0.0133675 -0.0264544 -0.0161331 0.0369115 -0.0340563 0.04474 0.012951 -0.0548989
internal_weight=0 91.7805 68.226 57.8099 38.3191 26.8792 14.3921 30.0013 30.9307 18.4029 18.9178 12.45 23.5544 10.4162 15.7605 12.487 11.0836
internal_count=691 442 334 264 249 135 75 206 129 77 110 65 108 70 72 60 96
shrinkage=0.05


Tree=25
num_leaves=19
num_cat=0
split_feature=1 1 5 0 2 7 7 7 6 5 6 6 0 6 2 2 5 5
split_gain=15.4926 8.09241 6.14002 5.22032 3.85482 3.87274 3.75055 2.88417 4.93711 2.40631 1.92362 1.78917 1.60009 1.20957 1.11605 0.722649 0.397257 0.00928545
threshold=103.50000000000001 166.50000000000003 42.850000000000001 7.5000000000000009 73.000000000000014 30.500000000000004 25.500000000000004 24.500000000000004 0.36300000000000004 28.950000000000003 0.48350000000000004 0.39200000000000007 9.5000000000000018 0.44650000000000006 77.000000000000014 81.000000000000014 33.650000000000013 28.250000000000004
decision_type=2 2 2 2 2 2 2 2 2 2 2 2 2 2 2 2 2 2
left_child=6 2 3 4 7 15 16 8 -2 -8 -11 -9 -5 -7 -3 -6 17 -1
right_child=1 14 -4 12 5 13 9 11 -10 10 -12 -13 -14 -15 -16 -17 -18 -19
leaf_value=-0.056109597876273121 -0.045460952420940746 0.054931947542110893 0.045914821159489562 0.042752395004804516 -0.031156312679502998 -0.016667420926732703 -0.049099558777932595 0.031570754714466125 0.019803531905993502 -0.021615956576115682 0.014264069370018445 0.0010801967403205254 0.0096999949663240988 0.011038234156329922 0.027333726629839301 -0.056125993499267585 -0.038285541809471212 -0.059453921325009165
leaf_weight=5.1108209863305074 6.2035233527421969 8.8461987972259504 7.7669635564088813 7.166775315999983 6.0998323410749453 9.5279891043901461 4.4295488372445133 9.7677390500903147 5.4378028959035873 9.3882177621126157 6.2041845619678488 9.4816735535860044 7.4868798702955246 6.7164226844906798 6.2523044347763053 5.5196140930056572 3.93247365951538 3.4947387278079987
leaf_count=53 40 41 34 33 35 42 35 47 30 51 29 45 33 30 30 30 25 28
internal_value=0 0.00989108 0.0036392 -0.00083377 -0.00749261 -0.0209774 -0.030007 0.00467087 -0.0149751 -0.0165782 -0.00733937 0.016552 0.0258652 -0.00521223 0.0435035 -0.0430177 -0.0514514 -0.0574677
internal_weight=0 96.2737 81.1752 73.4083 58.7546 27.8639 32.56 30.8907 11.6413 20.022 15.5924 19.2494 14.6537 16.2444 15.0985 11.6194 12.538 8.60556
internal_count=691 470 399 365 299 137 221 162 70 115 80 92 66 72 71 65 106 81
shrinkage=0.05


Tree=26
num_leaves=19
num_cat=0
split_feature=5 0 6 2 7 0 5 6 2 0 3 5 0 3 5 7 2 6
split_gain=11.2615 5.42222 4.65269 4.41343 4.48764 4.08918 3.97952 4.13937 3.89292 2.51227 2.34952 7.08561 2.08113 1.10578 0.93091 0.869246 0.645746 0.018388
threshold=27.850000000000005 7.5000000000000009 0.42250000000000004 53.000000000000007 30.500000000000004 2.5000000000000004 41.900000000000006 0.49950000000000006 73.000000000000014 1.5000000000000002 24.500000000000004 34.95000000000001 1.5000000000000002 32.500000000000007 32.45000000000001 25.500000000000004 69.000000000000014 0.32550000000000007
decision_type=2 2 2 2 2 2 2 2 2 2 2 2 2 2 2 2 2 2
left_child=5 3 -3 -2 6 15 7 13 -7 -6 14 -12 -9 16 -11 17 -5 -1
right_child=1 2 -4 4 9 8 -8 12 -10 10 11 -13 -14 -15 -16 -17 -18 -19
leaf_value=-0.057324903747956568 0.040107253381298696 0.0067703891866781859 0.056600796333874985 -0.05498006750924616 0.036883298571667222 0.0094575445595200449 0.020253624709672288 -0.019941379513857622 -0.041749916326808342 0.03268525851127814 -0.044724117039276645 0.025886261607348283 0.020753487728038159 -0.018871356567400938 0.0064382330485280616 -0.031304529201326294 -0.032359436516366538 -0.062092153722231085
leaf_weight=4.1250299066305178 6.9530648291110984 9.3099408745765704 9.428450405597685 6.5321054309606605 7.5810596495866767 9.1183761581778509 7.2410202473402014 5.9681693315505964 6.2592240050435057 6.6377303898334521 7.1812531352043134 7.0318192541599274 6.6336048692464828 6.6550835371017447 6.879453107714653 4.0566575154662123 6.1023077294230461 3.9689176678657532
leaf_count=41 35 42 43 43 33 59 34 30 35 30 32 32 34 38 30 28 38 34
internal_value=0 0.00759367 0.0318432 0.00201118 -0.00154701 -0.0285156 -0.0132085 -0.0208062 -0.0113857 0.0113764 0.00440312 -0.00979012 0.0014805 -0.035366 0.0193271 -0.0501948 -0.0440545 -0.0596626
internal_weight=0 100.135 18.7384 81.3967 74.4436 27.5282 39.1323 31.8913 15.3776 35.3113 27.7303 14.2131 12.6018 19.2895 13.5172 12.1506 12.6344 8.09395
internal_count=691 494 85 409 374 197 217 183 94 157 124 64 64 119 60 103 81 75
shrinkage=0.05


Tree=27
num_leaves=17
num_cat=0
split_feature=1 5 1 7 0 7 5 5 2 2 5 4 2 0 5 7
split_gain=14.178 6.56608 4.73164 4.76444 4.02465 3.10001 2.75273 2.75132 2.61944 2.17005 2.12667 2.01474 1.03403 0.743263 0.478354 0.00885436
threshold=124.50000000000001 26.450000000000003 166.50000000000003 24.500000000000004 6.5000000000000009 34.500000000000007 30.950000000000003 30.050000000000004 67.000000000000014 79.000000000000014 33.000000000000007 137.50000000000003 77.000000000000014 2.5000000000000004 23.050000000000004 28.500000000000004
decision_type=2 2 2 2 2 2 2 2 2 2 2 2 2 2 2 2
left_child=1 14 3 -2 5 6 13 -5 -8 -10 -9 -12 -4 -3 -1 -16
right_child=2 4 12 7 -6 -7 8 10 9 -11 11 -13 -14 -15 15 -17
leaf_value=-0.037510092703568684 -0.021813592221273746 -0.060153943963775602 0.052955523701542467 -0.0039882055381950379 0.015074756118014713 0.0085413490266195054 0.0066782883538798674 0.048431569397890645 -0.046369600595495192 -0.0054407298141111379 0.030189290583503683 -0.0039429433315721881 0.026131022713152315 -0.031370174410333129 -0.05605102628947263 -0.059569479481168468
leaf_weight=4.9762304425239545 9.7138262912631017 5.0561419129371661 8.6385283917188627 10.508419573307036 13.319217339158056 9.3911375403404218 8.6845771372318286 7.6712695658206966 7.4934704825282079 5.7034890502691269 11.240259423851969 7.0258418321609488 6.1504348516464225 4.0307059958577156 3.882723368704319 3.3145613670349121
leaf_count=47 49 45 41 50 59 42 48 33 47 30 48 31 30 25 41 25
internal_value=0 -0.0162763 0.0171872 0.00930167 -0.00875759 -0.0166226 -0.0242535 0.0175948 -0.0146472 -0.0286809 0.026339 0.0170607 0.0417997 -0.0473862 -0.0494299 -0.0576714
internal_weight=0 65.8523 60.9486 46.1596 53.6787 40.3595 30.9684 36.4458 21.8815 13.197 25.9374 18.2661 14.789 9.08685 12.1735 7.19728
internal_count=691 409 282 211 296 237 195 162 125 77 112 79 71 70 113 66
shrinkage=0.05


Tree=28
num_leaves=19
num_cat=0
split_feature=1 1 5 0 2 5 5 5 6 4 1 5 0 1 3 2 0 0
split_gain=13.4446 6.67117 5.14201 4.19784 3.82935 3.58846 3.50074 2.8986 2.62612 2.02038 3.12067 3.1089 1.43735 1.32194 1.98347 0.973234 0.388274 0.00098042
threshold=103.50000000000001 166.50000000000003 42.850000000000001 7.5000000000000009 73.000000000000014 36.650000000000013 29.400000000000002 27.550000000000004 0.65900000000000014 137.50000000000003 128.50000000000003 31.750000000000004 9.5000000000000018 94.500000000000014 27.500000000000004 77.000000000000014 3.5000000000000004 1.5000000000000002
decision_type=2 2 2 2 2 2 2 2 2 2 2 2 2 2 2 2 2 2
left_child=7 2 3 4 9 6 -6 17 13 10 11 -2 -5 14 -9 -3 -8 -1
right_child=1 15 -4 12 5 -7 16 8 -10 -11 -12 -13 -14 -15 -16 -17 -18 -19
leaf_value=-0.055682325391475732 -0.023285948626977724 0.051275377769671407 0.042312780283043666 0.039630034679106106 -0.038991579555861744 -0.050828828117875306 -0.0038407026263536518 -0.061917268974814324 0.0081180238147455057 -0.014719731141822213 0.038256559882778048 0.024830343543682361 0.008113256010446086 -0.014498881062441541 -0.017240546823469764 0.025075579661333836 0.013183070971330169 -0.056861627868370582
leaf_weight=3.0278591290116337 7.2405201941728645 8.4795844107866269 7.7211611270904532 7.0454875677824003 6.7134127244353357 7.1027828082442275 6.296597518026827 5.5519630089402252 6.0774680301547042 8.7530189231038076 8.1154730021953565 6.2591805458068848 7.435341402888298 7.806453511118888 4.4961571916937828 6.0904037505388251 7.1558622568845749 4.2168191894888878
leaf_count=34 51 41 34 33 41 33 32 40 30 45 36 30 33 43 32 30 31 42
internal_value=0 0.00921057 0.00353268 -0.00061925 -0.00666582 -0.0202665 -0.00950188 -0.0286592 -0.020271 0.0055467 0.0137535 -0.000976672 0.0234474 -0.0299343 -0.0419261 0.0403236 0.00521487 -0.0563687
internal_weight=0 94.4088 79.8388 72.1177 57.6368 27.2687 20.1659 31.1767 23.932 30.3682 21.6152 13.4997 14.4808 17.8546 10.0481 14.57 13.4525 7.24468
internal_count=691 470 399 365 299 137 104 221 145 162 117 81 66 115 72 71 63 76
shrinkage=0.05


Tree=29
num_leaves=18
num_cat=0
split_feature=1 1 6 7 6 7 4 2 3 1 7 6 3 0 7 1 6
split_gain=12.3497 6.19457 3.40172 3.3782 2.65112 2.45539 4.45707 2.13706 3.89809 2.26444 3.29064 1.53816 2.52006 1.15376 0.493778 0.418892 0.011112
threshold=103.50000000000001 154.50000000000003 0.20200000000000004 25.500000000000004 0.15450000000000003 24.500000000000004 70.500000000000014 67.000000000000014 33.500000000000007 122.50000000000001 41.500000000000007 0.29250000000000004 30.500000000000004 6.5000000000000009 32.500000000000007 92.500000000000014 0.39000000000000007
decision_type=2 2 2 2 2 2 2 2 2 2 2 2 2 2 2 2 2
left_child=3 2 4 15 -2 6 -4 -7 9 -9 -11 -5 -13 14 -3 16 -1
right_child=1 13 5 11 -6 7 -8 8 -10 10 -12 12 -14 -15 -16 -17 -18
leaf_value=-0.05612635050607926 0.0021325129295845734 0.03217455946579121 0.015840615682713079 -0.034801110505175162 -0.047843148466837938 0.031059575371048795 -0.042110221194582714 -0.021884588290893105 0.030973942979699826 -0.013830327422718306 0.033176723269549444 -0.023393095347378837 0.021803995880735838 0.047655416139691813 0.013873021407873779 -0.038730063683539047 -0.060333378427344958
leaf_weight=3.167931370437147 4.9900728762149793 7.910466283559801 6.7034018784761411 6.5776974856853512 5.6678533479571342 10.777188017964361 6.5697409883141518 11.066094070672991 10.818921983242033 8.0378886759281141 6.9353264272212973 7.5981163978576642 5.191276490688324 7.5584350228309622 6.9004226326942444 4.9232953861355782 3.1108790263533592
leaf_count=35 29 38 38 42 32 52 40 56 48 35 32 48 25 38 32 45 26
internal_value=0 0.00879366 0.00161519 -0.0277939 -0.0244444 0.00617516 -0.012843 0.0114744 0.00574777 -0.00473331 0.0079425 -0.0151527 -0.00504738 0.0317598 0.0236478 -0.049649 -0.0582108
internal_weight=0 93.9358 71.5665 30.5692 10.6579 60.9086 13.2731 47.6354 36.8582 26.0393 14.9732 19.3671 12.7894 22.3693 14.8109 11.2021 6.27881
internal_count=691 470 362 221 61 301 78 223 171 123 67 115 73 108 70 106 61
shrinkage=0.05


Tree=30
num_leaves=17
num_cat=0
split_feature=1 1 5 5 6 5 7 2 7 3 5 7 2 7 5 5
split_gain=11.3364 5.78442 4.54266 4.19495 4.48634 4.47927 3.75984 4.02124 3.27145 2.26974 1.99801 1.47898 0.934812 0.650088 0.514334 0.0100409
threshold=103.50000000000001 166.50000000000003 41.900000000000006 38.050000000000004 0.50500000000000012 31.150000000000002 27.500000000000004 73.000000000000014 25.500000000000004 13.500000000000002 28.950000000000003 32.500000000000007 77.000000000000014 41.500000000000007 33.850000000000001 28.250000000000004
decision_type=2 2 2 2 2 2 2 2 2 2 2 2 2 2 2 2
left_child=8 2 3 4 6 -6 9 -8 14 -2 -10 -12 -3 -9 15 -1
right_child=1 12 -4 -5 5 -7 7 13 10 -11 11 -13 -14 -15 -16 -17
leaf_value=-0.054742793440597917 -0.0014405077673394341 0.048743918155822311 0.03457937426771103 -0.035018912750659673 -0.0031980814397931491 0.042759579136598495 0.023470500566519496 -0.027061106258575576 -0.046421977222165949 -0.046233458252784146 0.013306410834048828 -0.018677058379410895 0.02272416280238955 -0.0056239140650702337 -0.032926060407919282 -0.058460013585320519
leaf_weight=4.1513049155473727 4.4469979330897313 8.2196697890758497 10.033393576741217 8.1907042115926725 9.8332880735397357 11.505310043692587 13.093816429376604 6.1752061545848838 3.9124331176281002 7.7686461508274078 5.8739551529288283 9.3968117386102659 5.9510908126831046 8.2763775140047056 3.4252328798174858 3.230300284922123
leaf_count=53 30 41 44 39 53 51 59 30 35 55 33 47 30 38 24 29
internal_value=0 0.00839208 0.00313552 -0.00141762 0.0030868 0.0215813 -0.00683866 0.00340038 -0.0269371 -0.029927 -0.0145422 -0.0063745 0.0378168 -0.0147841 -0.0489391 -0.0563695
internal_weight=0 93.4945 79.3237 69.2903 61.0996 21.3386 39.761 27.5454 29.99 12.2156 19.1832 15.2708 14.1708 14.4516 10.8068 7.38161
internal_count=691 470 399 355 316 104 212 127 221 85 115 80 71 68 106 82
shrinkage=0.05


Tree=31
num_leaves=20
num_cat=0
split_feature=1 1 5 0 2 5 7 5 5 4 5 5 0 4 7 5 0 5 1
split_gain=10.4026 5.32697 4.16508 3.61043 3.26939 3.2028 3.1749 3.1059 1.91013 2.70185 2.08621 1.82105 1.30262 0.958449 0.788561 0.56995 0.356998 0.00950651 1.65994e-07
threshold=103.50000000000001 166.50000000000003 42.850000000000001 7.5000000000000009 73.000000000000014 36.650000000000013 25.500000000000004 29.400000000000002 35.750000000000007 115.50000000000001 27.450000000000003 29.650000000000002 9.5000000000000018 131.00000000000003 37.500000000000007 34.250000000000007 3.5000000000000004 29.650000000000002 90.500000000000014
decision_type=2 2 2 2 2 2 2 2 2 2 2 2 2 2 2 2 2 2 2
left_child=6 2 3 4 8 7 15 -6 9 10 -2 -8 -5 -3 -13 17 -9 18 -1
right_child=1 13 -4 12 5 -7 11 16 -10 -11 -12 14 -14 -15 -16 -17 -18 -19 -20
leaf_value=-0.054751136295490402 -0.010915575967041971 0.023489626743888201 0.038022336294586505 0.03712811837828945 -0.037189878610446807 -0.048165471523219816 -0.040339301651496656 -0.0038049994298169952 0.029993448083858829 -0.021880992703094938 0.02787677428076879 0.0083902273863253087 0.0070151802324203791 0.049695768459556644 -0.015365285062284174 -0.030789721662840733 0.012585190265619077 -0.058534584675944627 -0.054732200357466558
leaf_weight=2.2953672334551829 5.7950126230716767 7.031778156757353 7.6604340970516196 6.97134982049465 6.5012204796075883 7.0081682652235022 4.8621742874383953 6.2185193523764593 6.0525711700320235 9.6656934097409231 8.6229279935359937 6.2558145299553853 7.4069946706295013 6.9251011908054352 7.911142960190773 3.2207482978701591 7.1333270817995071 2.5684013068675995 2.3342861533164978
leaf_count=30 40 36 34 33 41 33 41 32 28 52 42 35 33 35 39 23 31 23 30
internal_value=0 0.00801491 0.00298609 -0.000774184 -0.00642226 -0.0191063 -0.0260849 -0.00884834 0.00488336 -0.00142717 0.0122849 -0.0139368 0.0216155 0.0364925 -0.00487538 -0.0482724 0.00495159 -0.056095 -0.0547416
internal_weight=0 92.9931 79.0362 71.3758 56.9974 26.8612 29.4479 19.8531 30.1362 24.0836 14.4179 19.0291 14.3783 13.9569 14.167 10.4188 13.3518 7.19805 4.62965
internal_count=691 470 399 365 299 137 221 104 162 134 82 115 66 71 74 106 63 83 60
shrinkage=0.05


Tree=32
num_leaves=18
num_cat=0
split_feature=5 0 6 2 0 2 7 6 3 0 3 5 6 7 5 2 6
split_gain=8.04101 4.07165 4.12374 3.86048 3.73671 3.92375 3.31247 2.98305 2.75559 2.21579 2.22024 6.40644 1.93475 1.05853 0.922783 0.550623 0.0216977
threshold=27.850000000000005 7.5000000000000009 0.51550000000000018 53.000000000000007 2.5000000000000004 73.000000000000014 30.500000000000004 0.31850000000000006 34.500000000000007 1.5000000000000002 24.500000000000004 34.95000000000001 0.53300000000000014 26.500000000000004 32.45000000000001 75.500000000000014 0.32550000000000007
decision_type=2 2 2 2 2 2 2 2 2 2 2 2 2 2 2 2 2
left_child=4 3 -3 -2 13 -6 7 15 12 -8 14 -12 -9 16 -11 -5 -1
right_child=1 2 -4 6 5 -7 9 8 -10 10 11 -13 -14 -15 -16 -17 -18
leaf_value=-0.056099715016006468 0.037691992971796227 0.0077925340619262196 0.056348619499047882 -0.043243698505632026 0.01249131200968762 -0.040285800719864727 0.033435429091223011 -0.03521978325236666 0.017096609068548957 0.030741115675120029 -0.044960844908608494 0.023094699651021677 0.00011939699150275221 -0.024707256356036562 0.0043008896001037926 -0.020959281894996587 -0.061606079471023048
leaf_weight=3.3973222412168997 6.7143728658556929 10.625012040138246 7.4306782931089392 6.4763894230127317 8.6189562454819661 5.9547846391797057 7.411918342113494 7.2011068835854557 10.322137117385862 6.4634077399969119 7.0165486335754377 6.8184306472539902 8.3803172037005407 3.2783629074692726 6.7423408180475235 4.8462604507803917 3.7792074009776115
leaf_count=41 35 49 36 42 59 35 33 49 50 30 32 32 44 23 30 32 39
internal_value=0 0.00636926 0.0277754 0.00143896 -0.0254365 -0.00907325 -0.00195697 -0.0122974 -0.00293965 0.00921586 0.00257723 -0.0114204 -0.0162129 -0.0482463 0.0172418 -0.0337056 -0.0589994
internal_weight=0 96.4489 18.0557 78.3932 25.0286 14.5737 71.6789 37.2262 25.9036 34.4526 27.0407 13.835 15.5814 10.4549 13.2057 11.3226 7.17653
internal_count=691 494 85 409 197 94 374 217 143 157 124 64 93 103 60 74 80
shrinkage=0.05


Tree=33
num_leaves=17
num_cat=0
split_feature=1 0 7 7 7 1 2 7 6 3 3 6 4 1 6 0
split_gain=9.70723 3.48596 3.14049 2.985 2.95184 2.7287 2.85992 2.54592 2.37427 2.83074 2.28736 1.86662 1.11141 1.03978 0.543545 0.166907
threshold=124.50000000000001 6.5000000000000009 24.500000000000004 53.500000000000007 39.500000000000007 157.50000000000003 71.000000000000014 34.500000000000007 0.49550000000000005 29.500000000000004 12.500000000000002 0.31850000000000006 131.00000000000003 178.00000000000003 0.25650000000000006 1.5000000000000002
decision_type=2 2 2 2 2 2 2 2 2 2 2 2 2 2 2 2
left_child=1 7 12 5 -3 6 -4 8 10 -10 -1 -8 -2 -7 -12 -16
right_child=2 4 3 -5 -6 13 11 -9 9 -11 14 -13 -14 -15 15 -17
leaf_value=-0.011363283218470252 0.0065639897347683817 0.032825792018795909 0.039783655486983649 -0.0093165594957492631 -0.011842012602974565 0.054804703512632703 -0.016014799921922691 0.0007911051625675464 -0.033303426206285708 0.010324277880998947 -0.036968334969479988 0.017518957537572964 -0.024336733587761391 0.027215260139766381 -0.048273840802497497 -0.062093110777070575
leaf_weight=5.9231070876121548 5.826511435210703 6.3519917875528327 8.413466155529024 7.2735290974378577 8.8544609472155553 8.1606009900569898 6.8622525036335018 10.614451095461844 7.5188130512833578 7.3551894053816795 6.5140668079257003 10.498807191848753 5.8130667731165886 5.8726403117179862 3.9115189723670465 4.9500523395836353
leaf_count=52 30 32 37 36 43 41 31 53 57 35 59 46 30 31 37 41
internal_value=0 -0.0139808 0.0143871 0.0201364 0.00681648 0.025518 0.0158586 -0.0207402 -0.0270583 -0.0117295 -0.0377632 0.00426417 -0.00886853 0.0432591 -0.0479331 -0.0559933
internal_weight=0 61.9937 58.7209 47.0813 15.2065 39.8078 25.7745 46.7872 36.1727 14.874 21.2987 17.3611 11.6396 14.0332 15.3756 8.86157
internal_count=691 409 282 222 75 186 114 334 281 92 189 77 60 72 137 78
shrinkage=0.05


Tree=34
num_leaves=17
num_cat=0
split_feature=5 0 6 0 2 2 7 6 3 7 6 5 0 7 2 6
split_gain=7.20106 3.53441 3.83336 3.51421 3.56421 3.49155 2.77937 2.65478 2.34239 2.05896 2.3011 2.73545 1.85531 1.06139 0.540482 0.0192255
threshold=27.850000000000005 7.5000000000000009 0.51550000000000018 2.5000000000000004 73.000000000000014 53.000000000000007 30.500000000000004 0.31850000000000006 34.500000000000007 33.500000000000007 0.61350000000000005 34.250000000000007 1.5000000000000002 26.500000000000004 75.500000000000014 0.32550000000000007
decision_type=2 2 2 2 2 2 2 2 2 2 2 2 2 2 2 2
left_child=3 5 -3 13 -5 -2 7 14 12 -8 11 -11 -9 15 -7 -1
right_child=1 2 -4 4 -6 6 9 8 -10 10 -12 -13 -14 -15 -16 -17
leaf_value=-0.055713548148957286 0.035998738272465393 0.0069146989708516243 0.054094276089322851 0.011765581791553218 -0.038820490822022019 -0.041604500091908768 0.03322111803267689 -0.035191018889009086 0.015820522332982378 -0.0049127925830073664 -0.020408417701376847 0.0327299673062902 1.7400162528199869e-05 -0.023609368566250927 -0.019204591770523978 -0.061061368916147676
leaf_weight=3.1837677955627459 6.6672294959425917 10.595065951347353 7.2524778693914405 8.6200925558805448 5.841968558728694 6.2712064050137979 6.7108206301927558 6.5318639427423504 10.303910553455351 11.056260332465177 7.9222311377525321 8.5648937523365003 8.7591889798641187 3.2108467742800713 4.7196445316076279 3.559579323977232
leaf_count=41 35 49 36 59 35 42 31 40 50 51 35 40 53 23 32 39
internal_value=0 0.00602609 0.0260865 -0.0244061 -0.00866873 0.00140681 -0.00184887 -0.0114319 -0.00260588 0.00838648 0.00233564 0.0115188 -0.0150225 -0.0472703 -0.0319856 -0.0585365
internal_weight=0 95.3548 17.8475 24.4163 14.4621 77.5072 70.84 36.5858 25.595 34.2542 27.5434 19.6212 15.2911 9.95419 10.9909 6.74335
internal_count=691 494 85 197 94 409 374 217 143 157 126 91 93 103 74 80
shrinkage=0.05


Tree=35
num_leaves=18
num_cat=0
split_feature=1 1 0 7 7 4 6 6 1 7 1 6 0 4 3 1 6
split_gain=9.06893 4.58062 3.20041 2.71198 2.35145 4.48733 3.0018 3.05512 2.78668 1.91503 2.79054 1.39384 1.14374 0.954115 0.864357 0.48333 0.00888554
threshold=103.50000000000001 166.50000000000003 7.5000000000000009 25.500000000000004 24.500000000000004 70.500000000000014 0.73650000000000004 0.55800000000000016 114.50000000000001 36.500000000000007 127.50000000000001 0.65900000000000014 9.5000000000000018 131.00000000000003 24.500000000000004 92.500000000000014 0.39000000000000007
decision_type=2 2 2 2 2 2 2 2 2 2 2 2 2 2 2 2 2
left_child=3 2 4 15 5 -2 7 8 -6 10 -10 14 -4 -3 -5 16 -1
right_child=1 13 12 11 6 -7 -8 -9 9 -11 -12 -13 -14 -15 -16 -17 -18
leaf_value=-0.054840285724073706 0.005844524726973558 0.021245516313634128 0.037849366843715281 -0.035113160136473663 -0.025452834960271072 -0.047328304592986849 0.032691138744389774 -0.03125734420359555 -0.00087584697575812513 -0.0025376080897835818 0.045006637735242959 0.0074974060358219408 0.010329628512664602 0.04786114359018457 -0.0096944481185074621 -0.034169961063356145 -0.058960639674578853
leaf_weight=2.561194699257614 8.5849098637700063 6.801186725497244 7.2172433584928495 6.7957051470875758 6.1733368113636997 7.3775698095560065 7.4092135280370703 7.2713682651519767 5.8910587802529353 11.993983685970305 7.5749318599700928 5.3970062732696524 7.9172957539558411 6.6688702255487442 6.5854468047618866 4.1962573453783989 2.6750527210533619
leaf_count=35 53 36 35 50 36 50 34 34 32 54 35 28 36 35 37 45 26
internal_value=0 0.0075127 0.00283019 -0.0249396 -0.00218162 -0.018731 0.00352226 -0.00203282 0.00468486 0.0119924 0.0249341 -0.0139522 0.023453 0.0344226 -0.0226035 -0.0468132 -0.0569453
internal_weight=0 90.881 77.4109 28.2107 62.2764 15.9625 46.3139 38.9047 31.6333 25.46 13.466 18.7782 15.1345 13.4701 13.3812 9.4325 5.23625
internal_count=691 470 399 221 328 103 225 191 157 121 67 115 71 71 87 106 61
shrinkage=0.05


Tree=36
num_leaves=18
num_cat=0
split_feature=1 1 5 0 2 6 0 6 0 5 5 6 2 1 3 4 0
split_gain=8.31499 4.21907 3.3892 2.82568 3.48017 3.51519 3.34468 2.8736 2.91262 2.68762 2.49603 1.98414 1.30467 1.19184 2.12556 0.904819 0.00343877
threshold=103.50000000000001 166.50000000000003 42.850000000000001 2.5000000000000004 63.000000000000007 0.53300000000000014 1.0000000180025095e-35 0.27750000000000002 6.5000000000000009 27.550000000000004 34.750000000000007 0.65900000000000014 67.000000000000014 94.500000000000014 27.500000000000004 131.00000000000003 2.5000000000000004
decision_type=2 2 2 2 2 2 2 2 2 2 2 2 2 2 2 2 2
left_child=9 2 3 6 -5 7 -2 8 -6 16 12 13 -8 14 -11 -3 -1
right_child=1 15 -4 4 5 -7 10 -9 -10 11 -12 -13 -14 -15 -16 -17 -18
leaf_value=-0.053929926455708793 0.010208493130178973 0.020369856932309222 0.034650294335079428 0.037906502412142155 -0.0194890485741794 0.022409909796689484 -0.031299373383275042 -0.031416432503081272 0.024248732883142637 -0.060332848473573869 -0.054234127197476514 0.0084382842504569892 0.0045402227976581782 -0.010553950262161306 -0.010889657202312041 0.046488988589213222 -0.056445635814326815
leaf_weight=3.3502816669642952 8.9503439739346522 6.7404595538973791 7.4915784746408454 7.4737043008208266 7.2981024980545062 12.301567226648329 4.991931736469267 9.7630272433161718 7.9557086154818535 4.7743299901485496 5.7754246294498435 5.9420097246766082 5.1683709323406219 7.3827380165457717 3.9905826598405838 6.5260862112045288 2.2847384884953499
leaf_count=52 49 36 34 39 39 58 35 46 36 40 31 30 32 43 32 35 24
internal_value=0 0.00717175 0.00269397 -0.000741869 0.0067633 0.00052629 -0.0142503 -0.0102346 0.00332263 -0.0241274 -0.0279877 -0.0162647 -0.0130684 -0.0253549 -0.0378218 0.0332184 -0.0549499
internal_weight=0 90.4363 77.1698 69.6782 44.7921 37.3184 24.8861 25.0168 15.2538 27.7247 15.9357 22.0897 10.1603 16.1477 8.76491 13.2665 5.63502
internal_count=691 470 399 365 218 179 147 121 75 221 98 145 67 115 72 71 76
shrinkage=0.05


Tree=37
num_leaves=17
num_cat=0
split_feature=1 7 1 0 7 6 4 1 2 2 6 4 0 3 1 6
split_gain=7.62783 4.38977 4.72404 3.46936 2.63787 2.33528 2.98319 2.04049 2.10421 1.60614 1.31329 2.36408 0.880674 0.74892 0.49904 0.00771477
threshold=103.50000000000001 56.500000000000007 155.50000000000003 7.5000000000000009 25.500000000000004 0.19300000000000003 192.50000000000003 127.50000000000001 67.000000000000014 73.000000000000014 0.29250000000000004 22.500000000000004 4.5000000000000009 11.500000000000002 92.500000000000014 0.39000000000000007
decision_type=2 2 2 2 2 2 2 2 2 2 2 2 2 2 2 2
left_child=4 2 3 5 14 -2 7 8 -7 -9 -6 -12 -4 -10 15 -1
right_child=1 -3 12 -5 10 6 -8 9 13 -11 11 -13 -14 -15 -16 -17
leaf_value=-0.054429521366974015 -0.028645235795492836 -0.030374050845630232 0.023372596252767976 0.02799508305168243 -0.031478599950155194 0.017036824805295878 -0.027018992138805389 0.037731897078013651 -0.0008305052750875203 0.0070290167323833258 0.020461656873739367 -0.023567031377245931 0.045997842489940606 -0.025020590535874389 -0.032644538619475243 -0.058409445608289437
leaf_weight=2.3598885759711283 6.9364720880985251 7.2828403189778319 9.9321808964014071 12.178258821368216 6.1104429662227657 8.5579407438635844 7.2315131574869147 7.724882751703265 5.5285589918494207 9.4953702092170698 5.6965803653001768 6.5594286322593689 7.5860059335827819 7.5955226868391037 3.9938412941992283 2.5155815482139587
leaf_count=35 45 37 51 56 42 53 36 34 29 44 34 39 41 44 45 26
internal_value=0 0.00684178 0.0101165 0.00392696 -0.0233565 -0.00159606 0.00247093 0.00795279 -0.00225236 0.0208021 -0.0125431 -0.00310254 0.0331701 -0.0148304 -0.0457486 -0.056483
internal_weight=0 90.0495 82.7667 65.2485 27.2358 53.0703 46.1338 38.9023 21.682 17.2203 18.3665 12.256 17.5182 13.1241 8.86931 4.87547
internal_count=691 470 433 341 221 285 240 204 126 78 115 73 92 73 106 61
shrinkage=0.05


Tree=38
num_leaves=19
num_cat=0
split_feature=1 7 1 0 2 7 4 5 7 2 1 6 5 6 0 1 1 7
split_gain=6.98696 3.97746 4.38322 3.87858 3.26271 3.7176 2.97371 2.68336 2.35603 1.50397 2.66068 1.68509 1.44329 1.36218 1.27983 0.811892 0.634744 0.0041686
threshold=103.50000000000001 56.500000000000007 166.50000000000003 7.5000000000000009 54.500000000000007 24.500000000000004 70.500000000000014 27.550000000000004 25.500000000000004 67.000000000000014 123.50000000000001 0.31850000000000006 33.000000000000007 0.48350000000000004 2.5000000000000004 180.50000000000003 90.500000000000014 26.500000000000004
decision_type=2 2 2 2 2 2 2 2 2 2 2 2 2 2 2 2 2 2
left_child=7 2 3 4 -2 6 -6 17 16 -7 14 -12 -5 -10 -11 -4 -9 -1
right_child=1 -3 15 12 5 9 -8 8 13 10 11 -13 -14 -15 -16 -17 -18 -19
leaf_value=-0.053347131905813562 0.035060421639810331 -0.028944219299439002 0.052109999745249963 0.045335928511716597 -0.0045985462938854717 0.024122361416316782 -0.050862842591335944 -0.057556852246371464 -0.017329224426831272 -0.0017051800757994845 -0.0096345282850772776 0.021779339264240527 0.01287860928454557 0.012536482760176066 -0.034554574117270219 0.025252772852051287 -0.024920688333935497 -0.056183580272264715
leaf_weight=2.9410456940531757 5.7593293115496627 7.2610438987612715 5.6147681027650815 6.7936585843563062 7.2708996385335904 7.1810627803206435 6.6501179933547974 3.0257910601794746 8.9076966643333417 5.4150873124599475 6.6481222584843662 11.928768441081045 6.9075396806001663 6.6818513423204413 6.5535812675952911 5.6410769671201706 2.9349642731249332 2.3148775100708008
leaf_count=51 31 37 31 32 45 34 47 33 53 30 32 53 32 32 35 31 27 25
internal_value=0 0.00653119 0.00965863 0.00506953 -0.000635315 -0.00461582 -0.0266992 -0.0225637 -0.0147512 0.00353288 -0.00130758 0.0105372 0.0289724 -0.00452845 -0.0196922 0.03865 -0.0414874 -0.0545964
internal_weight=0 89.6251 82.364 71.1082 57.407 51.6476 13.921 26.8062 21.5503 37.7266 30.5456 18.5769 13.7012 15.5895 11.9687 11.2558 5.96076 5.25592
internal_count=691 470 433 371 307 276 92 221 145 184 150 85 64 85 65 62 60 76
shrinkage=0.05


Tree=39
num_leaves=18
num_cat=0
split_feature=1 6 5 3 1 5 6 6 2 3 5 2 1 1 3 3 0
split_gain=6.43095 4.17842 4.11703 3.24086 3.92995 3.36507 2.2938 2.31724 2.21479 2.12518 2.02501 1.8245 1.70843 1.42225 2.53748 2.51493 0.0027635
threshold=111.50000000000001 0.65900000000000014 27.850000000000005 12.500000000000002 127.50000000000001 34.750000000000007 0.30650000000000005 0.56250000000000011 77.000000000000014 29.500000000000004 26.450000000000003 73.000000000000014 158.50000000000003 94.500000000000014 28.500000000000004 27.500000000000004 2.5000000000000004
decision_type=2 2 2 2 2 2 2 2 2 2 2 2 2 2 2 2 2
left_child=1 10 11 8 5 -5 -6 -8 -4 -3 16 -2 -9 14 -12 -15 -1
right_child=2 9 3 4 6 -7 7 12 -10 -11 13 -13 -14 15 -16 -17 -18
leaf_value=-0.053388668997877614 0.0010969850221018887 -0.012639142606115532 0.046145830391417758 0.0072246723782021785 -0.005674345870548876 -0.046330820581585802 0.041098693695283607 -0.008653999557293849 0.011520548583732753 0.031352187625411074 -0.059173908756381413 -0.035388106101505321 0.029295362344394657 0.0072626832338416507 -0.0037734752599087765 -0.034416495856420662 -0.055677097138294031
leaf_weight=2.8606169745326069 7.1329134404659253 5.4053949788212758 10.668149389326574 6.1357538029551488 9.115619823336603 5.6193147599697113 10.573312714695932 6.3940475285053235 8.1438917666673643 5.5788275003433228 5.0399714745581168 6.5942928604781628 5.5312138050794601 8.3452666923403722 3.5037913285195827 6.391164928674697 2.4483688995242119
leaf_count=50 42 34 50 33 42 31 50 29 38 26 48 41 33 50 29 37 28
internal_value=0 -0.0165076 0.00835332 0.0138245 0.00630655 -0.0183766 0.0154845 0.0240573 0.0311563 0.00970382 -0.0265783 -0.0164298 0.0089478 -0.0202236 -0.0364542 -0.0108135 -0.054444
internal_weight=0 39.5734 75.9085 62.1813 43.3693 11.7551 31.6142 22.4986 18.812 10.9842 28.5892 13.7272 11.9253 23.2802 8.54376 14.7364 5.30899
internal_count=691 302 389 306 218 64 154 112 88 60 242 83 62 164 77 87 78
shrinkage=0.05


Tree=40
num_leaves=18
num_cat=0
split_feature=1 7 0 5 2 1 7 5 7 0 7 2 1 6 2 1 7
split_gain=5.91866 3.53347 3.98986 3.60722 3.46359 2.93601 3.0835 2.5948 2.21369 1.86363 1.65742 1.50135 1.74232 1.1853 1.01496 0.640383 0.00350511
threshold=103.50000000000001 56.500000000000007 7.5000000000000009 26.250000000000004 54.500000000000007 167.50000000000003 24.500000000000004 27.550000000000004 25.500000000000004 9.5000000000000018 22.500000000000004 67.000000000000014 123.50000000000001 0.29250000000000004 81.000000000000014 90.500000000000014 26.500000000000004
decision_type=2 2 2 2 2 2 2 2 2 2 2 2 2 2 2 2 2
left_child=7 2 3 -2 -5 6 10 16 15 -4 -6 -8 -13 -10 -14 -9 -1
right_child=1 -3 9 4 5 -7 11 8 13 -11 -12 12 14 -15 -16 -17 -18
leaf_value=-0.053018054180888424 -0.029252588479717359 -0.02764271862562805 0.048979783754719008 0.045731223052307687 -0.0044217490130862794 0.032895665442582989 0.02868586128049247 -0.057115909378936541 -0.024107070236628204 0.014160171792395202 -0.042679759444193832 -0.014293478832365845 0.021623195867239636 0.0056971966117194085 -0.0027734228460903638 -0.023529626514179752 -0.055726816956675633
leaf_weight=2.6820079907774952 7.4158575758337966 7.1819312199950209 7.8260566741228086 5.4473315775394431 5.6733581870794279 7.4876746684312812 6.2732438817620269 2.8340307921171215 4.8881538957357398 7.5502408519387245 5.6504062414169312 10.662683673202993 10.123907372355463 10.504979051649569 7.364224135875701 2.8429419882595539 2.1529410369694233
leaf_count=51 58 37 40 27 34 43 28 33 30 35 35 54 46 55 33 27 25
internal_value=0 0.00597793 0.00894155 0.00360494 0.0077572 0.00387151 -0.000878959 -0.0211898 -0.0136094 0.0318823 -0.023512 0.00656615 0.00163691 -0.00376727 0.0113498 -0.0402964 -0.0542242
internal_weight=0 88.6569 81.475 66.0987 58.6828 53.2355 45.7478 25.9051 21.0701 15.3763 11.3238 34.4241 28.1508 15.3931 17.4881 5.67697 4.83495
internal_count=691 470 433 358 300 273 230 221 145 75 69 161 133 85 79 60 76
shrinkage=0.05


Tree=41
num_leaves=17
num_cat=0
split_feature=1 5 5 5 0 7 2 5 0 2 5 4 2 7 7 7
split_gain=5.42842 3.21523 4.30538 3.43849 2.89204 2.90202 3.51671 7.05942 2.54827 4.97415 2.53333 2.50242 2.22582 2.08953 0.738368 0.00298791
threshold=103.50000000000001 41.900000000000006 38.550000000000004 27.850000000000005 1.0000000180025095e-35 34.500000000000007 69.000000000000014 32.45000000000001 2.5000000000000004 73.000000000000014 27.550000000000004 108.00000000000001 75.500000000000014 25.500000000000004 32.500000000000007 26.500000000000004
decision_type=2 2 2 2 2 2 2 2 2 2 2 2 2 2 2 2
left_child=10 2 3 8 -5 6 -6 -8 -2 -10 15 12 -7 -12 -15 -1
right_child=1 -3 -4 4 5 11 7 -9 9 -11 13 -13 -14 14 -16 -17
leaf_value=-0.052862604909359123 -0.04108474892921813 0.030258041908900551 -0.034387665701634956 0.044312630188929565 -0.027644057302934989 0.02778509596772509 0.052238485322286622 -0.024453229133947523 0.030980474733002823 -0.035571793093673219 -0.039491320605990129 0.039032866709005909 -0.011756540186120316 0.0099948315259181415 -0.012444324595806466 -0.055421419611177192
leaf_weight=2.5585174672305611 5.6611195430159595 11.58784870803356 7.3497060388326636 6.1848618462681761 9.7628941759467143 6.5814921110868472 5.828894689679144 6.184121310710907 6.0357657894492132 5.24937654286623 5.5081874169409302 9.959109038114546 7.7494889050722122 6.0545262545347205 9.2931032702326757 2.0589402429759502
leaf_count=51 47 57 37 31 53 30 29 36 35 31 60 49 35 36 49 25
internal_value=0 0.00571293 0.00199723 0.00586181 0.0122093 0.00789905 -0.00535523 0.0127587 -0.0137095 2.31413e-05 -0.0204927 0.0197814 0.00640293 -0.0130735 -0.00359224 -0.0540036
internal_weight=0 88.1347 76.5468 69.1971 52.2509 46.066 21.7759 12.013 16.9463 11.2851 25.4733 24.2901 14.331 20.8558 15.3476 4.61746
internal_count=691 470 413 376 263 232 118 65 113 66 221 114 65 145 85 76
shrinkage=0.05


Tree=42
num_leaves=21
num_cat=0
split_feature=1 7 7 2 1 6 6 4 6 1 3 3 1 2 0 1 0 6 7 7
split_gain=5.10784 2.38177 3.0699 3.11598 4.17151 3.58325 2.41603 2.27194 2.19095 2.44538 3.85105 3.67895 2.67667 2.60859 2.27635 1.77294 2.38151 1.08465 0.0196013 0.00230129
threshold=124.50000000000001 54.500000000000007 40.500000000000007 59.000000000000007 161.50000000000003 0.31850000000000006 0.56250000000000011 108.00000000000001 0.65900000000000014 94.500000000000014 30.500000000000004 12.500000000000002 111.50000000000001 79.000000000000014 2.5000000000000004 115.50000000000001 4.5000000000000009 0.39950000000000002 30.500000000000004 23.500000000000004
decision_type=2 2 2 2 2 2 2 2 2 2 2 2 2 2 2 2 2 2 2 2
left_child=8 2 3 -2 5 -5 -7 -4 9 10 18 12 -11 15 -10 16 17 -13 19 -1
right_child=1 -3 7 4 -6 6 -8 -9 14 11 -12 13 -14 -15 -16 -17 -18 -19 -20 -21
leaf_value=-0.053515812595838513 0.040535267722578122 -0.019214298380728398 0.016887121165954918 -0.039494295958942632 0.031277300837444309 0.021457359645588047 -0.019187470181151953 0.05750107771273899 -0.016845998680223094 -0.010617941837290335 0.013245272579918943 -0.059055576181762985 0.03734895272360729 0.012186109859472959 0.02194539307423294 -0.060009629523527092 0.0058310727215167965 -0.01951629125991744 -0.059891372661110456 -0.055891107845839283
leaf_weight=2.0818776153027994 5.6175286620855323 5.9815495163202277 8.2287158370017988 7.4117219224572244 7.8537268713116637 8.1008388698101026 6.6638673245906821 5.9211608916521064 6.5977010875940314 6.0388879552483576 2.6627747602760792 3.7014123648405093 5.6103926673531532 4.1907163523137561 8.8612690120935422 4.2024669125676146 4.5998206958174706 3.2639955580234528 3.2329796031117439 1.9986505843698976
leaf_count=38 29 31 40 39 45 37 31 30 40 42 22 39 29 24 43 28 24 28 26 26
internal_value=0 0.010597 0.0141779 0.00635639 -3.72127e-05 -0.0111272 0.00311282 0.0338824 -0.0106819 -0.0166565 -0.0382385 -0.00984464 0.0124833 -0.022877 0.0053897 -0.032196 -0.0220893 -0.0405274 -0.0569833 -0.0546792
internal_weight=0 55.7791 49.7976 35.6477 30.0302 22.1764 14.7647 14.1499 57.0429 41.584 9.97628 31.6077 11.6493 19.9584 15.459 15.7677 11.5652 6.96541 7.31351 4.08053
internal_count=691 282 251 181 152 107 68 70 409 326 112 214 71 143 83 119 91 67 90 64
shrinkage=0.05


Tree=43
num_leaves=17
num_cat=0
split_feature=1 5 5 1 7 2 1 0 3 6 7 3 5 1 5 7
split_gain=4.65818 4.67398 2.82047 2.42997 2.86954 3.14564 2.16763 2.58251 2.37551 3.63738 2.18379 1.3 0.636685 0.305332 0.167624 0.00981175
threshold=124.50000000000001 26.450000000000003 41.900000000000006 154.50000000000003 41.500000000000007 73.000000000000014 87.500000000000014 6.5000000000000009 14.500000000000002 0.49550000000000005 30.500000000000004 16.500000000000004 23.050000000000004 106.50000000000001 34.150000000000013 29.500000000000004
decision_type=2 2 2 2 2 2 2 2 2 2 2 2 2 2 2 2
left_child=1 12 3 4 5 -2 14 8 -8 10 13 -5 -1 -10 -3 -14
right_child=2 6 -4 11 -6 -7 7 -9 9 -11 -12 -13 15 -15 -16 -17
leaf_value=-0.028041134146626207 0.0055244296073319842 -0.02230186996257456 0.038429569585434309 0.0031241239999706041 0.019342270010999987 -0.033185754059299487 0.015641964338249117 0.02155150824697119 -0.039863760252615968 0.0056322102859750608 -0.0066702927231908436 0.031869319241505253 -0.053635881367741292 -0.060645992996575693 -0.037493969478584271 -0.058065801539194974
leaf_weight=3.4682263843715173 10.884745225310331 3.9446790777146807 7.6013921797275534 6.3235046491026905 10.05068579316139 10.134260617196558 8.2721943221986312 10.56377127766609 3.0570066682994383 10.379575602710245 4.2308268547058105 10.405729480087755 2.4282919876277447 4.189452450722456 3.3641775399446487 2.5758844576776028
leaf_count=47 52 37 40 32 48 52 43 46 35 55 21 58 42 36 23 24
internal_value=0 -0.010267 0.0101393 0.00564031 -0.00263208 -0.0131396 -0.0042238 0.000279174 -0.00717928 -0.0158165 -0.0352137 0.0210039 -0.0445054 -0.0518788 -0.0292946 -0.0559162
internal_weight=0 56.4741 55.4003 47.7989 31.0697 21.019 48.0017 40.6928 30.1291 21.8569 11.4773 16.7292 8.4724 7.24646 7.30886 5.00418
internal_count=691 409 282 242 152 104 296 236 190 147 92 90 113 71 60 66
shrinkage=0.05


Tree=44
num_leaves=17
num_cat=0
split_feature=5 0 6 0 6 6 6 6 2 6 6 2 5 6 2 7
split_gain=4.28573 3.24088 2.312 2.77447 2.94943 2.96862 3.25254 2.90454 2.38805 2.24027 3.09833 1.8808 1.53614 4.11078 0.93704 0.0661366
threshold=27.450000000000003 2.5000000000000004 0.20200000000000004 7.5000000000000009 0.25850000000000006 0.31850000000000006 0.38050000000000006 0.51550000000000018 71.000000000000014 0.47500000000000003 0.5525000000000001 64.500000000000014 39.20000000000001 0.73650000000000004 71.000000000000014 23.500000000000004
decision_type=2 2 2 2 2 2 2 2 2 2 2 2 2 2 2 2
left_child=1 14 8 4 -4 -6 -7 -5 -2 -8 -11 -3 13 -12 15 -1
right_child=2 11 3 7 5 6 9 -9 -10 10 12 -13 -14 -15 -16 -17
leaf_value=-0.05462809102908929 0.01041618571268583 0.019462977701833938 0.030075085161035738 0.0062044694272419716 -0.029129342895601734 0.032613882280659715 -0.025858785499795856 0.051278933141679833 -0.032504090828563821 0.035223291456299814 -0.020895631425827607 -0.022178300590827038 -0.023166081297560752 0.026834237444251841 -0.021646423908168722 -0.066198791643646601
leaf_weight=2.4143239408731487 5.480789761990307 4.5386438444256765 8.748133756220339 7.6073911711573583 8.1038952171802503 8.0346962064504606 8.0293663591146451 6.7409916743636131 7.9298235103487968 6.2595297284424332 8.7057868801057392 6.7363098077476025 7.4338207095861426 9.3625250011682493 2.2540710531175137 2.5282538458704948
leaf_count=42 33 34 48 36 51 44 51 37 46 35 47 49 37 49 24 28
internal_value=0 -0.0221483 0.00423265 0.00749012 0.00307748 -0.0011453 0.0035965 0.0273808 -0.014963 -0.00226276 0.00370233 -0.00541593 -0.00403453 0.00383673 -0.0483628 -0.0605468
internal_weight=0 18.4716 92.4367 79.0261 64.6778 55.9296 47.8257 14.3484 13.4106 39.791 31.7617 11.275 25.5021 18.0683 7.19665 4.94258
internal_count=691 177 514 435 362 314 263 73 79 219 168 83 133 96 94 70
shrinkage=0.05


Tree=45
num_leaves=18
num_cat=0
split_feature=1 7 7 1 2 5 4 1 5 4 3 2 7 1 7 2 7
split_gain=4.29189 3.89097 3.88509 4.03135 4.14059 3.42407 3.4605 4.07956 2.57903 2.46275 2.45527 1.6853 1.4492 1.293 0.900778 0.908142 0.00150059
threshold=106.50000000000001 56.500000000000007 41.500000000000007 161.50000000000003 54.500000000000007 41.400000000000006 175.50000000000003 136.50000000000003 26.450000000000003 108.00000000000001 28.500000000000004 69.000000000000014 25.500000000000004 92.500000000000014 32.500000000000007 75.500000000000014 26.500000000000004
decision_type=2 2 2 2 2 2 2 2 2 2 2 2 2 2 2 2 2
left_child=8 2 3 4 -2 6 7 10 16 -4 11 -6 13 -10 -14 -16 -1
right_child=1 -3 9 -5 5 -7 -8 -9 12 -11 -12 -13 14 -15 15 -17 -18
leaf_value=-0.052688543665868795 0.035809513937338819 -0.030526880196732598 0.015264836216492642 0.032463841942329812 -0.029418846678754957 0.026439090284956519 -0.045328667359379654 -0.039591497094109453 -0.055756409189351278 0.055621047285816766 0.02564366472601199 0.0054087870018353921 0.0099852231852454697 -0.0089680266809525743 -0.025612322267199856 0.0022923652778554897 -0.05461268754797495
leaf_weight=2.1878218464553383 6.0956389233469954 6.7910950556397429 9.7516276538372022 9.735517278313635 5.7988740578293863 6.1120456606149665 7.1021477840840808 7.0916481763124457 2.9432402625679996 6.1738098412752143 8.2366056554019433 8.6620582006871683 7.2136813551187542 2.9632280319929123 6.1946002990007383 5.5083461925387383 1.8874119929969309
leaf_count=49 32 36 46 58 40 27 41 35 41 32 45 50 44 29 30 30 26
internal_value=0 0.00570983 0.00900153 0.00307138 -0.00275666 -0.00822333 -0.0139661 -0.00648884 -0.0167148 0.0309097 0.0038538 -0.00855719 -0.0106626 -0.0322831 -0.00391194 -0.0124781 -0.0535797
internal_weight=0 81.5511 74.76 58.8345 49.099 43.0034 36.8913 29.7892 28.8983 15.9254 22.6975 14.4609 24.8231 5.90647 18.9166 11.7029 4.07523
internal_count=691 442 406 328 270 238 211 170 249 78 135 90 174 70 104 60 75
shrinkage=0.05


Tree=46
num_leaves=15
num_cat=0
split_feature=1 5 5 1 7 2 4 4 6 1 7 4 5 7
split_gain=4.07708 4.08032 2.36391 2.04786 2.44434 2.81562 1.8513 4.22173 2.28734 2.05001 2.6908 1.31469 0.663833 0.00811476
threshold=124.50000000000001 26.450000000000003 41.900000000000006 154.50000000000003 41.500000000000007 73.000000000000014 36.500000000000007 126.50000000000001 0.49550000000000005 111.50000000000001 30.500000000000004 89.000000000000014 23.050000000000004 29.500000000000004
decision_type=2 2 2 2 2 2 2 2 2 2 2 2 2 2
left_child=1 12 3 4 5 -2 9 8 -8 10 -3 -5 -1 -14
right_child=2 6 -4 11 -6 -7 7 -9 -10 -11 -12 -13 13 -15
leaf_value=-0.025901539976677684 0.0057112365948630674 -0.034839057098174094 0.035821939648154208 0.0041603497408391468 0.018192834664825363 -0.031151845199168901 -0.055129839727937772 0.01197920521730937 -0.013170262708491405 0.024526502291655677 0.0081926890601315538 0.032629011023324099 -0.053262687048870452 -0.057480869142644789
leaf_weight=3.2436835765838614 10.807086683809763 5.28976638615132 7.4003189504146567 7.4250688180327442 9.9421258121728879 9.9484846889972669 6.1460836902260798 8.7267758511006814 6.8879315778613091 8.7557963281869871 11.597664661705492 8.9358485937118513 2.1730528250336647 2.3987170420587063
leaf_count=47 52 50 40 40 48 52 54 49 41 43 59 50 42 24
internal_value=0 -0.00972797 0.00955282 0.0054218 -0.00219288 -0.0119578 -0.00420922 -0.0149355 -0.032956 0.00489309 -0.00528644 0.0197091 -0.0432015 -0.0554759
internal_weight=0 55.2195 54.4589 47.0586 30.6977 20.7556 47.404 21.7608 13.034 25.6432 16.8874 16.3609 7.81545 4.57177
internal_count=691 409 282 242 152 104 296 144 95 152 109 90 113 66
shrinkage=0.05


Tree=47
num_leaves=19
num_cat=0
split_feature=1 5 5 5 7 1 0 3 6 7 5 5 7 5 5 1 4 7
split_gain=3.71501 3.85743 2.17436 1.92836 2.13984 1.7516 2.1386 2.12723 3.22094 2.0214 1.61203 1.60123 2.80551 0.722296 0.66554 0.308111 0.161037 0.00690665
threshold=124.50000000000001 26.450000000000003 41.900000000000006 38.050000000000004 24.500000000000004 87.500000000000014 6.5000000000000009 14.500000000000002 0.49550000000000005 30.500000000000004 34.750000000000007 32.750000000000007 33.500000000000007 28.250000000000004 23.050000000000004 106.50000000000001 22.500000000000004 29.500000000000004
decision_type=2 2 2 2 2 2 2 2 2 2 2 2 2 2 2 2 2 2
left_child=1 14 3 4 -2 16 7 -7 9 15 11 12 -6 -14 -1 -9 -3 -16
right_child=2 5 -4 -5 10 6 -8 8 -10 -11 -12 -13 13 -15 17 -17 -18 -19
leaf_value=-0.025120515855700888 -0.014677939295057575 -0.019613936730554764 0.034511695551833123 -0.019908018703745468 0.044851645223025489 0.014669835390292908 0.019395860759025357 -0.038362772751859758 0.0048006860827093031 -0.0068031420838174685 0.037384074155471951 -0.011897739174685543 -0.0094228827956366265 0.013845980574374299 -0.053095842875651202 -0.059907043531057518 -0.034814409964932951 -0.057076179024178497
leaf_weight=3.1789786256849757 7.5701240301132193 3.5055624693632117 7.2998111918568602 6.5857846438884726 6.0506775528192582 8.2655761651694792 10.484463676810263 2.8627310283482093 10.37714261934161 4.2170517593622208 6.3739421367645255 6.6281686499714842 5.8045895323157293 7.8390531688928604 2.0734030585736036 3.9484138898551464 3.4643391706049442 2.2974985018372536
leaf_count=47 45 28 40 32 29 43 46 35 55 21 34 35 30 37 42 36 32 24
internal_value=0 -0.00934735 0.009129 0.00517426 0.00927659 -0.00403157 -1.54914e-05 -0.00687465 -0.015194 -0.0340082 0.0148227 0.00935953 0.0165137 0.00394641 -0.0425277 -0.050852 -0.0271692 -0.055188
internal_weight=0 54.6752 54.1522 46.8523 40.2666 47.1253 40.1554 29.6709 21.4053 11.0282 32.6964 26.3225 19.6943 13.6436 7.54988 6.81114 6.9699 4.3709
internal_count=691 409 282 242 210 296 236 190 147 92 165 131 96 67 113 71 60 66
shrinkage=0.05


Tree=48
num_leaves=17
num_cat=0
split_feature=1 5 5 1 7 2 1 2 2 2 6 6 4 5 4 7
split_gain=3.38437 3.64326 2.00119 1.89021 2.23775 2.57935 1.61067 1.99381 3.5007 2.65972 2.17327 1.83983 1.24282 0.667136 0.152852 0.00588208
threshold=124.50000000000001 26.450000000000003 41.900000000000006 154.50000000000003 41.500000000000007 73.000000000000014 87.500000000000014 67.000000000000014 60.500000000000007 73.000000000000014 0.23850000000000002 0.44000000000000006 131.00000000000003 23.050000000000004 22.500000000000004 29.500000000000004
decision_type=2 2 2 2 2 2 2 2 2 2 2 2 2 2 2 2
left_child=1 13 3 4 5 -2 14 8 -8 -9 -11 -12 -5 -1 -3 -15
right_child=2 6 -4 12 -6 -7 7 9 -10 10 11 -13 -14 15 -16 -17
leaf_value=-0.024350502108108948 0.0051251731486846308 -0.018869124837082352 0.033245356949750782 0.0054562017739002815 0.017135002484445591 -0.030253911605501373 -0.010816095157332431 -0.033146955477968115 0.040421894326733432 -0.027438058471881244 0.034015374286768055 -0.0026716116856439058 0.033209837474963998 -0.052937913529810345 -0.033803139780278366 -0.056695472555318795
leaf_weight=3.1171284206211558 10.79563013464213 3.462849896401166 7.201517589390277 8.4152427464723605 9.9209299683570844 9.854406110942362 6.4316241890192014 7.5092070419341352 6.9205908961594105 4.7234010584652451 5.6084267906844607 8.7475075349211675 7.7473111748695365 1.9780172351747749 3.3914598356932402 2.1997515149414539
leaf_count=47 52 28 40 46 48 52 43 46 43 30 32 42 44 42 32 24
internal_value=0 -0.0089895 0.00871066 0.00492992 -0.00238166 -0.0117581 -0.00386601 -2.32138e-05 0.0157411 -0.00793972 0.0019813 0.0116609 0.0187595 -0.0418555 -0.0262584 -0.0549164
internal_weight=0 54.09 53.935 46.7335 30.571 20.65 46.7951 39.9408 13.3522 26.5885 19.0793 14.3559 16.1626 7.2949 6.85431 4.17777
internal_count=691 409 282 242 152 104 296 236 86 150 104 74 90 113 60 66
shrinkage=0.05


Tree=49
num_leaves=17
num_cat=0
split_feature=1 5 1 5 5 6 5 6 3 1 3 3 5 5 2 0
split_gain=3.14564 2.18068 2.07142 2.04616 2.25372 2.94421 2.91496 1.79792 1.36597 2.5192 1.61034 1.06251 2.13265 1.64842 0.823406 0.00103281
threshold=103.50000000000001 27.550000000000004 166.50000000000003 42.850000000000001 38.050000000000004 0.50500000000000012 31.150000000000002 0.38550000000000001 32.500000000000007 91.500000000000014 23.500000000000004 12.500000000000002 31.150000000000002 28.250000000000004 77.000000000000014 2.5000000000000004
decision_type=2 2 2 2 2 2 2 2 2 2 2 2 2 2 2 2
left_child=1 15 3 4 5 7 -7 11 9 10 -3 13 -13 -2 -4 -1
right_child=2 8 14 -5 -6 6 -8 -9 -10 -11 -12 12 -14 -15 -16 -17
leaf_value=-0.052298948639149315 -0.012961085186923241 -0.046097514843625266 0.03569998585514491 0.027062794152686778 -0.023712677966770596 -0.0034278007377468835 0.035402271867385655 -0.029604811381220127 -0.029584992396625938 0.019982993568766792 0.0035615937109228901 0.010857237822069807 -0.027299206969832748 0.021154065129527923 0.0086059026188426511 -0.054046537960270979
leaf_weight=2.0146511737257273 5.6305537186563042 3.5524961613118666 6.5474129170179349 6.9307227805256835 9.7309542596340162 8.750396706163885 10.796647399663923 6.616559498012065 6.1394251734018317 6.8959736190736294 3.0206380300223827 6.5957955904304972 8.2331571131944639 9.540916830301283 4.9048679396510124 1.4567528888583181
leaf_count=52 36 34 41 34 49 53 51 42 36 46 29 48 42 44 30 24
internal_value=0 -0.0165049 0.00432883 0.00122033 -0.00149773 0.00235122 0.0180197 -0.00601299 -0.0100383 -0.00112856 -0.023277 -0.000809837 -0.0103275 0.00849299 0.0240959 -0.0530323
internal_weight=0 23.0799 84.278 72.8257 65.895 56.164 19.547 36.617 19.6085 13.4691 6.57313 30.0004 14.829 15.1715 11.4523 3.4714
internal_count=691 221 470 399 365 316 104 212 145 109 63 170 90 80 71 76
shrinkage=0.05


Tree=50
num_leaves=18
num_cat=0
split_feature=1 5 0 4 6 0 2 2 2 0 6 4 2 3 6 5 0
split_gain=2.93196 3.31552 1.97245 1.72182 3.377 3.63302 1.54654 2.64031 2.26787 3.19802 2.68779 2.65679 1.40783 1.26222 0.993756 0.687316 0.00413534
