tree
version=v3
num_class=1
num_tree_per_iteration=1
label_index=0
max_feature_idx=7
objective=binary sigmoid:1
feature_names=Pregnancies Glucose BloodPressure SkinThickness Insulin BMI DiabetesPedigreeFunction Age
feature_infos=[0:17] [0:199] [0:122] [0:99] [0:744] [0:67.099999999999994] [0.078:2.4199999999999999] [21:81]
tree_sizes=1653 1642 1642 1653 1648 1655 1644 1650 1646 1648 1654 1658 1650 1660

Tree=0
num_leaves=15
num_cat=0
split_feature=1 5 7 5 6 1 6 7 1 1 3 5 5 1
split_gain=140.53 34.904 26.4195 15.7915 15.6938 12.1148 10.9913 12.0547 10.1491 8.62628 8.80346 5.95939 3.04281 2.61655
threshold=127.50000000000001 29.950000000000003 28.500000000000004 26.450000000000003 0.63400000000000012 154.50000000000003 0.40150000000000008 30.500000000000004 145.50000000000003 94.500000000000014 27.500000000000004 31.250000000000004 34.750000000000007 101.50000000000001
decision_type=2 2 2 2 2 2 2 2 2 2 2 2 2 2
left_child=2 8 11 -4 9 6 12 -8 -2 -5 -11 -1 -3 -13
right_child=1 5 3 4 -6 -7 7 -9 -10 10 -12 13 -14 -15
leaf_value=-0.87480686267972951 -0.77610612227810416 -0.67204146387184494 -0.86521075442528583 -0.83826801434809328 -0.45670556966515197 -0.31469725554466293 -0.55076926352439326 -0.24027061263479726 -0.52853602679402711 -0.55076926352439326 -0.76299561413243366 -0.83090804632700654 -0.51074943740973422 -0.73365556566127599
leaf_weight=31.709283202886581 8.3208757340908033 4.9475477337837237 7.8710986673831931 6.5217674672603634 8.7706528007984144 20.015079468488693 4.9475477337837201 6.5217674672603607 6.7466560006141654 10.794649600982668 7.421321600675582 11.244426667690279 5.6222133338451385 13.943089067935942
leaf_count=141 37 22 35 29 39 89 22 29 30 48 33 50 25 62
internal_value=-0.656466 -0.469364 -0.765216 -0.674019 -0.629108 -0.399179 -0.475902 -0.374211 -0.665254 -0.690232 -0.637232 -0.831541 -0.586248 -0.777072
internal_weight=0 57.1217 98.2763 41.3795 33.5084 42.0542 22.0391 11.4693 15.0675 24.7377 18.216 56.8968 10.5698 25.1875
internal_count=691 254 437 184 149 187 98 51 67 110 81 253 47 112
shrinkage=1


Tree=1
num_leaves=15
num_cat=0
split_feature=1 5 5 0 6 1 1 1 3 4 6 1 2 2
split_gain=99.8454 22.3786 15.3473 13.1111 11.5022 7.47204 7.36573 6.35636 6.24859 6.08045 5.81025 3.72957 3.44035 4.24735
threshold=127.50000000000001 29.950000000000003 26.450000000000003 4.5000000000000009 0.51200000000000012 165.50000000000003 145.50000000000003 101.50000000000001 9.0000000000000018 17.000000000000004 0.43700000000000006 107.50000000000001 71.000000000000014 83.000000000000014
decision_type=2 2 2 2 2 2 2 2 2 2 2 2 2 2
left_child=2 6 -1 7 9 10 -2 -4 -9 11 12 -5 -3 -14
right_child=1 5 3 4 -6 -7 -8 8 -10 -11 -12 -13 13 -15
leaf_value=-0.20028510502433672 -0.1063299831960815 0.20030202349412632 -0.17146548646146523 -0.051543112120117328 0.18355879571859532 0.29293654391383117 0.10445303628738374 0.077105169980024077 -0.098516508995039442 -0.1674543145985577 0.23042064856008654 0.12749663364735422 -0.035731948943902594 0.15345643961948816
leaf_weight=24.11822547018528 7.9858604520559293 5.1142826229333904 20.111039713025093 6.1207373887300545 7.4423405677080146 14.390755042433737 6.9996732473373413 5.8592355996370342 20.531133219599724 5.6395678222179404 14.47801600396633 4.5742237418889999 5.8332284390926343 4.9236861765384674
leaf_count=116 37 22 95 28 32 59 30 26 94 26 60 20 25 21
internal_value=0 0.150776 -0.0970406 -0.061609 0.0289968 0.203915 -0.00787421 -0.107937 -0.0595247 -0.0414247 0.161703 0.025032 0.0990184 0.0508639
internal_weight=0 59.7255 94.3965 70.2783 23.7769 44.74 14.9855 46.5014 26.3904 16.3345 30.3492 10.695 15.8712 10.7569
internal_count=691 254 437 321 106 187 67 215 120 74 128 48 68 46
shrinkage=0.15


Tree=2
num_leaves=15
num_cat=0
split_feature=1 7 5 5 1 6 3 1 1 7 2 5 7 2
split_gain=72.966 18.9704 15.3866 10.22 9.22514 7.90658 6.12665 5.72381 5.39419 5.29291 5.6462 5.05259 4.31778 2.33528
threshold=127.50000000000001 28.500000000000004 29.950000000000003 26.450000000000003 94.500000000000014 0.56050000000000011 27.500000000000004 155.50000000000003 145.50000000000003 42.500000000000007 71.000000000000014 31.250000000000004 30.500000000000004 73.000000000000014
decision_type=2 2 2 2 2 2 2 2 2 2 2 2 2 2
left_child=1 11 8 -3 -5 6 13 9 -2 10 -4 -1 -12 -6
right_child=2 3 7 4 5 -7 -8 -9 -10 -11 12 -13 -14 -15
leaf_value=-0.19208342240757567 -0.094566091146748382 -0.17919712250966308 0.17721921713014147 -0.11327478229171511 0.15528016023700422 0.20195608918709579 -0.098595721443365938 0.22591247430238964 0.086449209853353692 0.23560051120404008 -0.08515649741001842 -0.096750452825060104 0.10649861304631049 0.017941181607802111
leaf_weight=27.176622942090034 7.6595773398876172 6.6706883907318106 7.5282194316387239 8.2520424574613553 5.3388071954250389 7.2243028134107581 6.6100599467754355 21.185724467039108 7.1726439893245697 6.50857289135456 5.4818856269121152 23.175839647650719 5.1105652302503586 5.8251492977142334
leaf_count=141 37 35 31 39 23 30 32 85 30 27 23 112 21 25
internal_value=0 -0.0869777 0.125758 -0.00975243 0.0242416 0.0696363 0.0158545 0.168747 -0.00702976 0.119574 0.0778997 -0.148204 0.0073118 0.0836192
internal_weight=0 90.2735 60.6472 39.9211 33.2504 24.9983 17.774 45.815 14.8322 24.6292 18.1207 50.3525 10.5925 11.164
internal_count=691 437 254 184 149 110 80 187 67 102 75 253 44 48
shrinkage=0.15


Tree=3
num_leaves=15
num_cat=0
split_feature=1 5 5 1 0 6 1 1 0 4 6 4 3 5
split_gain=54.2154 11.3625 11.0398 9.08168 6.18851 5.73438 5.48348 5.20902 5.00171 6.38968 5.28776 3.96476 3.95483 3.66531
threshold=127.50000000000001 26.450000000000003 28.100000000000005 100.50000000000001 3.5000000000000004 0.51200000000000012 165.50000000000003 145.50000000000003 7.5000000000000009 190.50000000000003 0.31600000000000006 90.500000000000014 11.500000000000002 34.050000000000004
decision_type=2 2 2 2 2 2 2 2 2 2 2 2 2 2
left_child=1 -1 7 11 12 13 8 -2 9 10 -4 -3 -5 -6
right_child=2 3 6 4 5 -7 -8 -9 -10 -11 -12 -13 -14 -15
leaf_value=-0.17750946056000122 -0.1283686782497514 -0.14415456426799925 0.0095569133582106558 0.068512587896568805 0.06959679593357522 0.18151050753646797 0.21035134683577247 0.082475916602746155 0.21489535585284705 -0.058614303543613765 0.16831239034630555 0.0074422789092629558 -0.090068221640441884 -0.098607297040688408
leaf_weight=19.964350074529648 5.7620643675327283 21.523238703608516 7.1993702203035417 4.4580750763416317 7.2749588340520877 5.9948833286762229 15.569407388567923 4.8601683974266052 7.1272787153720847 6.3055623322725287 13.710525900125502 4.7357574403285971 17.152567133307457 4.8635758906602859
leaf_count=116 29 112 30 20 32 25 63 20 29 26 57 24 85 23
internal_value=0 -0.078354 0.106959 -0.0483619 -0.00313513 0.0614812 0.13651 -0.0318974 0.103034 0.0737397 0.113652 -0.116814 -0.0573545 0.00220206
internal_weight=0 85.9674 60.5344 66.0031 39.7441 18.1334 49.9121 10.6222 34.3427 27.2155 20.9099 26.259 21.6106 12.1385
internal_count=691 437 254 321 185 80 205 49 142 113 87 136 105 55
shrinkage=0.15


Tree=4
num_leaves=15
num_cat=0
split_feature=1 7 4 5 4 5 6 5 6 3 1 4 7 7
split_gain=40.5867 14.4128 10.4102 8.55955 8.39788 5.2412 4.78975 4.50319 4.02494 4.35083 4.08407 3.48313 3.18546 5.16532
threshold=127.50000000000001 28.500000000000004 142.00000000000003 29.950000000000003 17.000000000000004 26.450000000000003 0.31350000000000006 31.250000000000004 0.29250000000000004 11.500000000000002 107.50000000000001 261.50000000000006 27.500000000000004 50.500000000000007
decision_type=2 2 2 2 2 2 2 2 2 2 2 2 2 2
left_child=1 7 4 12 5 -3 -5 -1 10 -10 -7 -8 -2 -14
right_child=3 2 -4 6 -6 8 11 -9 9 -11 -12 -13 13 -15
leaf_value=-0.17522393701653161 -0.1165751056061073 -0.14785278845169084 0.18817058071478857 0.051496106089963432 -0.16275590952334262 -0.12170248346498459 0.18076241679391122 -0.079426742949593801 0.019275516799905794 0.22029618972742462 0.069013166707080853 0.051730346285079526 0.12750882138669647 -0.089237554891797258
leaf_weight=22.683652058243752 4.2987328618764868 3.9139404892921474 5.5073479115962973 14.067149356007574 8.5175061523914319 4.9467866569757479 25.460030317306522 21.510320007801056 5.3262960463762266 4.4436577409505844 5.1634911447763443 5.7748059183359137 5.9509885609149915 4.2339398562908173
leaf_count=141 21 25 25 58 44 25 105 112 23 20 22 24 26 20
internal_value=0 -0.0704273 -0.0024522 0.0920824 -0.0349428 0.0108099 0.124175 -0.128597 0.0420468 0.110706 -0.0243008 0.156907 -0.00829543 0.037406
internal_weight=0 82.013 37.819 59.7856 32.3117 23.7942 45.302 44.194 19.8802 9.76995 10.1103 31.2348 14.4837 10.1849
internal_count=691 437 184 254 159 115 187 253 90 43 47 129 67 46
shrinkage=0.15


Tree=5
num_leaves=15
num_cat=0
split_feature=1 7 7 6 4 4 1 2 1 6 3 2 3 6
split_gain=31.0207 9.98914 9.33031 5.95055 4.63727 4.80921 3.96109 3.80004 3.02945 4.71273 2.98607 3.71737 2.95758 3.88544
threshold=123.50000000000001 24.500000000000004 29.500000000000004 0.31350000000000006 131.00000000000003 40.500000000000007 154.50000000000003 81.000000000000014 103.50000000000001 0.50450000000000006 21.500000000000004 67.000000000000014 32.500000000000007 0.40150000000000008
decision_type=2 2 2 2 2 2 2 2 2 2 2 2 2 2
left_child=2 12 7 6 5 10 -3 8 -1 -10 11 -4 13 -2
right_child=1 3 4 -5 -6 -7 -8 -9 9 -11 -12 -13 -14 -15
leaf_value=-0.17119391972676487 -0.19651903431187817 -0.015278782080597344 0.07905894489696233 0.14203378626401764 0.13233427696218092 -0.15373102374596406 0.12033993238307088 0.020630857803968762 -0.13635514408334459 0.038314845096579425 0.087732582157139985 -0.090362872609443118 0.052407872513092389 0.002908326015243688
leaf_weight=20.311227664351463 4.2828448414802534 12.281796783208849 4.2509347051382163 32.067073002457619 4.5469839125871649 5.6843466460704795 8.0034153014421445 4.0588198900222769 11.825703486800196 4.9220849126577368 6.3346277773380271 9.2646801471710187 4.7804178148508063 4.5158537775278091
leaf_count=133 21 55 22 138 20 32 33 23 68 27 31 46 20 22
internal_value=0 0.0720763 -0.0707144 0.101812 -0.00723014 -0.0320826 0.0382288 -0.117159 -0.13225 -0.0850206 0.00275284 -0.0370763 -0.042565 -0.0941647
internal_weight=0 65.9314 71.1994 52.3523 30.0816 25.5346 20.2852 41.1178 37.059 16.7478 19.8502 13.5156 13.5791 8.7987
internal_count=691 289 402 226 151 131 88 251 228 95 99 68 63 43
shrinkage=0.15


Tree=6
num_leaves=15
num_cat=0
split_feature=1 1 5 6 7 3 5 5 6 2 7 7 1 5
split_gain=24.2511 9.8086 7.49397 6.83709 6.3714 14.7855 4.83014 3.19116 2.5387 3.44205 2.47562 2.20867 2.72615 2.17156
threshold=111.50000000000001 154.50000000000003 27.050000000000004 0.66050000000000009 28.500000000000004 9.0000000000000018 33.650000000000013 39.150000000000013 0.32100000000000001 75.500000000000014 41.500000000000007 30.500000000000004 94.500000000000014 35.050000000000004
decision_type=2 2 2 2 2 2 2 2 2 2 2 2 2 2
left_child=3 2 -2 7 5 -4 -5 11 9 -6 13 -1 -13 -10
right_child=1 -3 4 6 8 -7 -8 -9 10 -11 -12 12 -14 -15
leaf_value=-0.15807415019420676 -0.11319237081873029 0.12457605769362601 0.18886698063934829 -0.06842286182683964 0.12807624126925185 -0.099083454445896391 0.13586490856458475 0.02276474942811384 0.015844070980271199 -0.037719468138851665 0.19219454454133655 -0.16353279577990493 -0.018949320616365894 0.15209616963572714
leaf_weight=22.38055907189846 8.9843737930059415 25.290534347295761 5.3600628376007107 6.0391285419464094 4.6594310998916644 15.955599591135977 4.5782772600650787 3.3706452995538703 6.1350554376840609 7.1268155872821808 6.3907397836446753 4.9921126514673215 7.1180354952812195 4.6091980934143066
leaf_count=157 56 109 24 36 20 79 22 19 26 31 28 30 34 20
internal_value=0 0.046378 0.0129834 -0.0867081 0.0355487 -0.0266751 0.019667 -0.116539 0.0814092 0.0278242 0.118267 -0.130152 -0.0785503 0.0742951
internal_weight=0 84.5118 59.2213 48.4788 50.2369 21.3157 10.6174 37.8614 28.9212 11.7862 17.135 34.4907 12.1101 10.7443
internal_count=691 393 284 298 228 103 58 240 125 51 74 221 64 46
shrinkage=0.15


Tree=7
num_leaves=15
num_cat=0
split_feature=5 7 6 5 7 2 7 5 3 5 6 0 4 4
split_gain=12.632 7.34762 5.75393 7.80644 4.80438 5.0485 4.90353 4.62084 4.78513 4.43999 8.14048 3.7491 3.73372 3.97801
threshold=26.250000000000004 24.500000000000004 0.71000000000000008 42.350000000000001 34.500000000000007 81.000000000000014 58.500000000000007 33.250000000000007 16.500000000000004 32.600000000000009 0.43350000000000005 2.5000000000000004 126.50000000000001 17.000000000000004
decision_type=2 2 2 2 2 2 2 2 2 2 2 2 2 2
left_child=11 7 3 4 5 9 12 8 -2 10 -3 -1 13 -6
right_child=1 2 -4 -5 6 -7 -8 -9 -10 -11 -12 -13 -14 -15
leaf_value=-0.17383221135825264 0.02346889983175399 0.15896873425243899 0.11217027790802497 0.16533262058830059 0.060382781679437697 -0.20493947713648911 -0.10771405303244487 0.0058684873107490241 -0.19012113709885142 -0.089076919630108553 -0.1108848120882041 -0.04312004796017422 0.15558464330381006 -0.10210520816461535
leaf_weight=10.486902967095377 3.3818958252668399 6.1651571542024666 18.73026217520237 7.196218639612197 17.780389815568931 3.9789486825466147 4.5564205944538108 13.012555956840513 7.8103833198547363 10.585112646222113 4.2484928965568542 9.3293482437729818 6.9440198838710776 4.1886649876832953
leaf_count=81 19 31 86 33 81 19 21 68 55 58 21 65 31 22
internal_value=0 0.0179385 0.0388383 0.0179142 -0.000236483 -0.050019 0.0369153 -0.0549141 -0.125582 -0.0206639 0.0488756 -0.112294 0.0597075 0.0294025
internal_weight=0 108.579 84.3737 65.6434 58.4472 24.9777 33.4695 24.2048 11.1923 20.9988 10.4137 19.8163 28.9131 21.9691
internal_count=691 545 403 317 284 129 155 142 74 110 52 146 134 103
shrinkage=0.15


Tree=8
num_leaves=15
num_cat=0
split_feature=1 1 5 6 3 7 3 3 5 7 7 5 4 1
split_gain=17.2382 6.65351 4.98539 4.98017 4.80099 3.36328 6.08254 3.53936 3.49409 3.19363 5.21779 2.5353 2.17858 3.62455
threshold=111.50000000000001 154.50000000000003 26.250000000000004 0.63400000000000012 29.500000000000004 41.500000000000007 9.0000000000000018 17.500000000000004 31.750000000000004 28.500000000000004 36.500000000000007 39.150000000000013 195.00000000000003 124.50000000000001
decision_type=2 2 2 2 2 2 2 2 2 2 2 2 2 2
left_child=3 2 -2 11 -5 6 8 -7 -4 12 -11 -1 13 -8
right_child=1 -3 5 4 -6 7 9 -9 -10 10 -12 -13 -14 -15
leaf_value=-0.12115529065100879 -0.11371786537578739 0.10520759721248669 9.465958373810858e-05 -0.079558044692054658 0.11663176447218916 0.0066550926848456078 -0.13504339838160409 0.17398109906209039 0.16965106481441561 0.10088025413962694 -0.1020435673654523 0.014750418018312341 -0.18031931833672041 0.030056708392481618
leaf_weight=29.491716280579567 6.3947404772043219 24.018885150551796 4.6909348219633085 6.2675053551793081 5.0821612402796745 5.1972140669822675 5.5737768933177012 6.2827604711055756 6.5568601787090302 7.6856425404548627 4.5323433876037598 3.44968158006668 3.5379802435636512 6.4587841033935547
leaf_count=214 47 109 21 40 25 23 35 29 28 34 20 19 18 29
internal_value=0 0.0390036 0.0110627 -0.077399 0.00829196 0.0268584 0.00586934 0.0982293 0.0989369 -0.0318011 0.0256043 -0.106923 -0.0768463 -0.0464217
internal_weight=0 80.9299 56.911 44.2911 11.3497 50.5163 39.0363 11.48 11.2478 27.7885 12.218 32.9414 15.5705 12.0326
internal_count=691 393 284 298 65 237 185 52 49 136 54 233 82 64
shrinkage=0.15


Tree=9
num_leaves=15
num_cat=0
split_feature=1 1 5 5 5 5 6 2 7 2 1 5 7 4
split_gain=13.8015 6.06523 4.89422 3.97504 3.46256 5.61744 4.09978 2.85141 2.79979 3.55727 2.7187 2.68607 2.25659 2.13485
threshold=103.50000000000001 154.50000000000003 26.250000000000004 34.150000000000013 41.400000000000006 38.050000000000004 0.88900000000000012 73.000000000000014 34.500000000000007 67.000000000000014 125.50000000000001 33.000000000000007 24.500000000000004 249.50000000000003
decision_type=2 2 2 2 2 2 2 2 2 2 2 2 2 2
left_child=3 2 -2 -1 5 6 8 -5 9 12 -10 -11 -4 -3
right_child=1 13 4 7 -6 -7 -8 -9 10 11 -12 -13 -14 -15
leaf_value=-0.13838622989511346 -0.1047484782183614 0.11706717379740897 -0.029183160975277202 -0.10964243023873775 0.1094995802565608 -0.12656937217597988 0.16129831586842877 0.038771903235476995 0.11958482335059874 -0.01552557887698422 0.00048826081316717592 -0.14840663521441871 0.1113741494545664 0.0085661585382198913
leaf_weight=17.18176028132439 8.2124682590365392 18.010277554392818 5.0594570413231867 5.1371934413909894 8.1663544774055463 6.452235296368598 4.3588189482688895 6.7263170704245567 7.8598172515630749 7.7527274340391141 9.5560518205165845 6.1283155977725983 5.2230313271284103 5.2753413617610923
leaf_count=147 69 85 32 33 37 32 20 38 34 40 43 32 25 24
internal_value=0 0.0263188 0.00391419 -0.092276 0.0186506 0.0044895 0.0228973 -0.0254952 0.00838858 -0.0246565 0.0542368 -0.074191 0.0422135 0.0924863
internal_weight=0 92.0549 68.7693 29.0453 60.5568 52.3905 45.9382 11.8635 41.5794 24.1635 17.4159 13.881 10.2825 23.2856
internal_count=691 473 364 218 295 258 226 71 206 129 77 72 57 109
shrinkage=0.15


Tree=10
num_leaves=15
num_cat=0
split_feature=1 1 7 4 6 5 5 6 2 1 7 5 2 4
split_gain=10.6555 4.91737 4.21308 4.83119 4.39278 3.46697 2.73416 2.87242 3.23774 3.13387 2.70403 2.92505 2.8527 2.5288
threshold=103.50000000000001 165.50000000000003 24.500000000000004 69.000000000000014 0.39950000000000002 34.150000000000013 42.150000000000013 0.71000000000000008 73.000000000000014 123.50000000000001 30.500000000000004 27.850000000000005 84.500000000000014 88.500000000000014
decision_type=2 2 2 2 2 2 2 2 2 2 2 2 2 2
left_child=5 2 3 4 -2 -1 7 8 -4 -9 -10 -12 -13 -7
right_child=1 -3 6 -5 -6 13 -8 9 10 -11 11 12 -14 -15
leaf_value=-0.13039433286262905 -0.059504349249808221 0.10370693095849881 0.043084166185561573 -0.1405344416230016 0.15972481549820403 -0.066943401586205806 0.11943941593245008 0.001572105856104548 -0.12144822834539563 0.16396293776728599 -0.12144422463826847 0.084563099210698822 -0.065525635390979636 0.087033552361527752
leaf_weight=15.624598659574987 5.7771505564451235 14.226604744791983 19.151023499667645 8.2443964928388578 3.1931423842906952 8.2771608009934408 6.3797208815813056 5.2182101532816869 6.6089602783322361 5.4838847815990448 3.8475054949522045 7.6390339136123639 4.5443593561649323 3.3797878324985495
leaf_count=147 38 71 98 54 18 51 29 27 35 27 22 34 20 20
internal_value=0 0.0227627 0.007628 -0.0576463 0.0185343 -0.0842073 0.0267146 0.0154453 -0.00231126 0.0847832 -0.0407112 -0.00742622 0.0285806 -0.0222997
internal_weight=0 90.314 76.0874 17.2147 8.97029 27.2815 58.8727 52.493 41.7909 10.7021 22.6399 16.0309 12.1834 11.6569
internal_count=691 473 402 110 56 218 292 263 209 54 111 76 54 71
shrinkage=0.15


Tree=11
num_leaves=15
num_cat=0
split_feature=1 0 1 4 6 4 2 6 0 1 7 6 1 2
split_gain=8.2444 3.97018 4.5636 3.49217 3.05018 2.92222 2.64795 2.33402 2.34213 3.20492 1.97695 1.68144 1.60342 2.86576
threshold=107.50000000000001 7.5000000000000009 165.50000000000003 155.50000000000003 0.25850000000000006 167.50000000000003 81.000000000000014 0.29250000000000004 4.5000000000000009 101.50000000000001 26.500000000000004 0.19300000000000003 122.50000000000001 73.000000000000014
decision_type=2 2 2 2 2 2 2 2 2 2 2 2 2 2
left_child=3 2 5 6 -3 11 7 -1 9 -9 -7 -2 -13 -14
right_child=1 4 -4 -5 -6 10 -8 8 -10 -11 -12 12 13 -15
leaf_value=-0.16287842317692061 -0.064135422266118722 -0.01294144649669249 0.095055912139872453 0.085992891228786589 0.1403271174858631 -0.13510233399430993 0.018446945639430917 -0.15358175516458969 0.016591847272912373 0.043957582188482017 -0.017196776285919754 -0.020569587647271775 0.10336430109582241 -0.001182400228888862
leaf_weight=8.9872698411345535 6.018249310553073 4.1219638958573332 11.348724171519278 3.0809985995292655 10.031047344207762 5.9796089157462102 4.9267028197646132 7.9519082829356176 5.0889693498611441 2.4074282199144363 6.8826266378164291 13.245573520660399 10.469158113002779 13.51484554260969
leaf_count=83 35 19 59 17 54 36 30 82 30 16 31 82 51 66
internal_value=0 0.0234592 0.00830527 -0.0659309 0.0956887 -0.00924076 -0.0818723 -0.102099 -0.0667392 -0.107675 -0.0720107 0.00942749 0.0213191 0.0444528
internal_weight=0 81.6118 67.4588 32.4433 14.153 56.1101 29.3623 24.4356 15.4483 10.3593 12.8622 43.2478 37.2296 23.984
internal_count=691 433 360 258 73 301 241 211 128 98 67 234 199 117
shrinkage=0.15


Tree=12
num_leaves=15
num_cat=0
split_feature=1 7 0 5 2 7 1 5 6 1 2 7 6 2
split_gain=6.35669 4.15911 3.92933 3.25974 3.01567 4.29807 5.90714 3.73304 2.80367 4.45413 2.34996 2.19988 2.05744 3.4474
threshold=111.50000000000001 60.500000000000007 9.5000000000000018 33.400000000000006 54.500000000000007 41.500000000000007 165.50000000000003 26.250000000000004 0.19300000000000003 117.50000000000001 77.000000000000014 36.500000000000007 0.49400000000000005 73.000000000000014
decision_type=2 2 2 2 2 2 2 2 2 2 2 2 2 2
left_child=2 4 3 -1 -2 6 7 -6 -9 -10 -7 -11 13 -5
right_child=1 -3 -4 12 5 10 -8 8 9 11 -12 -13 -14 -15
leaf_value=-0.11071517800165277 0.1235234328535858 -0.11744695887882213 0.092029465506863209 -0.18310521490233742 -0.18027393925232585 0.16881679727237275 0.113952102073493 -0.1435086553733208 0.14741930440760348 3.7494479322136165e-05 0.046179174051502868 -0.11012695451791199 0.050069538908385107 0.015678112659416186
leaf_weight=18.706442590802908 7.2982843518257132 4.4397305175662032 3.7753350287675849 3.3029310926794988 3.1990689337253562 5.5607435628771773 8.353294298052786 3.2738289833068839 4.1431874111294738 23.563009411096576 9.5586965382099134 4.9321886450052252 6.1336897984147063 4.8386220484972
leaf_count=186 40 22 22 26 28 30 46 18 24 115 48 22 34 30
internal_value=0 0.023332 -0.0529275 -0.0695204 0.0322759 0.021635 -0.000551016 -0.0250063 -0.011175 0.00209883 0.0912838 -0.0190307 -0.0155383 -0.0649659
internal_weight=0 74.322 36.757 32.9817 69.8823 62.584 47.4646 39.1113 35.9122 32.6384 15.1194 28.4952 14.2752 8.14155
internal_count=691 393 298 276 371 331 253 207 179 161 78 137 90 56
shrinkage=0.15


Tree=13
num_leaves=15
num_cat=0
split_feature=5 0 0 6 5 7 3 6 6 6 5 3 4 6
split_gain=5.01985 3.42035 2.63998 6.10108 2.53151 1.84651 1.66356 3.97226 3.20208 3.72707 2.76082 2.94056 2.0812 1.57387
threshold=26.250000000000004 2.5000000000000004 6.5000000000000009 0.40150000000000008 45.400000000000006 44.500000000000007 9.0000000000000018 0.19300000000000003 0.25450000000000006 0.34350000000000003 30.950000000000003 22.500000000000004 78.500000000000014 0.18450000000000003
decision_type=2 2 2 2 2 2 2 2 2 2 2 2 2 2
left_child=1 -1 4 5 6 -4 13 -8 -9 12 11 -11 -10 -2
right_child=2 -3 3 -5 -6 -7 7 8 9 10 -12 -13 -14 -15
leaf_value=-0.16593736015437269 0.12134735376839563 -0.01656509593436226 0.024861931548474291 0.13765473639935941 0.1065052416771296 -0.1016996911174415 -0.16240419658266927 0.090790525688873872 -0.20649431033686286 0.013240822462486724 0.02366111288000888 -0.16736813330348033 -0.052366110539414312 0.0074775352015865552
leaf_weight=6.4569194503128511 3.2795772030949619 7.4044779241085052 7.1828217655420321 10.632821530103682 4.4411706477403632 4.0597657412290573 4.3272272348403922 5.9261263236403456 3.4496796652674657 3.9917777590453642 22.275181956589222 4.1235911697149277 4.5993797928094864 16.329546548426151
leaf_count=81 17 65 36 59 21 20 34 35 29 27 126 32 25 84
internal_value=0 -0.0861457 0.0105083 0.0561983 -0.00323166 -0.0208402 -0.010367 -0.0252226 -0.0118425 -0.0276652 -0.0036277 -0.0785304 -0.118423 0.026522
internal_weight=0 13.8614 94.6187 21.8754 72.7433 11.2426 68.3021 48.693 44.3657 38.4396 30.3906 8.11537 8.04906 19.6091
internal_count=691 146 545 115 430 56 409 308 274 239 185 59 54 101
shrinkage=0.15


end of trees

feature_importances:
Glucose=42
BMI=39
DiabetesPedigreeFunction=30
Age=28
BloodPressure=17
Insulin=17
SkinThickness=14
Pregnancies=9

parameters:
[boosting: gbdt]
[objective: binary]
[metric: binary_logloss]
[tree_learner: serial]
[device_type: cpu]
[data: ]
[valid: ]
[num_iterations: 10000]
[learning_rate: 0.15]
[num_leaves: 15]
[num_threads: 8]
[force_col_wise: 0]
[force_row_wise: 0]
[histogram_pool_size: -1]
[max_depth: -1]
[min_data_in_leaf: 20]
[min_sum_hessian_in_leaf: 0.001]
[bagging_fraction: 1]
[pos_bagging_fraction: 1]
[neg_bagging_fraction: 1]
[bagging_freq: 0]
[bagging_seed: 24115]
[feature_fraction: 0.9]
[feature_fraction_bynode: 1]
[feature_fraction_seed: 20572]
[extra_trees: 0]
[extra_seed: 23394]
[early_stopping_round: 50]
[first_metric_only: 0]
[max_delta_step: 0]
[lambda_l1: 0]
[lambda_l2: 0]
[min_gain_to_split: 0]
[drop_rate: 0.1]
[max_drop: 50]
[skip_drop: 0.5]
[xgboost_dart_mode: 0]
[uniform_drop: 0]
[drop_seed: 31232]
[top_rate: 0.2]
[other_rate: 0.1]
[min_data_per_group: 100]
[max_cat_threshold: 32]
[cat_l2: 10]
[cat_smooth: 10]
[max_cat_to_onehot: 4]
[top_k: 20]
[monotone_constraints: ]
[monotone_constraints_method: basic]
[monotone_penalty: 0]
[feature_contri: ]
[forcedsplits_filename: ]
[refit_decay_rate: 0.9]
[cegb_tradeoff: 1]
[cegb_penalty_split: 0]
[cegb_penalty_feature_lazy: ]
[cegb_penalty_feature_coupled: ]
[path_smooth: 0]
[interaction_constraints: ]
[verbosity: -1]
[saved_feature_importance_type: 0]
[max_bin: 255]
[max_bin_by_feature: ]
[min_data_in_bin: 3]
[bin_construct_sample_cnt: 200000]
[data_random_seed: 11193]
[is_enable_sparse: 1]
[enable_bundle: 1]
[use_missing: 1]
[zero_as_missing: 0]
[feature_pre_filter: 1]
[pre_partition: 0]
[two_round: 0]
[header: 0]
[label_column: ]
[weight_column: ]
[group_column: ]
[ignore_column: ]
[categorical_feature: ]
[forcedbins_filename: ]
[objective_seed: 17841]
[num_class: 1]
[is_unbalance: 0]
[scale_pos_weight: 1]
[sigmoid: 1]
[boost_from_average: 1]
[reg_sqrt: 0]
[alpha: 0.9]
[fair_c: 1]
[poisson_max_delta_step: 0.7]
[tweedie_variance_power: 1.5]
[lambdarank_truncation_level: 20]
[lambdarank_norm: 1]
[label_gain: ]
[eval_at: ]
[multi_error_top_k: 1]
[auc_mu_weights: ]
[num_machines: 1]
[local_listen_port: 12400]
[time_out: 120]
[machine_list_filename: ]
[machines: ]
[gpu_platform_id: -1]
[gpu_device_id: -1]
[gpu_use_dp: 0]

end of parameters

pandas_categorical:[]
