tree
version=v3
num_class=1
num_tree_per_iteration=1
label_index=0
max_feature_idx=7
objective=binary sigmoid:1
feature_names=Pregnancies Glucose BloodPressure SkinThickness Insulin BMI DiabetesPedigreeFunction Age
feature_infos=[0:17] [0:199] [0:122] [0:99] [0:846] [0:67.099999999999994] [0.084000000000000005:2.4199999999999999] [21:81]
tree_sizes=1649 1641 1644 1653 1641 1649 1641

Tree=0
num_leaves=15
num_cat=0
split_feature=1 5 7 5 1 1 1 7 6 5 6 0 2 5
split_gain=133.296 40.5887 29.1643 18.4805 18.0523 14.1515 12.9043 10.532 10.3387 5.94107 5.68735 5.6737 5.85381 2.24754
threshold=127.50000000000001 30.050000000000004 28.500000000000004 27.350000000000005 101.50000000000001 154.50000000000003 146.50000000000003 30.500000000000004 0.20450000000000002 30.950000000000003 0.43350000000000005 6.5000000000000009 74.500000000000014 33.650000000000013
decision_type=2 2 2 2 2 2 2 2 2 2 2 2 2 2
left_child=2 6 9 -4 -5 7 -2 -3 -6 -1 -9 12 -10 -11
right_child=1 5 3 4 8 -7 -8 10 11 13 -12 -13 -14 -15
leaf_value=-0.86280169032767939 -0.78726117615921021 -0.59009673121312511 -0.84079549012173871 -0.74422880895488108 -0.71425983893758038 -0.29115625529055106 -0.50336708696398325 -0.4969486119039172 -0.42069712819033322 -0.68917087361658347 -0.29115625529055106 -0.34097966794431339 -0.64136430075540229 -0.7914157238059697
leaf_weight=31.16004940867424 8.8061009198427183 9.0318983793258685 9.4834932982921583 12.870455190539358 4.7417466491460827 19.870176434516907 6.0965314060449591 5.1933415681123716 5.6449364870786685 6.548126325011256 7.2255187034606934 5.6449364870786658 5.1933415681123734 18.515391677618027
leaf_count=138 39 40 42 57 21 88 27 23 25 29 32 25 23 82
internal_value=-0.643621 -0.458902 -0.747683 -0.655581 -0.604065 -0.382363 -0.671123 -0.466849 -0.519072 -0.819071 -0.377215 -0.462922 -0.526433 -0.764703
internal_weight=0 56.2236 99.8025 43.5789 34.0954 41.3209 14.9026 21.4508 21.225 56.2236 12.4189 16.4832 10.8383 25.0635
internal_count=691 249 442 193 151 183 66 95 94 249 55 73 48 111
shrinkage=1


Tree=1
num_leaves=15
num_cat=0
split_feature=1 5 5 0 1 1 1 5 6 1 5 2 0 2
split_gain=94.948 26.8101 16.7516 12.9629 12.1705 11.4885 7.70581 5.17735 8.308 3.3906 3.38257 3.28863 3.01085 2.75073
threshold=123.50000000000001 30.050000000000004 27.350000000000005 6.5000000000000009 101.50000000000001 154.50000000000003 151.50000000000003 41.900000000000006 0.43350000000000005 108.50000000000001 27.350000000000005 79.000000000000014 4.5000000000000009 79.000000000000014
decision_type=2 2 2 2 2 2 2 2 2 2 2 2 2 2
left_child=2 6 -1 9 -5 7 10 8 12 11 -2 -4 -3 -10
right_child=1 5 3 4 -6 -7 -8 -9 13 -11 -12 -13 -14 -15
leaf_value=-0.20252809266444388 -0.15249863476042239 -0.064373416228577812 -0.14813608586119334 -0.083867539234000338 0.22112430789922619 0.27409528943901484 0.136808457911928 0.27006457156599067 0.26807600140032628 -0.042210108849849437 -0.0024345347363006428 -0.025450187281950237 0.092699196255753985 0.11736342476041119
leaf_weight=26.784772619605064 6.8597709536552447 6.1959119290113502 25.064064264297489 5.4586127400398237 6.3899799138307571 21.540264010429382 5.1658061146736136 4.6865311563014975 5.2197672575712186 17.930134147405624 6.661864310503006 6.1154196560382834 4.9311006814241409 5.7005035430192947
leaf_count=128 32 27 116 25 27 88 22 20 22 81 30 28 21 24
internal_value=0 0.13352 -0.103653 -0.0602082 0.0806154 0.192574 -0.0190287 0.12689 0.0964555 -0.0941845 -0.0785648 -0.124073 0.00523564 0.189402
internal_weight=0 66.9615 87.743 60.9582 11.8486 48.2741 18.6874 26.7338 22.0473 49.1096 13.5216 31.1795 11.127 10.9203
internal_count=691 286 405 277 52 202 84 114 94 225 62 144 48 46
shrinkage=0.15


Tree=2
num_leaves=15
num_cat=0
split_feature=1 5 7 5 7 1 1 7 6 7 0 5 6 6
split_gain=69.7744 18.5921 16.1591 11.6585 9.32368 8.54412 8.09462 8.07503 5.71597 5.19511 4.0546 3.81796 3.80095 2.31625
threshold=123.50000000000001 30.050000000000004 29.500000000000004 27.350000000000005 26.500000000000004 94.500000000000014 154.50000000000003 28.500000000000004 0.23850000000000002 53.500000000000007 6.5000000000000009 30.950000000000003 0.43350000000000005 0.49400000000000005
decision_type=2 2 2 2 2 2 2 2 2 2 2 2 2 2
left_child=2 4 11 -4 -2 -5 7 -3 -7 -6 -10 -1 -9 -13
right_child=1 6 3 5 9 8 -8 12 10 -11 -12 13 -14 -15
leaf_value=-0.18731783638485683 -0.18671366521691687 -0.001885104735181689 -0.18235182499148153 -0.10986485249637722 0.11557578580505462 -0.053514250001960702 0.22757564007380782 0.094406346665691879 0.066193420775401843 -0.085172973214410488 0.22719459609319959 -0.14093123840988275 0.23528707932816187 -0.042968410694571892
leaf_weight=26.199866354465485 5.208714663982394 10.012922003865244 7.3204782307147971 7.1529044955968883 8.9134705513715726 5.2438277006149319 21.998398900032043 8.3114344775676745 9.0637736171483976 4.2996110916137686 5.7534938156604758 14.24752436578274 8.9478386342525464 8.7753721475601179
leaf_count=135 25 43 38 34 39 24 88 35 40 20 24 68 36 42
internal_value=0 0.111812 -0.0929703 -0.0143118 -0.0167501 0.0308904 0.15988 0.105275 0.0810776 0.050251 0.12871 -0.148157 0.167444 -0.103592
internal_weight=0 67.6924 83.7572 34.5345 18.4218 27.214 49.2706 27.2722 20.0611 13.2131 14.8173 49.2228 17.2593 23.0229
internal_count=691 286 405 160 84 122 202 114 88 59 64 245 71 110
shrinkage=0.15


Tree=3
num_leaves=15
num_cat=0
split_feature=1 1 5 5 0 1 4 6 6 3 1 4 6 1
split_gain=52.1243 14.251 13.1052 9.06251 6.67655 8.46222 4.41188 3.65583 3.00507 2.90355 3.64097 5.29701 3.34316 2.70989
threshold=123.50000000000001 154.50000000000003 27.850000000000005 30.050000000000004 6.5000000000000009 102.50000000000001 202.00000000000003 0.43350000000000005 0.34350000000000003 40.500000000000007 111.50000000000001 50.500000000000007 0.66900000000000015 168.50000000000003
decision_type=2 2 2 2 2 2 2 2 2 2 2 2 2 2
left_child=2 3 -1 -2 9 -6 7 -5 13 10 12 -12 -4 -3
right_child=1 8 4 6 5 -7 -8 -9 -10 -11 11 -13 -14 -15
leaf_value=-0.17361249342372764 -0.061957774921316953 0.041437702959979214 -0.13863768497278828 0.063814284609509914 -0.062741626249573718 0.20291951860809027 -0.028567909649661549 0.18745141699950063 0.22331561094938696 0.034232651242368066 0.090604041909340238 -0.11309806261553887 -0.0019472346621323307 0.19040432294903531
leaf_weight=25.074340298771858 13.295216485857962 5.1446262449026126 21.885909691452984 11.890592128038412 5.7050014734268171 5.1180535703897476 5.6943023055791846 9.8293972313404065 15.559175938367842 5.4032029062509528 5.6703626066446287 5.820604532957077 4.9333934038877478 5.8971073776483536
leaf_count=142 64 21 111 50 27 21 24 40 63 26 26 28 24 24
internal_value=0 0.0954612 -0.0838579 0.0396691 -0.0425913 0.0628854 0.0889554 0.119766 0.180844 -0.0687064 -0.0832247 -0.0125787 -0.113494 0.120997
internal_weight=0 67.3104 79.6109 40.7095 54.5365 10.8231 27.4143 21.72 26.6009 43.7135 38.3103 11.491 26.8193 11.0417
internal_count=691 286 405 178 263 48 114 90 108 215 189 54 135 45
shrinkage=0.15


Tree=4
num_leaves=15
num_cat=0
split_feature=1 7 1 7 5 1 5 6 5 5 6 0 1 6
split_gain=39.1883 12.2918 10.7118 8.46043 8.0411 5.51661 3.70239 3.41333 3.36105 3.20565 2.37844 2.21 2.03345 1.9645
threshold=123.50000000000001 29.500000000000004 154.50000000000003 31.500000000000004 27.350000000000005 94.500000000000014 30.450000000000003 0.23850000000000002 30.950000000000003 30.050000000000004 0.34350000000000003 6.5000000000000009 168.50000000000003 0.43350000000000005
decision_type=2 2 2 2 2 2 2 2 2 2 2 2 2 2
left_child=1 8 3 6 -3 -6 -2 -7 -1 -5 12 -9 -4 -11
right_child=2 4 10 9 5 7 -8 11 -10 13 -12 -13 -14 -15
leaf_value=-0.16928247918262007 -0.1357227985748477 -0.16215108220348529 0.035252532002307581 0.012191042518839448 -0.089377611786485192 -0.038228412872793029 0.0067963994283813155 0.059249596446110338 -0.085619856254022908 0.079261188911618638 0.19576328994771947 0.17791831270364228 0.16483926353616823 0.18725623857233192
leaf_weight=21.893033266067505 6.2146994471550014 6.0326210856437674 5.1404810249805468 6.9978561997413662 6.571816653013232 4.9890306442976025 12.060015439987181 9.132942780852316 21.33127698302269 7.354623153805731 15.119230881333349 5.7567606419324866 5.7971742749214172 7.8191805183887482
leaf_count=135 32 38 21 33 34 24 51 40 110 30 63 24 24 32
internal_value=0 -0.0755992 0.0822145 0.0338949 -0.00587799 0.0297635 -0.0416702 0.069151 -0.127995 0.0961785 0.157218 0.10513 0.103936 0.134912
internal_weight=0 75.7075 66.5033 40.4464 32.4832 26.4506 18.2747 19.8787 43.2243 22.1717 26.0569 14.8897 10.9377 15.1738
internal_count=691 405 286 178 160 122 83 88 245 95 108 64 45 62
shrinkage=0.15


Tree=5
num_leaves=15
num_cat=0
split_feature=1 7 1 7 1 3 6 1 2 6 3 3 2 7
split_gain=29.6807 9.92927 8.20304 6.35914 4.40472 3.1655 6.31037 3.05495 2.79743 4.73206 3.08215 2.33638 2.26639 5.81148
threshold=123.50000000000001 29.500000000000004 154.50000000000003 24.500000000000004 94.500000000000014 30.500000000000004 0.49400000000000005 111.50000000000001 67.000000000000014 0.52750000000000019 29.500000000000004 21.500000000000004 73.000000000000014 31.500000000000004
decision_type=2 2 2 2 2 2 2 2 2 2 2 2 2 2
left_child=1 5 3 -2 11 7 -7 -1 -6 10 -10 -3 -5 -14
right_child=2 4 -4 12 8 6 -8 -9 9 -11 -12 -13 13 -15
leaf_value=-0.1675394347260202 -0.079864981529854301 -0.19094285788396037 0.13846003303324353 0.11875589658557235 0.11968818562480209 -0.13387802494630083 0.10473507219358813 -0.046523689103544791 0.0020657041354991044 0.10144350292220966 -0.1571737864376466 -0.02812964125367496 -0.11473040364419641 0.076623216464487873
leaf_weight=23.489911034703258 9.2445889264345151 3.6117421239614504 25.228296846151352 10.455726966261865 5.6081561893224743 6.9742256104946119 3.881664827466011 5.8655699789524069 7.1314292103052157 6.4378723651170722 4.4360614120960236 4.3978356570005417 4.6342140585184124 15.565810874104498
leaf_count=153 45 22 108 46 28 39 20 33 36 30 20 24 20 67
internal_value=0 -0.0683107 0.0715121 0.0291821 -0.00542441 -0.117766 -0.0485588 -0.143359 0.0271797 -0.001634 -0.0590017 -0.101547 0.0620665 0.0327236
internal_weight=0 71.8345 65.1286 39.9003 31.6231 40.2114 10.8559 29.3555 23.6135 18.0054 11.5675 8.00958 30.6558 20.2
internal_count=691 405 286 178 160 245 59 186 114 86 56 46 133 87
shrinkage=0.15


Tree=6
num_leaves=15
num_cat=0
split_feature=1 5 5 7 7 1 7 1 4 5 6 4 6 2
split_gain=22.3874 9.80395 7.99116 6.91662 4.97092 4.20687 3.80017 3.25049 4.43325 4.438 3.48887 2.28866 4.25484 2.19585
threshold=123.50000000000001 27.850000000000005 30.050000000000004 30.500000000000004 26.500000000000004 107.50000000000001 53.500000000000007 165.50000000000003 252.50000000000003 41.900000000000006 0.43350000000000005 44.500000000000007 0.29250000000000004 79.000000000000014
decision_type=2 2 2 2 2 2 2 2 2 2 2 2 2 2
left_child=1 -1 4 -3 -2 11 -6 8 9 10 -4 12 -5 -12
right_child=2 3 7 5 6 -7 -8 -9 -10 -11 13 -13 -14 -15
leaf_value=-0.15237505486193859 -0.16468788688901642 -0.078325174540144149 0.0042870716988363151 -0.081975115672269991 0.075880653367925793 0.11645364564013913 -0.095536952029145306 0.15624637256568671 -0.063647523351833088 0.21275097357032641 0.18428699103974455 -0.097184652540678776 0.12230649455957225 0.050237340515386128
leaf_weight=19.206737443804741 4.2824482023716 26.497303798794746 11.435273721814161 4.2440036833286303 9.0900669693946821 8.6868202686309797 4.2799628078937522 13.582561954855917 4.8343580663204184 5.495315045118331 5.9592285305261594 5.0441461950540534 4.9930344671010971 5.1047824323177338
leaf_count=142 25 154 48 22 39 37 20 62 21 23 26 25 25 22
internal_value=0 -0.0614203 0.0618592 -0.0261037 -0.024042 0.0341421 0.0210071 0.0945314 0.0689977 0.091904 0.0623879 -0.0159256 0.0284483 0.122438
internal_weight=0 68.672 64.064 49.4653 17.6525 22.968 13.37 46.4115 32.829 27.9946 22.4993 14.2812 9.23704 11.064
internal_count=691 405 286 263 84 109 59 202 140 119 96 72 47 48
shrinkage=0.15


end of trees

feature_importances:
Glucose=28
BMI=20
DiabetesPedigreeFunction=16
Age=14
Pregnancies=6
BloodPressure=6
SkinThickness=4
Insulin=4

parameters:
[boosting: gbdt]
[objective: binary]
[metric: binary_logloss]
[tree_learner: serial]
[device_type: cpu]
[data: ]
[valid: ]
[num_iterations: 10000]
[learning_rate: 0.15]
[num_leaves: 15]
[num_threads: 8]
[force_col_wise: 0]
[force_row_wise: 0]
[histogram_pool_size: -1]
[max_depth: -1]
[min_data_in_leaf: 20]
[min_sum_hessian_in_leaf: 0.001]
[bagging_fraction: 1]
[pos_bagging_fraction: 1]
[neg_bagging_fraction: 1]
[bagging_freq: 0]
[bagging_seed: 24115]
[feature_fraction: 0.9]
[feature_fraction_bynode: 1]
[feature_fraction_seed: 20572]
[extra_trees: 0]
[extra_seed: 23394]
[early_stopping_round: 50]
[first_metric_only: 0]
[max_delta_step: 0]
[lambda_l1: 0]
[lambda_l2: 0]
[min_gain_to_split: 0]
[drop_rate: 0.1]
[max_drop: 50]
[skip_drop: 0.5]
[xgboost_dart_mode: 0]
[uniform_drop: 0]
[drop_seed: 31232]
[top_rate: 0.2]
[other_rate: 0.1]
[min_data_per_group: 100]
[max_cat_threshold: 32]
[cat_l2: 10]
[cat_smooth: 10]
[max_cat_to_onehot: 4]
[top_k: 20]
[monotone_constraints: ]
[monotone_constraints_method: basic]
[monotone_penalty: 0]
[feature_contri: ]
[forcedsplits_filename: ]
[refit_decay_rate: 0.9]
[cegb_tradeoff: 1]
[cegb_penalty_split: 0]
[cegb_penalty_feature_lazy: ]
[cegb_penalty_feature_coupled: ]
[path_smooth: 0]
[interaction_constraints: ]
[verbosity: -1]
[saved_feature_importance_type: 0]
[max_bin: 255]
[max_bin_by_feature: ]
[min_data_in_bin: 3]
[bin_construct_sample_cnt: 200000]
[data_random_seed: 11193]
[is_enable_sparse: 1]
[enable_bundle: 1]
[use_missing: 1]
[zero_as_missing: 0]
[feature_pre_filter: 1]
[pre_partition: 0]
[two_round: 0]
[header: 0]
[label_column: ]
[weight_column: ]
[group_column: ]
[ignore_column: ]
[categorical_feature: ]
[forcedbins_filename: ]
[objective_seed: 17841]
[num_class: 1]
[is_unbalance: 0]
[scale_pos_weight: 1]
[sigmoid: 1]
[boost_from_average: 1]
[reg_sqrt: 0]
[alpha: 0.9]
[fair_c: 1]
[poisson_max_delta_step: 0.7]
[tweedie_variance_power: 1.5]
[lambdarank_truncation_level: 20]
[lambdarank_norm: 1]
[label_gain: ]
[eval_at: ]
[multi_error_top_k: 1]
[auc_mu_weights: ]
[num_machines: 1]
[local_listen_port: 12400]
[time_out: 120]
[machine_list_filename: ]
[machines: ]
[gpu_platform_id: -1]
[gpu_device_id: -1]
[gpu_use_dp: 0]

end of parameters

pandas_categorical:[]
