tree
version=v3
num_class=1
num_tree_per_iteration=1
label_index=0
max_feature_idx=7
objective=binary sigmoid:1
feature_names=Pregnancies Glucose BloodPressure SkinThickness Insulin BMI DiabetesPedigreeFunction Age
feature_infos=[0:17] [0:199] [0:122] [0:99] [0:846] [0:67.099999999999994] [0.078:2.3290000000000002] [21:70]
tree_sizes=1648 1653 1632 1654 1641 1649 1651 1652 1655 1654 1661 1647 1651 1661

Tree=0
num_leaves=15
num_cat=0
split_feature=1 5 7 1 5 1 6 1 5 7 2 6 5 6
split_gain=119.058 32.7558 26.0312 15.7603 14.2044 13.1089 12.4304 11.3403 7.67748 7.26866 7.54755 6.95749 5.05246 3.3823
threshold=127.50000000000001 29.950000000000003 28.500000000000004 99.500000000000014 26.450000000000003 154.50000000000003 0.55950000000000011 145.50000000000003 30.950000000000003 30.500000000000004 73.000000000000014 0.43350000000000005 34.650000000000013 0.49400000000000005
decision_type=2 2 2 2 2 2 2 2 2 2 2 2 2 2
left_child=2 7 8 -4 -5 9 12 -2 -1 10 -3 -11 -6 -10
right_child=1 5 3 4 6 -7 -8 -9 13 11 -12 -13 -14 -15
leaf_value=-0.86251429592200479 -0.79190671580058669 -0.44968529555252224 -0.78807230212833945 -0.81707005552470902 -0.55355956193369937 -0.31380326104226114 -0.37955263257948424 -0.53020798266971381 -0.7931085469515895 -0.52698707518502608 -0.71425983893758038 -0.29974649885154458 -0.71742323021718435 -0.6779965730494375
leaf_weight=30.256859570741653 7.4513161629438383 4.9675441086292285 14.225239947438238 5.4191390275955227 11.289872974157339 19.870176434516907 6.9997212439775458 7.45131616294384 15.128429785370828 5.6449364870786649 4.74174664914608 6.5481263250112534 6.7739237844943991 9.2576958388090116
leaf_count=134 33 22 63 24 50 88 31 33 67 25 21 29 30 41
internal_value=-0.643621 -0.470137 -0.742587 -0.657702 -0.596863 -0.402025 -0.549251 -0.661057 -0.812037 -0.48206 -0.578896 -0.40495 -0.615008 -0.749409
internal_weight=0 56.6752 99.3509 44.7079 30.4827 41.7725 25.0635 14.9026 54.643 21.9024 9.70929 12.1931 18.0638 24.3861
internal_count=691 251 440 198 135 185 111 66 242 97 43 54 80 108
shrinkage=1


Tree=1
num_leaves=15
num_cat=0
split_feature=1 5 5 0 6 1 1 1 1 5 6 6 6 5
split_gain=84.6274 21.4039 16.9595 14.7042 12.2018 8.55338 7.97424 7.26992 6.5542 5.67688 6.94112 5.43382 3.30255 2.78052
threshold=127.50000000000001 29.850000000000005 26.450000000000003 4.5000000000000009 0.65750000000000008 154.50000000000003 106.50000000000001 145.50000000000003 112.50000000000001 41.400000000000006 0.40150000000000008 0.70700000000000018 0.29450000000000004 37.250000000000007
decision_type=2 2 2 2 2 2 2 2 2 2 2 2 2 2
left_child=2 7 -1 8 6 9 12 -2 11 10 -3 13 -5 -4
right_child=1 5 3 4 -6 -7 -8 -9 -10 -11 -12 -13 -14 -15
leaf_value=-0.19598770175280678 -0.13056112799239628 -0.013703435856024312 -0.19600028574206693 -0.19238814921978983 0.24284338297931107 0.25905367385521982 0.088991801141122415 0.083310236113011901 -0.018114141179105078 0.27587002558784202 0.17209850288817474 0.00032621113353954739 -0.026531659356018325 -0.083097820949064496
leaf_weight=24.376069784164429 6.8660955429077131 8.0833877325058037 19.751744180917747 4.832465156912809 5.2929140776395789 21.70038965344429 9.3341724276542646 7.4630899429321289 14.400499999523161 4.6472366154193869 10.27343490719795 5.1665980219840995 6.1250536888837814 6.5307595878839484
leaf_count=116 32 35 92 22 23 89 41 32 65 20 43 23 28 30
internal_value=0 0.140364 -0.0879532 -0.0510877 0.0400161 0.191499 -0.0128896 -0.0191702 -0.101925 0.127773 0.090281 -0.140301 -0.0996774 -0.167946
internal_weight=0 59.0336 95.8103 71.4342 25.5846 44.7044 20.2917 14.3292 45.8496 23.0041 18.3568 31.4491 10.9575 26.2825
internal_count=691 251 440 324 114 187 91 64 210 98 78 145 50 122
shrinkage=0.15


Tree=2
num_leaves=15
num_cat=0
split_feature=1 7 7 6 1 5 5 6 7 5 0 7 3 1
split_gain=62.587 17.3826 12.7893 8.85624 8.63173 8.23419 8.12503 7.284 6.89579 5.6877 5.58395 3.808 3.72831 3.67463
threshold=123.50000000000001 24.500000000000004 28.500000000000004 0.31000000000000005 99.500000000000014 26.450000000000003 32.850000000000001 0.25250000000000006 40.500000000000007 30.950000000000003 6.5000000000000009 50.500000000000007 19.500000000000004 155.50000000000003
decision_type=2 2 2 2 2 2 2 2 2 2 2 2 2 2
left_child=2 6 9 8 -4 -6 -2 -7 12 -1 -9 -10 -3 -5
right_child=1 3 4 13 5 7 -8 10 11 -11 -12 -13 -14 -15
leaf_value=-0.19123141099106242 -0.16184114454691298 0.065678270921123674 -0.12339050454908093 0.14654753149100988 -0.16791520552104078 -0.076003655712118298 0.074332059757937871 0.043891076077153167 0.23345617808087704 -0.084494238494975865 0.2288865270794489 0.056783949857266536 -0.12215518305469819 0.24544223694987274
leaf_weight=24.544338583946228 6.9094861298799497 4.6923999786376971 13.123375415802 19.97697326540947 4.1038740724325207 5.9799449294805553 6.2352080941200256 8.9914215356111509 5.4811850786209089 20.711439907550812 6.2043548673391333 5.4988528043031693 4.8199147284030914 14.655714899301527
leaf_count=127 32 20 63 84 21 27 26 39 23 99 26 24 21 59
internal_value=0 0.105189 -0.0883567 0.142149 -0.0246899 0.0265485 -0.049812 0.0642358 0.0639885 -0.142383 0.119424 0.144978 -0.0294974 0.188397
internal_weight=0 68.2697 83.6587 55.125 38.403 25.2796 13.1447 21.1757 20.4924 45.2558 15.1958 10.98 9.51231 34.6327
internal_count=691 289 402 231 176 113 58 92 88 226 65 47 41 143
shrinkage=0.15


Tree=3
num_leaves=15
num_cat=0
split_feature=1 1 5 0 5 0 1 6 5 1 2 4 6 2
split_gain=46.4138 12.1173 11.0624 9.70681 7.65201 5.89952 4.81391 4.34241 4.20512 4.64634 3.91925 3.18089 3.10975 2.97281
threshold=123.50000000000001 154.50000000000003 26.450000000000003 6.5000000000000009 41.400000000000006 7.5000000000000009 99.500000000000014 0.74250000000000005 30.950000000000003 108.50000000000001 81.000000000000014 82.500000000000014 0.34250000000000008 73.000000000000014
decision_type=2 2 2 2 2 2 2 2 2 2 2 2 2 2
left_child=2 4 -1 8 5 7 -5 10 13 -10 11 -2 -3 -4
right_child=1 12 3 6 -6 -7 -8 -9 9 -11 -12 -13 -14 -15
leaf_value=-0.17870953984541843 0.056996527416103199 0.10194965498575488 -0.19004003389874222 -0.066228935242204121 0.20823534714859418 0.13588989745829241 0.13083498502209426 0.11489940345439727 -0.098601525483384647 0.014550202805064295 -0.14237249068295069 -0.069834011207668856 0.2064890686536642 -0.040823405120082222
leaf_weight=19.171863958239555 8.956095978617677 10.328147143125536 10.278138592839239 4.0986967533826819 5.179801106452941 7.0926747620105735 8.7292721569538099 4.7202070951461783 18.888226076960564 14.382942587137221 6.4651177376508704 8.8414998650550825 16.844415202736855 4.2447773069143286
leaf_count=109 39 42 55 20 21 30 37 20 94 66 29 40 68 21
internal_value=0 0.0889768 -0.0793949 -0.0479864 0.0377493 0.0132706 0.0678706 -0.0167366 -0.0790825 -0.0496867 -0.0423459 -0.00601042 0.166754 -0.146427
internal_weight=0 68.428 79.7939 60.6221 41.2554 36.0756 12.828 28.9829 47.7941 33.2712 24.2627 17.7976 27.1726 14.5229
internal_count=691 289 402 293 179 158 57 128 236 160 108 79 110 76
shrinkage=0.15


Tree=4
num_leaves=15
num_cat=0
split_feature=1 7 5 7 1 6 6 5 7 6 0 0 1 7
split_gain=34.6978 11.6584 9.68219 9.46402 5.53831 7.88767 5.50343 5.45803 4.52514 3.15322 2.75971 5.38154 2.64994 2.59591
threshold=123.50000000000001 24.500000000000004 26.850000000000005 30.500000000000004 106.50000000000001 0.29250000000000004 0.31000000000000005 32.850000000000001 40.500000000000007 0.6735000000000001 3.5000000000000004 6.5000000000000009 150.50000000000003 50.500000000000007
decision_type=2 2 2 2 2 2 2 2 2 2 2 2 2 2
left_child=2 7 -1 9 5 -5 8 -2 -3 -4 -8 -12 -13 -10
right_child=1 6 3 4 -6 -7 10 -9 13 -11 11 12 -14 -15
leaf_value=-0.16538026159146121 -0.14965957698665217 -0.032026455529839869 -0.11966176328886813 -0.17752451497302943 0.10746571449796401 0.048807022140190691 0.19609455978841867 0.046578953532371986 0.18114028970062163 -0.00120356115886649 0.014974896028248939 0.085724476100572586 0.22485573284958441 0.03698298946139484
leaf_weight=18.604023456573486 6.4799779802560789 9.4049548208713549 25.307100385427479 5.4211641997098949 10.929638504981993 9.5988435596227628 13.338442474603651 6.2790580093860626 5.6146467328071576 6.3182925283908835 8.3196581602096575 5.09981422126293 7.7774737030267715 5.6277512311935425
leaf_count=116 32 41 136 28 46 45 55 26 23 31 35 21 32 24
internal_value=0 0.076136 -0.0713053 -0.0409072 0.0262301 -0.0328827 0.106014 -0.0530854 0.0447497 -0.0959955 0.142641 0.109005 0.169755 0.108978
internal_weight=0 67.9418 76.1791 57.575 25.9496 15.02 55.1827 12.759 20.6474 31.6254 34.5354 21.1969 12.8773 11.2424
internal_count=691 289 402 286 119 73 231 58 88 167 143 88 53 47
shrinkage=0.15


Tree=5
num_leaves=15
num_cat=0
split_feature=1 1 6 0 7 3 2 2 6 0 4 1 0 7
split_gain=26.7241 11.043 10.2507 8.73835 6.74877 6.75697 3.42685 5.72716 3.44347 2.94231 2.68394 4.92029 2.36861 2.25834
threshold=111.50000000000001 154.50000000000003 0.65750000000000008 2.5000000000000004 24.500000000000004 13.500000000000002 73.000000000000014 89.000000000000014 0.31750000000000006 6.5000000000000009 58.500000000000007 122.50000000000001 3.5000000000000004 35.500000000000007
decision_type=2 2 2 2 2 2 2 2 2 2 2 2 2 2
left_child=2 4 9 -4 5 -2 10 8 -8 13 11 -6 -12 -1
right_child=1 -3 3 -5 6 -7 7 -9 -10 -11 12 -13 -14 -15
leaf_value=-0.15715320945381137 0.085709707941277982 0.13069273199225717 -0.076559703440782348 0.1843863223760194 0.028324512345138934 -0.14600565878083557 -0.092028196794218323 0.14640632281964819 0.026544009388241734 -0.039705331150338953 0.11412883900619941 0.24246179390337463 -0.034857047592698046 -0.044662508939110952
leaf_weight=28.35545302927494 3.9965327978134146 26.170514941215515 6.6053400039672834 5.1298689246177673 4.4293103516101855 9.7138056904077512 9.9287409484386497 5.363923415541648 12.38469837605953 7.9744466841220847 4.4351964443922025 5.3069456666707993 5.2347601354122162 4.6779547035694113
leaf_count=179 21 110 35 24 22 49 45 23 53 40 20 22 23 25
internal_value=0 0.0492247 -0.0861067 0.0375089 0.0141544 -0.0784612 0.0411233 0.00723796 -0.0262167 -0.121482 0.089451 0.145044 0.0334764 -0.141223
internal_weight=0 86.9644 52.7431 11.7352 60.7939 13.7103 47.0836 27.6774 22.3134 41.0079 19.4062 9.73626 9.66996 33.0334
internal_count=691 388 303 59 278 70 208 121 98 244 87 44 43 204
shrinkage=0.15


Tree=6
num_leaves=15
num_cat=0
split_feature=1 5 1 7 6 7 7 7 6 2 7 5 4 7
split_gain=20.5824 10.4727 6.51641 6.89101 5.73723 5.27968 8.06814 5.20921 4.71039 5.07373 5.56138 3.54835 3.17971 2.92669
threshold=106.50000000000001 29.850000000000005 165.50000000000003 24.500000000000004 0.65750000000000008 27.500000000000004 56.500000000000007 41.500000000000007 0.73950000000000016 67.000000000000014 42.500000000000007 38.150000000000013 52.500000000000007 33.500000000000007
decision_type=2 2 2 2 2 2 2 2 2 2 2 2 2 2
left_child=4 5 3 12 11 -2 7 13 9 -5 -11 -1 -3 -7
right_child=1 2 -4 8 -6 6 -8 -9 -10 10 -12 -13 -14 -15
leaf_value=-0.14058291456900107 -0.1325750096336204 0.019509247122123829 0.16129112289935404 0.15389996300162001 0.019704740837957448 0.078443457720431625 -0.17429095771672373 0.1880906238018526 0.16690964263528327 -0.037164277122690388 0.10567889688919714 0.0037928263411147393 -0.14449573231003388 -0.086899367419619775
leaf_weight=27.601011455059052 9.4063612371683138 5.2617678940296155 13.497478246688841 7.5825260877609244 8.2521578967571241 4.8286151587963122 4.3301526606082907 4.7359855920076361 9.1504652351140958 16.873416423797611 9.6341235637664777 4.4473510682582846 5.3789051622152328 4.8063577264547348
leaf_count=183 59 25 59 33 41 23 20 20 39 74 40 25 27 23
internal_value=0 0.0360039 0.0680888 0.0447412 -0.091829 -0.0409093 0.00519712 0.0592792 0.0713517 0.045702 0.0147518 -0.120548 -0.063396 -0.00403698
internal_weight=0 95.4862 67.3787 53.8812 40.3005 28.1075 18.7011 14.371 43.2405 34.0901 26.5075 32.0484 10.6407 9.63497
internal_count=691 442 297 238 249 145 86 66 186 147 114 208 52 46
shrinkage=0.15


Tree=7
num_leaves=15
num_cat=0
split_feature=5 7 6 0 7 5 2 4 6 5 2 4 3 0
split_gain=13.4907 8.44286 5.15398 5.7127 5.22119 4.70717 4.15103 3.96604 3.39561 3.02571 3.80582 3.03236 6.17938 3.80047
threshold=29.850000000000005 27.500000000000004 0.49400000000000005 8.5000000000000018 30.500000000000004 41.900000000000006 59.000000000000007 78.500000000000014 0.55400000000000016 39.45000000000001 67.000000000000014 114.50000000000001 27.500000000000004 6.5000000000000009
decision_type=2 2 2 2 2 2 2 2 2 2 2 2 2 2
left_child=1 -1 4 8 5 6 -2 -3 -4 10 -6 12 13 -12
right_child=2 7 3 -5 9 -7 -8 -9 -10 -11 11 -13 -14 -15
leaf_value=-0.1495851213331344 0.064988268466464605 -0.047305222333778742 0.16965829941627841 0.21327959109158909 0.15087425684932701 0.089141071750958936 -0.1166076681017061 0.095744977348294916 0.02876980514459283 0.15721594105184897 0.12381801336536621 0.085078304298535828 -0.17677426286840109 -0.071190438811508383
leaf_weight=17.960844330489635 3.4596341699361863 18.865967288613323 4.5003810971975353 5.637296885251998 4.3044170290231767 4.3561073690652838 15.616977781057356 5.6717543154954901 26.593319669365883 4.4730831533670417 4.7410304397344607 5.9486832320690146 4.9852435886859885 4.2772399932146072
leaf_count=136 19 100 22 25 19 20 88 26 123 21 21 26 25 20
internal_value=0 -0.0714399 0.0313077 0.0743495 0.00099914 -0.0515482 -0.0836744 -0.01424 0.0491615 0.0438582 0.0229543 -0.00464272 -0.0427562 0.0313282
internal_weight=0 42.4986 88.8934 36.731 52.1624 23.4327 19.0766 24.5377 31.0937 28.7297 24.2566 19.9522 14.0035 9.01827
internal_count=691 262 429 170 259 127 107 126 145 132 111 92 66 41
shrinkage=0.15


Tree=8
num_leaves=15
num_cat=0
split_feature=1 5 7 6 5 1 3 7 7 1 4 6 5 6
split_gain=14.8418 8.11997 5.93747 5.3585 4.96884 2.90154 3.19928 2.99676 4.24676 3.79475 2.13675 2.78219 2.2925 2.11713
threshold=129.50000000000003 26.450000000000003 24.500000000000004 0.70700000000000018 29.950000000000003 99.500000000000014 26.500000000000004 30.500000000000004 44.500000000000007 121.50000000000001 325.50000000000006 0.29950000000000004 34.750000000000007 0.40750000000000003
decision_type=2 2 2 2 2 2 2 2 2 2 2 2 2 2
left_child=1 -1 -3 5 13 6 -4 -7 9 -9 11 12 -6 -2
right_child=4 2 3 -5 10 7 -8 8 -10 -11 -12 -13 -14 -15
leaf_value=-0.14551955701305347 0.026260741950827945 -0.1023648633766028 -0.18723517587006741 0.092941673142801121 -0.036894870604291745 -0.062768814474901138 -0.012906111142599378 0.16177841042297833 -0.063830555898241853 -0.01207550144076803 -0.0038770780344488474 0.13230821090318892 0.11127016816699171 -0.10158343051772276
leaf_weight=14.122095219790934 8.3919189274311048 15.064351715147493 4.4360039606690389 11.89314693212509 4.8197383433580381 10.261513471603395 5.0823474451899529 6.9914202988147753 5.974617362022399 4.7400561571121216 4.7416700571775428 22.786212429404259 4.5846864879131317 4.4653677046298972
leaf_count=118 39 101 29 52 21 53 33 31 27 20 21 104 20 22
internal_value=0 -0.0425065 -0.0199323 0.00521589 0.0621717 -0.0226168 -0.0941517 0.001729 0.0391085 0.0915334 0.0901307 0.103978 0.035336 -0.0181399
internal_weight=0 78.5656 64.4435 49.3791 49.7896 37.486 9.51835 27.9676 17.7061 11.7315 36.9323 32.1906 9.40442 12.8573
internal_count=691 464 346 245 227 193 62 131 78 51 166 145 41 61
shrinkage=0.15


Tree=9
num_leaves=15
num_cat=0
split_feature=1 1 0 5 5 5 6 4 1 7 6 1 1 2
split_gain=11.8958 7.47324 6.00977 4.69815 3.60664 3.37242 3.14 3.70646 2.7963 2.79404 2.77263 3.79727 3.95092 2.52403
threshold=99.500000000000014 165.50000000000003 6.5000000000000009 45.350000000000001 37.250000000000007 26.550000000000004 0.84800000000000009 20.000000000000004 127.50000000000001 42.500000000000007 0.25250000000000006 120.50000000000001 139.50000000000003 83.000000000000014
decision_type=2 2 2 2 2 2 2 2 2 2 2 2 2 2
left_child=4 2 3 5 9 -2 7 13 -9 -1 -4 -12 -13 -7
right_child=1 -3 10 -5 -6 6 -8 8 -10 -11 11 12 -14 -15
leaf_value=-0.15211508701547063 -0.11858161234510986 0.11822479217125255 -0.019232376843567146 0.13434985895722765 0.017418695888844763 0.043178862220299367 0.079693566043005634 -0.12059575734749274 -0.012780777469675474 0.01231945311895126 0.19385966485830289 -0.040177429928201218 0.137450690115302 -0.076238563343288171
leaf_weight=15.900382861495023 8.5773130431771261 14.984567299485205 6.0495111271739033 4.1030318439006797 4.8275075852870932 15.926252983510496 6.5907301455736151 12.640097573399546 9.466105602681635 2.7232430204749098 6.1134045198559788 5.7376934736967069 5.5357406884431839 5.3101841732859603
leaf_count=133 69 71 29 18 28 76 29 72 43 16 30 25 26 26
internal_value=0 0.0204642 0.00344033 -0.0208121 -0.0981211 -0.0316927 -0.0167674 -0.0314353 -0.0744283 -0.128071 0.0682342 0.0986671 0.0470456 0.0133185
internal_weight=0 101.035 86.0501 62.6137 23.4511 58.5107 49.9334 43.3426 22.1062 18.6236 23.4363 17.3868 11.2734 21.2364
internal_count=691 514 443 333 177 315 246 217 115 149 110 81 51 102
shrinkage=0.15


Tree=10
num_leaves=15
num_cat=0
split_feature=1 1 7 3 4 7 6 4 3 7 7 5 5 6
split_gain=9.51434 5.00348 4.15677 5.74656 3.65888 3.15318 3.84033 4.08726 4.66121 3.14124 3.18026 3.58245 5.21183 3.49724
threshold=106.50000000000001 165.50000000000003 24.500000000000004 1.0000000180025095e-35 155.50000000000003 25.500000000000004 0.29250000000000004 20.000000000000004 19.500000000000004 56.500000000000007 41.500000000000007 43.000000000000007 37.95000000000001 0.74250000000000005
decision_type=2 2 2 2 2 2 2 2 2 2 2 2 2 2
left_child=4 2 3 -2 5 -1 -7 8 -8 10 11 12 13 -4
right_child=1 -3 9 -5 -6 6 7 -9 -10 -11 -12 -13 -14 -15
leaf_value=-0.14716848752981174 0.096343752097550403 0.10486563821334374 -0.0031134147473156097 -0.11776565528921457 0.10052101265703285 -0.13843759170291922 -0.047473345111882809 -0.098111653645698335 0.19538676526899684 -0.086479762008511818 0.093235158903951024 0.1403074115337716 -0.14596093174113217 0.13651684921634644
leaf_weight=11.421634890139105 3.7930225059390059 14.407508939504622 23.264899179339412 10.999792098999022 2.6012648344039908 6.7681992724537876 3.4911259785294515 5.2647702917456627 3.6239573583006859 5.0864891782402983 15.843553587794302 4.3954425305128089 4.9382535964250556 4.8830931037664405
leaf_count=109 22 71 115 73 15 52 22 32 19 25 70 20 23 23
internal_value=0 0.024064 0.00816133 -0.0628659 -0.0702601 -0.0847923 -0.0475856 0.00208424 0.0762237 0.026149 0.0368923 0.013076 -0.00382639 0.0211095
internal_weight=0 87.6121 73.2045 14.7928 33.171 30.5697 19.1481 12.3799 7.11508 58.4117 53.3252 37.4817 33.0862 28.148
internal_count=691 442 371 95 249 234 125 73 41 276 251 181 161 138
shrinkage=0.15


Tree=11
num_leaves=15
num_cat=0
split_feature=1 3 1 6 7 3 2 6 7 7 6 3 6 3
split_gain=7.40487 5.18371 4.35413 2.9092 2.79249 6.07472 2.67827 2.64148 2.37641 3.67032 2.36144 2.31445 2.05032 2.47556
threshold=99.500000000000014 30.500000000000004 154.50000000000003 0.2195 28.500000000000004 1.0000000180025095e-35 69.000000000000014 0.53800000000000014 43.500000000000007 32.500000000000007 0.56700000000000006 34.500000000000007 0.27950000000000003 21.500000000000004
decision_type=2 2 2 2 2 2 2 2 2 2 2 2 2 2
left_child=1 -1 3 8 5 -5 7 -7 9 -2 -8 -3 -6 -14
right_child=2 11 -4 4 12 6 10 -9 -10 -11 -12 -13 13 -15
leaf_value=-0.13570074148335401 -0.083076175656209644 0.11453296667805038 0.074004334016812695 0.11588704823936044 0.098595785491803631 -0.086801217883544626 -0.058446949884731474 0.08053476296802084 -0.17468090119642013 0.10509320137711083 -0.22020243282982038 -0.0624692910893382 -0.03698465766258436 0.052939034929981782
leaf_weight=13.901109978556635 8.1783502474427205 3.2982414290308943 22.114681467413902 4.9601669982075718 9.2984829321503621 4.9434276074171084 4.3048415258526784 3.7195513099431992 3.2545336782932273 3.2628168463706961 3.8439563363790512 3.3508027717471123 11.345717221498491 17.532696634531021
leaf_count=133 59 22 110 26 44 36 27 24 16 16 22 22 55 79
internal_value=0 -0.0835982 0.0155449 -0.00177468 0.012887 -0.0299825 -0.07302 -0.0149536 -0.0615848 -0.0294136 -0.13475 0.0253322 0.0373351 0.0176099
internal_weight=0 20.5502 96.7592 74.6445 59.9488 21.7719 16.8118 8.66298 14.6957 11.4412 8.1488 6.64904 38.1769 28.8784
internal_count=691 177 514 404 313 135 109 60 91 75 49 44 178 134
shrinkage=0.15


Tree=12
num_leaves=15
num_cat=0
split_feature=5 1 7 3 5 1 6 7 5 1 3 2 7 5
split_gain=6.32232 3.87683 3.57147 4.30052 3.9301 3.27571 2.99986 2.98 2.51688 2.05618 2.45012 1.60928 2.53573 3.02337
threshold=26.450000000000003 167.50000000000003 24.500000000000004 9.0000000000000018 37.000000000000007 155.50000000000003 0.72150000000000014 54.500000000000007 39.050000000000004 99.500000000000014 26.500000000000004 81.000000000000014 42.500000000000007 33.000000000000007
decision_type=2 2 2 2 2 2 2 2 2 2 2 2 2 2
left_child=5 2 3 -2 -5 -1 7 9 -8 10 -4 12 13 -11
right_child=1 -3 6 4 -6 -7 8 -9 -10 11 -12 -13 -14 -15
leaf_value=-0.12076834680923808 0.099986577473836616 0.096477404499816746 -0.17230406449627964 -0.16082243438417579 0.0068147260862578031 0.052576809393975771 0.1120955302459067 -0.11797352911699989 -0.026103062631403239 0.072318076608356152 0.004931802590594731 -0.025257229229235751 0.11884100900423344 -0.031566455318267843
leaf_weight=13.212249875068666 3.03992532193661 10.981628790497778 2.8274830766022196 8.3474241867661458 5.0504207983613005 3.0119813531637183 11.198898389935492 4.4071559756994239 4.0328533649444571 11.98793136328459 4.6265760734677315 11.520022280514238 7.1552134007215491 13.292870678007601
leaf_count=134 16 60 27 77 29 13 53 21 20 56 33 54 33 65
internal_value=0 0.0124698 0.00192486 -0.061084 -0.0976303 -0.0885873 0.0165025 0.000401436 0.0755052 0.0105492 -0.0622975 0.0229025 0.040007 0.0176947
internal_weight=0 98.4684 87.4868 16.4378 13.3978 16.2242 71.049 55.8173 15.2318 51.4101 7.45406 43.956 32.436 25.2808
internal_count=691 544 484 122 106 147 362 289 73 268 60 208 154 121
shrinkage=0.15


Tree=13
num_leaves=15
num_cat=0
split_feature=5 0 2 0 4 6 5 7 4 4 7 2 5 6
split_gain=5.04823 2.75801 2.63446 2.65374 3.28883 2.83428 1.79411 1.85976 1.82874 3.76084 2.00528 6.60441 2.44958 1.6958
threshold=27.350000000000005 1.5000000000000002 51.000000000000007 6.5000000000000009 111.00000000000001 0.25250000000000006 29.850000000000005 31.500000000000004 36.500000000000007 88.500000000000014 30.500000000000004 77.000000000000014 35.95000000000001 0.34800000000000003
decision_type=2 2 2 2 2 2 2 2 2 2 2 2 2 2
left_child=1 -1 -2 6 5 -5 7 -4 10 -10 12 -12 -8 -7
right_child=2 -3 3 4 -6 13 8 -9 9 -11 11 -13 -14 -15
leaf_value=-0.16524679735243936 0.10421834496432683 -0.036898282537968785 -0.13949524640955999 -0.10080721098074866 0.12708122443288131 0.12625529186754245 -0.077545864084008556 -0.0081030235488781521 -0.1394723478472589 0.00030068424725904626 0.22322804280615779 -0.017225716672552831 0.057147844958219098 0.0055341332306241831
leaf_weight=5.2512000277638462 6.5463149584829798 13.327997326850889 4.5727462209761125 3.9793695434927967 7.9285391718149176 3.916828624904154 6.0078789591789263 5.1577065289020538 5.2451808452606228 24.860022030770779 4.3041034042835218 6.3795625120401382 6.145441435277462 7.8960897773504257
leaf_count=59 38 110 40 20 41 20 39 26 39 133 21 31 33 41
internal_value=0 -0.0731745 0.0124742 0.00552243 0.0482545 0.0086795 -0.0106511 -0.0698497 0.000229192 -0.0240517 0.0322379 0.0796453 -0.00943672 0.0455618
internal_weight=0 18.5792 92.9398 86.3935 23.7208 15.7923 62.6726 9.73045 52.9422 30.1052 22.837 10.6837 12.1533 11.8129
internal_count=691 169 522 484 122 81 362 66 296 172 124 52 72 61
shrinkage=0.15


end of trees

feature_importances:
Glucose=39
BMI=36
Age=36
DiabetesPedigreeFunction=34
Pregnancies=14
BloodPressure=13
SkinThickness=12
Insulin=12

parameters:
[boosting: gbdt]
[objective: binary]
[metric: binary_logloss]
[tree_learner: serial]
[device_type: cpu]
[data: ]
[valid: ]
[num_iterations: 10000]
[learning_rate: 0.15]
[num_leaves: 15]
[num_threads: 8]
[force_col_wise: 0]
[force_row_wise: 0]
[histogram_pool_size: -1]
[max_depth: -1]
[min_data_in_leaf: 20]
[min_sum_hessian_in_leaf: 0.001]
[bagging_fraction: 1]
[pos_bagging_fraction: 1]
[neg_bagging_fraction: 1]
[bagging_freq: 0]
[bagging_seed: 24115]
[feature_fraction: 0.9]
[feature_fraction_bynode: 1]
[feature_fraction_seed: 20572]
[extra_trees: 0]
[extra_seed: 23394]
[early_stopping_round: 50]
[first_metric_only: 0]
[max_delta_step: 0]
[lambda_l1: 0]
[lambda_l2: 0]
[min_gain_to_split: 0]
[drop_rate: 0.1]
[max_drop: 50]
[skip_drop: 0.5]
[xgboost_dart_mode: 0]
[uniform_drop: 0]
[drop_seed: 31232]
[top_rate: 0.2]
[other_rate: 0.1]
[min_data_per_group: 100]
[max_cat_threshold: 32]
[cat_l2: 10]
[cat_smooth: 10]
[max_cat_to_onehot: 4]
[top_k: 20]
[monotone_constraints: ]
[monotone_constraints_method: basic]
[monotone_penalty: 0]
[feature_contri: ]
[forcedsplits_filename: ]
[refit_decay_rate: 0.9]
[cegb_tradeoff: 1]
[cegb_penalty_split: 0]
[cegb_penalty_feature_lazy: ]
[cegb_penalty_feature_coupled: ]
[path_smooth: 0]
[interaction_constraints: ]
[verbosity: -1]
[saved_feature_importance_type: 0]
[max_bin: 255]
[max_bin_by_feature: ]
[min_data_in_bin: 3]
[bin_construct_sample_cnt: 200000]
[data_random_seed: 11193]
[is_enable_sparse: 1]
[enable_bundle: 1]
[use_missing: 1]
[zero_as_missing: 0]
[feature_pre_filter: 1]
[pre_partition: 0]
[two_round: 0]
[header: 0]
[label_column: ]
[weight_column: ]
[group_column: ]
[ignore_column: ]
[categorical_feature: ]
[forcedbins_filename: ]
[objective_seed: 17841]
[num_class: 1]
[is_unbalance: 0]
[scale_pos_weight: 1]
[sigmoid: 1]
[boost_from_average: 1]
[reg_sqrt: 0]
[alpha: 0.9]
[fair_c: 1]
[poisson_max_delta_step: 0.7]
[tweedie_variance_power: 1.5]
[lambdarank_truncation_level: 20]
[lambdarank_norm: 1]
[label_gain: ]
[eval_at: ]
[multi_error_top_k: 1]
[auc_mu_weights: ]
[num_machines: 1]
[local_listen_port: 12400]
[time_out: 120]
[machine_list_filename: ]
[machines: ]
[gpu_platform_id: -1]
[gpu_device_id: -1]
[gpu_use_dp: 0]

end of parameters

pandas_categorical:[]
