tree
version=v3
num_class=1
num_tree_per_iteration=1
label_index=0
max_feature_idx=7
objective=binary sigmoid:1
feature_names=Pregnancies Glucose BloodPressure SkinThickness Insulin BMI DiabetesPedigreeFunction Age
feature_infos=[0:17] [0:199] [0:122] [0:99] [0:846] [0:67.099999999999994] [0.078:2.4199999999999999] [21:81]
tree_sizes=1651 1643 1646 1645 1649 1653 1655 1659 1638 1652 1638 1667 1648 1661 1661 1655 1656 1665 1659

Tree=0
num_leaves=15
num_cat=0
split_feature=1 5 1 7 1 6 1 5 7 7 7 6 6 6
split_gain=118.877 37.3986 29.3313 21.1557 13.5049 9.21884 7.50535 6.6854 5.90906 5.38875 5.01014 4.62969 3.86443 3.7631
threshold=143.50000000000003 27.350000000000005 99.500000000000014 30.500000000000004 154.50000000000003 0.52750000000000019 130.50000000000003 29.950000000000003 30.500000000000004 44.500000000000007 25.500000000000004 0.50800000000000012 0.49550000000000005 0.26150000000000007
decision_type=2 2 2 2 2 2 2 2 2 2 2 2 2 2
left_child=1 -1 10 6 8 9 11 -6 -2 13 -3 -4 -12 -5
right_child=4 2 3 5 7 -7 -8 -9 -10 -11 12 -13 -14 -15
leaf_value=-0.84222966889489648 -0.67503024444387361 -0.86237417786489923 -0.7737383383968871 -0.42241810196003915 -0.50883804544135092 -0.38379820047754792 -0.52878110932165345 -0.30679314732817131 -0.45344064577384324 -0.68832562036407541 -0.78923411452765846 -0.64323695419991267 -0.62121562762400906 -0.59747388490936293
leaf_weight=37.230988293886185 4.5128470659255964 12.410329431295397 14.892395317554479 5.641058832407003 4.5128470659256008 9.4769788384437543 5.6410588324069968 20.082169443368912 6.7692705988883972 5.6410588324069968 8.8000517785549146 10.379548251628874 4.7384894192218772 5.4154164791107178
leaf_count=165 20 55 66 25 20 42 25 89 30 25 39 46 21 24
internal_value=-0.645827 -0.717311 -0.661301 -0.601196 -0.406196 -0.501961 -0.68522 -0.343866 -0.542076 -0.569027 -0.793533 -0.72014 -0.730428 -0.50816
internal_weight=0 120.267 83.0364 57.0875 35.8771 26.1745 30.913 24.595 11.2821 16.6975 25.9489 25.2719 13.5385 11.0565
internal_count=692 533 368 253 159 116 137 109 50 74 115 112 60 49
shrinkage=1


Tree=1
num_leaves=15
num_cat=0
split_feature=1 5 5 1 0 2 1 6 1 5 6 0 5 5
split_gain=85.7861 30.3839 20.7132 15.968 14.0409 8.40228 9.92852 7.56829 7.48403 7.07074 5.10518 4.7271 4.48252 5.16501
threshold=127.50000000000001 29.950000000000003 26.450000000000003 99.500000000000014 3.5000000000000004 60.500000000000007 155.50000000000003 0.51300000000000012 145.50000000000003 34.050000000000004 0.28450000000000003 2.5000000000000004 31.250000000000004 34.750000000000007
decision_type=2 2 2 2 2 2 2 2 2 2 2 2 2 2
left_child=2 8 -1 -4 12 -3 10 9 -2 -6 -7 -12 -5 -14
right_child=1 5 3 4 7 6 -8 -9 -10 -11 11 -13 13 -15
leaf_value=-0.20311488202298658 -0.13454871759337117 0.38241205992791327 -0.13826452337682155 -0.16500861628314681 0.13556574839806027 -0.0034925693649989985 0.25813491144146672 0.24039880897709764 0.073217742593548782 -0.080756084210054216 0.048007832963038587 0.22967630142816378 0.081014443524931506 -0.095682534761969418
leaf_weight=26.092702388763428 8.4870400726795179 5.2312729507684699 26.314252063632011 7.5042936205863979 7.7309822887182253 6.4534241557121304 18.804049894213676 6.1598489284515372 7.219023883342742 6.0683434903621674 5.2919860333204261 8.2416591644287092 6.2839863300323477 9.1302056610584241
leaf_count=124 39 22 123 34 34 28 77 26 31 27 23 35 28 41
internal_value=0 0.14006 -0.0892285 -0.0462812 0.0101694 0.203962 0.179897 0.10215 -0.0390524 0.0404368 0.10629 0.158639 -0.069934 -0.0236475
internal_weight=0 59.7285 95.2846 69.1919 42.8777 44.0224 38.7911 19.9592 15.7061 13.7993 19.9871 13.5336 22.9185 15.4142
internal_count=692 255 437 313 190 185 163 87 70 61 86 58 103 69
shrinkage=0.15


Tree=2
num_leaves=15
num_cat=0
split_feature=1 5 7 5 1 1 5 7 6 0 0 2 6 1
split_gain=63.0065 18.7691 16.6542 12.0639 8.42049 7.35912 6.63396 6.01551 5.85896 6.22182 5.79431 4.95085 4.61185 2.98027
threshold=123.50000000000001 29.950000000000003 28.500000000000004 26.450000000000003 99.500000000000014 155.50000000000003 30.950000000000003 24.500000000000004 0.23850000000000002 6.5000000000000009 1.5000000000000002 73.000000000000014 0.4215000000000001 111.50000000000001
decision_type=2 2 2 2 2 2 2 2 2 2 2 2 2 2
left_child=2 10 6 -4 -5 7 -1 -3 -6 13 -2 -12 -9 -10
right_child=1 5 3 4 8 -7 -8 12 9 -11 11 -13 -14 -15
leaf_value=-0.19899493436465679 -0.15995327262631229 -0.032308700205248633 -0.20273559626907342 -0.085104876467811674 -0.071469435621011934 0.22098570524963274 -0.084760112361469894 0.069835445610189187 -0.04256573024336862 0.23624206163191491 0.13318320957582294 -0.051577089987925269 0.20590551501344057 0.12262484592379314
leaf_weight=25.80751271545887 5.0607098340988186 5.7841351479291943 6.3511013388633719 10.573433250188829 4.5403558909893063 21.235753491520882 20.543228536844254 10.984865620732309 4.5538623332977313 6.4153605848550788 5.7685366272926313 7.5135819464921951 11.442225515842436 5.3376469761133194
leaf_count=132 24 25 33 51 20 85 98 47 20 27 26 34 47 23
internal_value=0 0.106216 -0.0881154 -0.0141819 0.0239308 0.154288 -0.148365 0.104082 0.0792322 0.121192 -0.0233734 0.0286659 0.139258 0.0465743
internal_weight=0 67.7898 84.1225 37.7718 31.4207 49.447 46.3507 28.2112 20.8472 16.3069 18.3428 13.2821 22.4271 9.89151
internal_count=692 288 404 174 141 204 230 119 90 70 84 60 94 43
shrinkage=0.15


Tree=3
num_leaves=15
num_cat=0
split_feature=1 5 5 0 1 1 5 6 6 2 0 2 5 5
split_gain=46.9135 13.6945 13.476 9.74488 6.03407 5.61669 5.99914 4.78424 4.71429 4.65796 4.49191 3.45614 2.8175 2.70791
threshold=123.50000000000001 26.450000000000003 29.950000000000003 6.5000000000000009 108.50000000000001 155.50000000000003 41.900000000000006 0.51800000000000013 0.40800000000000008 79.000000000000014 1.5000000000000002 73.000000000000014 34.650000000000013 31.150000000000002
decision_type=2 2 2 2 2 2 2 2 2 2 2 2 2 2
left_child=1 -1 10 4 9 6 7 -4 -5 -3 -2 -12 -9 -6
right_child=2 3 5 8 13 -7 -8 12 -10 -11 11 -13 -14 -15
leaf_value=-0.18578688035942825 -0.1459353248140256 -0.14445547249527901 -0.0081104396005293716 -0.0050211738667198828 -0.10969434210461647 0.1894328842855931 0.23568501657108487 0.21242103409715068 0.18165618663447755 0.0015290656870477805 0.10869742068837948 -0.044632008761015272 0.059634524128514881 0.029988498202818105
leaf_weight=20.304980725049973 4.7406988143920925 24.034842759370807 12.487094655632978 7.1002432107925397 4.0996786355972317 21.064439013600349 5.0468151718378058 4.8898422718048078 5.3277340978384018 6.1827816665172568 5.9871218651533109 7.3908814191818237 6.1076671481132507 13.103730782866476
leaf_count=117 24 123 53 32 20 85 21 20 23 30 26 34 25 59
internal_value=0 -0.079341 0.090239 -0.0432271 -0.0742131 0.130685 0.0873113 0.055426 0.0750053 -0.114586 -0.0204717 0.0239882 0.127568 -0.00329878
internal_weight=0 80.154 67.7146 59.849 47.421 49.5959 28.5314 23.4846 12.428 30.2176 18.1187 13.378 10.9975 17.2034
internal_count=692 404 288 287 232 204 119 98 55 153 84 60 45 79
shrinkage=0.15


Tree=4
num_leaves=15
num_cat=0
split_feature=1 5 1 7 5 4 4 7 6 5 4 5 0 4
split_gain=35.1533 12.0076 10.7503 10.0316 9.70422 9.43162 6.85374 5.73355 4.84341 5.18323 4.45884 4.01069 3.22615 2.61775
threshold=123.50000000000001 26.450000000000003 165.50000000000003 28.500000000000004 30.150000000000002 144.50000000000003 41.500000000000007 30.500000000000004 0.60600000000000009 32.45000000000001 195.00000000000003 30.950000000000003 1.5000000000000002 102.50000000000001
decision_type=2 2 2 2 2 2 2 2 2 2 2 2 2 2
left_child=1 -1 4 11 12 6 8 10 9 -5 -6 -3 -2 -13
right_child=2 3 -4 5 7 -7 -8 -9 -10 -11 -12 13 -14 -15
leaf_value=-0.17761988495159478 -0.16728897693688527 -0.19220627306305119 0.1792296996321644 0.072901302558811901 0.075602638034695982 0.21220417661642157 -0.15191606610874361 0.14135508369549321 0.16163520457477634 -0.10278240754695217 -0.09859726556554789 -0.03199016565108935 -0.014151573778765969 -0.1551439384200628
leaf_weight=18.216737508773804 4.2349783629178992 8.1798514276742953 17.323629841208458 7.7066321223974317 9.8410425335168821 4.8630525767803183 6.2768571376800528 19.143090903759003 4.6626947969198218 7.4130893498659134 4.9785621464252463 13.759281039237978 11.50218805670738 5.4104811549186698
leaf_count=117 23 48 72 35 41 21 30 79 20 35 21 71 52 27
internal_value=0 -0.0713242 0.077477 -0.0380944 0.0420096 0.0204366 -0.0153501 0.0871282 0.0279816 -0.0132351 0.0170812 -0.104271 -0.0553619 -0.0667491
internal_weight=0 76.4887 67.0235 58.2719 49.6999 30.9223 26.0593 33.9627 19.7824 15.1197 14.8196 27.3496 15.7372 19.1698
internal_count=692 404 288 287 216 141 120 141 90 70 62 146 75 98
shrinkage=0.15


Tree=5
num_leaves=15
num_cat=0
split_feature=1 1 7 6 6 7 7 3 3 3 6 2 2 3
split_gain=26.8467 13.2288 8.30727 6.26986 5.03931 3.33448 7.81567 3.21231 3.31699 3.06548 2.7598 2.68446 2.29436 2.33932
threshold=106.50000000000001 154.50000000000003 24.500000000000004 0.70700000000000018 0.84800000000000009 37.500000000000007 54.500000000000007 13.500000000000002 34.500000000000007 30.500000000000004 0.31000000000000005 77.000000000000014 64.500000000000014 29.500000000000004
decision_type=2 2 2 2 2 2 2 2 2 2 2 2 2 2
left_child=3 2 7 9 5 12 -7 -2 -9 -1 -3 -12 -4 -14
right_child=1 10 4 -5 -6 6 -8 8 -10 -11 11 -13 13 -15
leaf_value=-0.15012861859149712 0.014851025971193652 0.063358782046743403 0.05746047488139798 0.037157812033129144 0.15974855096489041 0.12832868079890833 -0.082038037911672329 -0.1840801670807051 -0.016251644502006887 -0.054593898974557853 0.21633051012386642 0.095499404694323095 -0.089483367014351986 0.015446784180737137
leaf_weight=26.664084821939468 5.2715165615081814 8.2199838906526583 7.3198713958263424 6.4486993700265876 6.7004008442163459 13.810063406825067 5.5789939165115348 7.6744116693735105 4.0469470173120499 10.54614746570587 10.533843174576761 6.8123914897441855 10.390141263604166 8.8543366789817792
leaf_count=165 29 35 35 34 29 59 27 43 18 56 45 29 49 39
internal_value=0 0.0426679 0.00879234 -0.0993881 0.0382222 0.0205027 0.0677979 -0.0823986 -0.126135 -0.123052 0.134951 0.168876 -0.0140177 -0.0412053
internal_weight=0 95.2129 69.6467 43.6589 52.6538 45.9534 19.3891 16.9929 11.7214 37.2102 25.5662 17.3462 26.5643 19.2445
internal_count=692 437 328 255 238 209 86 90 61 221 109 74 123 88
shrinkage=0.15


Tree=6
num_leaves=15
num_cat=0
split_feature=1 5 7 5 6 2 7 1 1 1 6 5 5 6
split_gain=21.1202 12.3381 10.6134 6.64773 6.16376 4.96007 3.38085 4.99581 3.21138 3.10908 3.0129 4.52133 6.03448 5.28981
threshold=130.50000000000003 26.250000000000004 25.500000000000004 29.950000000000003 0.80650000000000011 60.500000000000007 37.500000000000007 155.50000000000003 94.500000000000014 145.50000000000003 0.20050000000000004 38.750000000000007 35.150000000000013 0.26750000000000007
decision_type=2 2 2 2 2 2 2 2 2 2 2 2 2 2
left_child=1 -1 8 9 10 -5 7 -7 -3 -2 -4 12 13 -12
right_child=3 2 4 5 -6 6 -8 -9 -10 -11 11 -13 -14 -15
leaf_value=-0.16250977654314322 -0.10502098811160319 -0.18450943210249873 -0.099531916413766852 0.25078008539102797 0.13906915027915986 -0.034715485898783219 0.13655494838460078 0.11919629146305388 -0.063077375620995663 0.043788902471444416 0.16246593062000123 0.1548340931766396 -0.14315555319270318 -0.014911250646608268
leaf_weight=17.078017219901085 5.549939498305319 7.6302121281623867 6.2172428518533698 4.5705406814813605 8.2614367604255659 9.5125031471252459 15.456260383129118 9.4679648727178556 13.695144742727278 7.332863837480545 5.0778588056564429 4.4452956765890113 5.8333068639039984 14.833995774388312
leaf_count=127 29 51 31 20 36 40 66 42 76 31 23 21 29 70
internal_value=0 -0.0488724 -0.0194653 0.0731042 0.0220979 0.103959 0.0844721 0.0420598 -0.106526 -0.0203187 -0.00444454 0.0151372 -0.00898362 0.0303229
internal_weight=0 83.0725 65.9945 51.8901 44.6691 39.0073 34.4367 18.9805 21.3254 12.8828 36.4077 30.1905 25.7452 19.9119
internal_count=692 464 337 228 210 168 148 82 127 60 174 143 122 93
shrinkage=0.15


Tree=7
num_leaves=15
num_cat=0
split_feature=5 0 6 7 3 5 6 7 5 0 6 2 7 3
split_gain=12.5995 7.14913 5.3159 5.15232 4.09531 4.02898 5.66415 2.61107 3.01259 2.50166 2.50048 3.50613 2.4612 3.14159
threshold=27.850000000000005 6.5000000000000009 0.46350000000000002 26.500000000000004 14.500000000000002 30.950000000000003 0.19300000000000003 55.500000000000007 24.750000000000004 8.5000000000000018 0.38050000000000006 75.500000000000014 23.500000000000004 34.500000000000007
decision_type=2 2 2 2 2 2 2 2 2 2 2 2 2 2
left_child=3 4 -3 -1 10 -6 -7 8 -5 -4 11 -2 13 -8
right_child=1 2 9 7 5 6 12 -9 -10 -11 -12 -13 -14 -15
leaf_value=-0.15714920398412735 0.18358676240888208 0.030104555013367833 0.099082089603669404 -0.098534120809090894 -0.10951421324031999 -0.17472205901122553 -0.14645895460432182 -0.14059208204480267 0.049552533524400998 0.23986937434924965 0.00043805768510044897 0.013408852025311606 0.032797806871405218 0.039005322448840647
leaf_weight=13.123665057122709 6.0242773145437258 13.597057372331621 5.7081815600395185 4.7352245301008251 9.4936195313930494 3.9008424878120413 4.3509421050548536 3.9334583282470694 8.9013643488287908 5.6512040048837662 9.1300148144364339 4.9723009318113327 32.858026936650276 3.8943260759115219
leaf_count=105 28 62 26 35 55 22 25 22 47 25 43 23 154 20
internal_value=0 0.0238821 0.0933812 -0.0860399 0.000639692 -0.0207149 -0.00198264 -0.0329259 -0.00186968 0.169123 0.0584624 0.106638 0.0144109 -0.0588622
internal_weight=0 99.5808 24.9564 30.6937 74.6244 54.4978 45.0041 17.57 13.6366 11.3594 20.1266 10.9966 41.1033 8.24527
internal_count=692 483 113 209 370 276 221 104 82 51 94 51 199 45
shrinkage=0.15


Tree=8
num_leaves=15
num_cat=0
split_feature=1 1 6 7 4 6 6 1 7 5 4 3 5 1
split_gain=15.3915 7.8302 5.67382 4.14902 5.28768 5.28259 4.41228 4.19406 3.85305 3.82318 3.66542 4.06947 3.54363 3.22693
threshold=103.50000000000001 166.50000000000003 0.2185 27.500000000000004 195.00000000000003 0.24050000000000002 0.31450000000000006 124.50000000000001 25.500000000000004 29.400000000000002 87.500000000000014 30.500000000000004 25.450000000000003 119.50000000000001
decision_type=2 2 2 2 2 2 2 2 2 2 2 2 2 2
left_child=8 2 9 4 6 -5 -4 -8 -1 -2 11 -10 -7 -14
right_child=1 -3 3 5 -6 12 7 -9 10 -11 -12 -13 13 -15
leaf_value=-0.1534294086791281 -0.16927142892107616 0.12937186611965809 -0.12017115768427186 0.23294124699711383 -0.17573941670605892 -0.12608704926371844 -0.033549283109864041 0.1366093037460365 -0.1360590592687049 -0.014837172270910023 0.082633342910596749 0.026772245202772514 0.12190946479393792 0.024478912632758743
leaf_weight=13.21655525267124 5.676367111504077 14.659538403153418 4.2603027597069802 3.5096839964389792 4.1704828813672057 2.6657798588275901 6.2198617532849294 6.8469951525330544 10.205528989434244 9.8925277292728406 3.850929617881774 5.2196079641580573 10.812004320323465 26.141756765544415
leaf_count=111 38 69 25 16 20 20 38 32 67 47 20 27 47 115
internal_value=0 0.0285714 0.0101454 0.0297283 -0.0241046 0.0565611 0.0123924 0.0556133 -0.0910486 -0.0711434 -0.0482774 -0.0809597 0.0409365 0.0529853
internal_weight=0 94.8553 80.1958 64.6269 21.4976 43.1292 17.3272 13.0669 32.4926 15.5689 19.2761 15.4251 39.6195 36.9538
internal_count=692 467 398 313 115 198 95 70 225 85 114 94 182 162
shrinkage=0.15


Tree=9
num_leaves=15
num_cat=0
split_feature=1 1 5 7 7 7 4 6 7 2 0 4 4 6
split_gain=11.9806 5.70248 4.31187 3.82897 7.6103 3.8238 3.40957 3.3412 4.39517 4.21241 4.44404 3.96096 2.71663 3.95201
threshold=106.50000000000001 166.50000000000003 30.150000000000002 54.500000000000007 41.500000000000007 25.500000000000004 87.500000000000014 0.73950000000000016 34.500000000000007 71.000000000000014 1.5000000000000002 50.500000000000007 20.500000000000004 0.2950000000000001
decision_type=2 2 2 2 2 2 2 2 2 2 2 2 2 2
left_child=5 2 3 4 -2 -1 12 8 9 10 -4 -11 13 -7
right_child=1 -3 7 -5 -6 6 -8 -9 -10 11 -12 -13 -14 -15
leaf_value=-0.13944275797122324 -0.058792546889751746 0.11560796536148271 0.15018626025898058 -0.17605732927139514 0.17316615170058272 -0.12106699592643426 0.074213306377788973 0.11779981795425082 0.078100136594795297 0.025410148577430031 -0.041184496898096695 -0.14715686064333566 -0.1630495311310447 0.04526061792913675
leaf_weight=13.155062168836592 16.613345369696624 13.998725935816763 4.950995124876501 3.9241642355918875 3.9365456476807585 5.9982307478785568 4.8170695453882209 9.2852977365255338 16.227459222078323 4.8098928034305555 6.0871015414595604 7.9215073063969612 4.9055787399411193 6.9249993339180946
leaf_count=121 104 69 23 23 18 39 24 43 69 22 29 37 33 38
internal_value=0 0.0278387 0.0111804 -0.0402852 -0.0143584 -0.0751237 -0.0377605 0.0367387 0.0179204 -0.0231644 0.0446524 -0.0819615 -0.0680141 -0.0319392
internal_weight=0 87.755 73.7563 24.4741 20.5499 35.8009 22.6459 49.2823 39.997 23.7695 11.0381 12.7314 17.8288 12.9232
internal_count=692 437 368 145 122 255 134 223 180 111 52 59 110 77
shrinkage=0.15


Tree=10
num_leaves=15
num_cat=0
split_feature=1 5 2 1 2 6 7 2 4 7 7 4 6 4
split_gain=9.3686 6.67791 4.42439 4.25648 4.50076 3.93331 3.1445 5.48139 2.9718 2.85275 2.46099 1.93459 1.76369 2.23975
threshold=123.50000000000001 26.450000000000003 54.500000000000007 165.50000000000003 64.500000000000014 0.2185 41.500000000000007 73.000000000000014 178.00000000000003 30.500000000000004 33.500000000000007 131.00000000000003 0.68950000000000011 36.500000000000007
decision_type=2 2 2 2 2 2 2 2 2 2 2 2 2 2
left_child=1 -1 -2 4 -4 -6 7 -7 -9 12 -11 -5 13 -3
right_child=2 9 3 11 5 6 -8 8 -10 10 -12 -13 -14 -15
leaf_value=-0.15279546852862408 0.17853764697893731 -0.020886965029371991 -0.12089615641654702 0.046718938883696159 -0.082434427546526759 0.13637939050955861 0.11643434598413029 0.0087716722863682029 -0.13979830445036695 0.10369916565076723 -0.010009948898464844 0.16220399488559642 0.025470729972697694 -0.12052259811215287
leaf_weight=10.434261143207548 4.7852584421634665 9.2850781008601242 5.5617177858948699 6.7165296971797925 6.4172561764717093 5.7368238419294419 9.8347620815038663 9.7308601438999158 4.398604378104209 5.5310639441013363 18.972192093729973 6.3489321321249008 4.821976773440837 11.199285730719565
leaf_count=117 24 62 28 34 31 26 47 44 21 27 91 33 26 81
internal_value=0 -0.0436814 0.0402228 0.0281328 0.0047153 0.0240577 0.0470666 0.0127262 -0.0374792 -0.0208239 0.0156573 0.102837 -0.0561474 -0.0753601
internal_weight=0 60.2439 59.5307 54.7455 41.68 36.1183 29.7011 19.8663 14.1295 49.8096 24.5033 13.0655 25.3063 20.4844
internal_count=692 404 288 264 197 169 138 91 65 287 118 67 169 143
shrinkage=0.15


Tree=11
num_leaves=15
num_cat=0
split_feature=1 1 3 7 3 2 0 3 2 4 2 6 2 6
split_gain=8.05911 4.0734 3.57642 2.9238 4.32667 2.49337 3.14652 2.39961 4.00259 5.71926 3.14788 2.37366 2.10882 2.04979
threshold=99.500000000000014 154.50000000000003 30.500000000000004 28.500000000000004 1.0000000180025095e-35 69.000000000000014 1.0000000180025095e-35 17.500000000000004 77.000000000000014 125.50000000000001 77.000000000000014 0.56250000000000011 71.000000000000014 0.4215000000000001
decision_type=2 2 2 2 2 2 2 2 2 2 2 2 2 2
left_child=2 3 -1 4 -2 6 -6 10 12 -10 -5 -7 -9 -8
right_child=1 -3 -4 7 5 11 13 8 9 -11 -12 -13 -14 -15
leaf_value=-0.12716733359463581 0.06667459672611549 0.074860075729932557 0.0060225014142381832 0.040556276878721362 0.10878174259591461 -0.065495905095672186 -0.15167837802450396 0.050939907059463378 0.017192290628957965 0.23396886177125861 -0.079230163386104863 -0.21310104725796308 -0.067114599027986055 -0.0066701506210546154
leaf_weight=14.554715290665628 6.9606503918767002 21.100641533732414 6.590045526623725 10.708650544285776 3.0661648958921459 6.3042245358228666 3.7605833038687688 8.2384812310338038 5.6042705774307233 5.3550153374671936 9.1569809392094594 4.0108861401677132 5.8023016527295104 5.2629218026995659
leaf_count=140 41 109 42 56 21 41 28 38 26 23 45 23 28 31
internal_value=0 0.0167039 -0.085657 0.000172597 -0.0366243 -0.0687168 -0.0224953 0.0242568 0.0551801 0.123115 -0.0146588 -0.12289 0.00215432 -0.0671029
internal_weight=0 95.3318 21.1448 74.2311 29.3654 22.4048 12.0897 44.8657 25.0001 10.9593 19.8656 10.3151 14.0408 9.02351
internal_count=692 510 182 401 185 144 80 216 115 49 101 64 66 59
shrinkage=0.15


Tree=12
num_leaves=15
num_cat=0
split_feature=1 5 7 3 7 7 7 1 5 5 7 5 1 0
split_gain=6.22011 4.02883 3.72523 3.03452 2.55679 2.81495 2.69559 3.04844 3.7626 3.29181 2.3688 2.31611 2.14377 3.07941
threshold=99.500000000000014 41.900000000000006 24.500000000000004 30.500000000000004 25.500000000000004 27.500000000000004 59.500000000000007 155.50000000000003 26.250000000000004 34.650000000000013 34.500000000000007 31.750000000000004 121.50000000000001 5.5000000000000009
decision_type=2 2 2 2 2 2 2 2 2 2 2 2 2 2
left_child=3 2 11 -1 -4 -6 7 8 -7 12 -11 -2 13 -10
right_child=1 -3 4 -5 5 6 -8 -9 9 10 -12 -13 -14 -15
leaf_value=-0.11924857483820994 -0.12433670064580434 0.096053206443618658 0.13733762024116788 0.0051011934362451819 -0.096972184607278397 -0.13867842391322277 -0.08149329770325596 0.095301739173103972 0.025467148228475574 -0.11428476030382392 0.017605342838865282 -0.0067736186984108954 0.016131598659555064 0.18488471921311819
leaf_weight=13.294718265533449 7.4439350590109807 11.867766007781027 3.7938099130988112 6.6113241836428633 5.0406295135617247 3.4890613332390776 5.3541962727904311 12.381706997752188 5.39759808778763 5.2907043844461423 7.280084103345871 7.6406840533018112 13.208856269717215 5.5088194459676743
leaf_count=140 67 59 21 42 31 30 28 66 24 25 33 43 59 24
internal_value=0 0.0143784 0.0025332 -0.0779487 0.017748 0.0105409 0.019899 0.0302282 0.010173 0.0243297 -0.0379036 -0.0647885 0.0567706 0.105989
internal_weight=0 93.6979 81.8301 19.906 66.7455 62.9517 57.911 52.5568 40.1751 36.6861 12.5708 15.0846 24.1153 10.9064
internal_count=692 510 451 182 341 320 289 261 195 165 58 110 107 48
shrinkage=0.15


Tree=13
num_leaves=15
num_cat=0
split_feature=5 0 2 6 0 5 4 6 4 3 6 5 7 7
split_gain=4.35832 3.19858 2.76978 3.18033 5.94066 3.93598 3.44301 3.9871 2.72715 3.33196 2.34924 2.7459 2.2796 2.86986
threshold=26.250000000000004 2.5000000000000004 34.000000000000007 0.50150000000000017 7.5000000000000009 40.95000000000001 230.50000000000003 0.54550000000000021 144.50000000000003 35.500000000000007 0.73950000000000016 38.750000000000007 23.500000000000004 50.500000000000007
decision_type=2 2 2 2 2 2 2 2 2 2 2 2 2 2
left_child=1 -1 -2 5 6 8 7 -5 9 12 -9 -12 -4 -14
right_child=2 -3 3 4 -6 -7 -8 10 -10 -11 11 -13 13 -15
leaf_value=-0.15472684852618662 0.12879428804650728 -0.012992145101574397 -0.14072682675053741 0.17051088248457968 0.16399259959157927 0.090109055215797332 -0.12486700771683104 -0.043186375282893368 0.04260004503974766 -0.15332732211824129 0.10952982453192876 -0.045644914472827584 0.0012624331961308816 -0.1314103201550772
leaf_weight=6.676322326064108 4.2082014903426161 7.7309096604585648 3.8282794542610636 3.8164890669286313 6.8903797864913932 6.6014869213104239 3.7509575486183158 11.389499001204969 8.7163348570466024 5.9720507338643065 7.1310126408934575 4.0078941434621811 25.561985671520237 4.2831020206212989
leaf_count=85 23 71 38 21 37 34 21 64 46 34 37 20 141 20
internal_value=0 -0.0786721 0.00979401 0.00434779 0.0383548 -0.0185365 0.00959034 0.0287342 -0.0333668 -0.0500687 0.00471615 0.0536963 -0.0317555 -0.0177776
internal_weight=0 14.4072 96.1577 91.9495 36.9862 54.9632 30.0959 26.3449 48.3618 39.6454 22.5284 11.1389 33.6734 29.8451
internal_count=692 156 536 513 200 313 163 142 279 233 121 57 199 161
shrinkage=0.15


Tree=14
num_leaves=15
num_cat=0
split_feature=1 5 4 1 5 5 6 2 4 6 6 5 6 5
split_gain=4.70259 2.63167 2.93472 2.8896 2.68865 2.71314 2.60131 2.59265 2.71583 2.04065 1.85416 1.8014 1.71827 2.76904
threshold=101.50000000000001 41.900000000000006 131.00000000000003 154.50000000000003 39.250000000000007 26.250000000000004 0.72600000000000009 84.500000000000014 74.500000000000014 0.31000000000000005 0.6170000000000001 29.650000000000002 0.51300000000000012 32.750000000000007
decision_type=2 2 2 2 2 2 2 2 2 2 2 2 2 2
left_child=6 3 -3 4 5 -2 11 8 -7 -5 -11 -1 13 -10
right_child=1 2 -4 9 -6 7 -8 -9 12 10 -12 -13 -14 -15
leaf_value=-0.16352403053098655 -0.089659394100651352 0.14430339094090361 -0.012572118000512231 -0.011194377882972369 -0.13320522223230513 0.058780276711278279 0.039875424731308493 -0.074684754803282113 0.034863703878713646 0.15706089738905865 0.03143036847029311 -0.058267795560565987 0.026847814020425131 -0.13143400637878574
leaf_weight=5.2675708197057309 7.1198858879506579 6.7323868125677091 4.4609831869602203 5.931347623467448 3.8258624523878089 22.643191270530224 4.3090327233076087 7.0340017899870864 3.7908916771411914 5.6836405098438245 4.941244900226593 11.976156175136564 9.4079176187515241 5.5529375448822975
leaf_count=85 76 35 22 30 20 111 27 36 19 33 28 94 46 30
internal_value=0 0.0138832 0.0817825 0.00387375 -0.0115781 -0.00320119 -0.0643711 0.00950965 0.0238163 0.0592879 0.0986347 -0.0904212 -0.0184035 -0.0639652
internal_weight=0 87.1243 11.1934 75.9309 59.3747 55.5488 21.5528 48.4289 41.3949 16.5562 10.6249 17.2437 18.7517 9.34383
internal_count=692 486 57 429 338 318 206 242 206 91 61 179 95 49
shrinkage=0.15


Tree=15
num_leaves=15
num_cat=0
split_feature=1 5 2 6 7 1 1 3 4 6 5 5 4 7
split_gain=3.81535 3.95198 3.12993 2.50657 5.30429 2.35804 1.93246 4.42862 1.80842 1.80016 2.08247 2.47176 2.32921 1.71302
threshold=123.50000000000001 26.450000000000003 54.500000000000007 0.31450000000000006 40.500000000000007 121.50000000000001 94.500000000000014 30.500000000000004 121.00000000000001 0.37050000000000005 30.050000000000004 33.150000000000013 252.50000000000003 28.500000000000004
decision_type=2 2 2 2 2 2 2 2 2 2 2 2 2 2
left_child=1 -1 -2 4 8 6 7 -3 -4 -5 -11 -12 13 -13
right_child=2 5 3 9 -6 -7 -8 -9 -10 10 11 12 -14 -15
leaf_value=-0.13823781292000881 0.15173395035767717 -0.13461077226078624 -0.045132032948900835 0.13147325875020396 0.061398734119685452 -0.1322278576558025 0.014942701214340404 0.055375975787039948 -0.16842995099755084 -0.047233455923779158 0.1466873028888841 -0.021331950068728726 -0.084352917465088786 0.10255762807313568
leaf_weight=6.6737979464232913 4.1411228924989691 6.7864270173013193 6.8411663472652453 4.4715247154235866 8.9508296549320203 3.5391640812158576 30.571657605469227 4.653615765273571 4.3966673985123634 6.2063706256449249 4.7397039011120823 4.0055665075778943 3.5143427625298491 6.7309238389134407
leaf_count=117 24 69 38 23 43 17 171 30 24 34 25 20 20 37
internal_value=0 -0.0304368 0.0264275 0.0160196 -0.0247523 -0.0146425 -0.00473688 -0.0573274 -0.0933709 0.043764 0.0281988 0.0528511 0.021642 0.0563369
internal_weight=0 52.2247 53.9982 49.8571 20.1887 45.5509 42.0117 11.44 11.2378 29.6684 25.1969 18.9905 14.2508 10.7365
internal_count=692 404 288 264 105 287 270 99 62 159 136 102 77 57
shrinkage=0.15


Tree=16
num_leaves=15
num_cat=0
split_feature=1 2 7 6 7 1 3 7 3 3 0 6 7 6
split_gain=3.00394 2.57506 3.21727 3.07231 2.45418 2.64758 2.25926 2.05246 2.85282 2.83972 1.85615 1.60797 3.44128 2.09458
threshold=106.50000000000001 81.000000000000014 25.500000000000004 0.2950000000000001 59.500000000000007 165.50000000000003 30.500000000000004 24.500000000000004 13.500000000000002 34.500000000000007 4.5000000000000009 0.73950000000000016 33.500000000000007 0.43350000000000005
decision_type=2 2 2 2 2 2 2 2 2 2 2 2 2 2
left_child=1 2 -1 -4 5 7 10 8 -2 -10 -5 13 -13 -9
right_child=4 -3 3 6 -6 -7 -8 11 9 -11 -12 12 -14 -15
leaf_value=-0.14583468338382091 0.05887587903352396 0.057427204469240038 -0.12602510534073239 -0.13427897499847211 -0.092583823853042119 0.089055990942577212 0.10601008299740398 0.032777211444534333 -0.16491149367092742 0.0081920928594238114 0.031336311912826022 0.1651475885911822 -0.023492938077932183 -0.041769522388278982
leaf_weight=7.4501065127551618 4.0775879323482505 4.6509450972080222 4.7069956958293906 2.583379063755272 4.5901067517697802 10.789931081235407 4.1405553817749023 27.460612334311008 5.12978597730398 3.6491132229566574 3.7082881703972816 4.8562276661396009 3.9421950727701187 12.269734572619198
leaf_count=114 29 32 40 26 26 67 21 139 45 19 22 25 25 62
internal_value=0 -0.0442118 -0.0651384 -0.0254272 0.013768 0.0205316 0.0199623 0.00848684 -0.0448019 -0.0929578 -0.0366659 0.0226044 0.0806259 0.0097553
internal_weight=0 27.2403 22.5893 15.1392 76.7653 72.1752 10.4322 61.3853 12.8565 8.7789 6.29167 48.5288 8.79842 39.7303
internal_count=692 255 223 109 437 411 69 344 93 64 48 251 50 201
shrinkage=0.15


Tree=17
num_leaves=15
num_cat=0
split_feature=5 1 5 7 5 6 5 5 6 6 5 6 6 7
split_gain=2.53101 2.49984 3.04602 1.82128 3.13753 3.20604 2.69243 1.80665 3.22206 1.98216 2.09785 1.7535 3.84096 3.04695
threshold=47.350000000000001 130.50000000000003 26.250000000000004 24.500000000000004 35.150000000000013 0.34250000000000008 32.350000000000001 34.250000000000007 0.56250000000000011 0.34450000000000003 29.950000000000003 0.26750000000000007 0.63850000000000018 36.500000000000007
decision_type=2 2 2 2 2 2 2 2 2 2 2 2 2 2
left_child=1 2 -1 6 11 -6 -4 9 -9 -3 -11 13 -13 -5
right_child=-2 7 3 4 5 -7 -8 8 -10 10 -12 12 -14 -15
leaf_value=-0.11904987993434972 0.13659901108542477 -0.047395803958563083 -0.17052472637326435 0.19297723957032048 -0.13547668442999247 0.0036429365812492035 -0.010061978711312492 0.10982531124505937 -0.023406203659196961 -0.02451745355859113 0.11099094600359648 -0.057246961291025432 0.078408791218967405 0.010004859879773334
leaf_weight=6.8354510329663745 2.9048307463526717 11.574514649808409 3.7580816894769651 3.5955430343747157 6.2957153096795073 9.1353861540555936 6.2917386218905449 10.903696827590467 6.5301131233572951 5.15098889172077 5.1311956644058228 10.038398999720814 8.8245065212249738 4.7569301277399063
leaf_count=127 15 61 51 20 39 47 48 58 39 28 32 59 44 24
internal_value=0 -0.00545984 -0.0248414 -0.0126213 0.000915865 -0.0531163 -0.0700662 0.0239065 0.0599213 -0.00482032 0.0431063 0.0315521 0.00621596 0.0887702
internal_weight=0 98.8223 59.5318 52.6963 42.6465 15.4311 10.0498 39.2905 17.4338 21.8567 10.2822 27.2154 18.8629 8.35247
internal_count=692 677 459 332 233 86 99 218 97 121 60 147 103 44
shrinkage=0.15


Tree=18
num_leaves=15
num_cat=0
split_feature=7 1 5 7 5 4 1 6 4 2 1 5 5 3
split_gain=1.9712 2.32284 2.11892 1.65392 2.90055 2.20679 2.42398 2.31091 2.74988 4.60179 3.31151 2.65874 2.61608 2.21674
threshold=62.500000000000007 165.50000000000003 45.350000000000001 42.500000000000007 26.250000000000004 192.50000000000003 94.500000000000014 0.50800000000000012 41.500000000000007 74.500000000000014 128.50000000000003 31.750000000000004 35.45000000000001 30.500000000000004
decision_type=2 2 2 2 2 2 2 2 2 2 2 2 2 2
left_child=1 2 3 4 -1 6 13 8 9 -8 -10 -9 -13 -6
right_child=-2 -3 -4 -5 5 -7 7 11 10 -11 -12 12 -14 -15
leaf_value=-0.11779217922475901 -0.11881004956658178 0.068852496533652011 0.09192263061530026 0.029831621048921501 -0.14000844673452315 -0.088329911920551715 0.079071550161837631 -0.031184833171615058 -0.13419915009205027 -0.095519009025566079 0.044553965526379351 0.18323134804135191 0.032877702059150131 0.017698162402767784
leaf_weight=6.4654476456344119 3.1146055608987799 10.550540655851362 4.7242283746600142 17.223909113556147 4.8443218246102315 7.3895681574940673 11.204733707010751 4.8555680066347113 6.8076288588345033 4.8745286464691153 3.5467392951250076 4.88714851438999 5.572983980178833 3.4219478368759155
leaf_count=126 19 70 24 94 64 39 60 29 49 26 16 24 29 23
internal_value=0 0.00243463 -0.00573077 -0.0114197 -0.0225438 -0.0118162 -0.000511627 0.0141821 -0.0126805 0.0261433 -0.0729699 0.0605448 0.103125 -0.0747234
internal_weight=0 96.3693 85.8188 81.0945 63.8706 57.4052 50.0156 41.7493 26.4336 16.0793 10.3544 15.3157 10.4601 8.26627
internal_count=692 673 603 579 485 359 320 233 151 86 65 82 53 87
shrinkage=0.15


end of trees

feature_importances:
BMI=55
Glucose=47
DiabetesPedigreeFunction=47
Age=43
BloodPressure=21
Insulin=21
SkinThickness=17
Pregnancies=15

parameters:
[boosting: gbdt]
[objective: binary]
[metric: binary_logloss]
[tree_learner: serial]
[device_type: cpu]
[data: ]
[valid: ]
[num_iterations: 10000]
[learning_rate: 0.15]
[num_leaves: 15]
[num_threads: 8]
[force_col_wise: 0]
[force_row_wise: 0]
[histogram_pool_size: -1]
[max_depth: -1]
[min_data_in_leaf: 20]
[min_sum_hessian_in_leaf: 0.001]
[bagging_fraction: 1]
[pos_bagging_fraction: 1]
[neg_bagging_fraction: 1]
[bagging_freq: 0]
[bagging_seed: 24115]
[feature_fraction: 0.9]
[feature_fraction_bynode: 1]
[feature_fraction_seed: 20572]
[extra_trees: 0]
[extra_seed: 23394]
[early_stopping_round: 50]
[first_metric_only: 0]
[max_delta_step: 0]
[lambda_l1: 0]
[lambda_l2: 0]
[min_gain_to_split: 0]
[drop_rate: 0.1]
[max_drop: 50]
[skip_drop: 0.5]
[xgboost_dart_mode: 0]
[uniform_drop: 0]
[drop_seed: 31232]
[top_rate: 0.2]
[other_rate: 0.1]
[min_data_per_group: 100]
[max_cat_threshold: 32]
[cat_l2: 10]
[cat_smooth: 10]
[max_cat_to_onehot: 4]
[top_k: 20]
[monotone_constraints: ]
[monotone_constraints_method: basic]
[monotone_penalty: 0]
[feature_contri: ]
[forcedsplits_filename: ]
[refit_decay_rate: 0.9]
[cegb_tradeoff: 1]
[cegb_penalty_split: 0]
[cegb_penalty_feature_lazy: ]
[cegb_penalty_feature_coupled: ]
[path_smooth: 0]
[interaction_constraints: ]
[verbosity: -1]
[saved_feature_importance_type: 0]
[max_bin: 255]
[max_bin_by_feature: ]
[min_data_in_bin: 3]
[bin_construct_sample_cnt: 200000]
[data_random_seed: 11193]
[is_enable_sparse: 1]
[enable_bundle: 1]
[use_missing: 1]
[zero_as_missing: 0]
[feature_pre_filter: 1]
[pre_partition: 0]
[two_round: 0]
[header: 0]
[label_column: ]
[weight_column: ]
[group_column: ]
[ignore_column: ]
[categorical_feature: ]
[forcedbins_filename: ]
[objective_seed: 17841]
[num_class: 1]
[is_unbalance: 0]
[scale_pos_weight: 1]
[sigmoid: 1]
[boost_from_average: 1]
[reg_sqrt: 0]
[alpha: 0.9]
[fair_c: 1]
[poisson_max_delta_step: 0.7]
[tweedie_variance_power: 1.5]
[lambdarank_truncation_level: 20]
[lambdarank_norm: 1]
[label_gain: ]
[eval_at: ]
[multi_error_top_k: 1]
[auc_mu_weights: ]
[num_machines: 1]
[local_listen_port: 12400]
[time_out: 120]
[machine_list_filename: ]
[machines: ]
[gpu_platform_id: -1]
[gpu_device_id: -1]
[gpu_use_dp: 0]

end of parameters

pandas_categorical:[]
