tree
version=v3
num_class=1
num_tree_per_iteration=1
label_index=0
max_feature_idx=7
objective=binary sigmoid:1
feature_names=Pregnancies Glucose BloodPressure SkinThickness Insulin BMI DiabetesPedigreeFunction Age
feature_infos=[0:15] [0:199] [0:122] [0:99] [0:846] [0:59.399999999999999] [0.078:2.4199999999999999] [21:81]
tree_sizes=840 837 844 841 838 840 838 836 838 839 841 840 846 839 841 843 843 845 839 848 845 843 844 841 848 846 842 848 833 838 843 848 849 847 838 839 825

Tree=0
num_leaves=7
num_cat=0
split_feature=1 7 5 1 1 5
split_gain=122.83 36.7314 23.7321 21.6073 14.9118 9.93442
threshold=143.50000000000003 28.500000000000004 26.850000000000005 107.50000000000001 166.50000000000003 30.950000000000003
decision_type=2 2 2 2 2 2
left_child=1 5 -3 -4 -2 -1
right_child=4 2 3 -5 -6 -7
leaf_value=-0.77012803010683339 -0.58971817453627073 -0.75650003662189869 -0.69700372227120655 -0.59013655283987909 -0.49094353967903448 -0.71118814044908885
leaf_weight=35.610092103481293 19.036841690540314 11.422105014324186 18.36495316028595 25.307801306247711 15.677399039268492 29.339132487773895
leaf_count=159 85 51 82 113 70 131
internal_value=-0.669362 -0.705293 -0.660249 -0.635076 -0.54511 -0.743503
internal_weight=0 120.044 55.0949 43.6728 34.7142 64.9492
internal_count=691 536 246 195 155 290
shrinkage=1


Tree=1
num_leaves=7
num_cat=0
split_feature=1 7 5 1 6 1
split_gain=102.325 32.5387 20.6448 19.1259 12.2367 11.4125
threshold=143.50000000000003 28.500000000000004 26.850000000000005 99.500000000000014 0.52750000000000019 166.50000000000003
decision_type=2 2 2 2 2 2
left_child=1 -1 -3 -4 -5 -2
right_child=5 2 3 4 -6 -7
leaf_value=-0.070417972795327285 0.071831570070185535 -0.083138477726720117 -0.052720025918593184 0.028933884933054287 0.12713738538854549 0.15659661957376647
leaf_weight=63.327761068940163 19.504523128271103 11.086687892675398 11.318736121058462 22.312337219715118 10.494111329317091 16.486470252275467
leaf_count=290 85 51 51 98 46 70
internal_value=0 -0.0337279 0.00835549 0.0313438 0.0603472 0.11066
internal_weight=0 118.54 55.2119 44.1252 32.8064 35.991
internal_count=691 536 246 195 144 155
shrinkage=0.075


Tree=2
num_leaves=7
num_cat=0
split_feature=1 5 7 5 1 6
split_gain=89.4141 26.981 25.5473 13.0855 13.7686 13.3339
threshold=127.50000000000001 29.950000000000003 28.500000000000004 26.450000000000003 99.500000000000014 0.20050000000000004
decision_type=2 2 2 2 2 2
left_child=2 -2 -1 -4 -5 -6
right_child=1 -3 3 4 5 -7
leaf_value=-0.079697390522905157 -0.0074506873109767002 0.10604685741019713 -0.088650272558538495 -0.050774715510467361 -0.066243900642405124 0.076178097176976323
leaf_weight=52.540899708867073 16.496079728007317 41.225106373429298 8.0043873190879804 11.324386492371557 4.5536087453365353 19.670739144086838
leaf_count=247 73 176 38 52 20 85
internal_value=0 0.0736105 -0.044489 -0.00201485 0.0174926 0.0494061
internal_weight=0 57.7212 96.094 43.5531 35.5487 24.2243
internal_count=691 249 442 195 157 105
shrinkage=0.075


Tree=3
num_leaves=7
num_cat=0
split_feature=1 1 7 5 4 7
split_gain=77.2395 22.6774 16.7595 13.1384 11.2613 11.215
threshold=123.50000000000001 154.50000000000003 28.500000000000004 27.350000000000005 144.50000000000003 41.500000000000007
decision_type=2 2 2 2 2 2
left_child=2 3 -1 -2 -4 -5
right_child=1 -3 4 5 -6 -7
leaf_value=-0.077191803535990644 -0.061648646563894016 0.11487029349661985 -0.025992548539168926 0.016860883970595052 0.096104790117327282 0.11135428539543947
leaf_weight=47.372528195381165 7.8858240097761145 26.027400508522987 33.633038491010666 22.845521464943886 4.8635526895523062 10.228207707405089
leaf_count=230 37 107 153 100 21 43
internal_value=0 0.0601278 -0.0473228 0.0253421 -0.0105671 0.0460834
internal_weight=0 66.987 85.8691 40.9596 38.4966 33.0737
internal_count=691 287 404 180 174 143
shrinkage=0.075


Tree=4
num_leaves=7
num_cat=0
split_feature=1 1 5 0 6 5
split_gain=66.4296 18.9009 16.6119 14.5932 12.1281 11.2673
threshold=123.50000000000001 154.50000000000003 26.450000000000003 6.5000000000000009 0.76900000000000002 27.350000000000005
decision_type=2 2 2 2 2 2
left_child=2 5 -1 -4 -5 -2
right_child=1 -3 3 4 -6 -7
leaf_value=-0.099756353808072129 -0.058466619404502845 0.10464358526969837 -0.04298286509615188 0.012508603738870501 0.20249333160539598 0.042180748961320361
leaf_weight=22.586721584200859 7.6987279355525962 26.41128121316433 49.045767590403557 10.16629411280155 2.3217218518257132 33.399476557970047
leaf_count=114 37 107 234 46 10 143
internal_value=0 0.0551399 -0.0447453 -0.0245528 0.0478298 0.023327
internal_weight=0 67.5095 84.1205 61.5338 12.488 41.0982
internal_count=691 287 404 290 56 180
shrinkage=0.075


Tree=5
num_leaves=7
num_cat=0
split_feature=1 1 5 7 0 3
split_gain=59.0482 21.6481 15.1468 12.715 12.4211 11.7287
threshold=112.50000000000001 154.50000000000003 27.050000000000004 30.500000000000004 6.5000000000000009 9.0000000000000018
decision_type=2 2 2 2 2 2
left_child=4 2 -2 5 -1 -4
right_child=1 -3 3 -5 -6 -7
leaf_value=-0.071667649686133567 -0.063544287222776608 0.096019095722269313 0.078226811787451764 0.069570766621702446 0.013681087627998996 -0.039200952938110996
leaf_weight=51.158174961805344 11.276124387979506 26.6154825091362 6.6244147419929531 25.536747932434082 11.804802641272543 17.225178524851799
leaf_count=258 57 107 30 106 54 79
internal_value=0 0.0396278 0.0148863 0.032794 -0.0556658 -0.00658445
internal_weight=0 87.2779 60.6625 49.3863 62.963 23.8496
internal_count=691 379 272 215 312 109
shrinkage=0.075


Tree=6
num_leaves=7
num_cat=0
split_feature=5 7 2 5 4 6
split_gain=33.6334 20.1199 12.8194 8.432 8.3871 6.61451
threshold=26.250000000000004 30.500000000000004 34.000000000000007 42.250000000000007 141.00000000000003 1.1780000000000002
decision_type=2 2 2 2 2 2
left_child=-1 2 -2 5 -3 -4
right_child=1 4 3 -5 -6 -7
leaf_value=-0.071829871048687932 0.15252379541730185 0.031083172497460888 -0.038250164483306717 0.059274603662211822 0.094625289950530142 0.10180751201538893
leaf_weight=29.631943106651306 2.4756910502910605 45.790568605065346 46.668107092380524 6.3594680875539771 15.687567695975302 1.9770900309085835
leaf_count=155 11 197 227 28 64 9
internal_value=0 0.0174728 -0.0144262 -0.0219404 0.0472974 -0.0325578
internal_weight=0 118.958 57.4804 55.0047 61.4781 48.6452
internal_count=691 536 275 264 261 236
shrinkage=0.075


Tree=7
num_leaves=7
num_cat=0
split_feature=1 1 0 7 4 6
split_gain=49.055 18.2569 10.5039 10.0977 9.69463 9.45017
threshold=112.50000000000001 165.50000000000003 6.5000000000000009 26.500000000000004 49.500000000000007 0.86900000000000011
decision_type=2 2 2 2 2 2
left_child=2 3 -1 4 -2 -4
right_child=1 -3 5 -5 -6 -7
leaf_value=-0.067563226604939755 0.040368638246935873 0.10264631488489277 -0.016335538308463255 0.036417589026379447 -0.067789599336061379 0.17423287753071309
leaf_weight=48.716031149029732 7.4824329316616085 18.163996636867523 10.187895774841307 48.888005703687668 12.36515700817108 1.7093094140291203
leaf_count=258 36 73 47 210 60 7
internal_value=0 0.0357732 -0.0521341 0.0181014 -0.0270145 0.011044
internal_weight=0 86.8996 60.6132 68.7356 19.8476 11.8972
internal_count=691 379 312 306 96 54
shrinkage=0.075


Tree=8
num_leaves=7
num_cat=0
split_feature=1 5 1 7 6 4
split_gain=42.7339 16.2165 11.0221 10.8357 9.89829 7.93726
threshold=112.50000000000001 28.250000000000004 165.50000000000003 30.500000000000004 0.66050000000000009 60.500000000000007
decision_type=2 2 2 2 2 2
left_child=4 -2 3 5 -1 -3
right_child=1 2 -4 -5 -6 -7
leaf_value=-0.0648515708952727 -0.027063977992686585 0.0481665934161861 0.10594731905305008 0.065652651189656852 0.012403844092891884 -0.039571537291338624
leaf_weight=47.360582634806633 19.542309865355492 9.9150218218565005 15.535879015922545 27.917124718427658 11.617023497819899 13.974020719528196
leaf_count=254 94 44 63 113 58 65
internal_value=0 0.0330845 0.0505393 0.0339232 -0.0496343 -0.00315629
internal_weight=0 86.8844 67.342 51.8062 58.9776 23.889
internal_count=691 379 285 222 312 109
shrinkage=0.075


Tree=9
num_leaves=7
num_cat=0
split_feature=1 1 0 1 6 7
split_gain=37.2367 14.4719 9.59869 7.95975 6.73888 6.42255
threshold=112.50000000000001 154.50000000000003 6.5000000000000009 96.500000000000014 0.23850000000000002 30.500000000000004
decision_type=2 2 2 2 2 2
left_child=2 5 -1 -4 -5 -2
right_child=1 -3 3 4 -6 -7
leaf_value=-0.062596401601057408 -0.014995697441676309 0.077198188494266518 -0.060860901484006656 -0.065163040072964765 0.10726315050244413 0.033996199118778721
leaf_weight=45.848165795207024 28.941489741206169 26.2514279037714 4.7758961468934995 1.6878048032522199 5.2126749008893967 31.361898809671402
leaf_count=258 139 107 23 8 23 133
internal_value=0 0.0307175 -0.0471355 0.0135727 0.065089 0.0104834
internal_weight=0 86.5548 57.5245 11.6764 6.90048 60.3034
internal_count=691 379 312 54 31 272
shrinkage=0.075


Tree=10
num_leaves=7
num_cat=0
split_feature=1 5 6 1 7 2
split_gain=32.5037 13.9221 8.7893 7.99554 6.99104 8.04613
threshold=112.50000000000001 29.950000000000003 0.66050000000000009 165.50000000000003 30.500000000000004 57.000000000000007
decision_type=2 2 2 2 2 2
left_child=2 -2 -1 4 5 -3
right_child=1 3 -4 -5 -6 -7
leaf_value=-0.059949753455663841 -0.016463146489046711 0.10773176876705255 0.013752682052993718 0.097971599169037596 0.059846150774895232 -0.020058063930996059
leaf_weight=44.534773632884026 26.748006403446198 3.3092541992664364 11.43935291469097 14.117858946323393 25.104754373431206 17.055836915969849
leaf_count=254 126 15 58 59 101 78
internal_value=0 0.028489 -0.0448873 0.0486674 0.033359 0.000707325
internal_weight=0 86.3357 55.9741 59.5877 45.4698 20.3651
internal_count=691 379 312 253 194 93
shrinkage=0.075


Tree=11
num_leaves=7
num_cat=0
split_feature=1 5 5 0 1 7
split_gain=28.35 13.8935 10.0452 8.48286 8.98837 9.10291
threshold=123.50000000000001 26.450000000000003 29.950000000000003 6.5000000000000009 89.500000000000014 40.500000000000007
decision_type=2 2 2 2 2 2
left_child=1 -1 -2 -3 -5 -6
right_child=2 3 -4 4 5 -7
leaf_value=-0.08960229525138895 -0.0099218941865759219 -0.029596295219258016 0.053914427387381732 -0.077451903368687541 0.17125184193932694 0.020022428521898328
leaf_weight=18.035683304071426 19.66659688949585 43.310062408447266 47.009696751832962 2.8150466382503501 3.5099478214979154 6.1824627220630646
leaf_count=114 90 234 197 14 15 27
internal_value=0 -0.0323752 0.0350855 -0.0138841 0.0405232 0.0747877
internal_weight=0 73.8532 66.6763 55.8175 12.5075 9.69241
internal_count=691 404 287 290 56 42
shrinkage=0.075


Tree=12
num_leaves=7
num_cat=0
split_feature=5 7 6 5 2 5
split_gain=21.6846 11.5963 8.44878 8.16818 5.59759 5.51747
threshold=26.250000000000004 24.500000000000004 0.71950000000000014 42.250000000000007 83.000000000000014 33.250000000000007
decision_type=2 2 2 2 2 2
left_child=-1 5 3 4 -3 -2
right_child=1 2 -4 -5 -6 -7
leaf_value=-0.062753915145678837 -0.066855771706129705 0.016982355204061449 0.071017264327156063 0.090193163346261748 -0.038441926934280543 0.0048215186354933423
leaf_weight=25.576928570866585 12.545656695961954 50.372830986976624 18.699639678001404 7.1658320128917685 12.868501409888266 11.650889500975607
leaf_count=155 71 234 82 31 57 61
internal_value=0 0.0137021 0.0262052 0.0143035 0.00570449 -0.0323424
internal_weight=0 113.303 89.1068 70.4072 63.2413 24.1965
internal_count=691 536 404 322 291 132
shrinkage=0.075


Tree=13
num_leaves=7
num_cat=0
split_feature=1 1 5 5 6 4
split_gain=24.6873 11.0462 8.05633 7.71655 7.77133 6.51061
threshold=112.50000000000001 166.50000000000003 42.050000000000004 26.450000000000003 0.66050000000000009 158.50000000000003
decision_type=2 2 2 2 2 2
left_child=3 2 -2 -1 -5 -6
right_child=1 -3 -4 4 5 -7
leaf_value=-0.090394018078514479 0.0023038764786416006 0.080251883079641734 0.083147265148197397 -0.042492425103565212 0.012441940603741838 0.20389886877265079
leaf_weight=13.172601103782652 60.994412541389465 16.245491832494736 7.823113188147544 30.348287016153336 8.1337869167327863 1.1389865577220906
leaf_count=94 276 70 33 173 40 5
internal_value=0 0.0246256 0.0114941 -0.0406651 -0.024132 0.0359588
internal_weight=0 85.063 68.8175 52.7937 39.6211 9.27277
internal_count=691 379 309 312 218 45
shrinkage=0.075


Tree=14
num_leaves=7
num_cat=0
split_feature=1 1 0 5 5 1
split_gain=21.567 9.79183 7.50923 6.66595 6.50317 6.0817
threshold=112.50000000000001 165.50000000000003 6.5000000000000009 30.950000000000003 28.250000000000004 96.500000000000014
decision_type=2 2 2 2 2 2
left_child=2 4 3 -1 -2 -4
right_child=1 -3 5 -5 -6 -7
leaf_value=-0.084197364765777535 -0.031023647001864583 0.074449876782894109 -0.053379674080754967 -0.023132530879448755 0.023270476852893247 0.059904019898781212
leaf_weight=20.214501664042473 16.315528824925423 16.636898711323738 4.376247823238371 20.008410021662712 51.828405663371086 6.8199498355388641
leaf_count=142 84 73 23 116 222 31
internal_value=0 0.0228651 -0.0386999 -0.0538214 0.010271 0.0156249
internal_weight=0 84.7808 51.4191 40.2229 68.1439 11.1962
internal_count=691 379 312 258 306 54
shrinkage=0.075


Tree=15
num_leaves=7
num_cat=0
split_feature=1 7 5 5 1 2
split_gain=18.9487 11.7333 8.10315 6.83408 6.17163 5.8898
threshold=127.50000000000001 28.500000000000004 29.950000000000003 30.950000000000003 94.500000000000014 60.500000000000007
decision_type=2 2 2 2 2 2
left_child=1 3 -2 -1 -3 -4
right_child=2 4 5 -5 -6 -7
leaf_value=-0.086677725158337771 -0.013244493677193461 -0.053976611735339526 0.12898805546722672 -0.022789688356145612 0.019038444373009781 0.03972515357861911
leaf_weight=18.730848513543606 15.832000762224196 8.2144588604569417 4.690778359770774 18.942734912037849 31.414766915142536 36.606094524264336
leaf_count=137 73 47 20 110 148 156
internal_value=0 -0.0245857 0.0323751 -0.054554 0.00390368 0.0498642
internal_weight=0 77.3028 57.1289 37.6736 39.6292 41.2969
internal_count=691 442 249 247 195 176
shrinkage=0.075


Tree=16
num_leaves=7
num_cat=0
split_feature=1 5 7 2 7 1
split_gain=17.5075 15.8468 8.93103 8.97681 5.63069 5.55021
threshold=154.50000000000003 26.250000000000004 30.500000000000004 34.000000000000007 62.500000000000007 1.0000000180025095e-35
decision_type=2 2 2 2 2 2
left_child=1 -1 3 -3 -2 -4
right_child=4 2 5 -5 -6 -7
leaf_value=-0.075252150852368735 0.065326158597688491 0.12063089299548771 0.3158902856272916 -0.03209551270819435 -0.10040921166679066 0.020945501540233363
leaf_weight=19.12349259853363 23.147260919213299 2.2836116552352896 0.3617631196975698 41.605628967285156 1.2135160416364659 45.047231286764145
leaf_count=141 102 10 2 232 5 199
internal_value=0 -0.0132921 -2.31312e-05 -0.024149 0.0570702 0.0232953
internal_weight=0 108.422 89.2982 43.8892 24.3608 45.409
internal_count=691 584 443 242 107 201
shrinkage=0.075


Tree=17
num_leaves=7
num_cat=0
split_feature=1 1 0 5 2 5
split_gain=15.7284 7.72034 6.94218 5.95988 7.01324 6.14105
threshold=110.50000000000001 165.50000000000003 7.5000000000000009 42.050000000000004 79.000000000000014 26.250000000000004
decision_type=2 2 2 2 2 2
left_child=-1 2 3 4 5 -2
right_child=1 -3 -4 -5 -6 -7
leaf_value=-0.036604192050442408 -0.062131514493662561 0.065774127314810513 0.053876223441282171 0.062862212578379595 -0.058287221518884762 0.018967075552162763
leaf_weight=44.526869170367718 6.3967789933085433 15.734128564596174 14.546075031161307 6.5730582922697058 13.924241423606871 29.352214381098747
leaf_count=290 40 73 63 28 63 134
internal_value=0 0.0182541 0.0076924 -0.00425138 -0.0131322 0.00445562
internal_weight=0 86.5265 70.7924 56.2463 49.6732 35.749
internal_count=691 401 328 265 237 174
shrinkage=0.075


Tree=18
num_leaves=7
num_cat=0
split_feature=1 7 7 5 4 5
split_gain=14.1083 9.35843 8.45052 7.90665 6.55775 6.21002
threshold=99.500000000000014 27.500000000000004 62.500000000000007 30.950000000000003 69.000000000000014 19.350000000000005
decision_type=2 2 2 2 2 2
left_child=-1 3 5 -2 -5 -3
right_child=1 2 -4 4 -6 -7
leaf_value=-0.049927755639398795 -0.065229306753364649 0.3578456807403374 -0.07916505795476321 0.059418137660515062 -0.027257020399557092 0.032297278504251251
leaf_weight=25.862581752240658 13.401182815432547 0.33125559985637565 3.9376893937587729 8.4573037028312701 11.706585943698881 65.863620005548
leaf_count=182 90 2 18 41 60 298
internal_value=0 0.0119897 0.0275767 -0.0205785 0.00909698 0.0339264
internal_weight=0 103.698 70.1326 33.5651 20.1639 66.1949
internal_count=691 509 318 191 101 300
shrinkage=0.075


Tree=19
num_leaves=7
num_cat=0
split_feature=1 5 1 3 1 6
split_gain=12.8604 13.5244 6.03902 8.16344 5.32122 6.40767
threshold=154.50000000000003 26.250000000000004 94.500000000000014 30.500000000000004 152.50000000000003 0.52750000000000019
decision_type=2 2 2 2 2 2
left_child=1 -1 3 -3 5 -4
right_child=-2 2 4 -5 -6 -7
leaf_value=-0.072021158304153315 0.049894497015535173 -0.085385928846103201 -0.0036243847927355062 0.030708272240069251 -0.11304894276804743 0.043916447607905855
leaf_weight=17.380614787340164 23.404245764017105 9.4104305505752546 46.641431108117104 5.3405525907874098 1.9470417201519001 24.232952639460564
leaf_count=141 107 64 227 33 8 111
internal_value=0 -0.0115883 0.000405932 -0.0433543 0.00927018 0.0126305
internal_weight=0 104.953 87.5724 14.751 72.8214 70.8744
internal_count=691 584 443 97 346 338
shrinkage=0.075


Tree=20
num_leaves=7
num_cat=0
split_feature=7 5 2 7 1 5
split_gain=11.7548 9.44308 7.28581 6.48882 7.96819 6.57043
threshold=26.500000000000004 30.950000000000003 53.000000000000007 62.500000000000007 154.50000000000003 26.250000000000004
decision_type=2 2 2 2 2 2
left_child=1 -1 -3 4 5 -2
right_child=3 2 -4 -5 -6 -7
leaf_value=-0.074866584915291925 -0.059574483455457398 0.10533464203146782 -0.018502980020144656 -0.076247501729322473 0.066237014744100403 0.016525405895295081
leaf_weight=17.639737479388714 7.1710161864757529 3.0806783735752132 20.162557408213615 4.1400743573904029 16.685834541916847 57.992661394178867
leaf_count=144 54 15 113 20 78 267
internal_value=0 -0.0334905 -0.00208944 0.0153587 0.0199923 0.0081509
internal_weight=0 40.883 23.2432 85.9896 81.8495 65.1637
internal_count=691 272 128 419 399 321
shrinkage=0.075


Tree=21
num_leaves=7
num_cat=0
split_feature=1 7 6 7 5 4
split_gain=10.5949 6.87108 6.35702 8.30927 6.21101 5.59406
threshold=99.500000000000014 27.500000000000004 0.20050000000000004 37.500000000000007 29.950000000000003 49.500000000000007
decision_type=2 2 2 2 2 2
left_child=-1 4 3 -3 -2 -6
right_child=1 2 -4 -5 5 -7
leaf_value=-0.045256698787556476 -0.066674621071821386 -0.12548339700111835 0.033031709856827469 0.017313881159327041 0.051874267971611203 -0.025758000841100252
leaf_weight=23.942031100392342 10.224083445966242 3.4639754295349103 58.90993582457304 6.7758180499076843 8.4723403751850146 13.605831451714037
leaf_count=182 77 18 269 31 41 73
internal_value=0 0.0102107 0.0235509 -0.0309924 -0.018347 0.00403283
internal_weight=0 101.452 69.1497 10.2398 32.3023 22.0782
internal_count=691 509 318 49 191 114
shrinkage=0.075


Tree=22
num_leaves=7
num_cat=0
split_feature=1 5 7 6 2 5
split_gain=9.65866 9.5959 4.99881 8.10829 5.90431 4.19937
threshold=133.50000000000003 26.250000000000004 26.500000000000004 0.20050000000000004 34.000000000000007 23.150000000000002
decision_type=2 2 2 2 2 2
left_child=1 -1 4 -4 -3 -2
right_child=5 2 3 -5 -6 -7
leaf_value=-0.074903964485857205 -0.11424256028567277 0.14062761650031058 -0.06702836195386537 0.023303096287751398 -0.042285746912227196 0.031333353392519234
leaf_weight=13.02400056272745 1.1440174877643574 1.0417712926864648 6.5563920810818663 37.902283564209938 21.056917153298855 43.379788503050804
leaf_count=125 6 5 34 179 142 200
internal_value=0 -0.0160299 -0.00450933 0.00998177 -0.0336629 0.0275929
internal_weight=0 79.5814 66.5574 44.4587 22.0987 44.5238
internal_count=691 485 360 213 147 206
shrinkage=0.075


Tree=23
num_leaves=7
num_cat=0
split_feature=1 1 0 3 6 4
split_gain=8.74951 6.19761 6.12677 4.57592 5.59829 4.9574
threshold=99.500000000000014 166.50000000000003 6.5000000000000009 30.500000000000004 0.49450000000000005 158.50000000000003
decision_type=2 2 2 2 2 2
left_child=3 2 -2 5 -5 -1
right_child=1 -3 -4 4 -6 -7
leaf_value=-0.073334950811900695 -0.010591913593765325 0.056138695335879514 0.034136066402948237 -0.043236405527618045 0.093785525193127425 0.15300831791732256
leaf_weight=15.03177048265934 62.40955376625061 13.653620898723601 23.794161684811115 4.5669127926230422 2.6507786884903908 0.5647538900375374
leaf_count=133 333 70 106 31 15 3
internal_value=0 0.0091901 0.00175401 -0.0422892 0.00708645 -0.065139
internal_weight=0 99.8573 86.2037 22.8142 7.21769 15.5965
internal_count=691 509 439 182 46 136
shrinkage=0.075


Tree=24
num_leaves=7
num_cat=0
split_feature=7 5 1 5 7 6
split_gain=8.03226 5.96382 5.92692 5.57886 4.64957 3.53319
threshold=24.500000000000004 33.250000000000007 123.50000000000001 26.450000000000003 62.500000000000007 0.65450000000000019
decision_type=2 2 2 2 2 2
left_child=1 -1 3 -2 -4 -5
right_child=2 -3 4 5 -6 -7
leaf_value=-0.065247507469659294 -0.074636547556188121 0.0070770232091807213 0.033375372504390703 -0.01325627079465925 -0.064529409334109541 0.037483906622419044
leaf_weight=16.197276122868065 6.4175327420234671 10.6169166713953 46.939852111041546 27.637039355933666 2.8969174474477759 10.711237251758574
leaf_count=138 63 61 215 151 13 50
internal_value=0 -0.036611 0.00989245 -0.00991488 0.0276844 0.000916206
internal_weight=0 26.8142 94.6026 44.7658 49.8368 38.3483
internal_count=691 199 492 264 228 201
shrinkage=0.075


Tree=25
num_leaves=7
num_cat=0
split_feature=1 5 6 0 5 6
split_gain=7.32931 7.19797 4.61307 7.13124 5.89318 4.6113
threshold=165.50000000000003 26.250000000000004 0.52750000000000019 8.5000000000000018 40.95000000000001 0.54550000000000021
decision_type=2 2 2 2 2 2
left_child=1 -1 4 5 -3 -4
right_child=-2 2 3 -5 -6 -7
leaf_value=-0.055250337459120204 0.050989055726270598 -0.020185219979635998 0.11309623021060958 0.10104197053098403 0.053787638440942379 -0.0016185835848311742
leaf_weight=14.975637599825857 13.828544422984121 52.232172898948193 2.1430802196264294 5.5469596832990637 6.8527653217315665 24.560926340520382
leaf_count=146 73 281 11 24 33 123
internal_value=0 -0.00705508 0.000847118 0.0236612 -0.0116057 0.00758764
internal_weight=0 106.312 91.3359 32.251 59.0849 26.704
internal_count=691 618 472 158 314 134
shrinkage=0.075


Tree=26
num_leaves=7
num_cat=0
split_feature=1 0 7 5 1 4
split_gain=6.89379 4.575 5.36527 4.87976 4.42689 4.52631
threshold=99.500000000000014 6.5000000000000009 33.500000000000007 23.350000000000005 166.50000000000003 17.000000000000004
decision_type=2 2 2 2 2 2
left_child=-1 3 -3 -2 5 -5
right_child=1 2 -4 4 -6 -7
leaf_value=-0.03897505728160857 -0.092703704773700171 0.1262664304700977 0.022200035769573939 0.017388252959878357 0.051052009136978875 -0.024505251732350439
leaf_weight=21.333659768104553 3.1811427697539321 3.1574707031250027 23.732745990157127 26.874016441404819 9.0852575153112394 31.523685172200203
leaf_count=182 29 15 110 135 50 170
internal_value=0 0.0080905 0.0344196 -0.00192866 0.00235047 -0.0052263
internal_weight=0 97.5543 26.8902 70.6641 67.483 58.3977
internal_count=691 509 125 384 355 305
shrinkage=0.075


Tree=27
num_leaves=7
num_cat=0
split_feature=7 5 5 3 6 7
split_gain=6.47897 5.54818 5.10473 4.97087 6.56894 4.40503
threshold=24.500000000000004 49.050000000000004 33.250000000000007 1.0000000180025095e-35 0.40050000000000008 62.500000000000007
decision_type=2 2 2 2 2 2
left_child=2 5 3 4 -1 -2
right_child=1 -3 -4 -5 -6 -7
leaf_value=-0.033388476991577154 0.0099993221201841627 0.14914753288618146 0.0063001851951307516 -0.086756683508023527 0.22619086741045225 -0.071293256598821686
leaf_weight=3.0549046993255646 86.811520524322987 1.5598250180482853 10.489566832780836 11.260969683527945 0.66834785044193257 3.9187186583876601
leaf_count=24 465 7 61 110 4 20
internal_value=0 0.00889936 -0.033827 -0.0619177 0.0132077 0.00648822
internal_weight=0 92.2901 25.4738 14.9842 3.72325 90.7302
internal_count=691 492 199 138 28 485
shrinkage=0.075


Tree=28
num_leaves=7
num_cat=0
split_feature=1 3 7 1 1 6
split_gain=5.8661 4.39083 4.12052 4.20218 4.11886 4.06786
threshold=99.500000000000014 24.500000000000004 42.500000000000007 1.0000000180025095e-35 166.50000000000003 0.2185
decision_type=2 2 2 2 2 2
left_child=1 -1 3 -3 5 -2
right_child=4 2 -4 -5 -6 -7
leaf_value=-0.072638873083461286 -0.032667856666795177 0.18599859457077408 0.11758003002857965 -0.033539751769504633 0.047583661682372345 0.0094169137761691731
leaf_weight=9.910760063678028 15.943078298121689 0.51945169270038505 1.3806680589914311 8.7778814770281297 12.496011480689047 68.117670498788357
leaf_count=104 92 3 8 67 70 347
internal_value=0 -0.0366879 -0.00332007 -0.0212739 0.00740744 0.00143506
internal_weight=0 20.5888 10.678 9.29733 96.5568 84.0607
internal_count=691 182 78 70 509 439
shrinkage=0.075


Tree=29
num_leaves=7
num_cat=0
split_feature=5 1 1 0 7 5
split_gain=5.52858 4.37892 4.20754 4.32867 3.48973 4.80378
threshold=26.250000000000004 166.50000000000003 155.50000000000003 4.5000000000000009 24.500000000000004 49.050000000000004
decision_type=2 2 2 2 2 2
left_child=2 4 -1 -4 -2 -6
right_child=1 -3 3 -5 5 -7
leaf_value=-0.061497078028574001 -0.02908529484930996 0.052360065871795335 -0.084392124855373396 0.097115395978250335 0.0054284186536996135 0.14693103982235819
leaf_weight=12.47670631483197 17.6373310983181 10.342196270823477 1.131497144699096 2.1310105621814728 71.108497023582458 1.3756171613931645
leaf_count=141 124 62 5 9 344 6
internal_value=0 0.00613813 -0.0416677 0.0341653 0.00083377 0.00811388
internal_weight=0 100.464 15.7392 3.26251 90.1214 72.4841
internal_count=691 536 155 14 474 350
shrinkage=0.075


Tree=30
num_leaves=7
num_cat=0
split_feature=1 3 0 7 7 7
split_gain=4.9485 4.01547 3.70942 5.16452 3.69929 5.62534
threshold=99.500000000000014 24.500000000000004 6.5000000000000009 56.500000000000007 33.500000000000007 37.500000000000007
decision_type=2 2 2 2 2 2
left_child=1 -1 -2 4 -4 -6
right_child=2 -3 3 -5 5 -7
leaf_value=-0.07071500346989866 -0.0024221554002477001 -0.0029433875150038868 0.11652115097792846 -0.080628258670803254 -0.071106545143615724 0.044096357039301988
leaf_weight=9.1957396231591719 68.771613880991936 10.570758499205111 3.1339677125215593 2.1567211374640456 2.7376591265201595 18.466889247298241
leaf_count=104 384 78 15 11 14 85
internal_value=0 -0.034472 0.00676376 0.0306069 0.0404639 0.0292228
internal_weight=0 19.7665 95.2669 26.4952 24.3385 21.2045
internal_count=691 182 509 125 114 99
shrinkage=0.075


Tree=31
num_leaves=7
num_cat=0
split_feature=5 1 1 6 5 2
split_gain=4.78094 3.93224 3.91334 3.94151 4.56543 4.55685
threshold=26.250000000000004 124.50000000000001 166.50000000000003 0.71950000000000014 42.250000000000007 83.000000000000014
decision_type=2 2 2 2 2 2
left_child=1 -1 3 4 5 -2
right_child=2 -3 -4 -5 -6 -7
leaf_value=-0.07410196917011426 -0.0039310984816556416 0.003465395996853189 0.050030106707260505 0.033522124528226026 0.050641200998113901 -0.055877545052449899
leaf_weight=8.3394652865827066 54.21725182980299 6.5744073092937461 10.038398206233976 16.683836922049522 7.0096020996570578 11.516694121062754
leaf_count=114 302 41 62 80 34 58
internal_value=0 -0.0399083 0.00562823 0.000644035 -0.0068966 -0.0130322
internal_weight=0 14.9139 99.4658 89.4274 72.7435 65.7339
internal_count=691 155 536 474 394 360
shrinkage=0.075


Tree=32
num_leaves=7
num_cat=0
split_feature=7 5 2 7 5 1
split_gain=4.64499 5.75033 5.62674 4.03189 5.56133 3.93658
threshold=26.500000000000004 30.450000000000003 53.000000000000007 62.500000000000007 1.0000000180025095e-35 154.50000000000003
decision_type=2 2 2 2 2 2
left_child=1 -1 -3 4 -2 -6
right_child=3 2 -4 -5 5 -7
leaf_value=-0.067898652527209086 0.30211868119509794 0.09193999845412236 -0.016897323903855895 -0.066582072530181113 0.0036650520491571022 0.047554786811264231
leaf_weight=11.089422032237051 0.37312242388725181 3.0984532237052944 19.409730061888695 3.730353705585002 61.600334886461496 14.132423296570776
leaf_count=134 2 16 122 20 319 78
internal_value=0 -0.0236939 -0.00191489 0.00954686 0.0132783 0.0118553
internal_weight=0 33.5976 22.5082 79.8362 76.1059 75.7328
internal_count=691 272 138 419 399 397
shrinkage=0.075


Tree=33
num_leaves=7
num_cat=0
split_feature=5 0 6 0 5 6
split_gain=4.05644 3.3327 3.03415 5.48381 4.52983 3.72094
threshold=26.250000000000004 2.5000000000000004 0.52750000000000019 8.5000000000000018 40.95000000000001 0.54550000000000021
decision_type=2 2 2 2 2 2
left_child=1 -1 4 5 -2 -4
right_child=2 -3 3 -5 -6 -7
leaf_value=-0.080342517966990643 -0.012229996261933749 -0.0066559973284596339 0.10483275645595803 0.090526561796710217 0.049245148243941446 0.0024016558651070601
leaf_weight=5.9876795075833789 55.410389058291912 8.1546355560421926 2.1507415547966984 5.6360533684492102 7.6763059049844733 27.522470347583294
leaf_count=84 312 71 11 27 39 147
internal_value=0 -0.0378539 0.00510318 0.0227074 -0.00474978 0.00982596
internal_weight=0 14.1423 98.396 35.3093 63.0867 29.6732
internal_count=691 155 536 185 351 158
shrinkage=0.075


Tree=34
num_leaves=7
num_cat=0
split_feature=1 3 0 6 3 0
split_gain=3.96259 7.02738 3.83481 5.04511 3.02782 2.96442
threshold=94.500000000000014 30.500000000000004 1.5000000000000002 0.50250000000000006 35.500000000000007 6.5000000000000009
decision_type=2 2 2 2 2 2
left_child=1 -1 -3 4 -4 -2
right_child=5 2 3 -5 -6 -7
leaf_value=-0.078674555799017762 -0.0028974878466568087 -0.055826343629283216 0.086553183007996873 0.20281637741770733 -0.093329158410288909 0.026481264088847236
leaf_weight=8.7544803544878942 71.47396145761013 1.829447254538535 1.248644299805165 1.1948095411062238 0.90991558134555806 26.475952193140984
leaf_count=101 428 13 9 6 6 128
internal_value=0 -0.0376979 0.0315172 0.079168 0.0107259 0.00504362
internal_weight=0 13.9373 5.18282 3.35337 2.15856 97.9499
internal_count=691 135 34 21 15 556
shrinkage=0.075


Tree=35
num_leaves=7
num_cat=0
split_feature=1 5 5 4 5 2
split_gain=3.61667 3.5519 3.21675 5.9792 5.70604 5.52474
threshold=110.50000000000001 26.450000000000003 42.050000000000004 252.50000000000003 38.550000000000004 73.000000000000014
decision_type=2 2 2 2 2 2
left_child=1 -1 4 -4 -2 -6
right_child=2 -3 3 -5 5 -7
leaf_value=-0.080358122172922208 0.010486757092272552 -0.01082290048052466 0.075758693368076238 -0.094240376167991954 0.036603232649705671 -0.10547142125194085
leaf_weight=4.8127520494163027 61.000979516655207 29.218788307160139 7.7999982237815839 1.3678766191005705 2.2529291063547126 4.862323984503746
leaf_count=89 321 201 39 7 11 23
internal_value=0 -0.0206566 0.00868664 0.0503943 0.00307314 -0.0604858
internal_weight=0 34.0315 77.2841 9.16787 68.1162 7.11525
internal_count=691 290 401 46 355 34
shrinkage=0.075


Tree=36
num_leaves=7
num_cat=0
split_feature=7 6 6 6 6 6
split_gain=3.57246 4.33332 5.05218 4.80062 4.60312 6.28295
threshold=26.500000000000004 1.3970000000000002 1.1780000000000002 1.1490000000000002 0.2185 0.23550000000000001
decision_type=2 2 2 2 2 2
left_child=-1 2 3 4 -2 -6
right_child=1 -3 -4 -5 5 -7
leaf_value=-0.021326545593230332 -0.029240874831689159 -0.12844365972478725 0.12747258482869317 -0.1794873637016654 0.13677582857828555 0.013443909109526968
leaf_weight=32.1587994992733 14.074993800371884 1.2814112156629551 2.0265153646469107 0.7647242546081533 2.4203750044107428 58.027188397943974
leaf_count=272 81 7 10 4 11 306
internal_value=0 0.0083475 0.0106147 0.00746922 0.00938771 0.0183822
internal_weight=0 78.5952 77.3138 75.2873 74.5226 60.4476
internal_count=691 419 412 402 398 317
shrinkage=0.075


end of trees

feature_importances:
Glucose=60
BMI=53
Age=36
DiabetesPedigreeFunction=28
Pregnancies=16
BloodPressure=11
Insulin=10
SkinThickness=8

parameters:
[boosting: gbdt]
[objective: binary]
[metric: binary_logloss]
[tree_learner: serial]
[device_type: cpu]
[data: ]
[valid: ]
[num_iterations: 10000]
[learning_rate: 0.075]
[num_leaves: 7]
[num_threads: 8]
[force_col_wise: 0]
[force_row_wise: 0]
[histogram_pool_size: -1]
[max_depth: -1]
[min_data_in_leaf: 5]
[min_sum_hessian_in_leaf: 0.001]
[bagging_fraction: 0.8]
[pos_bagging_fraction: 1]
[neg_bagging_fraction: 1]
[bagging_freq: 0]
[bagging_seed: 12844]
[feature_fraction: 0.9]
[feature_fraction_bynode: 1]
[feature_fraction_seed: 3163]
[extra_trees: 0]
[extra_seed: 31248]
[early_stopping_round: 50]
[first_metric_only: 0]
[max_delta_step: 0]
[lambda_l1: 0]
[lambda_l2: 0]
[min_gain_to_split: 0]
[drop_rate: 0.1]
[max_drop: 50]
[skip_drop: 0.5]
[xgboost_dart_mode: 0]
[uniform_drop: 0]
[drop_seed: 1424]
[top_rate: 0.2]
[other_rate: 0.1]
[min_data_per_group: 100]
[max_cat_threshold: 32]
[cat_l2: 10]
[cat_smooth: 10]
[max_cat_to_onehot: 4]
[top_k: 20]
[monotone_constraints: ]
[monotone_constraints_method: basic]
[monotone_penalty: 0]
[feature_contri: ]
[forcedsplits_filename: ]
[refit_decay_rate: 0.9]
[cegb_tradeoff: 1]
[cegb_penalty_split: 0]
[cegb_penalty_feature_lazy: ]
[cegb_penalty_feature_coupled: ]
[path_smooth: 0]
[interaction_constraints: ]
[verbosity: -1]
[saved_feature_importance_type: 0]
[max_bin: 255]
[max_bin_by_feature: ]
[min_data_in_bin: 3]
[bin_construct_sample_cnt: 200000]
[data_random_seed: 11200]
[is_enable_sparse: 1]
[enable_bundle: 1]
[use_missing: 1]
[zero_as_missing: 0]
[feature_pre_filter: 1]
[pre_partition: 0]
[two_round: 0]
[header: 0]
[label_column: ]
[weight_column: ]
[group_column: ]
[ignore_column: ]
[categorical_feature: ]
[forcedbins_filename: ]
[objective_seed: 5702]
[num_class: 1]
[is_unbalance: 0]
[scale_pos_weight: 1]
[sigmoid: 1]
[boost_from_average: 1]
[reg_sqrt: 0]
[alpha: 0.9]
[fair_c: 1]
[poisson_max_delta_step: 0.7]
[tweedie_variance_power: 1.5]
[lambdarank_truncation_level: 20]
[lambdarank_norm: 1]
[label_gain: ]
[eval_at: ]
[multi_error_top_k: 1]
[auc_mu_weights: ]
[num_machines: 1]
[local_listen_port: 12400]
[time_out: 120]
[machine_list_filename: ]
[machines: ]
[gpu_platform_id: -1]
[gpu_device_id: -1]
[gpu_use_dp: 0]

end of parameters

pandas_categorical:[]
