tree
version=v3
num_class=1
num_tree_per_iteration=1
label_index=0
max_feature_idx=7
objective=binary sigmoid:1
feature_names=Pregnancies Glucose BloodPressure SkinThickness Insulin BMI DiabetesPedigreeFunction Age
feature_infos=[0:17] [0:199] [0:122] [0:99] [0:846] [0:67.099999999999994] [0.078:2.4199999999999999] [21:81]
tree_sizes=3256 3254 3274 3273 3266 3277 3267 3247 3271 3276 3285 3281 3276 3285 3280

Tree=0
num_leaves=31
num_cat=0
split_feature=1 5 7 5 1 1 1 6 6 0 5 5 4 7 6 3 2 7 4 7 4 0 6 4 2 5 6 5 6 2
split_gain=127.862 31.1519 29.9785 14.526 13.7846 13.4324 10.0488 9.93229 9.27078 8.85646 8.55258 8.01069 7.38074 6.04338 5.68829 5.61963 8.68479 5.5785 4.87024 4.66342 6.55884 5.07489 4.1518 4.81051 4.05298 4.0189 3.86491 3.77098 5.33873 4.77588
threshold=127.50000000000001 29.950000000000003 28.500000000000004 26.450000000000003 154.50000000000003 94.500000000000014 145.50000000000003 0.56050000000000011 0.4215000000000001 6.5000000000000009 45.650000000000013 30.950000000000003 296.50000000000006 54.500000000000007 0.82300000000000006 27.500000000000004 83.000000000000014 34.500000000000007 544.00000000000011 27.500000000000004 27.000000000000004 5.5000000000000009 0.15950000000000003 165.50000000000003 79.000000000000014 32.45000000000001 0.34450000000000003 45.250000000000007 0.49850000000000005 53.000000000000007
decision_type=2 2 2 2 2 2 2 2 2 2 2 2 2 2 2 2 2 2 2 2 2 2 2 2 2 2 2 2 2 2
left_child=2 6 11 -4 8 14 -2 13 10 -9 22 -1 -10 15 -5 16 17 -7 26 -8 21 -21 -3 25 -17 -24 -6 28 29 -13
right_child=1 4 3 5 18 7 19 9 12 -11 -12 27 -14 -15 -16 24 -18 -19 -20 20 -22 -23 23 -25 -26 -27 -28 -29 -30 -31
leaf_value=-0.69425376864081678 -0.62697893293128903 -0.35658584325261095 -0.67465154378372827 -0.68417747113254801 -0.37483551459455988 -0.52865417304813322 -0.62902736542885473 -0.48563709059925247 -0.34876455553463204 -0.27055167835484906 -0.270551678354849 -0.48563709059925275 -0.6146883379458945 -0.70072250284365589 -0.44262000815037184 -0.62591018554125477 -0.65292574456712182 -0.3698218686214968 -0.52865417304813311 -0.60512898629058764 -0.27055167835484911 -0.37809438447705079 -0.64695114978255508 -0.70072250284365589 -0.46173871146098544 -0.47628555093645231 -0.28564539149480711 -0.44262000815037178 -0.56487908458403269 -0.67956656065568177
leaf_weight=30.91794990003109 8.1363026052713376 1.1623289436101938 7.671371027827262 6.0441105067729941 7.6713710278272691 3.4869868308305829 1.3947947323322285 4.6493157744407645 10.228494703769682 3.2545210421085358 1.3947947323322285 1.3947947323322356 1.1623289436101902 1.859726309776305 1.1623289436101911 5.3467131406068793 2.0921920984983435 6.044110506772995 1.1623289436101902 2.0921920984983449 1.8597263097763059 1.8597263097763059 1.8597263097763042 1.8597263097763059 2.0921920984983444 5.3467131406068802 13.25054995715618 1.1623289436101902 8.8336999714374524 14.180413112044333
leaf_count=133 35 5 33 26 33 15 6 20 44 14 6 6 5 8 5 23 9 26 5 9 8 8 8 8 9 23 57 5 38 61
internal_value=-0.542599 -0.427729 -0.611894 -0.549705 -0.385855 -0.523104 -0.550814 -0.492575 -0.440013 -0.397073 -0.502844 -0.660007 -0.3759 -0.528654 -0.645217 -0.511867 -0.46843 -0.427931 -0.329417 -0.464822 -0.425413 -0.498289 -0.53452 -0.557332 -0.579737 -0.520328 -0.318348 -0.618599 -0.626979 -0.6622
internal_weight=0 60.4411 100.193 43.7036 45.0984 36.0322 15.3427 28.8258 23.0141 7.90384 11.6233 56.4892 11.3908 20.9219 7.20644 19.0622 11.6233 9.5311 22.0842 7.20644 5.81164 3.95192 10.2285 9.06617 7.43891 7.20644 20.9219 25.5712 24.4089 15.5752
internal_count=691 260 431 188 194 155 66 124 99 34 50 243 49 90 31 82 50 41 95 31 25 17 44 39 32 31 90 110 105 67
shrinkage=1


Tree=1
num_leaves=31
num_cat=0
split_feature=1 1 7 5 5 6 1 7 2 5 0 0 5 2 7 6 6 6 5 4 2 7 6 4 2 7 4 6 5 4
split_gain=103.255 26.3232 19.6426 13.9725 12.0371 9.91366 8.46932 7.97346 8.77761 8.18738 7.69577 6.80581 6.16321 5.4609 4.93394 5.28284 5.21888 4.29209 4.11377 5.00676 6.26893 5.11273 4.08452 4.13286 3.83008 3.81025 6.42582 6.35954 3.79189 4.48507
threshold=123.50000000000001 154.50000000000003 28.500000000000004 27.350000000000005 26.450000000000003 0.63400000000000012 94.500000000000014 31.500000000000004 73.000000000000014 41.900000000000006 6.5000000000000009 1.0000000180025095e-35 30.950000000000003 69.000000000000014 54.500000000000007 0.22400000000000003 0.42850000000000005 0.51450000000000007 31.150000000000002 144.50000000000003 67.000000000000014 41.500000000000007 0.32700000000000001 544.00000000000011 54.500000000000007 41.500000000000007 119.50000000000001 0.23350000000000001 33.45000000000001 155.50000000000003
decision_type=2 2 2 2 2 2 2 2 2 2 2 2 2 2 2 2 2 2 2 2 2 2 2 2 2 2 2 2 2 2
left_child=2 3 12 -2 -4 6 -6 8 11 -10 28 -5 -1 24 15 -8 18 25 -17 20 -20 -22 -3 -24 -13 26 -9 -27 -7 -30
right_child=1 22 4 7 5 10 14 17 9 -11 -12 13 -14 -15 -16 16 -18 -19 19 -21 21 -23 23 -25 -26 27 -28 -29 29 -31
leaf_value=-0.14279920811250485 -0.084896563290190852 0.11400629331661145 -0.13650538524484099 0.25124497169205656 -0.1325039117246373 0.12055813670608705 -0.067292869146396581 0.083477895538588448 -0.12070391338792119 0.13061696177068824 0.21095500886826632 0.1227755740231362 -0.073429195460734106 0.19308548833569283 -0.14962265589317902 0.25935316658258795 -0.04176257668170831 0.17442386062736839 0.19612910455099888 0.25935286905350069 -0.15709391616112575 0.070297086136784676 0.20704818108904299 0.012502035602429427 -0.072753459557741484 0.006509455957283982 -0.15389890637086645 0.22084365381393256 -0.16230868557848699 0.09290040294739435
leaf_weight=27.989666193723679 7.2612474411725989 9.5960497111082095 6.9309634566307059 1.9155620932579021 5.5720914155244854 2.1247076392173749 4.3996626585722032 4.031922712922098 5.7145973443984976 1.6765378862619398 3.6449366956949234 1.4073871523141859 23.611685648560524 1.6697401255369184 1.7732717990875233 1.4203666746616344 3.4635173231363288 6.9879607409238806 1.6622738540172575 1.1826954185962675 1.8434608429670336 2.132765144109726 17.071391716599468 1.1665766686201084 3.4763652235269547 2.3585212528705597 1.590140178799629 3.3515282720327377 1.6553909033536913 1.1791019886732099
leaf_count=126 32 40 31 8 25 9 19 17 25 7 15 6 104 7 8 6 15 29 7 5 8 9 70 5 15 10 7 14 7 5
internal_value=0 0.0916015 -0.0705819 0.0410831 -0.0170086 0.0088297 -0.0248568 0.0678462 0.015937 -0.0636966 0.10064 0.0854349 -0.111057 0.0369693 0.00869392 0.026126 0.0612399 0.112786 0.104527 0.0722874 0.0330497 -0.0351261 0.166817 0.194604 -0.0164064 0.0747762 0.0163384 0.132313 0.0195607 -0.0561459
internal_weight=0 69.2755 90.5866 41.4415 38.9852 32.0542 23.4501 34.1803 15.8602 7.39114 8.60414 8.46905 51.6014 6.55349 17.878 16.1047 11.7051 18.3201 8.24156 6.8212 5.6385 3.97623 27.834 18.238 4.88375 11.3321 5.62206 5.71005 4.9592 2.83449
internal_count=691 292 399 177 169 138 102 145 68 32 36 36 230 28 77 69 50 77 35 29 24 17 115 75 21 48 24 24 21 12
shrinkage=0.1


Tree=2
num_leaves=31
num_cat=0
split_feature=1 1 7 7 5 5 1 5 6 6 6 6 7 7 0 6 0 7 6 0 7 2 3 2 6 5 5 5 6 2
split_gain=84.3936 21.2775 16.8914 15.7371 10.2702 9.18036 8.15176 5.71664 5.48132 5.41154 5.92395 7.04604 4.77073 7.87589 5.06006 4.323 4.12939 6.70245 6.25879 4.37454 4.4656 6.85139 4.11595 3.72798 3.58456 3.50781 4.84315 3.33122 3.76681 5.46427
threshold=123.50000000000001 165.50000000000003 28.500000000000004 24.500000000000004 26.450000000000003 30.050000000000004 94.500000000000014 30.950000000000003 0.22400000000000003 0.73350000000000015 0.59750000000000003 0.4215000000000001 54.500000000000007 41.500000000000007 3.5000000000000004 0.82300000000000006 6.5000000000000009 39.500000000000007 0.66050000000000009 1.5000000000000002 34.500000000000007 81.000000000000014 34.500000000000007 93.000000000000014 0.78600000000000014 42.150000000000013 31.150000000000002 45.250000000000007 0.49850000000000005 53.000000000000007
decision_type=2 2 2 2 2 2 2 2 2 2 2 2 2 2 2 2 2 2 2 2 2 2 2 2 2 2 2 2 2 2
left_child=2 3 7 22 -4 12 15 -1 -8 10 11 25 13 14 -5 -6 19 -18 -19 24 -21 -22 -2 -3 -10 26 -7 28 29 -9
right_child=1 23 4 5 6 9 8 27 16 -11 -12 -13 -14 -15 -16 -17 17 18 -20 20 21 -23 -24 -25 -26 -27 -28 -29 -30 -31
leaf_value=-0.13577062707858825 -0.094987584441128481 0.18459210877229054 -0.12928967385069015 0.059221605407288429 -0.1269437487781209 0.18561289457795613 -0.065535398743612569 0.10207261688230101 0.17538902564669376 0.18707341163467348 -0.057772831617440581 0.20560885958385089 -0.11537912605064367 0.17233658753233239 -0.12227682988435801 0.08281430080370461 0.22450041094645212 -0.040935685977160657 0.20614084153466022 -0.10337314250090734 0.11551246359246857 -0.15106335562255613 0.060591332879484289 0.019369732870606702 -0.022069728747519352 0.15978148311411669 0.012451147761288587 0.096648771553728668 -0.018834870449873919 -0.12450041246710852
leaf_weight=26.568068861961365 8.1548289805650693 17.561857908964161 6.6029745787382117 3.2048370540142042 5.550149783492091 1.9421072304248905 4.5268507748842266 1.1571981012821257 2.6215648502111462 6.4393634796142569 2.6358741968870154 4.9119750112295142 2.6960446387529364 2.8906286507844925 2.9499765187501907 1.1938881278038023 3.1938509792089453 3.2454976588487625 1.4986689090728758 3.6748307049274427 3.5311311483383179 1.3262495845556257 2.1484727412462226 1.4807859659194935 1.4158934652805326 3.2103254050016394 9.5953933149576169 1.1703381687402714 7.4635973274707785 13.277306959033011
leaf_count=126 36 71 31 14 26 8 20 5 11 26 11 20 12 12 13 5 13 14 6 16 15 6 9 6 6 13 41 5 33 61
internal_value=0 0.0815985 -0.0656261 0.0477936 -0.0158082 0.0758805 0.00777111 -0.104148 0.0340586 0.106323 0.0830012 0.101875 0.00137765 0.0361777 -0.0277698 -0.0898106 0.0560429 0.112509 0.0371151 0.0203831 -0.0201984 0.0427271 -0.0625458 0.171744 0.106142 0.0673255 0.0415995 -0.0677279 -0.0765129 -0.106336
internal_weight=0 69.8225 88.0181 50.7798 38.3816 40.4765 31.7786 49.6365 25.0345 28.735 22.2957 19.6598 11.7415 9.04544 6.15481 6.74404 20.5077 7.93802 4.74417 12.5697 8.53221 4.85738 10.3033 19.0426 4.03746 14.7478 11.5375 23.0684 21.8981 14.4345
internal_count=691 292 399 215 169 170 138 230 107 119 93 82 51 39 27 31 87 33 20 54 37 21 45 77 17 62 49 104 99 66
shrinkage=0.1


Tree=3
num_leaves=31
num_cat=0
split_feature=1 1 7 7 5 5 1 5 6 6 6 7 6 7 7 7 6 3 3 6 0 7 1 7 1 0 1 2 5 5
split_gain=69.5609 16.9685 14.6343 12.7635 8.8204 7.40054 6.81114 5.32335 4.86336 4.7863 5.73518 4.82849 4.46621 3.88206 3.99706 3.90025 3.70846 3.44073 3.39994 6.90842 3.34749 5.74696 3.79092 4.69236 3.87877 3.2145 3.00199 2.97959 2.81368 3.87393
threshold=123.50000000000001 165.50000000000003 28.500000000000004 24.500000000000004 26.450000000000003 29.950000000000003 94.500000000000014 30.950000000000003 0.73350000000000015 0.58750000000000013 0.4215000000000001 38.500000000000007 0.22400000000000003 60.500000000000007 41.500000000000007 50.500000000000007 0.82300000000000006 34.500000000000007 12.500000000000002 0.39200000000000007 6.5000000000000009 49.500000000000007 114.50000000000001 37.500000000000007 119.50000000000001 3.5000000000000004 119.50000000000001 93.000000000000014 30.850000000000005 42.150000000000013
decision_type=2 2 2 2 2 2 2 2 2 2 2 2 2 2 2 2 2 2 2 2 2 2 2 2 2 2 2 2 2 2
left_child=2 3 7 17 -4 13 16 -1 9 10 28 -11 -8 14 25 -16 -6 18 19 -2 22 26 23 -14 -24 -5 -22 -3 -7 -30
right_child=1 27 4 5 6 8 12 -9 -10 11 -12 -13 20 -15 15 -17 -18 -19 -20 -21 21 -23 24 -25 -26 -27 -28 -29 29 -31
leaf_value=-0.12982773978512871 -0.14812465982391756 0.16495439389643346 -0.12307250869062621 0.038774269417510193 -0.12064069839821011 0.20393829698854482 -0.060285141794160259 -0.062799433984739639 0.16910993636248492 -0.16173655262994538 0.18711077931704168 0.088098279773952029 -0.15129524095229605 -0.14888772581495877 0.21136785381491816 0.012343445149286727 0.073411916912806283 0.053983134786308909 -0.13191715528123965 0.18891119473450724 0.17075603965057562 -0.087758357184402599 0.15437781766794112 0.025408649212975771 -0.011976116682126373 -0.11256536760307888 -0.0063978438634252873 0.017400655370508392 0.017119167992386768 0.14241595707482821
leaf_weight=25.082526057958603 1.2966060638427719 17.678067415952686 6.2606301158666602 3.0048618018627149 5.2706276178360012 1.2468122839927769 4.4339742511510876 22.457055658102036 6.7280362993478766 1.6292539685964578 4.6813097596168509 1.4729404151439665 2.2198421508073825 1.5342650860548008 1.7393855750560758 2.2692323327064514 1.2111120223999021 2.1691327393054962 5.4774670898914337 1.1454408913850782 5.434780851006507 1.337509289383888 3.0881939679384232 4.6523363590240479 2.5664021372795105 2.6335325986146927 1.1608679145574567 1.4833711683750141 10.354934215545653 3.2395803630352011
leaf_count=126 6 71 31 13 26 5 20 104 27 7 19 6 10 7 7 10 5 9 25 5 22 6 13 20 11 12 5 6 44 13
internal_value=0 0.0733818 -0.0612834 0.043044 -0.0146977 0.0680946 0.00692713 -0.0981645 0.0944665 0.0722695 0.0906042 -0.0431135 0.0307017 -0.00113638 0.0223621 0.0987024 -0.084382 -0.0576042 -0.0881676 0.00996184 0.0504199 0.101248 0.0182306 -0.03167 0.0788762 -0.0319121 0.139576 0.153532 0.0601637 0.0469775
internal_weight=0 69.7842 85.1759 50.6228 37.6363 40.5341 31.3756 47.5396 29.3529 22.6248 19.5226 3.10219 24.8939 11.1813 9.64701 4.00862 6.48174 10.0886 7.91951 2.44205 20.4599 7.93316 12.5268 6.87218 5.6546 5.63839 6.59565 19.1614 14.8413 13.5945
internal_count=691 292 399 215 169 170 138 230 121 94 81 13 107 49 42 17 31 45 36 11 87 33 54 30 24 25 27 77 62 57
shrinkage=0.1


Tree=4
num_leaves=31
num_cat=0
split_feature=1 5 7 5 7 1 4 4 5 7 6 7 2 2 4 7 6 5 1 5 1 3 5 6 2 5 5 5 2 1
split_gain=57.6781 13.852 12.6654 7.61193 7.41663 7.35675 5.99671 7.34364 5.06788 4.99542 4.63949 4.17064 3.93914 5.59563 3.66731 3.62557 3.41043 3.60513 2.92182 3.05457 2.83397 4.04761 2.82168 3.43405 4.79116 4.40349 5.32948 2.46189 2.46124 3.39619
threshold=123.50000000000001 29.950000000000003 28.500000000000004 26.450000000000003 26.500000000000004 154.50000000000003 144.50000000000003 41.500000000000007 30.950000000000003 60.500000000000007 0.85300000000000009 24.500000000000004 67.000000000000014 59.000000000000007 202.00000000000003 33.500000000000007 0.4215000000000001 45.650000000000013 151.50000000000003 27.350000000000005 125.50000000000001 28.500000000000004 45.250000000000007 0.49850000000000005 53.000000000000007 32.850000000000001 39.050000000000004 34.150000000000013 71.000000000000014 135.50000000000003
decision_type=2 2 2 2 2 2 2 2 2 2 2 2 2 2 2 2 2 2 2 2 2 2 2 2 2 2 2 2 2 2
left_child=2 4 8 -4 -2 11 7 10 -1 18 12 14 13 -5 -3 -8 17 28 20 -20 -6 -22 23 24 -10 -25 -27 -17 29 -13
right_child=1 5 3 6 9 -7 15 -9 22 -11 -12 16 -14 -15 -16 27 -18 -19 19 -21 21 -23 -24 25 -26 26 -28 -29 -30 -31
leaf_value=-0.1247162166231649 -0.10904079059726002 0.036494307096904897 -0.11761488213699632 -0.085587042407203051 0.13320127455701658 0.13441491617050877 0.23822511232907329 -0.10670267256520877 0.097115044412449669 -0.14216211940292681 0.15384792456478127 0.0016832100232958358 -0.027908935278861582 0.16253805197583868 -0.1446958017783431 -0.041053119688162457 0.11585534101914403 0.18396965054687464 0.19212827892128906 0.010054902421718456 -0.06104016939463968 0.14702592608378451 0.092481057773262779 -0.14867802552990159 -0.11470082287306782 0.10675859896135649 -0.098221408346443148 0.12137531088165132 -0.013799911615211175 0.22088135797219796
leaf_weight=23.57726526260376 5.2525550127029446 3.331844329833987 5.9140159785747519 1.3323735743761194 1.6306951642036418 23.395113483071327 1.4468658715486515 6.3836656212806693 1.1692287027835906 1.4504714310169209 2.1963981240987769 1.6544138789176961 12.901554375886915 2.8594940006732941 1.6804797053337095 1.6228862404823305 11.205003082752226 1.4871852695941914 2.4745121896266942 1.4680796116590498 4.3851124346256256 1.1883353143930433 1.1800643056631077 1.7616894245147694 12.320119768381117 3.523378849029541 1.9819006025791166 2.195528581738472 7.2616548985242844 1.2340907156467436
leaf_count=126 25 14 31 6 7 95 6 30 5 7 9 7 59 12 8 7 46 6 10 6 20 5 5 8 61 16 9 9 31 5
internal_value=0 0.0666503 -0.0572437 -0.0136654 -0.00921586 0.0930737 0.00620482 -0.0137328 -0.0925294 0.0324073 0.0170341 0.0583512 -0.000545589 0.0836722 -0.0242532 0.103421 0.0764772 0.038562 0.0551232 0.124331 0.0172482 -0.0166776 -0.0579349 -0.0664866 -0.0963411 -0.0110691 0.0329658 0.0523407 0.0172571 0.0953339
internal_weight=0 69.0995 82.3664 36.8528 17.8498 51.2498 30.9388 25.6735 45.5136 12.5972 19.2898 27.8547 17.0934 4.19187 5.01232 5.26528 22.8423 11.6373 11.1467 3.94259 7.20414 5.57345 21.9364 20.7563 13.4893 7.26697 5.50528 3.81841 10.1502 2.8885
internal_count=691 292 399 169 80 212 138 116 230 55 86 117 77 18 22 22 95 49 48 16 32 25 104 99 66 33 25 16 43 12
shrinkage=0.1


Tree=5
num_leaves=31
num_cat=0
split_feature=1 1 7 7 5 5 5 1 0 5 6 6 6 7 6 2 2 1 2 1 6 3 5 0 7 7 0 7 4 5
split_gain=48.0036 11.9642 11.1595 8.60464 7.63481 7.25441 5.03617 4.87001 4.26365 3.63022 3.33341 4.39665 5.48041 3.93174 3.10593 4.25733 3.47493 7.59301 2.93091 3.30095 4.36626 3.48794 3.67282 6.86088 2.84857 2.82441 3.57353 2.81295 2.80304 4.65901
threshold=123.50000000000001 165.50000000000003 29.500000000000004 24.500000000000004 26.850000000000005 45.45000000000001 30.050000000000004 89.500000000000014 6.5000000000000009 30.950000000000003 0.73350000000000015 0.58750000000000013 0.4215000000000001 38.500000000000007 0.49850000000000005 53.000000000000007 69.000000000000014 89.500000000000014 91.000000000000014 106.50000000000001 0.66050000000000009 27.500000000000004 29.950000000000003 7.5000000000000009 60.500000000000007 41.500000000000007 3.5000000000000004 50.500000000000007 202.00000000000003 28.750000000000004
decision_type=2 2 2 2 2 2 2 2 2 2 2 2 2 2 2 2 2 2 2 2 2 2 2 2 2 2 2 2 2 2
left_child=2 3 5 28 -4 8 24 -6 9 -1 11 12 -8 -13 15 -11 17 -16 19 20 21 22 -9 -24 25 26 -5 -27 29 -2
right_child=1 -3 4 6 7 -7 10 18 -10 14 -12 13 -14 -15 16 -17 -18 -19 -20 -21 -22 -23 23 -25 -26 27 -28 -29 -30 -31
leaf_value=-0.12503009474937787 -0.10580412508833986 0.12884077117066015 -0.11397672753293245 0.044971307411272012 -0.089239129787230961 0.15585361867273678 0.048343902240548166 -0.14480046464180052 0.10647544621695776 0.085350989891608511 0.14185386804424904 -0.15915295230976292 0.17566584018612524 0.066332871232505877 -0.14899301323730477 -0.11190392611581629 -0.088973699061645983 0.14390909181834619 -0.094764753609571151 0.075776581672747229 0.10933351968797089 -0.11983842863566362 0.23230768976342953 -0.059323556033663627 -0.13660396204985067 0.17962494837652146 -0.10985854181059405 0.0095714235735824167 -0.14276703631144838 0.056342131252225827
leaf_weight=22.318654417991638 3.2927393168210966 18.721064999699593 5.7921684682369223 3.2656643539667112 4.034523859620097 1.2129398584365834 14.802234396338472 1.0506201535463384 1.0570380836725224 1.1957910656929041 6.3200192600488654 1.6116617769002908 4.3813690692186347 1.4865770787000654 1.3167383670806874 12.874132394790648 3.4481586515903473 2.6996021866798401 1.7528861165046681 11.716303452849386 2.6080181300640106 3.205745130777359 1.4506769329309466 1.8172397464513776 1.363037422299384 1.7126737684011462 2.7426398545503616 2.2514709532260895 2.4373051226139069 3.8370787352323532
leaf_count=127 17 77 32 14 21 5 62 5 5 5 26 7 18 6 6 67 16 12 8 50 11 15 6 8 7 7 13 10 12 16
internal_value=0 0.0607442 -0.0535813 0.0349922 -0.00958652 -0.085467 0.0553976 0.0122924 -0.0919847 -0.0967684 0.0777531 0.0595715 0.0774231 -0.0509618 -0.0674774 -0.0951394 -0.015337 0.0478825 0.0296485 0.0396301 -0.00216729 -0.040815 0.0178459 0.0701359 -0.00101 0.017523 -0.0257046 0.0830415 -0.0501889 -0.0185413
internal_weight=0 68.2255 79.5512 49.5045 33.4282 46.1231 39.9373 27.636 44.9101 43.8531 28.6019 22.2818 19.1836 3.09824 21.5344 14.0699 7.4645 4.01634 23.6015 21.8486 10.1323 7.52428 4.31854 3.26792 11.3355 9.97245 6.0083 3.96414 9.56712 7.12982
internal_count=691 292 399 215 156 243 170 124 238 233 119 93 80 13 106 72 34 18 103 95 45 34 19 14 51 44 27 17 45 33
shrinkage=0.1


Tree=6
num_leaves=31
num_cat=0
split_feature=1 1 5 7 7 5 1 5 6 6 6 7 2 2 7 7 0 7 0 6 7 1 3 2 6 5 0 5 5 6
split_gain=40.1833 9.99058 9.93065 8.93628 7.11769 5.26952 4.41675 4.11815 2.87788 3.58632 4.77439 3.34173 2.62631 2.58679 2.49397 3.98032 3.01391 2.38902 2.68032 3.99439 4.62824 2.66245 4.27438 3.90738 3.88753 3.70658 3.44385 2.30759 2.67186 2.1683
threshold=123.50000000000001 165.50000000000003 26.850000000000005 30.500000000000004 24.500000000000004 45.45000000000001 89.500000000000014 30.050000000000004 0.73350000000000015 0.58750000000000013 0.4215000000000001 38.500000000000007 93.000000000000014 54.500000000000007 54.500000000000007 41.500000000000007 3.5000000000000004 56.500000000000007 6.5000000000000009 0.63400000000000012 40.500000000000007 108.50000000000001 28.500000000000004 77.000000000000014 0.70650000000000024 29.750000000000004 1.5000000000000002 30.850000000000005 42.150000000000013 0.66900000000000015
decision_type=2 2 2 2 2 2 2 2 2 2 2 2 2 2 2 2 2 2 2 2 2 2 2 2 2 2 2 2 2 2
left_child=2 4 -1 5 13 29 -5 14 9 10 27 -11 -3 -2 15 16 -6 18 21 20 -20 22 25 24 -23 -8 -25 -9 -29 -4
right_child=1 12 3 6 7 -7 17 8 -10 11 -12 -13 -14 -15 -16 -17 -18 -19 19 -21 -22 23 -24 26 -26 -27 -28 28 -30 -31
leaf_value=-0.11246302818284021 0.095949812509861593 0.12990486638214879 -0.085312698240277096 -0.08396668376945883 0.04010571884524073 0.13756907395550941 -0.086326237243178533 0.17521280550349488 0.13133675081735388 -0.1505806002124096 0.16361901637651124 0.059783989288305597 -0.0087130103475231667 -0.066310845828132667 -0.093324066002310815 0.11977163139594466 -0.1035196265478372 -0.084642036383438424 0.16181428018981298 0.16954626224039029 -0.04327638881148832 0.20645119218281144 -0.14407246615302732 0.073099034320294562 -0.015790647777778024 0.12459810586134637 -0.1497532178223987 0.0072613814469000386 0.11216960489383127 -0.014928881321242357
leaf_weight=19.261086449027061 1.1169345527887333 16.829616114497188 25.231529369950302 3.8678899556398418 3.2940495759248716 1.23533734679222 1.4744962453842219 1.2178828418254948 6.1520710885524741 1.5368966311216348 4.2405946850776663 1.4845608025789259 1.4876229017972935 8.1632921099662763 2.3164606392383567 2.8777889311313629 2.6256599724292755 1.6243188083171833 1.6810730248689632 3.3432181626558304 3.1851376295089722 2.2183220535516743 2.2865323573350906 1.4733865559101107 1.2199328392744062 1.9154268652200697 1.3099748939275739 10.485479816794394 3.1591307371854773 5.295628920197486
leaf_count=116 5 71 136 21 14 5 7 5 26 7 18 6 6 40 12 12 13 8 7 14 14 9 11 6 5 8 6 44 13 26
internal_value=0 0.0556963 -0.050336 -0.0294749 0.0320048 -0.0649094 0.0144899 0.0505666 0.0708376 0.0540149 0.0700268 -0.0472202 0.118647 -0.0467817 -0.00100785 0.0232998 -0.0235986 0.0320135 0.0414371 0.0853909 0.0275739 0.0111099 -0.038414 0.0562944 0.127597 0.0328535 -0.0317852 0.0433229 0.0315507 -0.073103
internal_weight=0 66.988 76.6233 57.3622 48.6708 31.7625 25.5997 39.3906 28.2766 22.1245 19.1031 3.02146 18.3172 9.28023 11.114 8.7975 5.91971 21.7318 20.1075 8.20943 4.86621 11.8981 5.67646 6.22162 3.43825 3.38992 2.78336 14.8625 13.6446 30.5272
internal_count=691 292 399 283 215 167 116 170 119 93 80 13 77 45 51 39 27 95 87 35 21 52 26 26 14 15 12 62 57 162
shrinkage=0.1


Tree=7
num_leaves=31
num_cat=0
split_feature=1 5 1 7 7 5 1 5 4 5 6 6 6 6 7 7 2 7 6 5 7 0 6 7 6 0 3 7 1 5
split_gain=33.721 9.03216 8.43974 7.12714 5.89946 4.33112 3.9603 3.41746 2.5357 4.02784 2.87382 2.48738 2.96078 4.20263 2.86408 2.38598 2.25926 2.23986 2.26348 2.92194 2.44091 2.22458 3.46847 3.90054 2.35442 2.58374 2.42997 4.49062 2.02498 1.9679
threshold=123.50000000000001 26.450000000000003 165.50000000000003 30.500000000000004 24.500000000000004 45.45000000000001 89.500000000000014 30.050000000000004 202.00000000000003 28.750000000000004 0.53050000000000008 0.73350000000000015 0.58750000000000013 0.4215000000000001 38.500000000000007 56.500000000000007 93.000000000000014 60.500000000000007 0.2185 29.400000000000002 27.500000000000004 6.5000000000000009 0.63400000000000012 39.500000000000007 0.72600000000000009 2.5000000000000004 29.500000000000004 34.500000000000007 114.50000000000001 30.850000000000005
decision_type=2 2 2 2 2 2 2 2 2 2 2 2 2 2 2 2 2 2 2 2 2 2 2 2 2 2 2 2 2 2
left_child=1 -1 4 5 8 -3 -5 17 9 -2 -11 12 13 29 -14 21 -4 18 -6 20 -20 24 23 -23 25 28 27 -27 -8 -9
right_child=2 3 16 6 7 -7 15 11 -10 10 -12 -13 14 -15 -16 -17 -18 -19 19 -21 -22 22 -24 -25 -26 26 -28 -29 -30 -31
leaf_value=-0.11167136256721798 -0.098697423213166074 -0.067462894274737673 0.12087505339760177 -0.081545698334091865 -0.080116425888185308 0.12298092601996585 0.026668839977309927 0.16322096787217966 -0.13559460908125595 -0.023110737112400317 0.15105071119557176 0.12242975540644685 -0.143611581641193 0.15412980435033644 0.053978571386213287 -0.084014218030656201 -0.0078387528155070101 -0.12911955723372534 -0.066093998870525722 -0.087531640777469111 0.098518817388457761 0.17940277262300808 0.1588924371950064 -0.027244664811768161 -0.066389034398611227 -0.08562178788988517 -0.097480101116896811 0.13008173546433122 0.19568246460843242 0.028519734311552816
leaf_weight=16.811659291386604 3.0474984943866712 30.313124239444736 16.305330321192745 3.892502740025523 1.9852662086486796 1.2431436032056797 1.3613221347332056 1.1785884052515125 2.2320335507392883 2.1021068841218953 1.7248693853616712 5.9501405358314505 1.4545605033636086 4.060675084590911 1.4800306707620619 1.7440714091062535 1.4881541728973378 1.21260805428028 1.0929086804389951 1.4620522111654279 5.124440923333168 1.2218646556138972 3.2170330286026001 3.618189200758934 2.9926348179578772 1.6319099962711336 1.8192942738533018 2.3621838837862015 1.4791052639484403 13.596433088183401
leaf_count=109 17 167 71 22 9 5 6 5 12 9 7 26 7 18 6 9 6 7 5 7 23 5 14 16 13 8 9 10 6 57
internal_value=0 -0.0472729 0.0513342 -0.0282446 0.029411 -0.0599605 0.0112515 0.0464924 -0.042988 -0.0129201 0.0553862 0.0651318 0.0494714 0.0640278 -0.043959 0.0280932 0.11011 -0.00100949 0.0150642 0.0396702 0.0695826 0.0380164 0.0784144 0.0249232 0.0100689 0.0365093 -0.00168491 0.0419494 0.11468 0.0392647
internal_weight=0 73.708 65.4977 56.8964 47.7042 31.5563 25.3401 38.5977 9.10651 6.87447 3.82698 27.7204 21.7703 18.8357 2.93459 21.4476 17.7935 10.8773 9.66467 7.6794 6.21735 19.7035 8.05709 4.84005 11.6465 8.65382 5.81339 3.99409 2.84043 14.775
internal_count=691 399 292 290 215 172 118 170 45 33 16 119 93 80 13 96 77 51 44 35 28 87 35 21 52 39 27 18 12 62
shrinkage=0.1


Tree=8
num_leaves=31
num_cat=0
split_feature=1 1 5 7 3 7 5 7 2 0 6 5 7 6 6 7 1 2 4 7 6 5 5 6 0 1 5 4 6 3
split_gain=28.6518 11.9814 7.24081 4.91761 5.90885 5.08698 3.9649 3.93041 2.85758 2.68512 2.4432 2.99355 2.43937 4.2773 2.43617 3.59974 2.42924 3.45958 2.35595 2.29627 3.28773 3.08691 3.91621 2.17052 2.1666 2.85863 2.14226 1.98332 2.83084 2.22639
threshold=106.50000000000001 154.50000000000003 26.850000000000005 30.500000000000004 9.0000000000000018 28.500000000000004 26.450000000000003 25.500000000000004 84.500000000000014 2.5000000000000004 0.34450000000000003 35.45000000000001 33.500000000000007 0.26050000000000006 0.27050000000000007 53.500000000000007 127.50000000000001 74.500000000000014 544.00000000000011 24.500000000000004 0.74650000000000005 33.000000000000007 30.850000000000005 0.46350000000000002 1.0000000180025095e-35 130.50000000000003 45.650000000000013 159.50000000000003 0.31600000000000006 30.500000000000004
decision_type=2 2 2 2 2 2 2 2 2 2 2 2 2 2 2 2 2 2 2 2 2 2 2 2 2 2 2 2 2 2
left_child=6 2 9 4 5 16 -1 8 -8 -2 11 14 13 -11 15 -3 -4 -18 -12 24 21 22 -21 -9 25 -6 -5 28 -23 -30
right_child=1 10 3 26 19 -7 7 23 -10 12 18 -13 -14 -15 -16 -17 17 -19 -20 20 -22 27 -24 -25 -26 -27 -28 -29 29 -31
leaf_value=-0.12102211075970569 -0.12585865305220803 0.11075239642868613 0.21679709773026767 0.043275834574693139 -0.13530498677137212 -0.060327845608281853 -0.10985943193786779 -0.05066262856363845 0.075633384104937598 -0.051641908715781219 0.12431340836719354 0.11825945270783063 -0.069530463562227834 0.24369885287776341 -0.074714805443320362 -0.10305328526643349 0.15177987772228221 -0.070535662562666607 -0.026293312815111311 -0.033433756704283349 0.11454426328946826 -0.13950806267743598 0.1828786124035375 0.018564421111916061 -0.10756007357261342 0.091854289186329846 0.1553400580230988 -0.14127380872845774 -0.067777039416378124 0.14150269820830855
leaf_weight=11.042397350072859 4.5568800270557386 2.9844466149806994 1.8459539264440561 27.893776580691341 0.89406105875969144 2.0829543471336365 11.076700896024704 11.193234458565714 0.89782749116420824 1.2494437992572787 14.266029268503187 3.9983815401792526 4.037688672542572 0.80715158581733693 2.2884142696857452 1.0697204470634458 1.9330486357212069 1.0973339974880216 1.1202306151390065 2.4426875263452517 1.8528689891099919 1.3151701837778094 1.2732041627168653 7.60717749595642 6.0974916815757751 1.4564130157232282 1.8169559985399235 2.5890413522720337 0.91632491350173984 1.1416788101196287
leaf_count=77 29 13 9 123 5 10 67 60 5 8 65 17 23 5 10 5 8 5 5 13 8 7 6 37 34 6 8 13 5 5
internal_value=0 0.0300402 0.0078513 0.0220742 -0.00886815 0.0704862 -0.0696172 -0.0511725 -0.0959515 -0.0677942 0.0880845 0.0504948 -0.0243776 0.0642704 0.0077757 0.0543383 0.126364 0.071277 0.113348 -0.0365098 -0.0074917 -0.0308554 0.040683 -0.0226514 -0.0761177 0.00544863 0.0501291 -0.075441 -0.0249118 0.048321
internal_weight=0 93.0274 67.3001 56.649 26.9382 6.95929 41.8173 30.7749 11.9745 10.6512 25.7272 10.341 6.09428 2.0566 6.34258 4.05417 4.87634 3.03038 15.3863 19.9789 11.531 9.67811 3.71589 18.8004 8.44797 2.35047 29.7107 5.96222 3.37317 2.058
internal_count=691 445 330 265 134 32 246 169 72 65 115 45 36 13 28 18 22 13 70 102 57 49 19 97 45 11 131 30 17 10
shrinkage=0.1


Tree=9
num_leaves=31
num_cat=0
split_feature=1 1 6 5 7 7 3 5 5 6 1 1 7 3 7 1 5 4 7 5 3 5 2 6 0 6 7 2 6 0
split_gain=24.2589 8.74806 6.53174 5.40959 4.43806 3.10569 3.39171 2.81725 2.9398 2.78516 2.77889 2.73552 2.52122 5.36047 4.38963 3.12637 2.41773 6.76637 2.38919 2.27515 6.57526 2.56012 2.25787 2.1821 2.99446 3.12577 2.4592 2.13501 2.12722 2.00484
threshold=111.50000000000001 154.50000000000003 0.66050000000000009 26.300000000000001 37.500000000000007 30.500000000000004 35.500000000000007 45.45000000000001 44.050000000000004 0.49300000000000005 94.500000000000014 152.50000000000003 31.500000000000004 9.0000000000000018 26.500000000000004 127.50000000000001 32.850000000000001 69.000000000000014 52.500000000000007 35.45000000000001 27.500000000000004 40.150000000000013 74.500000000000014 0.34450000000000003 3.5000000000000004 0.25850000000000006 53.500000000000007 57.000000000000007 1.4510000000000001 1.5000000000000002
decision_type=2 2 2 2 2 2 2 2 2 2 2 2 2 2 2 2 2 2 2 2 2 2 2 2 2 2 2 2 2 2
left_child=2 3 5 27 16 6 -1 8 11 -8 -7 12 13 14 15 -5 -4 -18 -12 20 -15 -21 -16 24 25 -3 -26 -2 -25 -22
right_child=1 23 4 7 -6 10 9 -9 -10 -11 18 -13 -14 19 22 -17 17 -19 -20 21 29 -23 -24 28 26 -27 -28 -29 -30 -31
leaf_value=-0.11008917875429125 0.056594404917088441 0.066269495759653477 -0.074036501944423003 0.30522353735977026 0.11497348827848806 -0.10072599622379547 -0.085457432708392886 0.12148047699049479 -0.15400416938206615 0.09014343437051997 0.017047368758530686 -0.12823162557606313 0.047205647263349512 -0.074988560519444011 0.072951435515587609 0.086625074878743102 -0.14034949241061337 0.16599963404203991 -0.1322860140447957 -0.1366077014325274 0.029216058313920643 0.0015848424113514611 -0.092549028217525128 0.11726056230824843 0.12355805702133138 -0.10493368059801977 -0.041450285488600018 -0.096522602210212777 -0.027221571789851906 0.16488085349668427
leaf_weight=22.026852265000347 1.0810902565717686 2.1792643666267413 4.5083449780940992 1.0853721648454695 3.0686305165290833 4.4165896326303473 1.9950232952833169 2.7108307778835288 0.98832571506500144 1.6504483669996259 7.6891506761312467 1.2074858397245396 23.214693248271942 5.5694641917943937 1.9499081373214724 1.6471303254365919 1.2118382006883623 1.7799568027257917 1.2448066771030424 3.4046863764524451 2.5039340853691101 2.2112334668636322 1.4280340224504469 13.67300423979759 4.7897548377513885 2.0884057879447937 1.1130881160497663 5.7763179242610931 1.101087450981139 1.9280623644590376
leaf_count=151 7 10 28 5 14 29 12 12 5 8 36 6 103 30 9 7 6 8 7 19 13 10 7 65 21 9 5 35 5 9
internal_value=0 0.032601 -0.0560713 0.0108917 0.0136648 -0.0749583 -0.0953023 0.0223472 0.0166463 -0.00595602 -0.0358379 0.0203008 0.0242915 -0.000190678 0.0792167 0.173454 -0.0277849 0.0419117 -0.00375989 -0.0312596 -0.00265866 -0.0821952 0.00298567 0.0819528 0.0463054 -0.0175096 0.0924427 -0.0723833 0.106493 0.0882346
internal_weight=0 81.6512 49.5916 56.7066 10.5688 39.0229 25.6723 49.8492 47.1383 3.64547 13.3505 46.15 44.9425 21.7278 6.11044 2.7325 7.50014 2.9918 8.93396 15.6174 10.0015 5.61592 3.37794 24.9446 10.1705 4.26767 5.90284 6.85741 14.7741 4.432
internal_count=691 392 299 277 56 243 171 235 223 20 72 218 212 109 28 12 42 14 43 81 52 29 16 115 45 19 26 42 70 22
shrinkage=0.1


Tree=10
num_leaves=31
num_cat=0
split_feature=1 1 7 4 6 5 5 7 2 0 5 5 6 3 1 7 2 2 6 6 6 2 5 6 7 7 2 0 6 7
split_gain=20.7575 8.61814 4.82254 4.87941 5.54385 3.73193 3.24632 3.21371 2.70932 2.62394 3.6234 3.70782 3.44729 3.38475 2.58864 2.53161 2.25249 2.10341 1.89624 1.84169 1.90124 1.91993 3.22151 2.70585 1.80586 4.20173 3.58909 1.99637 1.81422 2.40193
threshold=106.50000000000001 165.50000000000003 24.500000000000004 49.500000000000007 0.53650000000000009 26.450000000000003 45.45000000000001 25.500000000000004 84.500000000000014 7.5000000000000009 26.300000000000001 38.800000000000004 0.74150000000000016 41.500000000000007 127.50000000000001 56.500000000000007 77.000000000000014 93.000000000000014 0.23050000000000004 0.25000000000000006 0.29250000000000004 87.000000000000014 39.050000000000004 0.66050000000000009 41.500000000000007 58.500000000000007 84.500000000000014 4.5000000000000009 0.38400000000000006 25.500000000000004
decision_type=2 2 2 2 2 2 2 2 2 2 2 2 2 2 2 2 2 2 2 2 2 2 2 2 2 2 2 2 2 2
left_child=5 2 3 4 -2 -1 9 8 -7 10 -4 12 13 24 -13 -11 -16 -3 -9 -20 -21 22 23 -22 26 -26 28 -27 29 -12
right_child=1 17 6 -5 -6 7 -8 18 -10 15 11 14 -14 -15 16 -17 -18 -19 19 20 21 -23 -24 -25 25 27 -28 -29 -30 -31
leaf_value=-0.11689328494746665 -0.034316815286919496 0.10311720595107415 -0.086992301197509753 -0.096496996458403636 0.16037225788826606 -0.10318720386336244 0.11841052812213021 -0.082654438805322236 0.079534440662076669 0.069496709888240651 0.19342142721732727 -0.14204019669824861 0.10536553783440039 -0.12388701883513814 0.094551646789479055 -0.079960389762821452 -0.071258613685716996 -0.02255735158573953 0.12918041352179482 -0.1284816547165305 -0.051657101934807284 -0.13769970735185441 0.13131182303561681 0.061574822083307147 0.1169073551562284 0.050363009235448376 -0.10929948047554419 -0.14136567687073184 -0.015097723677005633 0.034149700849342345
leaf_weight=9.4972718805074674 5.4931044057011587 14.64107805490494 3.8481789231300345 7.5269306972622871 1.9933668524026869 9.8108402639627457 3.4222701340913764 3.7136532515287426 0.88465896248817522 12.46428696811199 1.0794613808393601 2.2754540890455237 4.9033200591802588 1.6657390296459187 1.3748815953731539 1.2467092275619496 2.0274726152420044 1.4650294482707966 0.98901307582855125 1.2730995565652836 6.107982978224749 0.93492203950882036 1.8686698079109199 3.2245424091815948 4.9431182891130439 1.0392002463340761 2.332319200038909 1.1375809162855146 6.7931909412145606 7.7076865136623383
leaf_count=77 32 71 24 47 9 67 16 21 5 57 5 12 22 8 6 7 9 6 5 8 34 5 9 15 21 5 12 6 34 36
internal_value=0 0.025454 0.0108959 -0.0396413 0.0175216 -0.0625315 0.0239189 -0.0446094 -0.0880737 0.0180221 0.00539211 0.0149285 0.0282963 0.0141421 -0.0594743 0.0559069 -0.00425516 0.0916857 -0.0189427 -0.00250996 -0.0122229 -2.7202e-05 0.0114638 -0.0125336 0.0233269 0.0659292 0.00639342 -0.049834 0.0237122 0.0537155
internal_weight=0 89.3804 73.2743 15.0134 7.48647 38.3047 58.2609 28.8074 10.6955 54.8386 41.1276 37.2794 31.6016 26.6983 5.67781 13.711 3.40235 16.1061 18.1119 14.3982 13.4092 12.1361 11.2012 9.33253 25.0326 7.1199 17.9127 2.17678 15.5803 8.78715
internal_count=691 445 368 88 41 246 280 169 72 264 200 176 149 127 27 64 15 77 97 76 71 63 58 49 119 32 87 11 75 41
shrinkage=0.1


Tree=11
num_leaves=31
num_cat=0
split_feature=1 1 7 3 6 5 1 7 5 3 7 2 5 5 6 6 7 2 7 5 2 4 7 2 1 2 0 5 1 0
split_gain=17.6218 7.36902 4.01357 4.36348 4.05395 3.56532 3.46726 2.86575 2.80521 2.48089 2.53091 2.36633 2.18297 3.61353 2.7532 2.39127 2.31224 4.32582 2.73441 1.84886 1.83122 1.77386 2.1496 1.95124 1.70901 1.76906 1.69729 3.30866 2.16122 2.10797
threshold=106.50000000000001 165.50000000000003 24.500000000000004 1.0000000180025095e-35 0.40150000000000008 26.450000000000003 124.50000000000001 25.500000000000004 45.45000000000001 34.500000000000007 22.500000000000004 84.500000000000014 19.450000000000003 26.300000000000001 0.73350000000000015 1.3905000000000001 41.500000000000007 84.500000000000014 44.500000000000007 38.800000000000004 93.000000000000014 175.50000000000003 29.500000000000004 73.000000000000014 133.50000000000003 73.000000000000014 4.5000000000000009 27.550000000000004 121.50000000000001 1.0000000180025095e-35
decision_type=2 2 2 2 2 2 2 2 2 2 2 2 2 2 2 2 2 2 2 2 2 2 2 2 2 2 2 2 2 2
left_child=5 2 3 4 6 -1 -2 11 12 -5 -11 -7 -4 24 16 19 17 21 -18 -16 -3 26 23 -23 -14 -26 27 -15 -28 -29
right_child=1 20 8 9 -6 7 -8 -9 -10 10 -12 -13 13 14 15 -17 18 -19 -20 -21 -22 22 -24 -25 25 -27 28 29 -30 -31
leaf_value=-0.11503115892627791 0.10248445806252225 0.09712130322497925 0.21379874151420475 -0.099658340437449311 0.20816363164513829 -0.099562715250214304 -0.13768458055573246 -0.01754382007526906 0.11182702983957415 0.10857195168051977 -0.068709498728194679 0.069108316866972372 -0.12052361403726537 0.15658654045123205 0.11693043426696369 -0.069343018663809472 0.11904569013445097 -0.11605337087880095 0.017075810838037914 0.0080646548104258177 -0.020251909663467956 0.11013708891236867 -0.12784076467900798 -0.071642147998849104 0.10146042550065766 -0.082603243951573063 0.13013789541306942 0.095297336480442321 0.02056824751736322 -0.043412006712151077
leaf_weight=8.7254338636994344 1.2129054218530653 14.022982582449911 0.5546562522649755 7.6408194079995138 1.2053341865539549 9.1838006228208542 1.1917098760604856 17.725151583552361 3.2693584263324729 1.3618635982275009 1.9704120308160782 0.91458329558372575 2.7186155170202246 1.1338168829679585 6.1965062767267209 1.0698766112327565 3.6236882209777823 3.1568398475646964 9.5879548788070661 2.0848549902439117 1.4684326946735371 1.1231666803359979 1.9187158197164533 1.2451319843530653 0.94128616154193911 1.1727067381143568 2.6671815365552884 1.2696719914674739 5.5380813330411911 7.9912560433149338
leaf_count=77 7 71 3 52 5 67 7 97 16 6 11 5 20 5 29 5 16 17 44 10 6 5 9 7 5 6 12 6 25 40
internal_value=0 0.0234407 0.0099527 -0.036883 0.0584858 -0.0592581 -0.0165416 -0.0417677 0.0218802 -0.0682576 0.00374344 -0.0842866 0.0164339 0.0143854 0.0225847 0.0713473 0.0109687 -0.00631716 0.0450441 0.0895232 0.0859955 0.00881891 -0.0491698 0.0145667 -0.068084 -0.000646211 0.0221844 -0.00465424 0.0561847 -0.024395
internal_weight=0 87.3378 71.8464 14.583 3.60995 36.549 2.40462 27.8235 57.2634 10.9731 3.33228 10.0984 53.994 53.4394 48.6067 9.35124 39.2555 26.0439 13.2116 8.28136 15.4914 22.887 4.28701 2.3683 4.83261 2.11399 18.6 10.3947 8.20526 9.26093
internal_count=691 445 368 88 19 246 14 169 280 69 17 72 264 261 230 44 186 126 60 39 77 109 21 12 31 11 88 51 37 46
shrinkage=0.1


Tree=12
num_leaves=31
num_cat=0
split_feature=1 5 5 7 7 6 0 5 6 1 4 4 4 6 2 7 5 3 7 2 2 7 2 4 1 7 6 5 5 4
split_gain=15.2324 5.74378 4.69203 3.86179 3.54693 3.20418 3.03167 3.20967 2.56175 2.4456 3.26949 2.41075 4.53962 2.44069 2.40547 2.37122 2.77268 3.41124 2.29933 2.25369 4.11012 2.18 2.1212 4.07508 5.11708 1.97446 2.79685 2.10617 2.02289 1.94632
threshold=123.50000000000001 26.450000000000003 29.950000000000003 26.500000000000004 29.500000000000004 0.35000000000000003 6.5000000000000009 30.950000000000003 1.4510000000000001 165.50000000000003 288.00000000000006 144.50000000000003 41.500000000000007 0.95200000000000007 34.000000000000007 37.500000000000007 42.350000000000001 26.500000000000004 60.500000000000007 67.000000000000014 59.000000000000007 25.500000000000004 77.000000000000014 137.50000000000003 144.50000000000003 34.500000000000007 0.65450000000000019 39.45000000000001 31.250000000000004 175.50000000000003
decision_type=2 2 2 2 2 2 2 2 2 2 2 2 2 2 2 2 2 2 2 2 2 2 2 2 2 2 2 2 2 2
left_child=1 -1 3 -2 6 15 7 -3 9 10 -7 12 13 19 -9 16 17 -4 -5 20 -6 -19 -17 24 -24 -21 27 28 -27 -13
right_child=2 4 5 18 11 8 -8 14 -10 -11 -12 29 -14 -15 -16 22 -18 21 -20 25 -22 -23 23 -25 -26 26 -28 -29 -30 -31
leaf_value=-0.097951136311284492 -0.097531026092280648 -0.11739507057833876 -0.12267277141855243 0.032702718765961016 -0.083075189615075207 0.077167709087461386 0.12947599720172595 0.18425138456072832 -0.052020639549670747 0.1334730293580921 -0.071690729381925486 0.17023080202242585 -0.09478909083115683 0.15474233375218754 -0.039118159387082074 0.10873273717697854 0.088423605681642745 0.13011571802366981 -0.12313351175582117 -0.10530809842271049 0.15585782338721299 -0.041129420654285265 -0.18382959097522358 0.16737965265823376 0.044543856383448599 0.019350961875295121 0.12806309236735311 0.10534317250987052 -0.092927962339714967 0.028503762907269931
leaf_weight=11.8877045661211 3.9423638433217993 5.9916830062866273 3.2363724708557147 9.9336802810430509 1.0636921077966754 15.321935325860986 0.93664701282977958 0.49553470313549297 1.4872636348009098 6.8936987519264212 1.6327078193426121 1.3949972987174977 4.6993997246026984 1.1934091448783863 17.805196285247803 4.0626408755779249 1.8532408624887464 1.191862151026726 1.0465632826089848 2.0083069056272498 2.2278464734554291 1.9756879061460493 1.4772305786609647 1.3339985013008115 2.9215792417526245 2.913814961910246 1.5198122859001157 1.1320883035659788 3.5714022517204285 3.1727642863988876
leaf_count=109 25 49 16 48 5 75 4 2 7 38 9 6 26 6 109 18 9 6 7 11 10 9 6 6 13 14 7 6 20 15
internal_value=0 -0.0354572 0.0357367 -0.0126326 -0.0206365 0.0523724 -0.0470618 -0.0538686 0.0753115 0.0832524 0.0628329 0.00614068 -0.00860902 0.0173017 -0.0330699 0.0201789 -0.0192952 -0.0504681 0.0178495 0.00594041 0.0786443 0.0233054 0.053454 0.0142799 -0.0321497 -0.015531 0.00420172 -0.0205112 -0.0424809 0.0717873
internal_weight=0 62.0143 58.3108 14.9226 50.1266 43.3882 25.2291 24.2924 25.3356 23.8483 16.9546 24.8975 20.3298 15.6304 18.3007 18.0526 8.25716 6.40392 10.9802 14.437 3.29154 3.16755 9.79545 5.73281 4.39881 11.1454 9.13712 7.61731 6.48522 4.56776
internal_count=691 399 292 80 290 212 164 160 129 122 84 126 105 79 111 83 40 31 55 73 15 15 43 25 19 58 47 40 34 21
shrinkage=0.1


Tree=13
num_leaves=31
num_cat=0
split_feature=1 5 5 6 1 0 7 6 1 5 2 2 2 5 6 7 5 7 5 1 0 5 5 0 1 1 2 0 1 4
split_gain=12.9647 5.64072 4.34776 3.52961 4.45594 3.46722 3.71553 2.61287 3.45186 2.47115 2.36579 2.27747 3.89592 4.15801 3.72641 3.57914 3.94788 3.27216 2.88213 2.07452 1.98162 1.83119 2.70719 2.08042 2.70643 1.79607 1.99316 1.85763 4.31372 1.98001
threshold=129.50000000000003 26.300000000000001 27.850000000000005 1.2175000000000002 89.500000000000014 6.5000000000000009 48.500000000000007 0.20450000000000002 121.50000000000001 1.0000000180025095e-35 57.000000000000007 60.500000000000007 67.000000000000014 38.050000000000004 0.50500000000000012 34.500000000000007 37.650000000000013 27.500000000000004 45.45000000000001 124.50000000000001 2.5000000000000004 23.250000000000004 24.050000000000004 1.5000000000000002 145.50000000000003 165.50000000000003 93.000000000000014 7.5000000000000009 162.50000000000003 187.50000000000003
decision_type=2 2 2 2 2 2 2 2 2 2 2 2 2 2 2 2 2 2 2 2 2 2 2 2 2 2 2 2 2 2
left_child=1 9 21 4 10 11 7 -7 -9 -1 -3 -6 13 14 17 18 -17 -13 -14 -10 -5 -2 -23 -24 -25 27 -27 28 29 -4
right_child=2 3 25 20 5 6 -8 8 19 -11 -12 12 15 -15 -16 16 -18 -19 -20 -21 -22 22 23 24 -26 26 -28 -29 -30 -31
leaf_value=0.05744447608730216 -0.14268387840728944 0.070402123431168862 0.052438581617807511 0.012720006219629347 -0.073654427632051142 -0.067041976356546282 -0.078539551336946289 0.13570968860848429 -0.10962985398661709 -0.10452932917491237 -0.10669807909172563 -0.11681389293365695 -0.068941778716261934 -0.13589635576499187 0.19429341619762047 0.067727596571747387 -0.10196042529319596 0.10106682213407495 0.068201291746100109 0.07903106911643891 0.19824528502900121 0.15584969046501981 -0.14708642649488859 -0.085849388522752201 0.076936302324884243 0.098287357288161237 -0.026022806598330003 0.089115972761605863 -0.17303434237416604 -0.025951435007299208
leaf_weight=1.0311775282025326 1.2001514211297024 0.84111097455024531 14.665442198514947 1.1414682194590562 7.1643770337104788 1.2113302946090678 2.1006276309490195 5.2983594089746475 1.105428069829941 10.880661882460116 7.3074994459748268 1.0769473388791113 14.954793892800813 0.91624537110328663 2.1906510815024376 5.8314778804779044 1.7925294041633604 1.9148411974310873 1.7073235064744938 1.2329097539186475 1.1616063863039015 0.86982979625463475 1.2537652924656866 1.9339137077331541 2.1643446981906891 11.496418550610541 1.452812686562537 5.6656504571437827 1.0502609461545933 4.1294331774115554
leaf_count=8 7 5 70 6 45 6 11 25 5 106 55 9 95 6 10 26 9 9 8 6 5 5 9 11 10 64 6 27 5 22
internal_value=0 -0.0277433 0.0404861 -0.0150606 -0.0199945 -0.00849802 0.0410184 0.0694029 0.0910458 -0.0905077 -0.0884175 -0.0229361 -0.0109773 0.0604785 0.0951972 -0.0289212 0.0278312 0.0226368 -0.0548891 -0.0101567 0.106294 -0.0295877 -0.00777225 -0.0343647 0.000119897 0.054009 0.0843406 0.0386126 0.0241943 0.0352155
internal_weight=0 70.8614 45.882 58.9495 56.6465 48.4978 10.9487 8.84803 7.6367 11.9118 8.14861 37.5492 30.3848 6.09868 5.18244 24.2861 7.62401 2.99179 16.6621 2.33834 2.30307 7.422 6.22185 5.35202 4.09826 38.46 12.9492 25.5108 19.8451 18.7949
internal_count=691 455 236 341 330 270 53 42 36 114 60 217 172 34 28 138 35 18 103 11 11 42 35 30 21 194 70 124 97 92
shrinkage=0.1


Tree=14
num_leaves=31
num_cat=0
split_feature=1 1 5 5 5 1 7 2 7 3 3 0 6 6 7 2 6 7 6 7 6 1 2 3 3 1 5 5 7 4
split_gain=11.4573 4.69719 3.12907 2.50432 2.8465 2.44692 2.12261 2.21923 2.05284 2.78258 2.57746 2.19332 2.93443 2.69635 2.12667 2.43053 1.98252 3.00014 4.65852 3.60741 2.3908 1.90822 2.2939 1.85223 1.84108 2.06978 2.43651 2.21102 1.85533 1.83381
threshold=106.50000000000001 154.50000000000003 26.450000000000003 26.300000000000001 19.450000000000003 152.50000000000003 25.500000000000004 84.500000000000014 30.500000000000004 21.500000000000004 15.500000000000002 3.5000000000000004 0.51450000000000007 0.24050000000000002 23.500000000000004 53.000000000000007 0.32700000000000001 40.500000000000007 0.27050000000000007 53.500000000000007 0.20800000000000002 127.50000000000001 73.000000000000014 31.500000000000004 27.500000000000004 109.50000000000001 34.050000000000004 31.250000000000004 28.500000000000004 544.00000000000011
decision_type=2 2 2 2 2 2 2 2 2 2 2 2 2 2 2 2 2 2 2 2 2 2 2 2 2 2 2 2 2 2
left_child=2 3 -1 4 -2 8 7 -4 10 -10 14 -11 13 -13 -5 -16 17 18 20 -19 -3 24 -23 -15 -12 -26 27 -27 -28 -18
right_child=1 16 6 5 -6 -7 -8 -9 9 11 21 12 -14 23 15 -17 29 19 -20 -21 -22 22 -24 -25 25 26 28 -29 -30 -31
leaf_value=-0.11109444815533623 0.1436396084605833 -0.10296035995227233 -0.092263958037234889 0.13976840969776835 -0.072597659893677863 -0.13374433902673841 -0.014250629414745423 0.07529703973427132 -0.00046823779813264627 0.13396992248878067 -0.12330187920686989 0.12445885480296764 0.097653186087260757 -0.12209803767361081 0.10625101700230599 -0.03229592167791677 0.094500048648484894 0.14356192641470059 -0.21305462749545026 -0.064426854773648123 0.089393727025159048 0.065660957639084375 -0.050968058922521278 0.0070549188027862813 0.0985600664908719 -0.072366356338371546 -0.13234682151530439 0.12507822511207869 0.044797121786104316 -0.047490330675851726
leaf_weight=6.8894616141915312 0.67420604825019737 0.96069595217704984 7.7853919789195078 1.7490539252758051 6.2719347178936005 1.123383343219756 16.69263830780983 0.87973441183567036 12.510494448244573 3.4085461497306815 2.8324504494667071 1.2894279360771159 5.230198472738266 1.7078978121280668 1.8961574733257291 3.8113409206271172 12.066181391477581 2.8225869834423065 1.1233440190553663 1.1835777759552 1.9735905826091764 3.7739268317818633 3.0487594082951546 3.1741369962692261 1.0934516489505766 1.0793441608548167 3.1430278494954114 1.1951771378517149 0.72823676466941822 0.98372645676136095
leaf_count=77 4 5 67 8 52 6 97 5 60 16 21 6 26 8 9 20 70 14 5 6 10 18 17 15 6 7 21 6 4 5
internal_value=0 0.0191656 -0.0513325 0.00483674 -0.0516092 0.0122632 -0.0350958 -0.0752522 0.0154376 0.0342551 -0.00567492 0.0635866 0.0425454 -0.00415736 0.0432962 0.0137324 0.059709 0.0207274 -0.0398806 0.0821139 0.0264163 -0.027289 0.0135446 -0.0381271 -0.0549501 -0.0282065 -0.0507607 0.0313835 -0.0990237 0.0837965
internal_weight=0 80.8549 32.2472 59.7412 6.94614 52.795 25.3578 8.66513 51.6716 27.3207 24.3509 14.8102 11.4017 6.17146 7.45655 5.7075 21.1137 8.0638 4.05763 4.00616 2.93429 16.8944 6.82269 4.88203 10.0717 7.23924 6.14579 2.27452 3.87126 13.0499
internal_count=691 445 246 330 56 274 169 72 268 131 137 71 55 29 37 29 115 40 20 20 15 100 35 23 65 44 38 13 25 75
shrinkage=0.1


end of trees

feature_importances:
BMI=92
Age=88
DiabetesPedigreeFunction=80
Glucose=66
BloodPressure=47
Pregnancies=31
Insulin=25
SkinThickness=21

parameters:
[boosting: gbdt]
[objective: binary]
[metric: binary_logloss]
[tree_learner: serial]
[device_type: cpu]
[data: ]
[valid: ]
[num_iterations: 10000]
[learning_rate: 0.1]
[num_leaves: 31]
[num_threads: 8]
[force_col_wise: 0]
[force_row_wise: 0]
[histogram_pool_size: -1]
[max_depth: -1]
[min_data_in_leaf: 5]
[min_sum_hessian_in_leaf: 0.001]
[bagging_fraction: 0.9]
[pos_bagging_fraction: 1]
[neg_bagging_fraction: 1]
[bagging_freq: 0]
[bagging_seed: 24638]
[feature_fraction: 1]
[feature_fraction_bynode: 1]
[feature_fraction_seed: 13918]
[extra_trees: 0]
[extra_seed: 11614]
[early_stopping_round: 50]
[first_metric_only: 0]
[max_delta_step: 0]
[lambda_l1: 0]
[lambda_l2: 0]
[min_gain_to_split: 0]
[drop_rate: 0.1]
[max_drop: 50]
[skip_drop: 0.5]
[xgboost_dart_mode: 0]
[uniform_drop: 0]
[drop_seed: 10407]
[top_rate: 0.2]
[other_rate: 0.1]
[min_data_per_group: 100]
[max_cat_threshold: 32]
[cat_l2: 10]
[cat_smooth: 10]
[max_cat_to_onehot: 4]
[top_k: 20]
[monotone_constraints: ]
[monotone_constraints_method: basic]
[monotone_penalty: 0]
[feature_contri: ]
[forcedsplits_filename: ]
[refit_decay_rate: 0.9]
[cegb_tradeoff: 1]
[cegb_penalty_split: 0]
[cegb_penalty_feature_lazy: ]
[cegb_penalty_feature_coupled: ]
[path_smooth: 0]
[interaction_constraints: ]
[verbosity: -1]
[saved_feature_importance_type: 0]
[max_bin: 255]
[max_bin_by_feature: ]
[min_data_in_bin: 3]
[bin_construct_sample_cnt: 200000]
[data_random_seed: 11184]
[is_enable_sparse: 1]
[enable_bundle: 1]
[use_missing: 1]
[zero_as_missing: 0]
[feature_pre_filter: 1]
[pre_partition: 0]
[two_round: 0]
[header: 0]
[label_column: ]
[weight_column: ]
[group_column: ]
[ignore_column: ]
[categorical_feature: ]
[forcedbins_filename: ]
[objective_seed: 19665]
[num_class: 1]
[is_unbalance: 0]
[scale_pos_weight: 1]
[sigmoid: 1]
[boost_from_average: 1]
[reg_sqrt: 0]
[alpha: 0.9]
[fair_c: 1]
[poisson_max_delta_step: 0.7]
[tweedie_variance_power: 1.5]
[lambdarank_truncation_level: 20]
[lambdarank_norm: 1]
[label_gain: ]
[eval_at: ]
[multi_error_top_k: 1]
[auc_mu_weights: ]
[num_machines: 1]
[local_listen_port: 12400]
[time_out: 120]
[machine_list_filename: ]
[machines: ]
[gpu_platform_id: -1]
[gpu_device_id: -1]
[gpu_use_dp: 0]

end of parameters

pandas_categorical:[]
