tree
version=v3
num_class=1
num_tree_per_iteration=1
label_index=0
max_feature_idx=7
objective=binary sigmoid:1
feature_names=Pregnancies Glucose BloodPressure SkinThickness Insulin BMI DiabetesPedigreeFunction Age
feature_infos=[0:15] [0:199] [0:122] [0:99] [0:846] [0:59.399999999999999] [0.078:2.4199999999999999] [21:81]
tree_sizes=3259 3258 3254 3266 3272 3265 3256 3274 3270 3251 3285 3261 3288 3270 3291 3286 3287 3282 3292

Tree=0
num_leaves=31
num_cat=0
split_feature=1 7 5 1 1 5 2 6 2 4 7 6 3 7 7 4 2 4 6 7 6 5 1 0 5 6 0 6 4 1
split_gain=122.83 36.7314 23.7321 21.6073 14.9118 9.93442 14.3492 9.02917 7.77907 8.95486 7.12125 6.86388 6.67322 5.95455 8.95035 5.38666 4.52084 4.4462 8.82791 4.1698 4.12293 5.60222 4.09554 4.01375 3.8378 3.57202 3.4616 4.88391 5.39254 4.65187
threshold=143.50000000000003 28.500000000000004 26.850000000000005 107.50000000000001 166.50000000000003 30.950000000000003 34.000000000000007 0.52750000000000019 73.000000000000014 126.50000000000001 34.500000000000007 0.33300000000000002 27.500000000000004 53.500000000000007 42.500000000000007 177.00000000000003 84.500000000000014 41.500000000000007 0.66050000000000009 50.500000000000007 0.50250000000000006 42.250000000000007 127.50000000000001 2.5000000000000004 29.650000000000002 0.25850000000000006 7.5000000000000009 0.38300000000000006 292.00000000000006 154.50000000000003
decision_type=2 2 2 2 2 2 2 2 2 2 2 2 2 2 2 2 2 2 2 2 2 2 2 2 2 2 2 2 2 2
left_child=1 5 -3 15 11 22 -7 8 10 16 -5 12 13 14 -2 17 25 18 -4 26 21 -8 -1 -24 -6 -10 27 -13 29 -29
right_child=4 2 3 7 24 6 20 -9 9 -11 -12 19 -14 -15 -16 -17 -18 -19 -20 -21 -22 -23 23 -25 -26 -27 -28 28 -30 -31
leaf_value=-0.81730662731209036 -0.6582011803972001 -0.78554595698369711 -0.72134296545467147 -0.6582011803972001 -0.55266419680114054 -0.37406314763857929 -0.7838669248266491 -0.47981376885325333 -0.73126524596370279 -0.47328595272889074 -0.44456356178169509 -0.45524544271247025 -0.82056577054498381 -0.7567796815583544 -0.37406314763857851 -0.54150163122848038 -0.79265935661333353 -0.80115261302731411 -0.44848025145631265 -0.37406314763857834 -0.69033583886394889 -0.55266419680114054 -0.76803605020305377 -0.55266419680114065 -0.41127169954744552 -0.55266419680114054 -0.42367455018373468 -0.65820118039719999 -0.8205657705449837 -0.4378492366252078
leaf_weight=30.682909548282623 2.4635912775993374 11.422105014324186 10.078327953815466 2.4635912775993409 2.2396284341812125 1.1198142170906091 16.349287569522865 8.5105880498886091 2.2396284341812116 2.0156655907630912 4.2552940249443054 2.4635912775993329 1.5677399039268491 1.5677399039268491 2.015665590763092 1.7917027473449696 3.5834054946899414 5.1511453986167899 1.3437770605087269 1.7917027473449696 10.750216484069822 1.1198142170906056 3.8073683381080619 1.1198142170906065 13.437770605087278 2.2396284341812134 2.015665590763092 2.4635912775993347 1.1198142170906065 1.5677399039268491
leaf_count=137 11 51 45 11 10 5 73 38 10 9 19 11 7 7 9 8 16 23 6 8 48 5 17 5 60 10 9 11 5 7
internal_value=-0.669362 -0.71727 -0.657211 -0.623647 -0.503693 -0.768217 -0.72513 -0.563728 -0.606245 -0.661809 -0.522897 -0.56317 -0.636712 -0.589046 -0.530339 -0.706218 -0.70894 -0.724025 -0.689241 -0.514142 -0.739061 -0.769046 -0.803717 -0.719088 -0.431471 -0.641965 -0.540204 -0.57105 -0.626434 -0.572509
internal_weight=0 120.044 55.0949 43.6728 34.7142 64.9492 29.3391 25.3078 16.7972 10.0783 6.71889 19.0368 7.61474 6.047 4.47926 18.365 8.06266 16.5733 11.4221 11.4221 28.2193 17.4691 35.6101 4.92718 15.6774 4.47926 9.6304 7.61474 5.15115 4.03133
internal_count=691 536 246 195 155 290 131 113 75 45 30 85 34 27 20 82 36 74 51 51 126 78 159 22 70 20 43 34 23 18
shrinkage=1


Tree=1
num_leaves=31
num_cat=0
split_feature=1 7 5 1 1 6 1 2 5 5 5 2 4 5 6 7 1 7 4 2 5 0 7 6 3 7 7 0 2 4
split_gain=96.2478 31.1612 19.6388 17.6321 10.4384 9.85174 8.94894 9.19496 8.75486 6.71645 5.70506 8.14302 7.17829 6.46859 6.81096 5.3466 4.6625 5.7271 4.1254 4.03578 3.49422 4.31891 3.42146 3.35454 6.04063 6.73651 3.00255 2.98355 2.96246 3.25651
threshold=143.50000000000003 28.500000000000004 26.850000000000005 99.500000000000014 166.50000000000003 0.20050000000000004 127.50000000000001 73.000000000000014 28.750000000000004 30.950000000000003 43.000000000000007 74.500000000000014 126.50000000000001 36.70000000000001 0.56050000000000011 24.500000000000004 110.50000000000001 37.500000000000007 90.500000000000014 53.000000000000007 33.000000000000007 1.0000000180025095e-35 41.500000000000007 0.33300000000000002 27.500000000000004 53.500000000000007 42.500000000000007 3.5000000000000004 73.000000000000014 195.00000000000003
decision_type=2 2 2 2 2 2 2 2 2 2 2 2 2 2 2 2 2 2 2 2 2 2 2 2 2 2 2 2 2 2
left_child=1 6 -3 18 15 16 9 8 -8 -1 11 28 13 14 27 -2 -5 -18 -4 -11 -10 -22 -14 24 25 26 -17 -13 29 -7
right_child=4 2 3 5 -6 10 7 -9 20 19 -12 12 22 -15 -16 23 17 -19 -20 -21 21 -23 -24 -25 -26 -27 -28 -29 -30 -31
leaf_value=-0.14072690415709879 -0.08579382168595151 -0.10912061276750791 -0.088418796610494066 -0.14857463794315925 0.20016721994391917 0.15019586434919938 -0.075069157283749119 -0.14668330103188604 0.29053693245481521 0.052338577173374951 0.23775173136133351 0.11225192134737123 0.050627908251568203 -0.1513959500658292 0.17600260241219903 0.070676665360179289 -0.14850381246474836 0.13425017100864517 0.11348124043600477 -0.083112427337661693 0.20902947089296089 -0.057287045191153199 0.26257390258224211 0.14134916849384549 -0.14401825614521549 -0.081194967843898194 0.24536290507971753 -0.072875346944590566 0.28499811029695088 -0.014168589037797717
leaf_weight=29.111696481704712 1.5484524667263055 10.968980088829992 10.059663772583006 2.4154025465250006 16.701585650444031 9.0559480488300341 2.6591731309890729 3.0362561941146851 1.3511083871126177 2.4486948400735882 2.7761520296335211 1.129375159740446 1.4143446236848825 2.4470503330230713 2.3648439645767212 1.7981176376342802 1.0978847146034243 2.0612230896949768 1.1252318173646916 21.632414773106575 1.3676070570945742 1.0977163612842558 1.650490418076515 11.236254364252089 1.2733535170555113 1.5215485095977781 2.1730928868055344 3.7985722273588181 1.3643801957368857 1.3905000835657126
leaf_count=137 7 51 46 11 70 39 12 14 6 11 12 5 6 11 10 8 5 9 5 99 6 5 7 48 6 7 9 17 6 6
internal_value=0 -0.0442173 0.0106336 0.0403856 0.142111 0.0771954 -0.0924336 -0.00309696 0.0642272 -0.108409 0.101857 0.0865304 0.0312916 -0.0107089 0.0364978 0.0925148 -0.0439838 0.0359847 -0.0681071 -0.0693391 0.161285 0.0904487 0.164766 0.107852 0.0522239 0.0977176 0.166267 -0.0304483 0.146417 0.128318
internal_weight=0 117.825 55.12 44.1511 36.2524 32.9662 62.7047 9.51186 6.4756 53.1928 27.3917 24.6155 12.8047 9.73984 7.29279 19.5508 5.57451 3.15911 11.1849 24.0811 3.81643 2.46532 3.06484 18.0024 6.76611 5.49276 3.97121 4.92795 11.8108 10.4464
internal_count=691 536 246 195 155 144 290 43 29 247 119 107 56 43 32 85 25 14 51 110 17 11 13 78 30 24 17 22 51 45
shrinkage=0.1


Tree=2
num_leaves=31
num_cat=0
split_feature=1 1 7 5 5 7 1 5 6 2 7 0 7 5 6 4 0 7 5 6 4 5 0 5 7 2 2 3 0 6
split_gain=77.2093 21.971 16.9475 13.2915 11.3559 10.3796 10.1974 8.2705 8.26045 6.11553 6.55793 7.26299 5.693 5.50177 4.77768 4.74834 4.47161 4.82676 8.0172 3.9956 3.45776 3.43923 4.90767 4.2983 4.1724 3.14603 4.5954 4.18534 2.52601 2.49234
threshold=123.50000000000001 154.50000000000003 28.500000000000004 27.350000000000005 26.450000000000003 41.500000000000007 99.500000000000014 42.050000000000004 0.20050000000000004 73.000000000000014 31.500000000000004 5.5000000000000009 62.500000000000007 30.950000000000003 0.23350000000000001 226.50000000000003 6.5000000000000009 40.500000000000007 32.350000000000001 0.14750000000000005 90.500000000000014 30.050000000000004 1.5000000000000002 34.050000000000004 40.500000000000007 65.500000000000014 54.500000000000007 32.500000000000007 2.5000000000000004 0.36550000000000005
decision_type=2 2 2 2 2 2 2 2 2 2 2 2 2 2 2 2 2 2 2 2 2 2 2 2 2 2 2 2 2 2
left_child=2 3 13 28 -4 7 20 9 -8 15 -11 -12 -3 -1 -7 25 21 -18 -19 -15 -6 -10 24 -24 -23 26 -5 -28 -2 -27
right_child=1 12 4 5 6 14 8 -9 16 10 11 -13 -14 19 -16 -17 17 18 -20 -21 -22 22 23 -25 -26 29 27 -29 -30 -31
leaf_value=-0.13449627050283164 -0.14206687804013723 0.16201261581246507 -0.12700220497222903 0.15354379797127604 -0.083586442718157281 0.01820957730219485 -0.087219785958549428 0.18371795307284233 0.18795557087992543 -0.12714878053868567 0.20203588939428208 -0.073051359735121099 -0.068279971279027948 0.11907179792185033 0.18291023329704073 -0.094485101096803678 0.26416009811408381 -0.092425839126183518 0.19727269403972769 -0.076080052909726664 0.098724064560947913 0.1969265920912025 0.06676391241848606 -0.11773816213916943 -0.023443462368445706 0.0906791123993934 -0.14691184478799921 0.099003243663518259 -0.028546005204683447 0.25840020742581904
leaf_weight=25.850603610277176 3.738343894481658 24.821335688233379 7.208671122789382 1.8725181668996862 9.9411982595920581 2.2667406648397428 3.3885055482387569 2.8505434691905966 1.4146663844585443 5.5015647113323194 1.6474933773279192 2.2992981672286987 1.1219696551561344 1.1059854030609155 7.8982821553945541 1.763787269592284 2.3407351076602927 1.5739763826131818 2.4302438795566559 20.415152549743652 1.1619254499673832 2.1751556992530809 2.1426635086536407 3.0745017379522324 1.4201049655675886 2.3478425443172459 1.7163366526365282 1.1597282886505125 4.1207466125488281 1.4229771494865415
leaf_count=129 18 102 35 8 47 10 16 12 6 26 7 10 5 5 33 8 10 7 10 96 5 9 9 14 6 10 8 5 19 6
internal_value=0 0.0801686 -0.0634173 0.0342415 -0.0139268 0.0622694 0.0123135 0.0244969 0.0550457 0.00149482 -0.0565846 0.0417772 0.152053 -0.103401 0.146183 0.0548591 0.0841349 0.150084 0.0833982 -0.0660511 -0.0645079 0.04322 0.0199854 -0.0419641 0.109882 0.0857781 0.0316263 -0.0477504 -0.0825446 0.153971
internal_weight=0 66.5495 85.6441 40.6062 38.2723 32.7471 31.0637 22.5821 19.9606 19.7315 9.44836 3.94679 25.9433 47.3717 10.165 10.2832 16.572 6.34496 4.00422 21.5211 11.1031 10.2271 8.81243 5.21717 3.59526 8.5194 4.74858 2.87606 7.85909 3.77082
internal_count=691 287 404 180 174 143 139 100 87 88 43 17 107 230 43 45 71 27 17 101 52 44 38 23 15 37 21 13 37 16
shrinkage=0.1


Tree=3
num_leaves=31
num_cat=0
split_feature=1 5 7 5 1 7 1 7 7 6 5 6 1 7 4 4 7 0 7 1 0 1 3 1 2 7 6 6 1 5
split_gain=63.4831 18.1092 14.7527 9.76265 9.37924 8.43264 8.35022 7.30347 6.82972 5.31882 5.23263 4.89159 4.1601 4.08735 8.75553 3.70664 3.6994 4.72431 3.98468 3.57821 3.81451 3.4687 3.71134 3.40828 3.39667 3.33379 3.97049 3.27694 3.21188 3.04506
threshold=123.50000000000001 29.950000000000003 28.500000000000004 26.450000000000003 165.50000000000003 26.500000000000004 94.500000000000014 24.500000000000004 60.500000000000007 0.22400000000000003 30.950000000000003 0.73350000000000015 165.50000000000003 42.500000000000007 119.50000000000001 267.50000000000006 56.500000000000007 6.5000000000000009 45.500000000000007 114.50000000000001 2.5000000000000004 125.50000000000001 28.500000000000004 119.50000000000001 67.000000000000014 40.500000000000007 0.66050000000000009 0.14750000000000005 128.50000000000003 42.350000000000001
decision_type=2 2 2 2 2 2 2 2 2 2 2 2 2 2 2 2 2 2 2 2 2 2 2 2 2 2 2 2 2 2
left_child=2 5 10 -4 7 -2 -5 15 12 24 -1 13 21 14 29 -3 17 18 19 20 -11 -7 -23 -21 -8 -19 -27 -12 -15 -9
right_child=1 4 3 6 -6 8 9 11 -10 16 27 -13 -14 28 -16 -17 -18 25 -20 23 -22 22 -24 -25 -26 26 -28 -29 -30 -31
leaf_value=-0.12941486511183226 -0.11039508821168365 0.029196931642001198 -0.12131987894458114 -0.078128036561932956 0.17174365324601637 0.15464970322246691 0.081794010365741632 0.074975034106952484 -0.14408769590490453 0.045887159386049141 0.10325348483039364 0.18181882626070114 0.17613699939064187 -0.012599947243273946 -0.044950292006056457 -0.14322735544774531 -0.084881583971688365 0.23122366246251314 0.19443816247006274 0.14085287614078201 -0.14914278737890241 -0.032740574771473116 0.13622291405784168 -0.026705211125715514 -0.10998822821665247 0.0040464265618874702 0.21317386406139557 -0.070702662051562157 0.15421811263712717 0.22599783430010351
leaf_weight=24.261002987623215 5.7453150600194958 3.7416354715824118 6.8122277408838263 7.8352488577365902 14.735166028141974 1.8441783785819987 1.2902317643165613 4.1666250824928337 1.8807985484600056 1.8921566903591207 1.1455435007810617 5.4443119913339606 2.4836078137159339 1.3696587383747081 6.23155677318573 1.8698073029518125 1.5039371103048313 2.6780184507369986 1.3911945074796666 2.8466018587350845 2.1337428987026215 6.26152203977108 1.6406276226043699 2.1166066974401474 3.2490369826555252 2.3261501193046574 1.489007845520973 19.803697377443314 7.3363240361213684 1.9645974785089491
leaf_count=129 28 17 35 38 59 8 6 18 9 8 5 22 10 6 28 9 7 11 6 12 10 28 7 9 16 10 6 96 30 8
internal_value=0 0.0717715 -0.0593196 -0.0130049 0.105686 -0.00826511 0.0109893 0.0753857 0.0333181 0.0414586 -0.0978014 0.0973215 0.0606007 0.0754868 0.0385251 -0.0282571 0.0654019 0.0787967 0.0369471 0.0125731 -0.0574795 0.0311591 0.00233927 0.0693962 -0.0554765 0.145699 0.0856662 -0.0611904 0.127974 0.123367
internal_weight=0 66.7157 82.7744 37.5642 46.8597 19.856 30.7519 32.1245 14.1107 22.9167 45.2102 26.5131 12.2299 21.0688 12.3628 5.61144 18.3774 16.8735 10.3803 8.98911 4.0259 9.74633 7.90215 4.96321 4.53927 6.49318 3.81516 20.9492 8.70598 6.13122
internal_count=691 287 404 174 197 90 139 138 62 101 230 112 53 90 54 26 79 72 45 39 18 43 35 21 22 27 16 101 36 26
shrinkage=0.1


Tree=4
num_leaves=31
num_cat=0
split_feature=1 5 5 7 1 7 1 7 7 4 6 5 2 6 1 1 3 3 1 5 7 0 6 4 7 0 7 0 5 6
split_gain=52.5757 14.5784 13.2321 10.7647 7.79861 7.11382 6.90624 5.73375 4.46036 7.31228 4.33079 3.98804 3.91732 3.61839 3.61672 3.44782 4.30906 3.30903 9.99406 3.18144 3.16755 6.00555 3.14112 3.15866 3.00199 3.77263 3.07043 2.94261 5.18414 4.94308
threshold=123.50000000000001 29.950000000000003 26.450000000000003 28.500000000000004 154.50000000000003 26.500000000000004 94.500000000000014 60.500000000000007 42.500000000000007 212.50000000000003 0.22400000000000003 42.050000000000004 73.000000000000014 0.23350000000000001 154.50000000000003 125.50000000000001 28.500000000000004 9.0000000000000018 112.50000000000001 27.350000000000005 31.500000000000004 6.5000000000000009 0.19300000000000003 131.00000000000003 56.500000000000007 6.5000000000000009 45.500000000000007 2.5000000000000004 33.850000000000001 0.84800000000000009
decision_type=2 2 2 2 2 2 2 2 2 2 2 2 2 2 2 2 2 2 2 2 2 2 2 2 2 2 2 2 2 2
left_child=2 5 -1 17 8 -2 -5 14 9 11 -8 12 22 -10 15 -7 -17 18 -4 -16 -14 -22 -3 -24 25 26 27 29 -29 -12
right_child=1 4 3 6 -6 7 10 -9 13 -11 24 -13 20 -15 19 16 -18 -19 -20 -21 21 -23 23 -25 -26 -27 -28 28 -30 -31
leaf_value=-0.12530549560111495 -0.10425225117221067 -0.064304240194358681 -0.13689695471783092 -0.072837091687441305 0.14090388000660886 0.13555269095308614 -0.051522803860647753 -0.13826055981834204 -0.0013789101127407444 -0.11042783318189441 0.15230935340755347 0.16930897274745216 -0.10439076303758398 0.15784077587416465 0.20151653041022413 -0.066754196925965945 0.11962261644730424 -0.088568606816299689 0.18130820380329815 0.015549218830815954 0.21666579490329882 -0.062314323069748601 0.068640151661144538 0.23395234670614387 -0.078867286875543771 0.13011330389441567 0.16854699325990738 0.060116082885369619 -0.14283493759352051 -0.091225288782209771
leaf_weight=20.303962215781212 5.488905385136607 1.0952146649360708 2.1435465216636689 7.5776875764131573 20.734659343957901 1.8907594084739665 4.4181013852357891 1.7697719335556019 1.8587919473648051 3.0326331555843344 2.6802812367677746 2.7228382974863043 2.6454419642686844 6.1489688903093338 2.4975024461746211 4.7487060725688934 1.6791521310806272 25.202529206871986 1.8293884396553037 1.4563445746898649 1.2366876751184466 2.0518938452005386 3.59981669485569 1.7024517804384229 1.4591460525989521 6.5385534018278113 1.4413027465343464 2.5717702060937881 2.4649728089570999 1.209560692310333
leaf_count=114 28 5 11 38 84 8 22 9 8 15 11 11 13 25 10 22 7 131 9 6 5 9 15 7 7 27 6 11 12 5
internal_value=0 0.0648543 -0.055594 -0.0318202 0.0951237 -0.00772209 0.00986257 0.0300101 0.0587472 0.0312378 0.0373679 0.0597757 0.0355904 0.120882 0.0542759 0.0168497 -0.0180669 -0.0751973 0.00962466 0.133018 -0.0229312 0.0425976 0.0898725 0.121719 0.0587518 0.0706293 0.0331154 0.0112484 -0.0392078 0.0765814
internal_weight=0 66.3605 79.8408 59.5368 46.8294 19.5311 30.3614 14.0422 26.0947 18.087 22.7837 15.0543 12.3315 8.00776 12.2725 8.31862 6.42786 29.1755 3.97293 3.95385 5.93402 3.28858 6.39748 5.30227 18.3656 16.9064 10.3679 8.92658 5.03674 3.88984
internal_count=691 287 404 290 197 90 139 62 113 80 101 65 54 33 53 37 29 151 20 16 27 14 27 22 79 72 45 39 23 16
shrinkage=0.1


Tree=5
num_leaves=31
num_cat=0
split_feature=1 1 5 0 7 3 6 5 7 1 1 7 6 5 3 5 5 7 3 2 2 5 7 2 6 4 4 7 3 1
split_gain=44.2202 16.3418 11.3592 9.33852 8.34029 8.02851 6.82144 5.56177 4.28953 3.89405 3.83539 4.06044 3.63408 6.19234 4.114 3.26175 3.12962 2.92438 2.87768 3.42851 2.82991 2.67587 2.57445 2.35607 4.67288 5.68705 4.2385 4.60687 2.81884 2.37509
threshold=112.50000000000001 154.50000000000003 27.350000000000005 6.5000000000000009 30.500000000000004 9.0000000000000018 0.86900000000000011 30.950000000000003 28.500000000000004 152.50000000000003 99.500000000000014 47.500000000000007 0.70450000000000013 39.550000000000004 29.500000000000004 40.95000000000001 29.850000000000005 28.500000000000004 32.500000000000007 69.000000000000014 79.000000000000014 35.45000000000001 47.500000000000007 84.500000000000014 0.53650000000000009 137.50000000000003 173.00000000000003 41.500000000000007 28.500000000000004 125.50000000000001
decision_type=2 2 2 2 2 2 2 2 2 2 2 2 2 2 2 2 2 2 2 2 2 2 2 2 2 2 2 2 2 2
left_child=3 2 -2 7 5 8 10 22 -4 15 -5 -12 -9 14 -14 23 20 18 -7 21 -3 -20 -1 26 25 -25 28 -28 29 -6
right_child=1 16 4 6 9 17 -8 12 -10 -11 11 -13 13 -15 -16 -17 -18 -19 19 -21 -22 -23 -24 24 -26 -27 27 -29 -30 -31
leaf_value=-0.12798506348139402 -0.074838702857029551 0.08197183533069731 0.13365634970673843 -0.088483132203215992 0.14110292553202602 -0.10977417240537926 0.19784424561308303 -0.069930058507692933 -0.048437779054421121 -0.097860236843287707 0.081395392925274535 -0.14433786083275149 -0.033426365014572447 -0.14640245012952666 0.22898428098658152 0.18492055164120708 0.12856711116491951 0.05078675876736706 0.14865990145371191 -0.08958093079563316 -0.094412465918054703 -0.032103518186688447 0.034069888341816172 -0.14232616322662925 0.17816050346981457 0.12577911844385664 -0.15449310639897257 0.11496567608102465 0.18198160772547445 0.036667327604837513
leaf_weight=23.104138597846035 11.15091750025749 3.9561949670314815 4.9166772365570095 4.3462744355201703 3.8748793751001447 6.7623150497674924 1.7079339921474446 19.083048060536388 1.7555678039789198 1.1988649517297734 4.2208984345197678 0.98231056332588185 0.97407059371471394 1.2272799015045164 1.5452052056789396 2.9651203751564017 20.820216685533524 2.6609938591718665 1.5878477096557619 3.242812380194664 1.1811819076538084 1.6911018341779707 1.0237368345260609 2.26267197728157 1.2303562462329862 1.2165804356336591 1.3376533240079873 1.2069929987192152 4.1898681968450537 4.9715765714645386
leaf_count=137 60 17 22 23 16 36 7 98 8 5 19 5 5 6 7 12 85 12 7 16 5 8 5 11 5 5 6 5 17 21
internal_value=0 0.0453318 0.0159126 -0.0680218 0.0374108 -0.00635841 0.0137785 -0.0876323 0.0857447 0.0778918 -0.0191419 0.0387794 -0.0522518 0.0377924 0.127524 0.086952 0.111319 -0.0448991 -0.0640664 -0.0166727 0.0414177 0.0554321 -0.121109 0.0726356 0.0106556 -0.0485785 0.0913701 -0.0266817 0.114413 0.0824117
internal_weight=0 84.1804 58.2228 58.2149 47.0719 22.6173 11.2574 46.9575 6.67225 24.4546 9.54948 5.20321 22.8296 3.74656 2.51928 23.2557 25.9576 15.9451 13.2841 6.52176 5.13738 3.27895 24.1279 20.2906 4.70961 3.47925 15.581 2.54465 13.0363 8.84646
internal_count=691 379 272 312 212 109 54 258 30 103 47 24 116 18 12 98 107 79 67 31 22 15 142 86 21 16 65 11 54 37
shrinkage=0.1


Tree=6
num_leaves=31
num_cat=0
split_feature=1 1 5 0 7 6 5 4 5 2 1 1 7 5 7 0 6 5 3 7 7 7 6 1 2 5 2 6 6 1
split_gain=37.1911 13.5602 8.32177 8.11226 7.60948 5.63165 5.32095 4.95646 3.52191 3.38603 4.69731 3.23178 3.38124 3.17234 3.05992 4.37472 3.03674 5.06217 3.06843 2.9906 2.85287 3.30308 3.05688 2.81618 3.82787 2.79867 2.81382 2.72342 2.31706 2.97499
threshold=112.50000000000001 165.50000000000003 27.850000000000005 6.5000000000000009 30.500000000000004 0.86900000000000011 30.950000000000003 60.500000000000007 40.95000000000001 73.000000000000014 123.50000000000001 99.500000000000014 47.500000000000007 42.050000000000004 23.500000000000004 2.5000000000000004 0.70450000000000013 39.550000000000004 29.500000000000004 51.500000000000007 26.500000000000004 54.500000000000007 0.2185 123.50000000000001 71.000000000000014 38.550000000000004 83.000000000000014 0.75250000000000006 0.44650000000000006 121.50000000000001
decision_type=2 2 2 2 2 2 2 2 2 2 2 2 2 2 2 2 2 2 2 2 2 2 2 2 2 2 2 2 2 2
left_child=3 2 20 6 7 11 19 13 25 10 -9 -5 -13 -4 -12 -16 -8 18 -18 -1 -2 22 -22 24 -24 28 -27 -11 29 -6
right_child=1 -3 4 5 8 -7 16 9 -10 27 14 12 -14 -15 15 -17 17 -19 -20 -21 21 -23 23 -25 -26 26 -28 -29 -30 -31
leaf_value=-0.12473824854008753 -0.10738949887976618 0.11945655558449303 0.023992826623677965 -0.083476748369161635 0.16526088527554667 0.18106562536088441 -0.065151392698440752 -0.10262521322175806 0.17184199460578187 -0.13666784144574481 -0.066467723535447429 0.07230543985318727 -0.13881391642538021 0.16740837064358785 0.20984097898893023 -0.021948283615194419 -0.030593141952241179 -0.14039108719145349 0.19489821812319302 0.067019452666063226 -0.096688173384403192 -0.1011786925706788 0.12322570806493285 0.11692193231808086 -0.13315761584633232 0.055835375784521982 -0.15644145556193761 0.020483656151012802 0.11915659206228842 0.030559981293528583
leaf_weight=21.623223394155506 4.8556472063064566 17.548423334956169 7.9636202901601809 4.1562781035900098 1.9126597046852207 1.6807886064052571 18.467373624444011 2.6464333534240705 3.381498619914054 4.4732185006141663 1.2938304692506788 4.2733317315578461 0.92234854400157917 1.9128351509571073 1.9796003997325899 1.3832114040851591 0.95868988335132588 1.1555404067039488 1.6286941170692442 0.84508875012397666 1.6794483363628367 3.1028301864862442 1.0026325434446337 3.2889404445886612 1.3892119675874708 1.4368747025728219 1.1043900102376936 1.4635511636734007 7.5166466981172553 11.485888198018072
leaf_count=138 29 73 37 23 8 7 98 14 14 24 7 19 5 8 8 6 5 6 7 4 8 17 5 14 8 6 5 7 31 50
internal_value=0 0.041418 0.0204376 -0.0642522 0.0402103 0.0125382 -0.0832145 -0.00184365 0.0764326 -0.0418368 0.00375916 -0.0177505 0.0348271 0.051769 0.0642188 0.1145 -0.0485046 0.0336295 0.111348 -0.117526 -0.0440411 -0.0146427 0.021838 0.0568786 -0.0256848 0.0626783 -0.0364165 -0.0979264 0.0747186 0.0497887
internal_weight=0 82.8214 65.273 55.7114 49.9543 11.0327 44.6786 23.1163 26.838 13.2398 7.30308 9.35196 5.19568 9.87646 4.65664 3.36281 22.2103 3.74292 2.58738 22.4683 15.3187 10.4631 7.36023 5.68078 2.39184 23.4565 2.54126 5.93677 20.9152 13.3985
internal_count=691 379 306 312 225 54 258 111 114 66 35 47 24 45 21 14 116 18 12 142 81 52 35 27 13 100 11 31 89 58
shrinkage=0.1


Tree=7
num_leaves=31
num_cat=0
split_feature=1 1 5 0 7 3 5 6 7 2 3 1 3 1 7 7 6 5 4 5 6 3 5 6 5 2 5 1 1 3
split_gain=31.3628 11.4187 7.91098 7.05765 5.61208 5.76826 5.10243 4.72179 3.51734 3.28627 3.04092 3.23994 3.12282 2.97451 2.70194 2.69304 2.53907 4.20095 2.83473 2.42729 2.36448 2.28004 3.73563 3.83017 2.73343 2.17686 2.00027 2.3041 2.48174 1.92864
threshold=112.50000000000001 154.50000000000003 27.350000000000005 6.5000000000000009 30.500000000000004 16.500000000000004 30.950000000000003 0.86900000000000011 23.500000000000004 54.500000000000007 23.500000000000004 83.500000000000014 39.500000000000007 152.50000000000003 51.500000000000007 62.500000000000007 0.70450000000000013 39.550000000000004 69.000000000000014 40.95000000000001 0.45600000000000007 31.500000000000004 35.150000000000013 0.42050000000000004 42.050000000000004 54.500000000000007 31.750000000000004 104.50000000000001 87.500000000000014 27.500000000000004
decision_type=2 2 2 2 2 2 2 2 2 2 2 2 2 2 2 2 2 2 2 2 2 2 2 2 2 2 2 2 2 2
left_child=3 2 25 6 5 8 14 10 -4 -10 -5 -12 20 19 -1 -3 26 18 -18 -6 -13 -7 23 -23 -24 -2 -8 28 -28 -30
right_child=1 15 4 7 13 21 16 -9 9 -11 11 12 -14 -15 -16 -17 17 -19 -20 -21 -22 22 24 -25 -26 -27 27 -29 29 -31
leaf_value=-0.12186738812716712 0.036960890186222381 0.10076725996450103 0.1970017980922677 -0.070309587075481433 0.060013376195148439 -0.0901430697129567 0.082353471484744922 0.16824194791329583 0.13152032112977935 -0.026176224278695294 -0.12829372905760292 0.23377257518679895 -0.061269444765877971 -0.090422078114340568 0.059364929037215977 -0.0641214739227252 -0.0073078345296820647 -0.13534472657787824 0.20086726735487059 0.15961797419286941 0.033282234095323382 -0.0097456293630990079 -0.1090983714319471 0.21731036548916871 0.042061772167420873 -0.086765070878889919 -0.10734425897938189 -0.13165467450669921 0.05865131892755835 -0.046549608858878613
leaf_weight=20.002535805106167 1.7038166373968113 24.094912305474285 1.6057539135217691 4.8871163576841337 19.927606076002128 5.934865176677703 0.92726880311966553 1.6305098980665196 2.0464529097080231 3.7302349358797073 0.85870209336280812 1.4101876914501197 0.98241274058818806 1.1826938688755024 0.85791392624378104 1.0329783856868733 1.2824735790491102 1.0825215578079221 1.335038289427757 2.7890234142541876 1.0092017799615858 1.9390259534120544 3.6602950990200043 1.2044062465429304 1.7770804762840269 8.5982076823711378 4.4260473847389248 4.3069625645875922 2.5071710795164091 5.7149412333965302
leaf_count=138 10 102 7 26 86 34 5 7 9 17 5 6 5 5 4 5 6 6 6 12 5 9 20 5 8 50 25 24 13 31
internal_value=0 0.037967 0.0128738 -0.0607956 0.0306843 -0.00588617 -0.0791465 0.0114679 0.0660815 0.0296894 -0.0164761 0.0452749 0.089088 0.0641926 -0.114414 0.0939889 -0.0450588 0.0303456 0.09887 0.0722423 0.150142 -0.0424878 -0.00952733 0.0772509 -0.0596952 -0.0663025 -0.0606607 -0.0684821 -0.0469705 -0.0144707
internal_weight=0 81.2274 56.0995 53.221 45.7974 21.8981 42.4429 10.7781 7.38244 5.77669 9.14762 4.2605 3.4018 23.8993 20.8604 25.1279 21.5824 3.70003 2.61751 22.7166 2.41939 14.5157 8.58081 3.14343 5.43738 10.302 17.8824 16.9551 12.6482 8.22211
internal_count=691 379 272 312 212 109 258 54 33 26 47 21 16 103 142 107 116 18 12 98 11 76 42 14 28 60 98 93 69 44
shrinkage=0.1


Tree=8
num_leaves=31
num_cat=0
split_feature=1 5 5 7 1 7 7 6 7 1 2 0 6 6 3 4 7 2 6 7 3 2 1 1 2 5 1 2 5 2
split_gain=26.8634 9.54346 7.55363 6.16949 4.65223 4.62392 4.17013 3.87228 3.59556 3.30104 3.11674 2.86389 2.76665 2.83087 2.55594 2.53586 2.78836 3.99214 2.49182 2.43289 2.45014 3.58814 2.49677 2.41063 2.11796 2.07142 1.9863 2.65526 1.92731 2.78942
threshold=123.50000000000001 26.450000000000003 29.950000000000003 28.500000000000004 165.50000000000003 26.500000000000004 60.500000000000007 0.65450000000000019 24.500000000000004 94.500000000000014 81.000000000000014 8.5000000000000018 0.73350000000000015 0.68950000000000011 39.500000000000007 66.500000000000014 34.500000000000007 73.000000000000014 0.30550000000000005 56.500000000000007 27.500000000000004 83.000000000000014 114.50000000000001 152.50000000000003 73.000000000000014 40.350000000000009 144.50000000000003 75.500000000000014 30.950000000000003 53.000000000000007
decision_type=2 2 2 2 2 2 2 2 2 2 2 2 2 2 2 2 2 2 2 2 2 2 2 2 2 2 2 2 2 2
left_child=1 -1 5 10 8 -2 24 9 14 -5 28 -9 13 15 -4 26 17 -17 -12 20 21 -11 -22 -18 -7 -14 27 -10 -3 -30
right_child=2 3 4 7 -6 6 -8 11 12 19 18 -13 25 -15 -16 16 23 -19 -20 -21 22 -23 -24 -25 -26 -27 -28 -29 29 -31
leaf_value=-0.11339575578992021 -0.0935484848902432 -0.12033162916668474 -0.076313919882485037 -0.086597350768687437 0.11768567908144656 0.091642951316205423 -0.13115652247250362 0.0351249314804922 0.13523413077869689 0.083690385288689065 0.12763437471741285 0.17978798553598341 0.1623073599999319 -0.097235884556660934 0.073535686715444235 0.069413622308757236 0.10202237056593491 -0.14190421212754512 -0.059856910017239195 -0.12875652415478642 -0.08919691134695526 -0.086237242824053983 0.046162968758347772 -0.040775518052357122 0.0057742883817529355 0.0096282218342773548 0.14874727136870819 -0.0025824073815609613 0.062188784209333936 -0.06937389213665833
leaf_weight=15.49585774540901 4.6886888742446926 6.1536302268505159 3.5548068135976818 4.869994252920157 13.474954679608343 5.0077120810747129 1.5696607828140248 5.9676839113235465 2.4107071608305066 6.9793031513690931 1.4906454384326928 1.7756839692592619 3.9899920523166648 1.289813607931136 1.674404978752136 1.5882901698350891 4.2155817300081253 2.0451128929853439 1.3515622466802595 1.1994933187961567 3.2170922309160224 1.5117981433868406 2.3640672564506531 1.6429170966148374 6.7364849746227264 1.1432078331708906 3.7700485736131668 3.3278391659259796 1.8163196444511438 14.295824810862539
leaf_count=114 28 45 18 29 59 22 9 28 10 31 8 8 17 6 8 7 18 11 8 7 17 8 11 7 31 5 16 15 9 81
internal_value=0 -0.0443647 0.046443 -0.0241791 0.0687139 -0.00814724 0.0219282 0.00819774 0.0471859 -0.0149077 -0.0601371 0.0682986 0.0627186 0.0461263 -0.0283318 0.0558581 0.0192935 -0.0495296 0.0384762 0.0079534 0.0196063 0.0534356 -0.0318612 0.0619771 0.0423886 0.128304 0.0923586 0.055313 -0.072725 -0.0545429
internal_weight=0 68.489 62.1302 52.9931 44.1277 18.0025 13.3139 27.8851 30.6527 20.1417 25.108 7.74337 25.4235 20.2903 5.22921 19.0005 9.4919 3.6334 2.84221 15.2718 14.0723 8.4911 5.58116 5.8585 11.7442 5.1332 9.50859 5.73855 22.2658 16.1121
internal_count=691 404 287 290 197 90 62 139 138 103 151 36 112 90 26 84 43 18 16 74 67 39 28 25 53 22 41 25 135 90
shrinkage=0.1


Tree=9
num_leaves=31
num_cat=0
split_feature=1 1 5 6 5 7 4 4 0 5 6 6 7 6 7 0 5 2 1 2 5 3 5 7 3 2 6 5 5 6
split_gain=22.5874 8.58849 5.95923 5.98117 4.94098 4.44789 4.03996 3.93714 3.37312 2.73744 2.64628 3.27064 2.56182 2.46024 2.83446 3.15359 2.5041 2.30396 3.35189 2.27154 2.23789 2.20721 2.03847 2.04745 2.79354 1.99518 1.93075 1.82578 2.13691 5.28957
threshold=112.50000000000001 165.50000000000003 26.450000000000003 0.66050000000000009 28.250000000000004 30.500000000000004 60.500000000000007 158.50000000000003 8.5000000000000018 40.95000000000001 0.2185 0.24450000000000002 25.500000000000004 0.53050000000000008 23.500000000000004 1.5000000000000002 34.45000000000001 54.500000000000007 145.50000000000003 84.500000000000014 38.550000000000004 32.500000000000007 42.050000000000004 27.500000000000004 21.500000000000004 83.000000000000014 0.39200000000000007 27.550000000000004 39.050000000000004 0.29250000000000004
decision_type=2 2 2 2 2 2 2 2 2 2 2 2 2 2 2 2 2 2 2 2 2 2 2 2 2 2 2 2 2 2
left_child=2 4 -1 12 10 6 22 8 -5 20 -2 -12 19 -8 -15 -16 -17 -13 -19 -4 -7 -3 23 24 -6 -22 -25 -14 -29 -30
right_child=1 21 3 7 5 9 13 -9 -10 -11 11 17 27 14 15 16 -18 18 -20 -21 25 -23 -24 26 -26 -27 -28 28 29 -31
leaf_value=-0.1172123825882459 -0.10965090824445854 0.070553113318712377 -0.10592364548947884 -0.015728682334749167 0.1171505723180588 0.05781149098349269 -0.083075278899928801 0.21189223022036843 0.17808437372679356 0.14799377245165099 0.13920092989435126 0.09619887996919417 0.096745717308712009 -0.086167721400684349 0.17634463489250812 0.090437387574141007 -0.13763354689140558 -0.075948633513069991 0.10340421481944823 0.041527331176227693 0.035331121290699284 0.14851344104370859 0.13957575942097189 0.024464917740131178 -0.036669161744650236 -0.14719043985880306 -0.14952896006331673 -0.05643022462736106 -0.074580015376329162 0.21930013457033781
leaf_weight=11.587580956518648 3.635830044746398 10.703013584017755 10.953894786536695 6.3023064881563169 3.1798446923494357 20.329936161637313 6.5076597258448583 1.1364168375730512 1.047184109687805 3.0389662384986869 1.2775559872388829 1.2390772998332966 1.0431312471628214 1.991007551550865 1.4394091665744784 1.0008669346570966 0.92754913866519917 7.1703803092241269 1.2191878110170362 1.1549388617277134 1.3861405551433557 5.496609851717948 1.8603180795907972 1.5114848315715792 1.8779654055833814 1.0545152872800825 1.1032868176698682 12.928270772099493 1.5204557329416268 1.0255831032991407
leaf_count=94 22 48 73 35 14 88 37 5 5 14 6 7 5 12 6 5 5 44 5 7 6 25 8 7 10 5 5 74 9 5
internal_value=0 0.032199 -0.0546096 -0.0350631 0.0151978 0.0308973 -0.00281236 0.0386709 0.0118866 0.0588469 -0.0357686 -0.0111383 -0.0569207 -0.0417563 0.00842075 0.06434 -0.0192625 -0.0310857 -0.0498847 -0.0918598 0.0469493 0.0970054 0.0456648 0.0228948 0.0600373 -0.0435296 -0.0489507 -0.031307 -0.0399391 0.0437994
internal_weight=0 77.9506 48.6998 37.1122 61.751 47.209 21.3994 8.48591 7.34949 25.8096 14.542 10.9062 28.6263 11.8665 5.35883 3.36783 1.92842 9.62865 8.38957 12.1088 22.7706 16.1996 9.5329 7.67258 5.05781 2.44066 2.61477 16.5174 15.4743 2.54604
internal_count=691 379 312 218 306 222 109 45 40 113 84 62 173 65 28 16 10 56 49 80 99 73 44 36 24 11 12 93 88 14
shrinkage=0.1


Tree=10
num_leaves=31
num_cat=0
split_feature=1 5 7 6 5 2 1 3 3 6 2 1 0 4 3 2 5 0 5 7 7 0 2 7 0 7 1 1 6 6
split_gain=19.4124 10.2088 5.83326 4.68392 4.34378 4.16781 2.91216 3.56752 3.66609 2.7448 2.6442 2.62267 3.52307 4.04909 2.50967 2.4222 2.98131 2.65501 2.38997 2.82865 2.37522 2.30975 3.49699 2.11018 1.98637 1.92942 1.92339 4.39074 3.77536 1.74397
threshold=133.50000000000003 26.250000000000004 26.500000000000004 0.20050000000000004 29.950000000000003 34.000000000000007 99.500000000000014 30.500000000000004 32.500000000000007 0.23550000000000001 60.500000000000007 165.50000000000003 6.5000000000000009 119.50000000000001 40.500000000000007 85.500000000000014 43.000000000000007 1.5000000000000002 1.0000000180025095e-35 24.500000000000004 42.500000000000007 1.5000000000000002 73.000000000000014 43.500000000000007 4.5000000000000009 42.500000000000007 119.50000000000001 123.50000000000001 0.31750000000000006 0.27950000000000003
decision_type=2 2 2 2 2 2 2 2 2 2 2 2 2 2 2 2 2 2 2 2 2 2 2 2 2 2 2 2 2 2
left_child=1 18 5 -4 21 -3 7 20 -9 -8 -6 12 13 23 -10 26 17 -17 19 -1 -5 -2 24 -12 -23 -14 -11 -28 -29 -7
right_child=4 2 3 6 10 29 9 8 14 15 11 -13 25 -15 -16 16 -18 -19 -20 -21 -22 22 -24 -25 -26 -27 27 28 -30 -31
leaf_value=-0.11632511448180366 -0.082514494078387984 0.14605707877905996 -0.072668732841959613 -0.12355997888593101 0.15623168176508107 -0.022791020987599511 0.15684300352782066 0.16632208461166384 -0.1255200844887342 0.078174212063304716 0.10275079141651272 0.09955819947379968 0.026427993151321872 -0.063861360652548632 0.096206564383722548 0.067942812703276068 0.10442991814232978 -0.11854253905802099 -0.1170283172937851 0.17287313412831129 0.019614152129787996 0.16866007293312699 -0.029606956870471674 -0.026529459895925873 0.02502005802539365 0.13872152245235722 -0.075077343226409021 -0.066406621328156154 0.11218134492713767 -0.082804529808147939
leaf_weight=0.70627111196517833 2.607208475470542 0.99811799079180019 5.9944535717368117 3.6611964181065542 3.3266519457101849 7.2445701286196735 1.8553647696971918 1.5547947287559511 1.2623760104179385 9.8311936259269768 3.7906791567802482 11.225562915205954 2.4843485355377188 4.9735323041677475 0.85706405341625203 1.0228573828935612 1.2702663987874983 3.0101994723081589 13.739156164228914 0.64899428933858871 1.6952181309461591 1.9146588891744598 5.1382388025522232 1.8931157588958738 1.9364316016435621 3.9834782034158707 3.449029862880705 1.5985279679298399 4.5618355721235275 14.601853109896181
leaf_count=6 15 5 34 24 15 46 8 8 8 46 17 53 11 26 5 5 6 16 115 4 9 9 25 8 9 18 17 7 20 96
internal_value=0 -0.0305025 -0.0131699 0.00911431 0.0527188 -0.0537734 0.0228737 -0.0261918 0.049697 0.0395317 0.0718883 0.0619915 0.0373664 0.00203197 -0.0358578 0.0307354 -0.0291679 -0.0712464 -0.104531 0.0221629 -0.0782477 0.000354937 0.0243899 0.0596911 0.096434 0.0955886 0.0470769 0.0152617 0.0658403 -0.0629032
internal_weight=0 79.5633 64.4689 41.6244 43.2739 22.8445 35.6299 9.03065 3.67423 26.5993 31.6774 28.3507 17.1252 10.6573 2.11944 24.7439 5.30332 4.03306 15.0944 1.35527 5.35641 11.5965 8.98933 5.68379 3.85109 6.46783 19.4406 9.60939 6.16036 21.8464
internal_count=691 485 360 213 206 147 179 54 21 125 148 133 80 51 13 117 27 21 125 10 33 58 43 25 18 29 90 44 27 142
shrinkage=0.1


Tree=11
num_leaves=31
num_cat=0
split_feature=1 1 5 6 0 5 4 4 7 0 7 1 7 7 2 1 6 5 6 1 6 0 3 7 4 6 2 3 0 7
split_gain=16.7083 6.2212 5.17613 4.60333 3.69513 4.09309 3.29001 3.13915 3.38363 4.63974 3.9257 3.00016 3.45923 2.85989 2.45989 3.10089 3.00674 3.48471 2.81429 2.38854 2.23408 2.15033 3.33169 2.14106 2.13078 4.68151 2.08252 2.06087 2.01206 1.78534
threshold=112.50000000000001 165.50000000000003 26.450000000000003 0.66050000000000009 7.5000000000000009 23.750000000000004 158.50000000000003 17.000000000000004 23.500000000000004 3.5000000000000004 42.500000000000007 127.50000000000001 28.500000000000004 37.500000000000007 81.000000000000014 143.50000000000003 0.2185 33.750000000000007 0.29250000000000004 156.50000000000003 0.34250000000000008 9.5000000000000018 22.500000000000004 25.500000000000004 54.500000000000007 0.51450000000000007 84.500000000000014 32.500000000000007 2.5000000000000004 41.500000000000007
decision_type=2 2 2 2 2 2 2 2 2 2 2 2 2 2 2 2 2 2 2 2 2 2 2 2 2 2 2 2 2 2
left_child=2 4 -1 23 5 -2 13 14 -9 11 -11 12 -10 -5 16 -16 17 -7 -18 -13 -20 24 -23 26 -6 -26 -4 -3 -22 -24
right_child=1 27 3 6 21 7 -8 8 9 10 -12 19 -14 -15 15 -17 18 -19 20 -21 28 22 29 -25 25 -27 -28 -29 -30 -31
leaf_value=-0.1137056495491903 -0.11984999579456837 0.059287192357908393 -0.10025783685922603 -0.038895706196139877 0.15610740377676319 -0.06921457720033751 0.1963548337637033 -0.10204571885695222 -0.10120885722764571 -0.10621817749917549 0.066341296939291972 0.12094946423557534 0.062180199550364461 0.092398093898016009 -0.088250062581353511 0.076655106490686492 0.16711051486594136 0.13052290701252126 -0.065911308816787445 -0.00904637816032061 0.017773220366826107 -0.068004025518885611 -0.026262748808317683 -0.027954011827240201 -0.13972353905460774 0.13754017634490898 0.041940352470003266 0.13785322688919135 0.12044687530449033 0.12573949075088414
leaf_weight=9.786956310272215 2.666786052286624 10.157757639884947 9.8525737300515193 4.5135407671332342 3.4452193379402143 3.2736854329705301 1.0838254690170286 3.95463499426842 2.586284853518011 5.4016590863466254 1.7440423071384428 4.704423725605011 2.5968789756298065 2.6233177334070206 3.0630891174077979 1.8165390491485593 2.8429299443960181 1.1913334280252454 1.3441561907529811 2.0204655528068542 3.4970194697380066 2.5195670574903488 1.0955992490053179 15.820307180285452 0.95769089460372958 1.6724579483270643 1.1501394808292378 4.9734418690204611 4.2020955830812454 2.6219722032546997
leaf_count=94 20 48 73 27 16 18 5 28 18 27 8 23 12 13 16 8 13 5 6 9 17 13 5 93 5 8 7 25 19 12
internal_value=0 0.0278854 -0.0494079 -0.0314509 0.0132635 0.00046537 0.0340174 0.0077181 -0.0178703 -0.000399564 -0.0641018 0.0378264 -0.0193473 0.00936437 0.0354489 -0.0268608 0.0540437 -0.0159216 0.080326 0.0818927 0.0530436 0.0620194 0.0207742 -0.0515155 0.104363 0.0365828 -0.0853935 0.0851109 0.0738114 0.0809432
internal_weight=0 74.3497 44.8307 35.0437 59.2185 46.906 8.22068 44.2392 23.0084 19.0538 7.1457 11.9081 5.18316 7.13686 21.2308 4.87963 16.3512 4.46502 11.8862 6.72489 9.04327 12.3125 6.23714 26.823 6.07537 2.63015 11.0027 15.1312 7.69912 3.71757
internal_count=691 379 312 218 306 247 45 227 125 97 35 62 30 40 102 24 78 23 55 32 42 59 30 173 29 13 80 73 36 17
shrinkage=0.1


Tree=12
num_leaves=31
num_cat=0
split_feature=1 1 5 6 5 4 0 1 7 3 7 5 5 6 6 2 4 1 3 3 3 5 6 5 5 2 5 0 0 2
split_gain=14.1011 5.30843 4.89721 3.86051 3.68064 2.80473 2.4303 2.36267 2.51055 2.68534 2.53929 2.06421 2.05038 2.04443 2.83368 2.46887 2.81038 2.14493 2.57429 2.64891 1.82256 2.51971 2.82494 2.61884 1.77763 2.17514 1.67017 2.34295 1.65354 1.99364
threshold=112.50000000000001 154.50000000000003 26.450000000000003 0.66050000000000009 27.050000000000004 158.50000000000003 8.5000000000000018 152.50000000000003 30.500000000000004 16.500000000000004 23.500000000000004 40.95000000000001 35.95000000000001 0.52250000000000008 0.49850000000000005 51.000000000000007 36.500000000000007 94.500000000000014 36.500000000000007 23.500000000000004 31.500000000000004 35.150000000000013 0.42050000000000004 42.050000000000004 29.850000000000005 79.000000000000014 40.95000000000001 1.0000000180025095e-35 2.5000000000000004 64.500000000000014
decision_type=2 2 2 2 2 2 2 2 2 2 2 2 2 2 2 2 2 2 2 2 2 2 2 2 2 2 2 2 2 2
left_child=2 4 -1 13 28 6 26 8 9 10 -6 -10 -12 14 15 -4 17 -17 19 -19 -11 22 -22 -23 25 -3 27 -5 -2 -30
right_child=1 24 3 5 7 -7 -8 -9 11 20 12 -13 -14 -15 -16 16 -18 18 -20 -21 21 23 -24 -25 -26 -27 -28 -29 29 -31
leaf_value=-0.11224176433062323 -0.11798084726565464 0.050755682846287342 0.095872567176661982 0.16084301312108509 0.15522462020080907 0.18434029822960185 0.15764798279135483 -0.10049764190246897 0.036888856865013919 -0.079268394855768351 -0.025139195759899358 0.13659489968450145 0.11110800657426559 -0.12107481765189454 0.15902558484000581 -0.076207509482226751 -0.094687922513927547 -0.012804411760112287 -0.12299717671495775 0.11967045252076279 -0.0066318845290546076 -0.099586870501571001 0.19507749427405732 0.06574588691492543 0.082143531353311719 -0.10773583674622481 -0.13190797616021654 -0.021519612436038685 0.084791495137810702 -0.057189235543076672
leaf_weight=8.9651687741279584 2.6996372416615477 3.6515328735113171 1.2003112286329365 0.8445715904235821 1.654560118913653 1.041186988353729 0.94608782231807698 1.5749569460749615 19.47329251468182 4.7226350307464582 3.8756269365549088 2.3242234885692588 1.5447895079851148 3.333514690399169 0.71278375387191673 4.3553051128983515 8.7622607424855214 4.038178913295269 1.1965168565511701 2.4103078246116638 1.7666058838367464 3.0212138295173645 1.1438889950513838 1.4029435664415357 17.036975339055061 1.1350871622562406 1.0123855918645857 4.2484008222818375 1.3176042735576627 3.9652817919850349
leaf_count=94 22 17 7 4 7 5 5 8 89 33 19 12 7 25 5 31 61 23 8 13 9 19 5 7 85 5 6 25 8 27
internal_value=0 0.0258051 -0.0464742 -0.0291843 0.00799145 0.0311344 0.00851267 0.0196924 0.0243173 -0.00211806 0.0467898 0.0475203 0.0136905 -0.0479522 -0.0372025 -0.0435709 -0.0516323 -0.0201944 0.0117159 0.0367119 -0.0308162 0.000381151 0.0726444 -0.0471582 0.0670157 0.0131714 -0.0145974 0.00872172 -0.0543131 -0.0217778
internal_weight=0 72.3109 43.067 34.1018 50.4873 8.09263 7.05145 42.5047 40.9298 19.1323 7.07498 21.7975 5.42042 26.0092 22.6757 21.9629 20.7626 12.0003 7.645 6.44849 12.0573 7.33465 2.91049 4.42416 21.8236 4.78662 6.10536 5.09297 7.98252 5.28289
internal_count=691 379 312 218 272 45 40 215 207 106 33 101 26 173 148 143 136 75 44 36 73 40 14 26 107 22 35 29 57 35
shrinkage=0.1


Tree=13
num_leaves=31
num_cat=0
split_feature=1 5 0 1 5 5 1 7 7 7 6 6 6 0 7 5 5 1 7 5 1 6 1 6 0 6 7 2 2 5
split_gain=12.096 6.19193 3.54593 3.61467 3.53723 3.28081 3.40315 3.01491 2.92298 3.12545 2.75401 3.29913 2.6876 2.66845 2.29126 2.09261 2.8817 1.98483 1.96529 1.94071 2.83883 2.08386 2.02382 3.99267 2.41088 1.90646 3.44797 2.63382 3.49449 2.13459
threshold=123.50000000000001 26.450000000000003 6.5000000000000009 83.500000000000014 29.950000000000003 45.350000000000001 59.000000000000007 38.500000000000007 26.500000000000004 60.500000000000007 0.31000000000000005 0.27050000000000007 0.76900000000000002 3.5000000000000004 51.500000000000007 30.950000000000003 35.150000000000013 114.50000000000001 47.500000000000007 26.850000000000005 151.50000000000003 0.2185 125.50000000000001 0.43250000000000005 6.5000000000000009 0.25950000000000006 24.500000000000004 63.000000000000007 67.000000000000014 32.550000000000004
decision_type=2 2 2 2 2 2 2 2 2 2 2 2 2 2 2 2 2 2 2 2 2 2 2 2 2 2 2 2 2 2
left_child=1 -1 5 -4 8 6 -3 -5 -2 19 11 -6 18 -13 15 17 25 -8 -9 20 21 -10 -21 24 -24 26 -17 -27 -29 -28
right_child=4 2 3 7 10 -7 14 12 9 -11 -12 13 -14 -15 -16 16 -18 -19 -20 22 -22 -23 23 -25 -26 27 29 28 -30 -31
leaf_value=-0.10275989270178093 -0.083464341666857261 0.20473921394386166 -0.11940118383852161 0.13286015987086638 0.038761349074863921 0.098215913693012996 -0.11743690863442297 0.017924971253085648 -0.12655410483172461 -0.12632446414775919 0.06824387820528563 -0.18815652218021928 0.15053593289731321 0.0016441072420541342 0.065576210009123254 -0.071103582610803504 -0.07054977138435857 0.0085539746302414378 -0.12878251873095101 0.11040065175945329 0.1568257906054264 0.07756051928003338 0.081371067465794325 -0.16189359975840778 -0.096649522897283402 -0.14105403776803543 0.24904123894272234 0.14973753690161137 -0.033070577708701226 0.050512282783499118
leaf_weight=10.523158051073549 3.8147873058915165 0.55990621447563071 1.3527908399701107 3.263359919190405 10.55080498754978 1.8151383996009816 6.6330720782279986 3.5413754135370255 0.81389249861240243 1.3634814843535412 25.18346094340086 1.2963732555508607 1.147726312279701 1.7282298058271406 1.8100922852754582 1.2391518056392699 11.557733885943888 1.5408517047762869 1.2303394526243208 1.3067745864391325 2.4682880342006683 1.2976210862398145 2.5692532956600194 1.5736531615257261 1.0807340592145918 1.6105635613203029 0.96354809403419528 1.2849090769886968 5.6159946322441101 1.2367041409015653
leaf_count=114 28 3 10 15 53 9 58 17 5 9 129 7 6 8 9 8 76 10 8 6 11 7 12 7 5 10 5 7 32 7
internal_value=0 -0.0335039 -0.0177983 0.0332067 0.0322397 -0.0327803 -0.0397629 0.0556886 -0.00686319 0.0165635 0.0486728 0.0123668 0.0131443 -0.0797062 -0.0438503 -0.0501021 -0.0349478 -0.0936866 -0.0199021 0.0340991 0.0840067 -0.00111639 -0.000901192 -0.0287451 0.0286605 -0.000516927 0.0623142 -0.0259064 0.000967255 0.137453
internal_weight=0 56.9264 46.4033 10.5356 55.0474 35.8677 34.0525 9.1828 16.2885 12.4737 38.7589 13.5754 5.91944 3.0246 33.4926 31.6825 23.5086 8.17392 4.77171 11.1102 4.5798 2.11151 6.53042 5.22364 3.64999 11.9509 3.4394 8.51147 6.9009 2.20025
internal_count=691 404 290 56 287 234 225 46 90 62 197 68 31 15 222 213 145 68 25 53 23 12 30 24 17 69 20 49 39 12
shrinkage=0.1


Tree=14
num_leaves=31
num_cat=0
split_feature=1 5 7 6 2 5 5 1 1 2 0 1 6 6 6 6 4 1 2 4 5 1 6 0 2 5 6 6 6 5
split_gain=10.3882 6.76609 3.12762 3.45343 3.1676 2.70602 2.4335 3.40831 2.2956 2.40023 3.23891 2.72692 2.12836 2.2557 3.16263 2.80528 1.84882 2.15286 1.83604 1.74866 3.36786 2.49487 2.23613 1.5473 2.38653 1.52836 1.50515 2.825 2.3376 2.0643
threshold=133.50000000000003 26.250000000000004 26.500000000000004 0.20050000000000004 34.000000000000007 23.150000000000002 1.0000000180025095e-35 114.50000000000001 166.50000000000003 54.500000000000007 7.5000000000000009 135.50000000000003 0.23550000000000001 0.29250000000000004 0.29950000000000004 0.31750000000000006 45.500000000000007 104.50000000000001 93.000000000000014 137.50000000000003 34.95000000000001 143.50000000000003 0.60050000000000014 9.5000000000000018 81.000000000000014 34.550000000000004 0.27950000000000003 0.24550000000000002 0.50950000000000017 33.400000000000006
decision_type=2 2 2 2 2 2 2 2 2 2 2 2 2 2 2 2 2 2 2 2 2 2 2 2 2 2 2 2 2 2
left_child=1 6 4 25 -3 -2 7 -1 9 -7 11 -11 -5 16 -15 -16 17 -14 -10 20 21 -13 -22 24 -19 -4 27 -6 -28 -30
right_child=5 2 3 12 26 8 -8 -9 18 10 -12 19 13 14 15 -17 -18 23 -20 -21 22 -23 -24 -25 -26 -27 28 -29 29 -31
leaf_value=-0.11241048935715847 -0.13149625450107538 0.13684235817918947 -0.024093590029874986 0.11175368555013004 -0.050192316834916983 0.12961259160635136 -0.11154378533387066 0.23182767018505551 0.089056212921554134 0.14899992924865821 0.080833368730145794 -0.1119961471975543 -0.12031571403142834 0.24013605031168353 -0.14685958689378295 0.027199848343533596 -0.13390729935152179 0.12255239453738964 -0.053084402082920493 -0.05786590048498888 0.14721225960425277 0.014115661675097913 -0.019314262407528177 -0.080742945687270459 -0.060493389383332569 -0.13168043023548126 -0.11919962034725035 0.10312913800379107 -0.095061077529766891 0.016793432575522665
leaf_weight=0.64449951797723659 0.90016685426235099 0.9338411763310458 3.264238826930522 2.2604477107524863 4.9502255991101292 2.0734591558575657 10.027547910809515 0.51942461729049683 11.93890796601772 1.0859212875366271 5.9831023961305609 2.4404735639691371 1.3612382188439394 0.67084315419197338 0.96674580872059124 21.933967046439648 1.5696403682231901 2.0648137927055363 0.98362573981285173 5.9513053968548766 2.312010452151299 4.3913837149739265 1.2382188290357588 1.0501599907875059 1.0873744785785673 2.2173371315002441 5.7212822660803777 1.587016776204109 2.9347917512059212 3.7686478570103645
leaf_count=7 6 5 20 11 37 11 115 3 64 6 30 14 10 3 6 118 10 10 5 32 11 21 6 5 6 14 48 9 26 22
internal_value=0 -0.0244341 -0.0107719 0.00588386 -0.0429577 0.0398885 -0.095657 0.0412127 0.0439062 0.0264921 0.0173556 -0.00444741 0.0181052 0.0112109 0.0261212 0.019852 -0.0380597 -0.0110185 0.0782369 -0.0146493 0.0101237 -0.030934 0.0891326 0.0243854 0.0594092 -0.0676132 -0.0518125 -0.0129712 -0.0722487 -0.0321769
internal_weight=0 69.5341 58.3426 38.4468 19.8958 39.2986 11.1915 1.16392 38.3984 25.4759 23.4024 17.4193 32.9652 30.7048 23.5716 22.9007 7.13323 5.56359 12.9225 16.3334 10.3821 6.83186 3.55023 4.20235 3.15219 5.48158 18.962 6.53724 12.4247 6.70344
internal_count=691 485 360 213 147 206 125 10 200 131 120 90 179 168 127 124 41 31 69 84 52 35 17 21 16 34 142 46 96 48
shrinkage=0.1


Tree=15
num_leaves=31
num_cat=0
split_feature=1 5 1 0 1 1 0 5 4 7 0 7 6 2 7 7 1 6 3 7 1 5 5 7 5 0 2 1 3 7
split_gain=8.83167 4.01351 3.75927 2.82891 2.97878 2.84287 2.38182 2.77086 2.07586 2.49944 3.69529 2.90224 2.51233 2.06216 2.30715 2.34314 2.23243 2.04068 2.00651 1.96141 2.03706 2.02238 3.48791 1.83952 2.64085 2.05227 2.04298 2.30226 1.78449 1.756
threshold=112.50000000000001 26.450000000000003 165.50000000000003 6.5000000000000009 83.500000000000014 59.000000000000007 7.5000000000000009 23.750000000000004 17.000000000000004 23.500000000000004 3.5000000000000004 42.500000000000007 0.20050000000000004 81.000000000000014 60.500000000000007 45.500000000000007 143.50000000000003 0.19300000000000003 32.500000000000007 26.500000000000004 127.50000000000001 38.150000000000013 43.000000000000007 51.500000000000007 30.950000000000003 4.5000000000000009 51.000000000000007 89.500000000000014 38.500000000000007 47.500000000000007
decision_type=2 2 2 2 2 2 2 2 2 2 2 2 2 2 2 2 2 2 2 2 2 2 2 2 2 2 2 2 2 2
left_child=1 -1 6 5 -5 -3 7 -2 13 -10 12 -12 -11 14 15 17 -15 -9 -4 20 -14 28 -23 24 -7 26 -26 -28 -21 -6
right_child=2 3 18 4 29 23 -8 8 9 10 11 -13 19 16 -16 -17 -18 -19 -20 21 -22 22 -24 -25 25 -27 27 -29 -30 -31
leaf_value=-0.10885379051891131 -0.11432778247526271 0.17487315678856241 0.04212994120205487 -0.11669533759082212 0.081542681903867056 -0.11481254955839998 0.049690653266968116 -0.05976522362337499 -0.09683238052931889 -0.13568120044350615 -0.099344647945579012 0.05407578300088766 -0.1164654550561157 -0.086325398500805839 -0.096706343425336794 0.14812703484373746 0.058399045916773876 0.05483369321631814 0.12627587889775832 0.14935045869834848 0.041812810214757724 -0.13008507382813214 0.12912237200595586 0.063202689927741154 0.15737696302766629 -0.12364824198048151 -0.095024228346173717 -0.0019199444854359053 -0.00515245962870716 -0.042839185453222031
leaf_weight=6.8820131048560134 2.0849797055125228 0.58984912931919709 9.1129385977983457 1.2084433138370503 5.1409715414047241 5.4573299512267175 11.31111355870962 1.8317483365535761 3.3826702833175686 0.81983704119920986 5.028648078441619 1.6335560232400892 1.2455143630504593 2.8504704535007468 1.0780419930815686 2.2728784903883925 1.7024075537919996 10.242820933461187 4.1127920150756827 3.5318656712770462 2.3422969430685043 1.0565554872155192 1.0205596238374708 1.4086750745773304 0.62124650180339713 2.2099992707371703 3.7012032344937316 9.4041976109147054 0.94825948774814595 1.4566414207220075
leaf_count=94 20 3 48 10 26 55 59 10 28 5 27 8 11 16 6 11 8 51 25 16 12 7 6 7 3 15 28 62 5 9
internal_value=0 -0.0397312 0.0204807 -0.0244836 0.0276436 -0.0418784 0.00885231 -0.00187194 0.00384845 -0.0180968 -0.00298724 -0.0617263 0.0327023 0.0269266 0.044381 0.054982 -0.0322102 0.0374487 0.0682967 0.0463096 -0.0131337 0.0788342 -0.00272735 -0.0474853 -0.0547735 -0.0342137 -0.0198147 -0.0282143 0.116649 0.0540813
internal_weight=0 38.0806 67.61 31.1986 7.80606 23.3925 54.3842 43.0731 40.9881 21.0098 17.6271 6.6622 10.9649 19.9784 15.4255 14.3474 4.55288 12.0746 13.2257 10.1451 3.58781 6.55724 2.07712 22.8027 21.394 15.9366 13.7266 13.1054 4.48013 6.59761
internal_count=691 312 379 218 45 173 306 247 227 125 97 35 62 102 78 72 24 61 73 57 23 34 13 170 163 108 93 90 21 35
shrinkage=0.1


Tree=16
num_leaves=31
num_cat=0
split_feature=1 5 5 6 7 0 2 2 7 7 2 6 5 0 4 5 0 7 2 1 1 5 1 3 6 6 4 2 2 0
split_gain=7.58132 5.00491 3.23841 3.19652 5.64626 2.64121 2.96508 2.63632 3.04034 2.62477 2.3144 2.30999 2.25096 2.51299 2.24459 2.13452 1.93049 1.71945 3.92585 2.92905 4.36121 1.69237 1.65737 1.57374 1.52506 1.98518 3.18243 2.97003 2.06135 1.90408
threshold=129.50000000000003 26.250000000000004 34.050000000000004 1.0455000000000003 38.500000000000007 1.5000000000000002 57.000000000000007 69.000000000000014 62.500000000000007 26.500000000000004 63.000000000000007 0.20050000000000004 1.0000000180025095e-35 6.5000000000000009 332.50000000000006 45.350000000000001 4.5000000000000009 41.500000000000007 84.500000000000014 154.50000000000003 136.50000000000003 34.550000000000004 166.50000000000003 31.500000000000004 0.23550000000000001 0.52750000000000019 17.000000000000004 81.000000000000014 59.000000000000007 8.5000000000000018
decision_type=2 2 2 2 2 2 2 2 2 2 2 2 2 2 2 2 2 2 2 2 2 2 2 2 2 2 2 2 2 2
left_child=1 12 5 14 -5 22 -7 10 17 15 -8 21 13 -1 -4 -3 -12 18 19 20 -9 23 -2 -11 -13 26 27 28 -26 -27
right_child=2 9 3 4 -6 6 7 8 -10 11 16 24 -14 -15 -16 -17 -18 -19 -20 -21 -22 -23 -24 -25 25 29 -28 -29 -30 -31
leaf_value=-0.10999607628844293 -0.1029196400257987 -0.04956893202555733 0.094596690651088486 0.096525034686985756 -0.22324556919928717 0.16259019309547604 0.035807704896178107 0.1597254972838722 -0.091452112517808742 0.038795639976120039 -0.23675840655521854 0.099199738444865349 -0.10945071862743304 0.19316260126258589 -0.020826707662527529 0.13494377420285927 -0.052728011381189738 0.091686864960910872 -0.15335686056775236 0.1372879778287581 -0.10675445046236219 -0.12854680541897753 0.047415043553452975 -0.12424241706437998 -0.092144729961184793 0.023323492542988284 -0.084319109634327982 -0.09086759112597384 0.057414680184919534 0.13771827454413038
leaf_weight=0.54052960872650035 3.0252675935626061 17.019387632608417 13.643728941679003 1.2245767861604684 1.0056491345167158 1.4090068638324762 1.5705602318048502 0.92858774960040902 1.708870157599448 2.0067810192704196 0.89468175917863879 2.0048917979002026 8.1159665584564191 0.55335298180580139 1.9221676290035237 0.65095220506191154 1.5708109885454176 5.5491470992565155 1.1314158812165258 2.2572415322065353 1.8137353435158727 2.0455350503325462 0.9679700881242751 0.83981052786111821 1.0436655431985871 10.550875797867773 4.6229107081890097 2.1560868844389907 7.8768194317817688 1.6877865940332402
leaf_count=7 22 139 75 8 5 7 9 4 10 12 5 10 111 3 11 3 8 29 6 12 10 14 5 6 5 59 29 14 43 10
internal_value=0 -0.0233058 0.032324 0.0643014 -0.0476653 0.00739454 0.0230572 0.0117744 0.0331302 -0.011379 -0.0590703 0.00454521 -0.0913009 0.0433602 0.0803435 -0.0427717 -0.119509 0.0513574 0.0148551 0.052922 -0.0165207 -0.059163 -0.0664782 -0.00930437 0.0149539 0.00890829 -0.0146273 0.0144592 0.0399168 0.0390992
internal_weight=0 61.7154 40.6234 17.7961 2.23023 22.8273 18.8341 17.4251 13.389 52.5055 4.03605 34.8352 9.20985 1.09388 15.5659 17.6703 2.46549 11.6801 6.13098 4.99956 2.74232 4.89213 3.99324 2.84659 29.943 27.9381 15.6995 11.0766 8.92048 12.2387
internal_count=691 465 226 99 13 127 100 93 71 344 22 202 121 10 86 142 13 61 32 26 14 32 27 18 170 160 91 62 48 69
shrinkage=0.1


Tree=17
num_leaves=31
num_cat=0
split_feature=1 5 1 6 4 6 6 7 5 3 1 1 0 4 3 5 3 5 0 6 5 1 5 1 2 0 6 5 6 6
split_gain=6.61301 3.48661 2.85067 2.40714 2.31979 1.87732 2.5189 2.01645 2.14693 3.01471 2.48417 3.02908 1.96983 1.85913 1.85731 1.72126 3.82326 1.63921 2.00536 2.08127 2.9214 1.95033 1.71614 1.57177 1.51603 1.54061 1.47161 2.54098 1.67864 2.06061
threshold=112.50000000000001 26.450000000000003 165.50000000000003 0.66050000000000009 158.50000000000003 0.52250000000000008 0.49850000000000005 22.500000000000004 40.95000000000001 32.500000000000007 94.500000000000014 98.500000000000014 9.5000000000000018 102.50000000000001 32.500000000000007 31.250000000000004 30.500000000000004 27.850000000000005 7.5000000000000009 0.44000000000000006 30.850000000000005 116.50000000000001 30.950000000000003 132.50000000000003 54.500000000000007 2.5000000000000004 1.1490000000000002 35.45000000000001 0.32700000000000001 0.26750000000000007
decision_type=2 2 2 2 2 2 2 2 2 2 2 2 2 2 2 2 2 2 2 2 2 2 2 2 2 2 2 2 2 2
left_child=1 -1 17 5 13 6 7 -3 9 10 15 -12 -13 -5 26 16 -9 24 21 20 -20 22 -19 -22 25 -2 27 28 29 -4
right_child=2 3 14 4 -6 -7 -8 8 -10 -11 11 12 -14 -15 -16 -17 -18 18 19 -21 23 -23 -24 -25 -26 -27 -28 -29 -30 -31
leaf_value=-0.10721162354664825 -0.047059773116635589 -0.11423614464705412 0.037213492887127768 0.027984818151334308 0.17675821127026659 -0.11672660690810424 0.15685505791854926 -0.11203548520186138 0.0900157025923225 -0.11872007300335981 0.16881570160658851 -0.030830018713640162 0.11260942952988851 -0.12854986001143229 0.12143295099896663 -0.11834596736348774 0.23144424165119282 -0.052917681092505969 0.15739136062402351 0.11644193124048954 -0.1097739803503721 -0.0013971937582078632 0.13296761009137606 0.029612050459322848 -0.043392239176629169 0.14128215583213308 -0.08320046563217956 0.1282585454181471 0.057070874351926586 -0.16092777782729517
leaf_weight=5.7388494424521914 0.77852027118205913 2.7213916927576198 1.0703962594270691 5.5166568458080283 0.91416050493717183 2.6886566393077365 0.71321028470992942 0.84769047051668323 1.5675568804144848 3.2120362892746916 1.2291300445795057 4.9609701633453369 1.1863413751125333 0.8797246366739272 3.6198889017105094 2.6909560710191727 0.52462372928857803 0.65748499333858434 1.0777950137853602 3.7198296189308167 1.4575325548648836 30.13763289898634 2.0305327698588371 1.8181869536638258 9.0640788301825506 0.98230020701885223 0.92293769121170033 2.7207421660423279 2.9450343996286392 1.0298393964767454
leaf_count=94 6 27 6 34 5 25 5 10 9 26 6 35 5 6 25 22 3 5 5 21 7 167 11 9 69 6 5 16 16 5
internal_value=0 -0.0358652 0.0179982 -0.0220573 0.0277516 -0.038355 -0.0276337 -0.0345806 -0.0212154 -0.0331158 -0.00907988 0.0255059 -0.0031483 0.00645586 0.0612505 -0.0718668 0.0192738 0.00770532 0.0168639 0.0615136 0.0145806 0.00588242 0.0875004 -0.0324078 -0.0268978 0.0580096 0.036178 0.0503653 0.00836013 -0.059944
internal_weight=0 35.392 64.0327 29.6531 7.31054 22.3426 19.6539 18.9407 16.2193 14.6517 11.4397 7.37644 6.14731 6.39638 12.3088 4.06327 1.37231 51.7239 40.899 8.07334 4.35351 32.8257 2.68802 3.27572 10.8249 1.76082 8.68895 7.76601 5.04527 2.10024
internal_count=691 312 379 218 45 173 148 143 116 107 81 46 40 40 73 35 13 306 225 42 21 183 16 16 81 12 48 43 27 11
shrinkage=0.1


Tree=18
num_leaves=31
num_cat=0
split_feature=1 5 7 3 0 7 6 5 7 2 6 5 0 5 1 4 3 6 6 6 6 6 5 2 1 7 6 6 7 6
split_gain=5.80698 3.96906 1.98571 2.30468 1.85507 2.7993 2.4604 1.8543 1.69934 2.28536 1.88913 3.39784 3.76765 3.83353 2.17834 2.76229 1.95097 1.65828 2.64717 2.24443 2.48348 4.12953 1.75134 1.68231 1.64354 1.84459 3.35513 1.90241 1.6513 2.19298
threshold=123.50000000000001 26.450000000000003 24.500000000000004 34.500000000000007 6.5000000000000009 34.500000000000007 0.76900000000000002 45.350000000000001 34.500000000000007 89.000000000000014 0.50250000000000006 32.850000000000001 3.5000000000000004 39.050000000000004 89.500000000000014 94.500000000000014 14.500000000000002 1.3970000000000002 0.71950000000000014 0.59750000000000003 0.31000000000000005 0.28650000000000003 40.550000000000004 81.000000000000014 180.50000000000003 37.500000000000007 0.20350000000000004 0.24450000000000002 54.500000000000007 0.23350000000000001
decision_type=2 2 2 2 2 2 2 2 2 2 2 2 2 2 2 2 2 2 2 2 2 2 2 2 2 2 2 2 2 2
left_child=1 -1 3 -2 7 -6 -7 8 10 -10 16 -12 13 14 -13 -16 -3 18 19 20 21 24 -20 -21 25 26 -4 -28 -27 -30
right_child=2 4 17 -5 5 6 -8 -9 9 -11 11 12 -14 -15 15 -17 -18 -19 22 23 -22 -23 -24 -25 -26 28 27 -29 29 -31
leaf_value=-0.095093325638674675 -0.056967260280216238 0.0034950671035642862 -0.1753980741632811 0.055502978855315091 0.12203261160954695 -0.029554467452943073 0.13584340790999999 0.073844256982288289 0.033537030970355895 -0.12744147098170108 -0.093465899108236786 -0.0039247118009506704 -0.14597264832657819 -0.058553105855497084 0.30615831428089058 0.084328911955342645 -0.086617985591489088 -0.080430571924099303 0.12165369651519085 -0.0024857890422747522 0.066748035074376988 -0.14905411349945358 -0.018793183831327231 -0.14577996853055125 0.12639247277994356 0.067326244138924782 0.10583064100663118 -0.038485732251967324 -0.13848640360285921 0.078768441864517494
leaf_weight=7.0641027912497512 5.7273997589945775 3.062184192240248 1.2555099278688491 2.6719082221388817 2.2574222683906537 6.1868680268526077 1.0523687824606893 1.7685680389404286 6.1956569701433173 1.0282626077532766 2.9252942837774736 0.76047101616859469 0.89674550294876088 1.3876531571149824 1.0895875692367556 1.1578711047768591 11.153442699462174 1.265846550464629 4.9822289273142806 2.6053372696042056 13.013935439288614 1.5145362392067898 1.080395773053169 1.1951537281274793 1.4247508794069279 6.3645109981298429 1.4028725102543829 2.6181109622120857 1.0196481496095655 0.85355012863874424
leaf_count=114 44 20 8 15 11 38 7 9 36 7 28 5 5 10 5 7 102 8 29 14 73 8 6 7 9 33 8 14 6 5
internal_value=0 -0.0258725 0.0230696 -0.0211893 -0.0139235 0.0248073 -0.00551056 -0.0256277 -0.0315596 0.0106231 -0.0451432 -0.00697566 0.0408312 0.0789411 0.142372 0.191874 -0.0672068 0.0322266 0.0358525 0.0247775 0.0341055 0.00828681 0.0966252 -0.047548 0.0242383 0.0134686 -0.0326935 0.0118645 0.0430367 -0.0394911
internal_weight=0 47.9865 48.9957 8.39931 40.9224 9.49666 7.23924 31.4257 29.6572 7.22392 22.4332 8.21762 5.29233 4.39558 3.00793 2.24746 14.2156 40.5964 39.3305 33.2679 29.4674 16.4535 6.06262 3.80049 14.939 13.5142 5.27649 4.02098 8.23771 1.8732
internal_count=691 404 287 59 290 56 45 234 225 43 182 60 32 27 17 12 122 228 220 185 164 91 35 21 83 74 30 22 44 11
shrinkage=0.1


end of trees

feature_importances:
BMI=107
Glucose=99
Age=95
DiabetesPedigreeFunction=94
BloodPressure=55
Pregnancies=49
SkinThickness=37
Insulin=34

parameters:
[boosting: gbdt]
[objective: binary]
[metric: binary_logloss]
[tree_learner: serial]
[device_type: cpu]
[data: ]
[valid: ]
[num_iterations: 10000]
[learning_rate: 0.1]
[num_leaves: 31]
[num_threads: 8]
[force_col_wise: 0]
[force_row_wise: 0]
[histogram_pool_size: -1]
[max_depth: -1]
[min_data_in_leaf: 5]
[min_sum_hessian_in_leaf: 0.001]
[bagging_fraction: 0.9]
[pos_bagging_fraction: 1]
[neg_bagging_fraction: 1]
[bagging_freq: 0]
[bagging_seed: 24638]
[feature_fraction: 1]
[feature_fraction_bynode: 1]
[feature_fraction_seed: 13918]
[extra_trees: 0]
[extra_seed: 11614]
[early_stopping_round: 50]
[first_metric_only: 0]
[max_delta_step: 0]
[lambda_l1: 0]
[lambda_l2: 0]
[min_gain_to_split: 0]
[drop_rate: 0.1]
[max_drop: 50]
[skip_drop: 0.5]
[xgboost_dart_mode: 0]
[uniform_drop: 0]
[drop_seed: 10407]
[top_rate: 0.2]
[other_rate: 0.1]
[min_data_per_group: 100]
[max_cat_threshold: 32]
[cat_l2: 10]
[cat_smooth: 10]
[max_cat_to_onehot: 4]
[top_k: 20]
[monotone_constraints: ]
[monotone_constraints_method: basic]
[monotone_penalty: 0]
[feature_contri: ]
[forcedsplits_filename: ]
[refit_decay_rate: 0.9]
[cegb_tradeoff: 1]
[cegb_penalty_split: 0]
[cegb_penalty_feature_lazy: ]
[cegb_penalty_feature_coupled: ]
[path_smooth: 0]
[interaction_constraints: ]
[verbosity: -1]
[saved_feature_importance_type: 0]
[max_bin: 255]
[max_bin_by_feature: ]
[min_data_in_bin: 3]
[bin_construct_sample_cnt: 200000]
[data_random_seed: 11184]
[is_enable_sparse: 1]
[enable_bundle: 1]
[use_missing: 1]
[zero_as_missing: 0]
[feature_pre_filter: 1]
[pre_partition: 0]
[two_round: 0]
[header: 0]
[label_column: ]
[weight_column: ]
[group_column: ]
[ignore_column: ]
[categorical_feature: ]
[forcedbins_filename: ]
[objective_seed: 19665]
[num_class: 1]
[is_unbalance: 0]
[scale_pos_weight: 1]
[sigmoid: 1]
[boost_from_average: 1]
[reg_sqrt: 0]
[alpha: 0.9]
[fair_c: 1]
[poisson_max_delta_step: 0.7]
[tweedie_variance_power: 1.5]
[lambdarank_truncation_level: 20]
[lambdarank_norm: 1]
[label_gain: ]
[eval_at: ]
[multi_error_top_k: 1]
[auc_mu_weights: ]
[num_machines: 1]
[local_listen_port: 12400]
[time_out: 120]
[machine_list_filename: ]
[machines: ]
[gpu_platform_id: -1]
[gpu_device_id: -1]
[gpu_use_dp: 0]

end of parameters

pandas_categorical:[]
