tree
version=v3
num_class=1
num_tree_per_iteration=1
label_index=0
max_feature_idx=7
objective=binary sigmoid:1
feature_names=Pregnancies Glucose BloodPressure SkinThickness Insulin BMI DiabetesPedigreeFunction Age
feature_infos=[0:17] [0:198] [0:122] [0:99] [0:846] [0:67.099999999999994] [0.078:2.4199999999999999] [21:81]
tree_sizes=2673 2473 2376 2589 2378 2696 2696 3018 2903 2909 2807 3014 2909 2817 2802 2911 3012 2909 3121 2815

Tree=0
num_leaves=25
num_cat=0
split_feature=1 5 7 4 1 1 5 1 7 5 4 5 5 6 2 6 6 2 6 4 3 4 0 0
split_gain=132.073 42.3783 30.1253 17.0827 14.1325 10.3735 10.5659 8.75059 8.5162 8.07055 6.67819 5.59786 5.36739 5.14809 2.92221 2.76535 2.13876 4.05822 2.10598 1.78879 2.73794 1.1734 0.985659 0.356947
threshold=127.50000000000001 29.950000000000003 28.500000000000004 141.00000000000003 155.50000000000003 99.500000000000014 26.450000000000003 151.50000000000003 42.500000000000007 41.400000000000006 20.000000000000004 30.950000000000003 34.050000000000004 0.42050000000000004 73.000000000000014 0.34250000000000008 0.49200000000000005 67.000000000000014 0.27950000000000003 20.000000000000004 19.500000000000004 217.50000000000003 5.5000000000000009 2.5000000000000004
decision_type=2 2 2 2 2 2 2 2 2 2 2 2 2 2 2 2 2 2 2 2 2 2 2 2
left_child=2 7 11 5 8 19 -7 14 9 13 12 23 22 -3 -2 -6 18 -18 -13 20 -4 -17 -8 -1
right_child=1 4 3 -5 15 6 10 -9 -10 -11 -12 16 -14 -15 -16 21 17 -19 -20 -21 -22 -23 -24 -25
leaf_value=-0.72347322381169643 -0.62764522882945817 -0.62612414954402584 -0.70704556752902703 -0.49601336759011994 -0.47158249414409881 -0.69609379667391402 -0.54276900470233291 -0.5442624280007573 -0.44359463529214338 -0.4606307232889858 -0.65776259868101883 -0.66373629187471672 -0.60974329570090824 -0.53087311567005502 -0.70782783687582085 -0.39492009815830809 -0.60026580169167587 -0.69360475784320663 -0.72347322381169643 -0.72347322381169654 -0.62490728611567992 -0.44185625896593506 -0.4934860358543246 -0.7052202723865082
leaf_weight=22.599084958434108 5.4785660505294782 6.1633868068456703 4.5654717087745649 5.9351132214069358 6.8482075631618526 5.4785660505294826 4.5654717087745684 5.0220188796520224 6.1633868068456641 4.5654717087745658 4.5654717087745658 7.5330283194780367 5.9351132214069358 6.6199339777231216 4.793745294213295 7.9895754903554899 5.4785660505294782 5.0220188796520233 5.9351132214069366 4.5654717087745658 4.5654717087745667 4.793745294213295 4.5654717087745667 8.2178490757942182
leaf_count=99 24 27 20 26 30 24 20 22 27 20 20 33 26 29 21 35 24 22 26 20 20 21 20 36
internal_value=-0.607625 -0.518128 -0.660174 -0.614514 -0.480101 -0.632638 -0.603999 -0.625398 -0.519324 -0.546227 -0.578299 -0.697463 -0.554219 -0.576798 -0.665064 -0.433124 -0.670279 -0.644906 -0.690061 -0.685142 -0.665976 -0.412521 -0.518128 -0.718606
internal_weight=0 58.438 99.5273 44.7416 43.1437 38.8065 25.1101 15.2943 23.5122 17.3488 19.6315 54.7857 15.0661 12.7833 10.2723 19.6315 23.9687 10.5006 13.4681 13.6964 9.13094 12.7833 9.13094 30.8169
internal_count=692 256 436 196 189 170 110 67 103 76 86 240 66 56 45 86 105 46 59 60 40 56 40 135
shrinkage=1


Tree=1
num_leaves=23
num_cat=0
split_feature=1 5 7 5 6 1 1 1 7 2 5 7 1 2 1 3 1 6 2 6 5 0
split_gain=111.999 34.3403 27.0269 15.1984 12.8606 10.9171 8.16771 7.81329 6.69681 6.47586 5.23019 4.26068 4.18172 3.18595 2.77118 4.1162 2.21608 2.70769 2.95642 2.08996 0.877153 0.341842
threshold=127.50000000000001 29.950000000000003 28.500000000000004 26.450000000000003 0.56050000000000011 155.50000000000003 111.50000000000001 145.50000000000003 42.500000000000007 71.000000000000014 30.950000000000003 30.500000000000004 108.50000000000001 75.500000000000014 94.500000000000014 25.500000000000004 87.500000000000014 0.49200000000000005 71.000000000000014 0.34250000000000008 36.650000000000013 2.5000000000000004
decision_type=2 2 2 2 2 2 2 2 2 2 2 2 2 2 2 2 2 2 2 2 2 2
left_child=2 7 10 -4 6 8 14 -2 9 -3 21 -11 -6 -8 -5 -16 -12 18 -18 -7 -21 -1
right_child=1 5 3 4 12 19 13 -9 -10 11 16 -13 -14 -15 15 -17 17 -19 -20 20 -22 -23
leaf_value=-0.11137984870273754 -0.067135678372939225 0.11050764565926692 -0.095528387390336214 -0.087055998152002836 0.041943012065874696 0.1212251259749442 0.080625420961844607 0.040609065150716515 0.14520546910691512 -0.030859416677454236 -0.10032090048747219 0.065001742483915895 0.13972669897380929 -0.0045540787940918405 0.023834982769388353 -0.070954100817498353 -0.11246202068380855 -0.015010330442327595 -0.028891327930320003 0.18814713990520177 0.14939799400412235 -0.093223765749516102
leaf_weight=21.774293750524524 8.0704385042190534 7.199053078889853 8.6808169931173307 5.7953353226184907 5.2304359972476941 7.0980007946491268 5.3004579693078977 7.1310468912124625 6.428534433245658 5.112754821777342 5.6068052947521236 5.3237188011407852 4.6445491015911102 4.6253385692834854 5.3011961132287961 5.0144813358783722 5.1073590219020861 8.3262190520763379 4.460809588432312 7.6705300807952863 5.7488441467285156 7.967611849308013
leaf_count=99 36 31 39 26 23 30 23 31 27 22 25 23 20 20 23 22 23 37 20 32 24 36
internal_value=0 0.0807516 -0.0495453 -0.00647174 0.0150556 0.113944 -0.0125851 -0.0165924 0.0796741 0.0557865 -0.0856207 0.01804 0.0879341 0.0409325 -0.0455566 -0.0222423 -0.0591766 -0.046285 -0.0735002 0.154138 0.171547 -0.106516
internal_weight=0 59.7829 97.8357 44.5926 35.9118 44.5814 26.0368 15.2015 24.0641 17.6355 53.2431 10.4365 9.87499 9.9258 16.111 10.3157 23.5012 17.8944 9.56817 20.5174 13.4194 29.7419
internal_count=692 256 436 196 157 189 114 67 103 76 240 45 43 43 71 45 105 80 43 86 56 135
shrinkage=0.075


Tree=2
num_leaves=22
num_cat=0
split_feature=1 5 7 5 4 4 1 6 1 2 7 5 1 5 1 1 6 2 6 4 0
split_gain=95.6725 28.3257 24.3205 13.4266 11.9075 9.71366 8.84874 6.85642 6.79283 6.62829 5.45591 6.58165 5.06905 4.94403 4.43168 2.03845 2.43838 2.74379 1.70432 0.867034 0.333692
threshold=127.50000000000001 29.950000000000003 28.500000000000004 26.450000000000003 141.00000000000003 20.000000000000004 155.50000000000003 0.56050000000000011 145.50000000000003 77.000000000000014 42.500000000000007 41.400000000000006 106.50000000000001 30.950000000000003 136.50000000000003 87.500000000000014 0.49200000000000005 71.000000000000014 0.34250000000000008 217.50000000000003 2.5000000000000004
decision_type=2 2 2 2 2 2 2 2 2 2 2 2 2 2 2 2 2 2 2 2 2
left_child=2 8 13 -4 5 7 10 9 -2 12 11 14 -5 20 -3 -15 17 -17 -8 -20 -1
right_child=1 6 3 4 -6 -7 18 -9 -10 -11 -12 -13 -14 15 -16 16 -18 -19 19 -21 -22
leaf_value=-0.10754537190857578 -0.063572197931971414 0.07183439302188338 -0.091498301290309877 -0.01611708831504521 0.11320251064812942 -0.075686730327587035 0.1092979153389074 0.10085365832091742 0.037134584567152497 -0.059221874876049435 0.13063536964625277 0.12611545719642006 0.08672072145083505 -0.096164170503014887 -0.015934877464383605 -0.1084786932295272 -0.013953762618472429 -0.026994452770517405 0.16868149803090518 0.12981379137499502 -0.089285032839918843
leaf_weight=20.893068194389347 7.8906494677066785 5.8558151125907951 8.3944805264472944 5.3709536343813031 5.7078674435615531 8.0161142796277982 7.2744713723659542 4.7185511887073508 7.2101171910762787 6.7589140087366095 6.6019533276557913 4.7857259511947623 5.4138106256723404 5.4177531599998501 7.2330074459314346 4.9055046886205691 8.2865209579467756 4.4179107844829559 8.6420606970787031 5.1535127460956565 7.7052987813949576
leaf_count=99 36 25 39 24 24 36 30 20 31 30 27 20 23 25 31 23 37 20 35 21 36
internal_value=0 0.0735292 -0.0467994 -0.00608635 0.0138376 -0.00489394 0.103043 0.0205969 -0.015488 -0.000988968 0.0723712 0.0508514 0.0355061 -0.0817987 0.0233323 -0.0559337 -0.0435567 -0.0698673 0.138673 0.154162 -0.102625
internal_weight=0 60.6473 96.0067 44.3807 35.9862 30.2783 45.5465 22.2622 15.1008 17.5437 24.4765 17.8745 10.7848 51.6261 13.0888 23.0277 17.6099 9.32342 21.07 13.7956 28.5984
internal_count=692 256 436 196 157 133 189 97 67 77 103 76 47 240 56 105 80 43 86 56 135
shrinkage=0.075


Tree=3
num_leaves=24
num_cat=0
split_feature=1 5 7 5 4 4 1 1 6 2 6 5 7 1 2 1 6 2 6 5 3 0 1
split_gain=82.2334 23.6966 21.9205 11.892 9.94327 8.49684 7.41632 6.02508 5.71114 5.72756 5.02563 4.70874 4.47259 4.23087 2.73543 1.88569 2.20289 2.56572 1.49952 1.31193 1.09178 0.330762 7.10543e-15
threshold=127.50000000000001 29.950000000000003 28.500000000000004 26.450000000000003 141.00000000000003 20.000000000000004 155.50000000000003 151.50000000000003 0.56050000000000011 77.000000000000014 0.42050000000000004 30.950000000000003 30.500000000000004 106.50000000000001 73.000000000000014 87.500000000000014 0.49200000000000005 71.000000000000014 0.29950000000000004 36.550000000000004 31.500000000000004 2.5000000000000004 104.50000000000001
decision_type=2 2 2 2 2 2 2 2 2 2 2 2 2 2 2 2 2 2 2 2 2 2 2
left_child=2 7 11 -4 5 8 10 14 9 13 19 21 -12 -5 -2 -13 17 -17 -8 -3 -20 22 -1
right_child=1 6 3 4 -6 -7 18 -9 -10 -11 12 15 -14 -15 -16 16 -18 -19 20 -21 -22 -23 -24
leaf_value=-0.10422690436595912 -0.012631035306561246 0.0045356662948395294 -0.087845223257000365 -0.014989171046726726 0.10238600097791802 -0.071930551380379862 0.094349910993268615 0.050663827015238729 0.091253050514268533 -0.055879261074696512 0.040503400511534136 -0.092436333421501635 0.12972227962887897 0.078644715242190064 -0.092238118836198105 -0.10503822980227873 -0.012968247837092802 -0.02521421516659544 0.15745209181016548 0.056000858875386687 0.11748666218233747 -0.085697555978517068 -0.10422690436595917
leaf_weight=13.721239030361181 5.287636846303938 5.8857027888298052 8.099212631583212 5.3430986702442258 5.8321756422519675 7.8101402521133414 5.9136729240417507 5.2112748622894278 4.8195298016071311 6.6310110837221137 5.0081863850355139 5.2211084663867977 8.5672462433576566 5.5176086723804474 4.4894409328699112 4.6943051666021365 8.2490404993295652 4.3767427206039429 8.2218210548162443 5.2905929833650589 7.2225451022386542 7.4361798763275138 6.2552707344293585
leaf_count=68 24 25 39 24 24 36 24 22 20 30 21 25 35 23 21 23 37 20 33 22 29 36 31
internal_value=0 0.067455 -0.0443098 -0.00574376 0.0127511 -0.0046042 0.0940849 -0.0144688 0.0189637 -0.000954386 0.0661443 -0.0783199 0.0968081 0.03258 -0.049185 -0.0529268 -0.0410167 -0.0665235 0.126465 0.0288981 0.138762 -0.0992005 -0.104227
internal_weight=0 61.0981 94.0067 44.0528 35.9536 30.1214 46.1098 14.9884 22.3112 17.4917 24.7517 49.9539 13.5754 10.8607 9.77708 22.5412 17.3201 9.07105 21.358 11.1763 15.4444 27.4127 19.9765
internal_count=692 256 436 196 157 133 189 67 97 77 103 240 56 47 45 105 80 43 86 47 62 135 99
shrinkage=0.075


Tree=4
num_leaves=22
num_cat=0
split_feature=1 5 7 5 1 6 1 1 3 5 7 2 7 2 1 1 6 7 6 4 0
split_gain=70.9831 20.0102 19.7857 10.5581 8.88234 6.96928 6.39418 5.33525 4.75554 4.51155 4.22345 5.33715 3.35011 2.64061 1.75204 2.21316 2.09382 1.41183 1.36808 0.724051 0.331873
threshold=127.50000000000001 29.950000000000003 28.500000000000004 26.450000000000003 99.500000000000014 0.56050000000000011 155.50000000000003 145.50000000000003 26.500000000000004 30.950000000000003 42.500000000000007 71.000000000000014 30.500000000000004 73.000000000000014 87.500000000000014 115.50000000000001 0.49200000000000005 40.500000000000007 0.34250000000000008 217.50000000000003 2.5000000000000004
decision_type=2 2 2 2 2 2 2 2 2 2 2 2 2 2 2 2 2 2 2 2 2
left_child=2 7 9 -4 17 8 10 -2 13 20 11 -3 -13 -6 -11 16 -16 -5 -8 -20 -1
right_child=1 6 3 4 5 -7 18 -9 -10 14 -12 12 -14 -15 15 -17 -18 -19 19 -21 -22
leaf_value=-0.10133405522947045 -0.057727236829697749 0.09039513873128166 -0.084499758211148066 -0.070356646966081043 0.08196973029683631 0.096262438986493434 0.090566153175633365 0.032160283660337657 -0.035669487378124191 -0.089057293203285148 0.11139008707983204 -0.035416019642485218 0.048494659327390284 0.0062432802129076441 -0.049226780247522264 -0.079894051317456305 0.014009518921500324 -0.014910642912166689 0.14356809309537644 0.10831942694393513 -0.082397363531574744
leaf_weight=19.041593760252002 7.5563689172267896 7.5044757425785127 7.7999589294195166 5.9258542805910093 5.034209027886396 7.5410721004009238 7.4646960794925716 7.3051261454820633 7.4092408567666999 5.0205111801624325 6.7362807244062415 5.1819135248661023 5.5352348685264587 5.3352892100811005 6.5797651410102862 5.1171730160713187 5.3320955336093903 4.579599916934967 8.7302566021680814 5.2487457990646353 7.1644849777221671
leaf_count=99 36 31 39 28 21 31 30 31 33 25 27 22 23 23 32 24 24 21 35 21 36
internal_value=0 0.0621962 -0.0420299 -0.00542581 0.0117904 0.0358455 0.086454 -0.0135433 0.0102189 -0.0751216 0.0606473 0.0418884 0.0079225 0.0430071 -0.050121 -0.0386418 -0.0209204 -0.0461863 0.11649 0.130333 -0.0961569
internal_weight=0 61.2631 91.8808 43.6252 35.8253 25.3198 46.4016 14.8615 17.7787 48.2556 24.9579 18.2216 10.7171 10.3695 22.0495 17.029 11.9119 10.5055 21.4437 13.979 26.2061
internal_count=692 256 436 196 157 108 189 67 77 240 103 76 45 44 105 80 56 49 86 56 135
shrinkage=0.075


Tree=5
num_leaves=25
num_cat=0
split_feature=1 5 7 4 1 0 4 5 2 7 6 7 4 6 3 5 1 6 6 3 5 1 0 1
split_gain=61.9676 15.2421 12.3409 11.3654 8.0734 6.72244 5.9078 6.77347 5.6542 4.83266 5.43674 4.94347 6.08616 4.30114 7.04705 4.23639 1.78532 1.75974 1.25867 1.10376 0.707258 0.43014 0.00298254 3.55271e-15
threshold=123.50000000000001 29.950000000000003 28.500000000000004 141.00000000000003 155.50000000000003 1.5000000000000002 20.000000000000004 27.850000000000005 73.000000000000014 24.500000000000004 0.73350000000000015 42.500000000000007 119.50000000000001 0.23850000000000002 26.500000000000004 30.950000000000003 87.500000000000014 0.49200000000000005 0.34250000000000008 30.500000000000004 36.650000000000013 106.50000000000001 2.5000000000000004 93.500000000000014
decision_type=2 2 2 2 2 2 2 2 2 2 2 2 2 2 2 2 2 2 2 2 2 2 2 2
left_child=2 5 15 6 9 -2 7 -4 -7 -3 11 12 -11 -9 -15 21 -17 19 -6 -18 -20 22 23 -1
right_child=1 4 3 -5 18 8 -8 13 -10 10 -12 -13 -14 14 -16 16 17 -19 20 -21 -22 -23 -24 -25
leaf_value=-0.098796263502095305 -0.081930882018889511 -0.012156473354411003 -0.074415380300190431 0.087633651189104461 0.083416733539596957 0.075973815755108545 -0.086352835837746778 -0.049859304505261659 -0.022892045415846489 0.069702631968150852 0.13306446601967231 0.097640258794048404 -0.036677151657384631 -0.0052169590725793594 0.10965126823573791 -0.085963862011902578 -0.029821728573955708 -0.006285253611837318 0.13626836577484747 -0.085489022731099776 0.10205414301458143 -0.076736601802699436 -0.10109293214954139 -0.098796263502095374
leaf_weight=7.1310524940490776 4.9150098115205791 6.045287877321246 7.0440711975097683 5.3830258548259726 7.4951910972595241 5.8339156508445722 7.9231122434139243 4.6445451825857189 7.3575801700353622 6.0152803510427528 4.9275154322385779 6.4158321321010581 6.085747629404068 8.8188077360391599 4.5563839673995963 4.8188749849796322 4.0150751918554288 7.0801557451486579 7.907304495573042 3.9991024732589722 5.9601122438907623 6.520635098218917 4.2127448022365561 5.8511199951171875
leaf_count=39 23 26 35 22 30 26 39 21 34 25 20 26 26 38 20 25 20 32 32 20 24 35 22 32
internal_value=0 0.0520282 -0.0444374 -0.0134116 0.0730685 -0.00706356 -0.0299009 -0.0120554 0.0208312 0.0476338 0.0630511 0.0444199 0.016203 0.0123216 0.033914 -0.0717235 -0.0462188 -0.0335302 0.108179 -0.0575999 0.121563 -0.0931389 -0.0993589 -0.0987963
internal_weight=0 68.9588 81.9987 38.3699 50.8523 18.1065 32.9869 25.0638 13.1915 29.4897 23.4444 18.5169 12.101 18.0197 13.3752 43.6288 19.9132 15.0943 21.3626 8.01418 13.8674 23.7156 17.1949 12.9822
internal_count=692 292 400 175 209 83 153 114 60 123 97 77 51 79 58 225 97 72 86 40 56 128 93 71
shrinkage=0.075


Tree=6
num_leaves=25
num_cat=0
split_feature=1 1 7 5 4 7 4 5 6 5 6 3 2 7 0 1 1 6 2 0 5 1 7 0
split_gain=53.8501 13.1729 11.2409 9.85837 9.73581 5.92289 5.35389 5.99372 4.74003 4.09325 3.69078 5.82661 3.37517 2.97515 2.37838 2.4909 1.6676 1.58195 1.80597 1.56614 1.41129 0.428675 0.182813 0.00220562
threshold=123.50000000000001 160.50000000000003 28.500000000000004 29.950000000000003 141.00000000000003 24.500000000000004 20.000000000000004 27.850000000000005 0.73350000000000015 30.950000000000003 0.23850000000000002 26.500000000000004 75.500000000000014 40.500000000000007 1.5000000000000002 135.50000000000003 87.500000000000014 0.50250000000000006 71.000000000000014 4.5000000000000009 34.050000000000004 106.50000000000001 46.500000000000007 2.5000000000000004
decision_type=2 2 2 2 2 2 2 2 2 2 2 2 2 2 2 2 2 2 2 2 2 2 2 2
left_child=2 3 9 14 6 -5 7 -4 12 21 -9 -12 -7 -14 -2 -16 -11 18 -18 20 -3 23 -21 -1
right_child=1 19 4 5 -6 8 -8 10 -10 16 11 -13 13 -15 15 -17 17 -19 -20 22 -22 -23 -24 -25
leaf_value=-0.096557681259444403 -0.073325943634466012 0.045966597875522493 -0.071188768251226775 -0.016881919993571231 0.080372072734475664 0.081609004143173555 -0.083124613230149372 -0.046915813325701716 0.12324222267912321 -0.083105474249683772 -0.0048315053157460802 0.098768017834337071 -0.015768504800165846 0.062597961139187447 0.033610019099878638 -0.041886219737107933 -0.084858571754448761 -0.0024782489074279593 -0.016451901390377641 0.1271002196324402 0.097624786463431146 -0.073977270369063639 0.10688104978762396 -0.098584062536460154
leaf_weight=12.312552124261861 4.2969756722450247 4.870469346642496 6.8198316097259548 6.2787013500928905 5.4272339940071097 8.7192092984914833 7.6250394731760016 4.5687439292669323 5.921097680926322 4.6185142248868969 8.8086005598306638 4.6740200668573371 6.1123258471488935 4.917280375957489 4.6296641677618009 5.2412792146205902 4.5359173715114576 6.1736588776111594 4.1635300368070602 5.1657870411872846 7.6430999785661697 6.2664287835359564 4.9025971740484238 4.0039546787738791
leaf_count=71 21 20 35 27 22 36 39 21 24 25 38 20 26 20 22 24 24 28 20 21 31 35 20 22
internal_value=0 0.0483026 -0.0422272 0.0253209 -0.0126145 0.048413 -0.0281443 -0.0112884 0.0643837 -0.0689182 0.011342 0.0310833 0.0467368 0.0191693 -0.0267516 -0.00647702 -0.0437384 -0.0315139 -0.0521193 0.0952354 0.0775186 -0.0906512 0.117255 -0.0970549
internal_weight=0 68.6985 79.998 46.1165 37.9235 31.9486 32.4962 24.8712 25.6699 42.0746 18.0514 13.4826 19.7488 11.0296 14.1679 9.87094 19.4916 14.8731 8.69945 22.582 12.5136 22.5829 10.0684 16.3165
internal_count=692 292 400 200 175 133 153 114 106 225 79 58 82 46 67 46 97 72 44 92 51 128 41 93
shrinkage=0.075


Tree=7
num_leaves=28
num_cat=0
split_feature=1 1 5 7 5 4 7 4 6 7 2 6 7 3 6 5 5 1 6 4 6 3 1 4 7 4 0
split_gain=46.8701 11.4606 10.5121 9.12436 6.92733 6.87839 5.77714 5.26805 5.16138 4.82891 4.33811 3.67017 2.76998 2.49133 2.77903 2.19016 2.06362 1.55869 1.45686 1.45189 1.53659 1.0491 0.373907 0.184893 0.00461763 0.00412707 0.000289371
threshold=123.50000000000001 154.50000000000003 26.450000000000003 28.500000000000004 41.900000000000006 141.00000000000003 24.500000000000004 41.500000000000007 0.72900000000000009 40.500000000000007 73.000000000000014 0.25350000000000006 50.500000000000007 26.500000000000004 0.37700000000000006 30.950000000000003 29.950000000000003 87.500000000000014 0.49200000000000005 249.50000000000003 0.34450000000000003 30.500000000000004 106.50000000000001 1.0000000180025095e-35 27.500000000000004 1.0000000180025095e-35 1.5000000000000002
decision_type=2 2 2 2 2 2 2 2 2 2 2 2 2 2 2 2 2 2 2 2 2 2 2 2 2 2 2
left_child=2 4 22 15 6 7 -2 11 9 10 -8 -5 -11 14 -13 23 -3 -17 21 20 -18 -19 24 -4 26 -22 -1
right_child=1 16 3 5 -6 -7 8 -9 -10 12 -12 13 -14 -15 -16 17 19 18 -20 -21 25 -23 -24 -25 -26 -27 -28
leaf_value=-0.094573471229830647 -0.047135542415951817 0.039393945390329838 -0.072953725529812857 -0.045501364751186421 0.10172675493433897 0.08197025894031508 0.025461040842604237 -0.075591978499185322 0.091605146989949857 0.087291864934866292 -0.0616144125538566 0.045846273507934535 0.0098120648891834496 0.069230783366034096 -0.035471849297520279 -0.080441216536158322 0.07479540649963938 -0.024985103489231004 -0.0050417065735541581 0.062567955144051168 0.12214978607756274 -0.080680483256928143 -0.073727258622078268 -0.095401517626754334 -0.098023900984881396 0.12523364740359358 -0.095451458595257679
leaf_weight=5.2521886825561541 8.0461111515760404 4.8683836609125164 3.3515573143959063 5.6360187977552512 5.1724593788385382 5.2275268882513037 6.0345471650362068 5.7594922482967368 5.3000606894493094 5.078361898660658 6.8962326645851135 4.5310894846916181 5.3087941259145737 4.9141163378953925 4.9426680505275726 4.4212460815906551 5.7198460400104549 3.8680571615695936 7.0399568974971771 6.1375473439693442 4.7366756349801999 3.7435756176710129 6.4685254991054526 5.3722000420093536 3.9135358184576026 5.0366819351911545 3.5312056243419647
leaf_count=32 38 20 20 26 21 21 26 30 22 21 31 20 24 21 21 25 23 20 32 25 20 20 37 32 22 21 21
internal_value=0 0.0449183 -0.0401658 -0.0244449 0.020474 0.00352456 0.00901109 -0.0123801 0.024797 0.00961185 -0.020978 0.00580155 0.0476925 0.0258979 0.00342082 -0.0556488 0.0835108 -0.0414108 -0.029633 0.09344 0.10567 -0.0523774 -0.088404 -0.0867774 -0.0958812 0.123739 -0.0949265
internal_weight=0 68.3357 77.973 58.8075 41.8366 31.0109 36.6641 25.7834 28.618 23.3179 12.9308 20.0239 10.3872 14.3879 9.47376 27.7966 26.4991 19.0728 14.6516 21.6308 15.4932 7.61163 19.1655 8.72376 12.6969 9.77336 8.78339
internal_count=692 292 400 288 183 139 162 118 124 102 57 88 45 62 41 149 109 97 72 89 64 40 112 52 75 41 53
shrinkage=0.075


Tree=8
num_leaves=27
num_cat=0
split_feature=1 5 5 7 4 1 7 4 4 6 2 6 5 3 6 2 5 1 1 2 6 4 1 4 7 0
split_gain=40.8804 10.3666 9.8099 8.13126 5.89548 5.68333 5.12937 4.70197 3.92468 3.85351 3.78896 3.16224 2.10877 2.09671 2.36714 1.8248 1.79643 1.4595 1.3169 3.20255 1.20796 0.723739 0.377667 0.18501 0.00349302 0.000217832
threshold=123.50000000000001 29.950000000000003 26.450000000000003 28.500000000000004 141.00000000000003 155.50000000000003 26.500000000000004 41.500000000000007 212.50000000000003 0.42050000000000004 73.000000000000014 0.25350000000000006 30.950000000000003 26.500000000000004 0.37700000000000006 77.000000000000014 33.850000000000001 87.500000000000014 113.50000000000001 67.000000000000014 0.34250000000000008 217.50000000000003 106.50000000000001 1.0000000180025095e-35 27.500000000000004 1.5000000000000002
decision_type=2 2 2 2 2 2 2 2 2 2 2 2 2 2 2 2 2 2 2 2 2 2 2 2 2 2
left_child=2 6 22 12 7 8 -2 11 9 16 -8 -5 23 14 -13 -11 -3 -14 19 -19 -7 -22 24 -4 25 -1
right_child=1 5 3 4 -6 20 10 -9 -10 15 -12 13 17 -15 -16 -17 -18 18 -20 -21 21 -23 -24 -25 -26 -27
leaf_value=-0.092807177307219102 -0.074003754294460933 -0.01598876877257905 -0.070547396252249123 -0.042803275364100238 0.075821166409309693 0.065551651222302609 0.060450867221003818 -0.072676827372041786 -0.018209339430874962 0.10852755544718183 -0.020247361013825783 0.041891165441124791 -0.077937626879441987 0.063267312365393444 -0.033061205175338115 0.051407248091928648 0.044996502629190936 0.036890829378011504 -0.065088019976801317 -0.047589170791107797 0.117362718599541 0.081150914604246602 -0.071191909577438692 -0.093546487120008209 -0.095890991333582601 -0.093590726803913615
leaf_weight=4.9618439674377459 4.735494643449786 4.6623729169368797 3.211373984813692 5.5455219596624472 5.2275015264749518 7.4193230420351055 6.0800136476755124 5.5493903905153266 5.5963141471147528 6.3140873461961728 7.0882453769445419 4.5847439467906934 4.22847852110863 4.9715882688760749 4.9067587703466415 6.2699972838163376 6.5114195346832275 4.1842766851186735 3.8979802429676047 6.3618395030498505 8.0634350478649122 5.0482858270406714 6.2066360712051383 5.0790432095527649 3.7083947360515586 3.3386726826429367
leaf_count=32 24 20 20 26 21 30 26 30 24 26 33 20 25 21 21 26 27 21 20 31 35 21 37 32 22 21
internal_value=0 0.0418957 -0.0382249 -0.0230879 0.00324999 0.0594662 -0.00706112 -0.0115933 0.0382949 0.0516048 0.0170124 0.00534817 -0.0531597 0.0238107 0.00314354 0.0800675 0.0195498 -0.0391838 -0.0278387 -0.0140709 0.0897357 0.10342 -0.0862136 -0.0846376 -0.0939773 -0.0931223
internal_weight=0 67.789 75.964 57.7485 30.7855 49.8852 17.9038 25.558 29.3542 23.7579 13.1683 20.0086 26.963 14.4631 9.4915 12.5841 11.1738 18.6726 14.4441 10.5461 20.531 13.1117 18.2155 8.29042 12.0089 8.30052
internal_count=692 292 400 288 139 209 83 118 123 99 59 88 149 62 41 52 47 97 72 52 86 56 112 52 75 53
shrinkage=0.075


Tree=9
num_leaves=27
num_cat=0
split_feature=1 1 5 6 7 4 7 1 5 7 5 5 2 5 6 0 1 6 2 5 3 1 5 6 7 0
split_gain=35.6736 9.31789 9.16558 7.32015 7.23774 5.06784 4.64686 4.26802 3.49841 2.87134 2.49248 2.03575 1.73175 1.75508 1.6054 1.43165 1.36913 1.29668 1.90352 1.16334 0.503312 0.383705 0.209314 0.191959 0.00265721 0.00016488
threshold=123.50000000000001 160.50000000000003 26.450000000000003 0.31750000000000006 28.500000000000004 141.00000000000003 24.500000000000004 99.500000000000014 33.750000000000007 27.500000000000004 30.050000000000004 30.950000000000003 71.000000000000014 38.150000000000013 0.24200000000000002 4.5000000000000009 87.500000000000014 0.50250000000000006 71.000000000000014 34.050000000000004 26.500000000000004 106.50000000000001 34.150000000000013 0.29800000000000004 27.500000000000004 1.5000000000000002
decision_type=2 2 2 2 2 2 2 2 2 2 2 2 2 2 2 2 2 2 2 2 2 2 2 2 2 2
left_child=2 3 21 9 11 7 -5 20 -9 -2 -8 23 -12 -14 -11 19 -13 18 -18 -3 -6 24 -17 -4 25 -1
right_child=1 15 4 6 5 -7 10 8 -10 14 12 16 13 -15 -16 22 17 -19 -20 -21 -22 -23 -24 -25 -26 -27
leaf_value=-0.091228910282085351 -0.068472699635170456 0.033370684592233996 -0.067954769663591624 -0.01337790197339507 -0.069827600970546244 0.070349499852575298 0.015399602020995485 0.044562113768689168 -0.025954913596050282 0.022708808592615936 0.10875591128714178 -0.075567122625756517 0.082116082557679076 0.022552992515810864 -0.033293476704502931 0.11148208890168962 -0.080677014275983769 7.7439153736311755e-05 -0.008252540863643543 0.081053158542267301 -0.034921725082478504 -0.068766007072060514 0.089443776929983621 -0.091984344860176523 -0.093995343150161642 -0.091930688097837568
leaf_weight=4.6798892021179217 4.8153572380542782 4.762731999158861 3.0589438229799297 6.4290447831153896 4.3383108079433494 5.2120561748743048 5.5392185598611858 8.7542963922023755 7.2220884859561911 7.1366950720548612 5.3252867460250881 4.0412808060646084 6.587468743324278 4.8178433775901794 4.8267090320587158 5.0452633053064329 4.2190176695585233 6.0917532444000235 3.9547596126794815 7.2735319137573242 5.003487765789032 5.9535023570060721 4.6662505567073822 4.8110941350460052 3.5071463286876678 3.1512085497379303
leaf_count=32 23 20 20 30 22 21 25 38 33 31 22 25 28 20 21 21 24 28 20 31 25 37 20 32 22 21
internal_value=0 0.0390923 -0.036384 0.0197832 -0.0218083 0.00300235 0.0427907 -0.0108619 0.0126851 -0.0195695 0.059006 -0.0507451 0.0734433 0.0569554 0.000114342 0.0794703 -0.0370316 -0.0261149 -0.0456355 0.0621853 -0.0511319 -0.084184 0.100893 -0.0826445 -0.0922797 -0.0915113
internal_weight=0 67.2254 73.9988 45.4776 56.7071 30.5302 28.6989 25.3182 15.9764 16.7788 22.2698 26.1768 16.7306 11.4053 11.9634 21.7478 18.3068 14.2655 8.17378 12.0363 9.3418 17.2917 9.71151 7.87004 11.3382 7.8311
internal_count=692 292 400 200 288 139 125 118 71 75 95 149 70 48 52 92 97 72 44 51 47 112 41 52 75 53
shrinkage=0.075


Tree=10
num_leaves=26
num_cat=0
split_feature=1 5 5 7 6 1 0 1 2 2 5 7 4 6 2 5 1 6 1 2 4 1 4 7 0
split_gain=31.1319 8.57588 8.35007 6.45451 4.88381 4.6732 4.61617 4.48905 3.95465 3.48838 3.45942 5.87382 4.38373 2.96645 2.47611 1.9602 1.28121 1.20791 1.20405 2.98358 0.775779 0.391609 0.195284 0.00203138 0.000125409
threshold=123.50000000000001 26.450000000000003 29.950000000000003 28.500000000000004 0.63350000000000006 155.50000000000003 1.5000000000000002 94.500000000000014 73.000000000000014 67.000000000000014 41.900000000000006 42.500000000000007 192.50000000000003 0.25350000000000006 75.500000000000014 30.950000000000003 87.500000000000014 0.34250000000000008 113.50000000000001 67.000000000000014 217.50000000000003 106.50000000000001 1.0000000180025095e-35 27.500000000000004 1.5000000000000002
decision_type=2 2 2 2 2 2 2 2 2 2 2 2 2 2 2 2 2 2 2 2 2 2 2 2 2
left_child=1 21 6 15 7 10 -2 -5 -8 -9 11 12 14 -11 -4 22 -17 -7 19 -18 -19 23 -3 24 -1
right_child=2 3 5 4 -6 17 8 9 -10 13 -12 -13 -14 -15 -16 16 18 20 -20 -21 -22 -23 -24 -25 -26
leaf_value=-0.089813889511868042 -0.073468344049782613 -0.065668899585653986 0.052093207354312512 -0.076315446479047602 0.051249019164675391 0.056443262152660982 0.059504319458394843 0.060864469380467801 -0.022710929643078717 -0.063679268538187589 0.089197605962772389 0.079614577605640155 -0.063499536657989436 0.012029949502256075 -0.01530407226681771 -0.07330682030514743 0.037820494164162569 0.10992928317100735 -0.061106431947742429 -0.04434430561168113 0.071513948138833466 -0.066431857282605755 -0.09051579402295 -0.092303765755175002 -0.090444439145171696
leaf_weight=4.4075102806091326 4.4731620699167278 2.9271511435508755 6.7244384139776319 5.2581319808960023 8.4385534971952421 7.2759741544723537 6.0290447771549207 4.3540612459182766 7.246537446975708 4.7495395243167859 5.1543622165918341 6.9522856771945944 4.736181065440177 7.520913690328598 5.6363436430692673 3.8604437112808254 4.1523091644048673 7.5703189671039564 3.7231344878673545 6.1944447010755539 4.8523479700088501 5.7099469006061545 4.5373040586709976 3.3110629469156265 2.9697059839963913
leaf_count=32 23 20 28 27 37 30 26 19 34 23 21 29 21 33 24 25 21 35 20 31 21 37 32 22 21
internal_value=0 -0.0346151 0.0364884 -0.0205837 0.00277784 0.0524811 -0.00757559 -0.015914 0.0146267 0.00319027 0.0334395 0.0214891 -0.00214697 -0.0172749 0.021361 -0.0484773 -0.0350328 0.0807106 -0.0245314 -0.0113703 0.0949241 -0.0822891 -0.0807722 -0.0907604 -0.0900677
internal_weight=0 72.1142 66.651 55.716 30.3212 48.9023 17.7487 21.8826 13.2756 16.6245 29.2036 24.0492 17.097 12.2705 12.3608 25.3948 17.9303 19.6986 14.0699 10.3468 12.4227 16.3982 7.46446 10.6883 7.37722
internal_count=692 400 292 288 139 209 83 102 60 75 123 102 73 56 52 149 97 86 72 52 56 112 52 75 53
shrinkage=0.075


Tree=11
num_leaves=28
num_cat=0
split_feature=1 5 1 7 7 7 7 6 1 4 2 2 4 3 2 6 5 3 2 1 5 5 3 1 3 5 7
split_gain=27.2135 8.04181 7.71832 5.78308 5.76818 5.92223 5.00847 5.25682 4.75489 3.31008 4.09325 3.29814 2.83759 2.62039 4.05529 2.52879 1.96016 1.08123 0.893507 2.08794 0.868058 0.780073 1.21446 0.700014 0.160694 0.117113 0.0356087
threshold=123.50000000000001 27.850000000000005 166.50000000000003 30.500000000000004 24.500000000000004 54.500000000000007 41.500000000000007 0.74150000000000016 106.50000000000001 119.50000000000001 73.000000000000014 79.000000000000014 82.500000000000014 29.500000000000004 65.500000000000014 0.29250000000000004 34.150000000000013 32.500000000000007 63.000000000000007 105.50000000000001 34.250000000000007 33.650000000000013 22.500000000000004 94.500000000000014 1.0000000180025095e-35 24.450000000000003 29.500000000000004
decision_type=2 2 2 2 2 2 2 2 2 2 2 2 2 2 2 2 2 2 2 2 2 2 2 2 2 2 2
left_child=1 18 4 11 12 6 7 9 15 10 -6 13 -2 21 -15 -5 -8 20 19 25 -4 22 -3 -17 -20 -1 -26
right_child=2 3 17 8 5 -7 16 -9 -10 -11 -12 -13 -14 14 -16 23 -18 -19 24 -21 -22 -23 -24 -25 26 -27 -28
leaf_value=-0.089739617912960645 0.014392503136530819 -0.028082179137132977 0.043048463241166249 -0.055272227196875967 0.085378789039759539 -0.045674072293263999 0.11514068146764328 0.09142005667526458 0.052385515147665311 -0.031335693495848298 -0.0072368703719424745 0.015897369762697164 -0.06624438622557885 0.021660593212306584 -0.071101303960155376 -0.014046236645413478 0.050026226760300135 0.10432639364903526 -0.073875781814826222 -0.0055814332201939267 0.085809226479483205 -0.10172540508902554 -0.093366789452212495 0.029078658367630503 -0.089265891224394961 -0.068961176320849152 -0.099929506168314156
leaf_weight=3.5140883326530474 4.310676157474516 3.1287958323955589 5.3818481415510195 5.7308812290430096 4.6964710950851494 4.8152306228876105 5.8549269437789899 5.1358981877565375 9.2134180068969709 7.8583986163139334 6.2649218440055847 4.7477665692567816 5.7014560997486115 5.1110455095767957 5.5076511800289154 3.9341078549623472 4.6785369366407394 5.8734560906887046 3.5312108993530256 3.1282066404819489 5.3004761934280396 4.7081137448549271 3.286339595913887 4.5845843851566315 4.6834008991718292 2.6967175602912903 2.8233037143945694
leaf_count=26 20 20 23 29 20 22 25 22 39 34 28 25 28 27 32 20 20 26 23 20 24 26 22 20 35 19 17
internal_value=0 -0.0329158 0.034169 -0.0167179 0.0192943 0.03224 0.0431181 0.0241661 0.010397 0.00581262 0.0324448 -0.0407346 -0.0315266 -0.0531013 -0.0264527 -0.0167517 0.0862195 0.0784781 -0.0726239 -0.0555499 0.064266 -0.0785412 -0.0615261 0.00916269 -0.0870699 -0.0807177 -0.0932765
internal_weight=0 70.3296 65.8723 49.9527 49.3165 39.3044 34.4892 23.9557 23.463 18.8198 10.9614 26.4897 10.0121 21.7419 10.6187 14.2496 10.5335 16.5558 20.3769 9.33901 10.6823 11.1232 6.41514 8.51869 11.0379 6.21081 7.5067
internal_count=692 400 292 260 219 171 149 104 108 82 48 152 48 127 59 69 45 73 140 65 47 68 42 40 75 45 52
shrinkage=0.075


Tree=12
num_leaves=27
num_cat=0
split_feature=1 7 5 5 6 2 3 6 5 1 7 1 2 1 6 0 1 1 4 4 6 1 0 1 5 5
split_gain=23.9933 9.93407 8.75476 4.70595 5.13003 4.17876 3.75179 4.64743 3.56424 3.3602 3.92555 3.06377 2.89222 3.23582 2.14097 1.7049 1.38082 2.37357 2.16881 1.24771 1.66119 0.702267 0.535955 0.00563 0.000141994 6.933e-07
threshold=127.50000000000001 28.500000000000004 29.950000000000003 26.450000000000003 0.56050000000000011 60.500000000000007 36.500000000000007 0.38050000000000006 30.950000000000003 155.50000000000003 30.500000000000004 145.50000000000003 77.000000000000014 106.50000000000001 0.43450000000000005 5.5000000000000009 115.50000000000001 106.50000000000001 87.500000000000014 249.50000000000003 0.34450000000000003 89.500000000000014 2.5000000000000004 107.50000000000001 26.450000000000003 22.250000000000004
decision_type=2 2 2 2 2 2 2 2 2 2 2 2 2 2 2 2 2 2 2 2 2 2 2 2 2 2
left_child=1 8 11 -3 6 -4 7 12 22 10 -7 -2 13 -5 -12 -6 17 18 21 20 -11 -10 23 24 25 -1
right_child=2 3 5 4 15 9 -8 -9 16 19 14 -13 -14 -15 -16 -17 -18 -19 -20 -21 -22 -23 -24 -25 -26 -27
leaf_value=-0.087391588835761175 -0.050183658553160738 -0.065593447124315543 0.11709340078419123 -0.0024872801162820731 0.019749937611340213 -0.015058398760294167 -0.076009695016672929 -0.059614838832931172 -0.091270699259985655 0.049121721096082725 0.014665627524743491 0.019132507438437227 -0.019750870931880226 0.08513304120634034 0.07731445894155535 0.082236517303254028 -0.069966027398609798 0.026698013361104424 0.0075348565916181186 0.035750273777991372 0.10467964032653305 -0.043292010863087094 -0.059579056067846199 -0.091140388951850684 -0.088025006405018397 -0.087445524173207764
leaf_weight=2.6770962625741976 6.9889134466648084 5.6470814645290366 5.0524242669343939 4.0985098928213173 4.5064501315355283 8.4572136402130145 4.0617944151163092 5.0218006819486609 3.1922604888677615 5.1839819699525851 5.2902652323245984 7.3684144467115402 5.5266886800527564 5.6241304278373718 7.3056348860263824 5.3983234614133835 4.4771994650363913 4.012577772140502 3.4231936186552048 4.5698889642953864 7.2764642983675003 3.7108765244483948 4.9474959522485724 3.695258915424346 3.6507158279418945 2.6852849200367928
leaf_count=22 36 39 22 20 20 36 21 24 22 22 22 31 26 23 31 23 24 21 19 20 36 19 36 26 29 22
internal_value=0 -0.0280284 0.0361197 -0.00215951 0.00830313 0.0530043 -0.0102191 0.00296355 -0.0563179 0.0445018 0.024465 -0.0146095 0.0235714 0.0481973 0.051002 0.0538065 -0.0336064 -0.0222534 -0.0412749 0.0692716 0.0815656 -0.0654791 -0.0805218 -0.088675 -0.0876642 -0.0874186
internal_weight=0 76.3567 57.4932 39.8848 34.2377 43.1359 24.3329 20.2711 36.472 38.0834 21.0531 14.3573 15.2493 9.72264 12.5959 9.90477 18.8161 14.3389 10.3263 17.0303 12.4604 6.90314 17.6559 12.7084 9.0131 5.36238
internal_count=692 436 256 196 157 189 114 93 240 167 89 67 69 43 53 43 105 81 60 78 58 41 135 99 73 44
shrinkage=0.075


Tree=13
num_leaves=26
num_cat=0
split_feature=1 7 5 1 2 5 5 6 3 6 4 7 1 5 1 0 4 3 6 7 0 6 1 5 5
split_gain=20.9902 8.97024 7.64991 4.39066 3.71135 3.47759 3.36816 3.38047 3.52092 3.12321 3.64255 2.70846 2.68192 1.81197 1.72699 1.46657 1.29692 2.06589 2.42983 0.817407 0.54564 0.30304 0.0043606 0.000109231 5.33182e-07
threshold=127.50000000000001 28.500000000000004 29.950000000000003 99.500000000000014 60.500000000000007 30.950000000000003 26.450000000000003 0.56050000000000011 26.500000000000004 0.29950000000000004 261.50000000000006 37.500000000000007 145.50000000000003 31.750000000000004 164.50000000000003 2.5000000000000004 129.50000000000003 34.500000000000007 0.28350000000000003 41.500000000000007 2.5000000000000004 0.34450000000000003 107.50000000000001 26.450000000000003 22.250000000000004
decision_type=2 2 2 2 2 2 2 2 2 2 2 2 2 2 2 2 2 2 2 2 2 2 2 2 2
left_child=1 5 12 19 -4 20 -5 8 13 11 14 -6 -2 -8 15 -11 17 18 -7 21 22 -3 23 24 -1
right_child=2 3 4 6 9 16 7 -9 -10 10 -12 -13 -14 -15 -16 -17 -18 -19 -20 -21 -22 -23 -24 -25 -26
leaf_value=-0.086354645392552137 -0.047551217124990906 -0.07400041953580766 0.11106113158725557 -0.052614663835656536 -0.026540162524197716 0.011914740635475733 0.066259869073083608 0.065782406628926801 -0.035848727381795481 0.025630750901348608 0.0017848221156827415 0.045490423194384927 0.017648341250553538 0.003371751591392975 0.10424427438597823 0.075379915077780885 -0.067971002813845938 0.024253796532871498 -0.065507985074350919 -0.014323356305193113 -0.057471388779465143 -0.043006551276680009 -0.089755770840991914 -0.086928028330395812 -0.086403469941885497
leaf_weight=2.5123387947678584 6.8289458900690061 3.3259252458810789 4.9319298416376105 3.7697750777006176 5.8193454444408399 3.4683419018983859 4.8880078345537239 7.4356127232313147 6.9765855818986884 5.3463772088289323 5.4113487452268592 5.9271376878023148 7.3881567418575287 5.4511813819408417 6.1430463045835486 8.8515532761812192 4.2706714868545523 4.0756668150424948 6.6557282879948616 3.7803418934345245 4.7518920376896849 3.8040550649166107 3.479105480015277 3.4280291944742203 2.5201489180326462
leaf_count=22 36 20 22 26 25 21 21 31 33 23 24 25 31 23 31 39 23 22 39 20 36 22 26 29 22
internal_value=0 -0.0266122 0.0339446 -0.00205222 0.0498984 -0.0541544 0.0134267 0.0234851 0.00532215 0.0418541 0.0564724 0.00980563 -0.0136692 0.0331031 0.0710211 0.0566464 -0.0317324 -0.0208334 -0.0389842 -0.0425163 -0.0789659 -0.0574643 -0.0875206 -0.0866015 -0.0863791
internal_weight=0 74.5934 56.6478 39.4315 42.4307 35.1619 28.5212 24.7514 17.3158 37.4988 25.7523 11.7465 14.2171 10.3392 20.341 14.1979 18.4704 14.1997 10.1241 10.9103 16.6915 7.12998 11.9396 8.46052 5.03249
internal_count=692 436 256 196 189 240 134 108 77 167 117 50 67 44 93 62 105 82 60 62 135 42 99 73 44
shrinkage=0.075


Tree=14
num_leaves=26
num_cat=0
split_feature=1 1 6 5 0 0 3 7 5 0 4 1 6 2 0 6 5 1 3 7 3 5 5 0 5
split_gain=18.5597 7.69565 6.56504 5.05964 5.07132 4.62051 3.64066 5.97311 3.40673 3.29595 3.19413 3.58251 2.27805 2.09268 1.88764 1.48409 1.24846 1.21913 1.61364 2.85162 1.12425 0.860104 0.773625 0.00152594 6.11837e-05
threshold=111.50000000000001 166.50000000000003 0.63350000000000006 27.850000000000005 7.5000000000000009 2.5000000000000004 9.0000000000000018 28.500000000000004 39.050000000000004 3.5000000000000004 195.00000000000003 124.50000000000001 0.21650000000000003 77.000000000000014 9.5000000000000018 0.44850000000000007 26.450000000000003 89.500000000000014 27.500000000000004 30.500000000000004 32.500000000000007 31.150000000000002 34.250000000000007 2.5000000000000004 22.450000000000003
decision_type=2 2 2 2 2 2 2 2 2 2 2 2 2 2 2 2 2 2 2 2 2 2 2 2 2
left_child=2 3 8 12 6 -4 13 10 16 -9 11 -8 -2 -5 -6 -14 23 21 19 -19 22 -18 -3 24 -1
right_child=1 20 5 4 14 -7 7 9 -10 -11 -12 -13 15 -15 -16 -17 17 18 -20 -21 -22 -23 -24 -25 -26
leaf_value=-0.085424036896013883 -0.082823774986941698 0.03393301532875876 -0.034391033268714649 0.067512565470999722 0.10292879228584258 0.059988543576256985 -0.066403641573444097 0.075974092183276151 0.013679592159468843 0.00026162064183752492 -0.093379151942371966 0.017848818727701443 0.011910288517851886 0.0072761513801034104 0.03591172857509458 -0.04521954100755024 -0.045749271048037159 -0.063402498570720486 -0.070120601075566252 0.019500683869667454 0.09636316750460637 -0.095293966836931795 0.075623745574096388 -0.087737750933702188 -0.085973068948096129
leaf_weight=2.3569414988160116 3.4586345553398123 5.1971409916877729 6.0471187904477102 7.7441212832927686 4.8881177902221662 5.6383968219161034 4.7766549214720744 5.5761939585208875 3.7890888154506674 7.7005585581064224 4.0736345648765555 6.9978146106004715 5.9629874080419523 5.5830661654472351 4.5785118788480759 4.4789023846387863 3.226451978087427 4.5338915511965734 6.1821919977664939 4.8096126616001129 5.4396056830883017 5.0651595145463943 4.8308539688587189 3.7067049145698547 2.2144177854061127
leaf_count=22 20 23 38 34 22 27 29 25 20 34 20 31 32 25 20 26 24 31 34 22 26 33 24 30 20
internal_value=0 0.0213057 -0.0376769 0.0101188 0.0208785 0.0111482 0.00980948 -0.00504779 -0.0535764 0.0320606 -0.0361354 -0.0163306 -0.0300687 0.0422781 0.0705162 -0.0125948 -0.0615164 -0.0527959 -0.0403955 -0.0207277 0.0689092 -0.076015 0.054017 -0.0866069 -0.08569
internal_weight=0 81.2868 47.57 65.8192 51.9187 11.6855 42.452 29.1249 35.8845 13.2768 15.8481 11.7745 13.9005 13.3272 9.46663 10.4419 32.0954 23.8173 15.5257 9.3435 15.4676 8.29161 10.028 8.27806 4.57136
internal_count=692 391 301 318 240 65 198 139 236 59 80 60 78 59 42 58 216 144 87 53 73 57 47 72 42
shrinkage=0.075


Tree=15
num_leaves=27
num_cat=0
split_feature=1 1 6 0 5 0 4 6 5 2 6 5 5 1 2 1 5 1 3 7 1 3 5 5 0 5
split_gain=16.2756 6.83523 5.90228 4.4331 4.29014 3.94141 3.35237 4.62053 4.47726 4.69351 3.92042 3.11481 3.08066 6.03831 4.16594 1.31364 1.28108 1.16883 1.45786 2.54004 1.15821 1.05989 0.838169 0.725764 0.00117644 4.75556e-05
threshold=111.50000000000001 166.50000000000003 0.63350000000000006 7.5000000000000009 26.250000000000004 2.5000000000000004 226.50000000000003 0.19300000000000003 42.350000000000001 79.000000000000014 0.35950000000000004 39.050000000000004 35.45000000000001 138.50000000000003 69.000000000000014 139.50000000000003 26.450000000000003 89.500000000000014 27.500000000000004 30.500000000000004 129.50000000000003 32.500000000000007 31.150000000000002 34.250000000000007 2.5000000000000004 22.450000000000003
decision_type=2 2 2 2 2 2 2 2 2 2 2 2 2 2 2 2 2 2 2 2 2 2 2 2 2 2
left_child=2 3 11 4 20 -4 7 -6 9 12 -11 16 13 14 -9 -5 24 22 19 -19 -2 23 -18 -3 25 -1
right_child=1 21 5 15 6 -7 -8 8 -10 10 -12 -13 -14 -15 -16 -17 17 18 -20 -21 -22 -23 -24 -25 -26 -27
leaf_value=-0.084570554030995296 -0.090912965646100338 0.031575221823982119 -0.032340547306743191 0.030531406782886517 -0.066150512857971064 0.054955273168515985 -0.041459439390281558 0.043523380247808115 0.089184207768961632 -0.086675275045163355 0.010200101605019123 0.012574575610850019 -0.014910508415992129 -0.013309099964369986 0.13986716530621476 0.081000184725251209 -0.043638086535144525 -0.060966190860775968 -0.067058147852749564 0.017939877697354192 -0.027928953095689778 0.092707610564928225 -0.093544472824818745 0.072355063802877914 -0.086669383971846078 -0.085070605055074411
leaf_weight=2.2078597992658642 2.9951618835330001 5.1675106287002546 5.9520243853330594 7.4462644904851896 3.4875453561544409 5.691002681851387 6.58456066250801 6.0706720724701935 5.1262648999691001 4.0003738850355131 5.6949688717722893 3.8119735419750205 5.5750274136662474 5.5489762276411048 4.3218885287642479 4.7526351064443588 3.132553085684779 4.3679231777787191 5.9873034209012976 4.8349189162254333 3.6358808875083923 5.2378232181072226 4.7836693674325943 4.6764250695705414 3.4796363264322281 2.0753710344433784
leaf_count=22 22 23 38 36 18 27 30 30 23 19 26 20 28 25 20 22 24 31 34 22 19 26 33 24 30 20
internal_value=0 0.0199466 -0.0358753 0.00942723 5.13792e-05 0.0103288 0.00811395 0.0163101 0.0242243 0.0135552 -0.0297714 -0.0513868 0.0330781 0.0498606 0.0835893 0.0501938 -0.0592853 -0.0504294 -0.0382521 -0.0195111 -0.0563781 0.0654509 -0.0737959 0.0509479 -0.085645 -0.0848128
internal_weight=0 80.322 46.3242 65.2402 53.0413 11.643 46.4103 39.8257 36.3382 31.2119 9.69534 34.6812 21.5166 15.9415 10.3926 12.1989 30.8692 23.1064 15.1901 9.20284 6.63104 15.0818 7.91622 9.84394 7.76287 4.28323
internal_count=692 391 301 318 260 65 219 189 171 148 45 236 103 75 50 58 216 144 87 53 41 73 57 47 72 42
shrinkage=0.075


Tree=16
num_leaves=28
num_cat=0
split_feature=1 7 5 1 6 3 2 2 1 1 0 0 0 7 1 2 1 2 4 6 7 3 7 3 5 1 0
split_gain=14.6691 6.55726 5.77804 3.86263 3.89315 3.50988 3.36532 3.21431 2.54014 3.51998 4.26344 2.53803 4.65578 2.69932 2.64872 2.4018 2.37681 1.98049 1.11415 1.69107 0.956156 0.360681 0.72541 0.294972 0.0157318 0.00280244 0.000209835
threshold=127.50000000000001 27.500000000000004 29.950000000000003 99.500000000000014 0.20050000000000004 29.500000000000004 60.500000000000007 65.500000000000014 155.50000000000003 136.50000000000003 6.5000000000000009 6.5000000000000009 2.5000000000000004 34.500000000000007 109.50000000000001 74.500000000000014 145.50000000000003 79.000000000000014 249.50000000000003 0.34450000000000003 40.500000000000007 13.500000000000002 23.500000000000004 22.500000000000004 31.250000000000004 106.50000000000001 1.5000000000000002
decision_type=2 2 2 2 2 2 2 2 2 2 2 2 2 2 2 2 2 2 2 2 2 2 2 2 2 2 2
left_child=1 5 15 20 -5 17 -4 -7 9 -8 -11 12 -6 -14 -13 16 -2 21 19 -10 23 22 -1 -3 25 26 -23
right_child=2 3 6 4 11 7 8 -9 18 10 -12 14 13 -15 -16 -17 -18 -19 -20 -21 -22 24 -24 -25 -26 -27 -28
leaf_value=-0.038006422860761183 -0.033402671330659994 -0.042403214418474937 0.10293816507448382 -0.057799823697390215 0.050700376795370664 0.033803313531819479 0.060151006512651428 -0.052899963952320377 0.037904799119877812 -0.037620177032180152 0.050161321408862224 0.098569946707947068 -0.069368840048473129 0.0091655717117570656 0.017420718774433564 -0.05929265389674751 0.041512942783955564 -0.009726271154491704 0.025836213800257992 0.09682068758178787 -0.015581763445900345 -0.084226865100266182 -0.089625094934369584 -0.07444560653421585 -0.092184017382474087 -0.087911083240170565 -0.085204015524588714
leaf_weight=2.9657329246401885 4.3172619342803937 2.9220692068338376 4.6631644219160071 4.1124145016074207 6.8701307103037896 4.3697475045919401 7.2078209221363094 5.349551185965538 4.9120682179927808 8.3544208854436857 4.9600195288658133 3.968726232647894 4.8791632801294309 4.9689593911170959 5.2626813128590584 4.3345990329980841 5.3147053420543671 2.6984296888113013 4.306345358490943 6.1986077427864075 4.631088949739933 2.3358621448278409 3.1664883494377136 3.6156958863139153 3.025629885494709 2.3001476749777794 2.6257511004805565
leaf_count=26 23 21 22 21 32 25 31 35 22 36 22 18 24 24 26 22 22 20 20 36 26 24 26 23 21 19 25
internal_value=0 -0.0231815 0.0286811 -0.00399357 0.00999863 -0.0506159 0.0429946 -0.0139186 0.0352168 0.0179349 -0.00491899 0.0207431 0.00331372 -0.0297436 0.052308 -0.0129301 0.0079341 -0.0692722 0.0582216 0.0707738 -0.041655 -0.0790581 -0.0646607 -0.0601242 -0.0876403 -0.0857472 -0.084744
internal_weight=0 70.0683 54.569 41.2309 30.0621 28.8373 40.6024 9.7193 35.9393 20.5223 13.3144 25.9497 16.7183 9.84812 9.23141 13.9666 9.63197 19.118 15.417 11.1107 11.1689 16.4196 6.13222 6.53777 10.2874 7.26176 4.96161
internal_count=692 436 256 215 145 221 189 60 167 89 58 124 80 48 44 67 45 161 78 58 70 141 52 44 89 68 49
shrinkage=0.075


Tree=17
num_leaves=27
num_cat=0
split_feature=1 1 6 7 7 5 0 2 5 4 5 1 5 5 6 5 1 3 1 3 3 3 3 7 0 5
split_gain=12.9732 5.528 5.1088 3.85453 6.80015 4.67585 3.3152 3.20024 4.54932 3.21387 2.81478 2.48633 2.85081 1.53031 1.46884 1.20721 1.54711 2.44158 2.20525 1.02654 0.928936 0.836942 0.774646 0.0235712 0.00080501 8.48951e-05
threshold=111.50000000000001 166.50000000000003 0.63350000000000006 54.500000000000007 41.500000000000007 41.900000000000006 2.5000000000000004 54.500000000000007 26.250000000000004 119.50000000000001 38.150000000000013 136.50000000000003 34.050000000000004 32.750000000000007 0.33650000000000008 26.450000000000003 94.500000000000014 27.500000000000004 103.50000000000001 32.500000000000007 29.500000000000004 31.500000000000004 14.500000000000002 26.500000000000004 2.5000000000000004 22.250000000000004
decision_type=2 2 2 2 2 2 2 2 2 2 2 2 2 2 2 2 2 2 2 2 2 2 2 2 2 2
left_child=2 3 10 4 5 7 -4 -2 -9 11 15 12 -10 -6 -11 24 20 18 -18 22 23 -16 -3 -17 25 -1
right_child=1 19 6 -5 13 -7 -8 8 9 14 -12 -13 -14 -15 21 16 17 -19 -20 -21 -22 -23 -24 -25 -26 -27
leaf_value=-0.083187789433858628 0.05089851891346165 0.069394565881718953 -0.029912111286130451 -0.051697139561332477 0.096536031317412077 0.055666945542398455 0.050963330854853543 -0.093217175887582465 0.060324631570633822 -0.070796251808527541 0.0049306028544927345 -0.029508886489100404 -0.014342310614771469 0.042009585813542021 -0.039789400092027756 -0.084998276591306543 0.03872645935756331 -0.07341492571903542 -0.042328370075957446 0.087821931299391073 -0.03690230877275251 0.0058232678235361924 0.026136380472538519 -0.094570541942125635 -0.085170884123348209 -0.083893919370572431
leaf_weight=1.8626187071204214 4.4184356704354277 4.2137531936168653 5.7497842460870725 5.4852759391069403 4.9368942975997907 7.4304257184267035 5.6550322920084 3.8975404724478713 7.6809358224272781 4.3314723297953597 4.7997991740703574 5.2005082815885535 4.5981884151697159 7.0010113567113876 4.6720646098256093 2.8641618341207522 3.5093096792697889 4.7544062063097954 4.0869676992297173 4.8978147059679022 2.7513946071267128 4.388058677315712 5.2048038393259048 2.9245425462722778 3.1371986269950867 1.9713217467069624
leaf_count=21 24 20 38 28 23 34 27 27 38 21 26 24 23 32 24 28 20 27 23 26 21 20 27 19 30 21
internal_value=0 0.0178395 -0.033026 0.00842072 0.0140524 0.00111857 0.0101897 -0.00922454 -0.016865 -0.00722543 -0.0481161 0.0139557 0.032364 0.0645589 -0.0348725 -0.0572545 -0.0482363 -0.0312643 -0.00488286 0.059972 -0.072781 -0.017698 0.0454896 -0.0898343 -0.0842799 -0.0835509
internal_weight=0 78.3572 44.0665 64.0408 58.5555 46.6176 11.4048 39.1872 34.7688 30.8712 32.6617 17.4796 12.2791 11.9379 13.3916 27.8619 20.8908 12.3507 7.59628 14.3164 8.5401 9.06012 9.41856 5.7887 6.97114 3.83394
internal_count=692 391 301 318 290 235 65 201 177 150 236 85 61 55 65 210 138 70 43 73 68 44 47 47 72 42
shrinkage=0.075


Tree=18
num_leaves=29
num_cat=0
split_feature=1 5 5 7 2 6 3 4 3 2 2 6 4 5 2 2 1 1 4 2 2 0 5 5 5 7 1 1
split_gain=11.7216 5.60317 4.77435 4.22621 3.00199 2.7959 3.86199 3.58031 2.45096 2.98396 2.59628 2.40223 3.04192 2.20819 2.10516 2.04069 2.17691 1.87082 1.70519 1.74467 2.0935 1.32408 1.08913 0.283907 0.0108175 0.00706066 0.00166737 0.00122251
threshold=127.50000000000001 26.450000000000003 29.950000000000003 27.500000000000004 60.500000000000007 0.52750000000000019 27.500000000000004 88.500000000000014 29.500000000000004 69.000000000000014 75.500000000000014 0.29950000000000004 261.50000000000006 34.250000000000007 74.500000000000014 77.000000000000014 106.50000000000001 145.50000000000003 141.00000000000003 85.500000000000014 75.500000000000014 6.5000000000000009 20.600000000000005 23.050000000000004 31.250000000000004 32.500000000000007 96.500000000000014 107.50000000000001
decision_type=2 2 2 2 2 2 2 2 2 2 2 2 2 2 2 2 2 2 2 2 2 2 2 2 2 2 2 2
left_child=1 22 14 8 -4 6 15 -7 10 -10 24 13 18 -6 17 16 -5 -2 19 20 -13 -8 -1 -24 26 27 -3 -25
right_child=2 3 4 5 11 7 21 -9 9 -11 -12 12 -14 -15 -16 -17 -18 -19 -20 -21 -22 -23 23 25 -26 -27 -28 -29
leaf_value=-0.021040415984893302 -0.030176220393494584 -0.083706184010094623 0.097364090723256566 -0.0084389719277615047 -0.032500989991890827 -0.00047690534132917945 -0.069722936415435158 0.082830864291939518 0.027191385210144137 -0.05839901163107545 -0.0085095634345973854 0.064873795597898701 -0.0062055167551978733 0.034169080583161239 -0.056579353707650715 -0.024678571927849471 0.066271807913584613 0.03693028832629662 0.095015274762284427 0.085265042329453464 -0.0072573852805891698 -0.011800616436536945 -0.057703255291212896 -0.083308401298616122 -0.090939453101045953 -0.089370304281106455 -0.086647261790548102 -0.085772642864048482
leaf_weight=2.3108621463179579 4.1847308874130231 2.2285759821534175 4.4295390099287024 3.7242930978536624 5.2087134569883329 7.0001670122146589 5.8259172290563566 4.9564651846885681 5.2373310327529889 4.0730915144085884 3.4087552800774574 4.2587426453828865 5.0562604665756217 6.0289648771286011 4.183327227830886 4.8573415428400031 5.3383460938930511 5.2918949723243713 5.3760177791118613 4.1425710171461096 4.8305650949478149 3.5866400152444839 2.7264975830912572 2.5003254413604736 3.0970023423433304 2.5183103457093239 2.1116985902190208 2.0698873177170753
leaf_count=24 23 24 22 20 23 32 34 22 32 26 22 22 24 27 22 24 22 22 28 20 23 18 27 28 23 20 19 19
internal_value=0 -0.0211821 0.0259349 -0.0110821 0.0392018 0.004567 -0.0105451 0.0340572 -0.03848 -0.0102524 -0.062711 0.0318202 0.0453795 0.00326721 -0.0122649 0.014546 0.0355694 0.0072971 0.0593965 0.0449248 0.0265393 -0.0476517 -0.0673641 -0.0782706 -0.0875533 -0.0861816 -0.0851371 -0.0844245
internal_weight=0 67.5715 52.9913 55.4456 39.3314 35.2892 23.3325 11.9566 20.1565 9.31042 10.846 34.9018 23.6642 11.2377 13.66 13.92 9.06264 9.47663 18.6079 13.2319 9.08931 9.41256 12.1259 9.81502 7.43728 7.08852 4.34027 4.57021
internal_count=692 436 256 318 189 172 118 54 146 58 88 167 117 50 67 66 42 45 93 65 45 52 118 94 66 67 43 47
shrinkage=0.075


Tree=19
num_leaves=26
num_cat=0
split_feature=1 1 0 5 5 7 6 6 4 7 0 6 3 1 6 6 6 2 6 1 3 3 5 7 0
split_gain=10.3611 5.16513 4.7828 3.2917 2.88998 2.4459 3.3262 3.25212 3.00842 2.39157 2.35068 2.01496 2.09603 2.65944 1.97522 4.48659 3.46239 3.07917 1.78252 1.74671 1.01297 0.725128 0.00478485 0.0017906 5.04904e-05
threshold=106.50000000000001 166.50000000000003 7.5000000000000009 26.450000000000003 26.250000000000004 24.500000000000004 0.84800000000000009 0.56700000000000006 41.500000000000007 25.500000000000004 2.5000000000000004 0.23150000000000001 30.500000000000004 94.500000000000014 0.31750000000000006 0.26150000000000007 0.38400000000000006 75.500000000000014 0.51450000000000007 92.500000000000014 32.500000000000007 14.500000000000002 31.150000000000002 27.500000000000004 1.5000000000000002
decision_type=2 2 2 2 2 2 2 2 2 2 2 2 2 2 2 2 2 2 2 2 2 2 2 2 2
left_child=3 2 4 23 10 8 7 14 -6 19 -2 -11 13 -13 15 17 -16 -7 -4 22 21 -3 -5 24 -1
right_child=1 20 18 9 5 6 -8 -9 -10 11 -12 12 -14 -15 16 -17 -18 -19 -20 -21 -22 -23 -24 -25 -26
leaf_value=-0.082281552499203922 -0.092448690240275785 0.064685787718353802 0.021669019556963993 -0.083071517918239149 0.013374693373631348 0.065472676221297238 0.070614510549044787 -0.042197741356890063 -0.063717551832314992 -0.057721647221773531 -0.0079843688228045349 -0.064035879996376222 0.038283722653416556 0.019267530449839372 0.085905557768247723 -0.072466597204521713 0.0060331312959835274 -0.015388540546411726 0.077731412445742512 -0.018256916725241563 0.08423052767865942 0.022092497706245228 -0.087825657886847416 -0.085120522069964441 -0.082800451491952184
leaf_weight=2.5772272646427146 3.4769503846764556 4.0620170384645444 7.155075788497923 2.0093757957220095 5.318539656698702 4.8500853031873721 4.7118545770645133 7.0029918327927581 6.128095842897892 3.7583197131752994 3.9691902101039886 4.0445156916975957 5.9149014800786963 4.6159709990024567 4.9199304878711692 3.9234579876065245 8.0445150434970838 5.8368859142065048 5.7569908052682877 3.8050071150064468 4.6212106347084037 5.0353314578533173 2.9232230708003044 2.1941799372434616 1.7855770811438558
leaf_count=32 27 20 33 23 28 22 22 33 37 23 28 26 31 22 22 20 37 29 30 26 26 27 25 22 21
internal_value=0 0.0135018 0.00537148 -0.0356945 -0.00379254 0.00261098 0.0114993 0.00344382 -0.0278976 -0.0241463 -0.0474247 -0.00875697 0.00386876 -0.0196358 0.0150351 -0.00387345 0.0363442 0.0213088 0.0466651 -0.0564369 0.0556359 0.0411106 -0.085889 -0.0833729 -0.0824939
internal_weight=0 84.8131 71.0946 33.6283 58.1825 50.7364 39.2897 34.5779 11.4466 27.0713 7.44614 18.3337 14.5754 8.66049 27.5749 14.6104 12.9644 10.687 12.9121 8.73761 13.7186 9.09735 4.9326 6.55698 4.3628
internal_count=692 441 368 251 305 250 185 163 65 176 55 102 79 48 130 71 59 51 63 74 73 47 48 75 53
shrinkage=0.075


end of trees

feature_importances:
Glucose=108
BMI=95
DiabetesPedigreeFunction=69
Age=60
BloodPressure=48
Insulin=43
Pregnancies=39
SkinThickness=36

parameters:
[boosting: gbdt]
[objective: binary]
[metric: binary_logloss]
[tree_learner: serial]
[device_type: cpu]
[data: ]
[valid: ]
[num_iterations: 10000]
[learning_rate: 0.075]
[num_leaves: 31]
[num_threads: 8]
[force_col_wise: 0]
[force_row_wise: 0]
[histogram_pool_size: -1]
[max_depth: -1]
[min_data_in_leaf: 20]
[min_sum_hessian_in_leaf: 0.001]
[bagging_fraction: 1]
[pos_bagging_fraction: 1]
[neg_bagging_fraction: 1]
[bagging_freq: 0]
[bagging_seed: 2618]
[feature_fraction: 1]
[feature_fraction_bynode: 1]
[feature_fraction_seed: 5214]
[extra_trees: 0]
[extra_seed: 15541]
[early_stopping_round: 50]
[first_metric_only: 0]
[max_delta_step: 0]
[lambda_l1: 0]
[lambda_l2: 0]
[min_gain_to_split: 0]
[drop_rate: 0.1]
[max_drop: 50]
[skip_drop: 0.5]
[xgboost_dart_mode: 0]
[uniform_drop: 0]
[drop_seed: 28271]
[top_rate: 0.2]
[other_rate: 0.1]
[min_data_per_group: 100]
[max_cat_threshold: 32]
[cat_l2: 10]
[cat_smooth: 10]
[max_cat_to_onehot: 4]
[top_k: 20]
[monotone_constraints: ]
[monotone_constraints_method: basic]
[monotone_penalty: 0]
[feature_contri: ]
[forcedsplits_filename: ]
[refit_decay_rate: 0.9]
[cegb_tradeoff: 1]
[cegb_penalty_split: 0]
[cegb_penalty_feature_lazy: ]
[cegb_penalty_feature_coupled: ]
[path_smooth: 0]
[interaction_constraints: ]
[verbosity: -1]
[saved_feature_importance_type: 0]
[max_bin: 255]
[max_bin_by_feature: ]
[min_data_in_bin: 3]
[bin_construct_sample_cnt: 200000]
[data_random_seed: 11187]
[is_enable_sparse: 1]
[enable_bundle: 1]
[use_missing: 1]
[zero_as_missing: 0]
[feature_pre_filter: 1]
[pre_partition: 0]
[two_round: 0]
[header: 0]
[label_column: ]
[weight_column: ]
[group_column: ]
[ignore_column: ]
[categorical_feature: ]
[forcedbins_filename: ]
[objective_seed: 29980]
[num_class: 1]
[is_unbalance: 0]
[scale_pos_weight: 1]
[sigmoid: 1]
[boost_from_average: 1]
[reg_sqrt: 0]
[alpha: 0.9]
[fair_c: 1]
[poisson_max_delta_step: 0.7]
[tweedie_variance_power: 1.5]
[lambdarank_truncation_level: 20]
[lambdarank_norm: 1]
[label_gain: ]
[eval_at: ]
[multi_error_top_k: 1]
[auc_mu_weights: ]
[num_machines: 1]
[local_listen_port: 12400]
[time_out: 120]
[machine_list_filename: ]
[machines: ]
[gpu_platform_id: -1]
[gpu_device_id: -1]
[gpu_use_dp: 0]

end of parameters

pandas_categorical:[]
