tree
version=v3
num_class=1
num_tree_per_iteration=1
label_index=0
max_feature_idx=7
objective=binary sigmoid:1
feature_names=Pregnancies Glucose BloodPressure SkinThickness Insulin BMI DiabetesPedigreeFunction Age
feature_infos=[0:17] [0:199] [0:122] [0:99] [0:846] [0:67.099999999999994] [0.084000000000000005:2.4199999999999999] [21:81]
tree_sizes=1649 1631 1641 1649 1645 1649

Tree=0
num_leaves=15
num_cat=0
split_feature=1 5 7 5 1 1 1 7 6 5 6 0 2 5
split_gain=133.296 40.5887 29.1643 18.4805 18.0523 14.1515 12.9043 10.532 10.3387 5.94107 5.68735 5.6737 5.85381 2.24754
threshold=127.50000000000001 30.050000000000004 28.500000000000004 27.350000000000005 101.50000000000001 154.50000000000003 146.50000000000003 30.500000000000004 0.20450000000000002 30.950000000000003 0.43350000000000005 6.5000000000000009 74.500000000000014 33.650000000000013
decision_type=2 2 2 2 2 2 2 2 2 2 2 2 2 2
left_child=2 6 9 -4 -5 7 -2 -3 -6 -1 -9 12 -10 -11
right_child=1 5 3 4 8 -7 -8 10 11 13 -12 -13 -14 -15
leaf_value=-0.86280169032767939 -0.78726117615921021 -0.59009673121312511 -0.84079549012173871 -0.74422880895488108 -0.71425983893758038 -0.29115625529055106 -0.50336708696398325 -0.4969486119039172 -0.42069712819033322 -0.68917087361658347 -0.29115625529055106 -0.34097966794431339 -0.64136430075540229 -0.7914157238059697
leaf_weight=31.16004940867424 8.8061009198427183 9.0318983793258685 9.4834932982921583 12.870455190539358 4.7417466491460827 19.870176434516907 6.0965314060449591 5.1933415681123716 5.6449364870786685 6.548126325011256 7.2255187034606934 5.6449364870786658 5.1933415681123734 18.515391677618027
leaf_count=138 39 40 42 57 21 88 27 23 25 29 32 25 23 82
internal_value=-0.643621 -0.458902 -0.747683 -0.655581 -0.604065 -0.382363 -0.671123 -0.466849 -0.519072 -0.819071 -0.377215 -0.462922 -0.526433 -0.764703
internal_weight=0 56.2236 99.8025 43.5789 34.0954 41.3209 14.9026 21.4508 21.225 56.2236 12.4189 16.4832 10.8383 25.0635
internal_count=691 249 442 193 151 183 66 95 94 249 55 73 48 111
shrinkage=1


Tree=1
num_leaves=15
num_cat=0
split_feature=1 5 7 5 1 1 7 7 7 2 6 5 6 1
split_gain=94.948 26.8101 17.6283 13.819 11.4885 10.3104 10.0724 8.55278 5.78621 5.49833 4.99647 4.10212 3.89516 2.72629
threshold=123.50000000000001 30.050000000000004 29.500000000000004 27.350000000000005 154.50000000000003 106.50000000000001 26.500000000000004 28.500000000000004 53.500000000000007 74.500000000000014 0.43350000000000005 30.950000000000003 0.29250000000000004 94.500000000000014
decision_type=2 2 2 2 2 2 2 2 2 2 2 2 2 2
left_child=2 6 11 -4 7 12 -2 -3 -8 -7 -9 -1 -5 -14
right_child=1 4 3 5 -6 9 8 10 -10 -11 -12 -13 13 -15
leaf_value=-0.19794928029433934 -0.19201377002332082 0.015039482772944941 -0.1959567669622588 -0.13545495640565053 0.27409528943901484 0.24539137050354004 0.12081675029579708 0.10703286035903124 -0.089304444798642718 0.0374803032926583 0.26991261733271532 -0.1134767721264776 -0.065131510668614986 0.096989619705543081
leaf_weight=28.23856121301651 5.3893675357103374 9.7640530616045016 8.000711262226103 6.8214958757162156 21.540264010429382 5.4723654985427839 8.884451672434805 8.1959295719862002 4.4136221706867209 5.9995521903038025 8.7738319337367994 23.867374628782272 4.8035792112350446 4.53934346139431
leaf_count=135 25 43 38 31 88 23 39 35 20 26 36 110 22 20
internal_value=0 0.13352 -0.103653 -0.0223548 0.192574 0.027903 -0.0190287 0.12689 0.0510777 0.136659 0.191246 -0.159256 -0.0492811 0.0136365
internal_weight=0 66.9615 87.743 35.637 48.2741 27.6363 18.6874 26.7338 13.2981 11.4719 16.9698 52.1059 16.1644 9.34292
internal_count=691 286 405 160 202 122 84 114 59 49 71 245 73 42
shrinkage=0.15


Tree=2
num_leaves=15
num_cat=0
split_feature=1 1 5 7 5 1 7 7 0 6 6 1 3 6
split_gain=69.9402 19.5354 14.6521 13.0047 12.5355 8.51999 5.9084 5.12827 4.0711 3.50476 3.02255 2.74712 1.97829 7.64346
threshold=123.50000000000001 154.50000000000003 27.850000000000005 30.500000000000004 30.050000000000004 94.500000000000014 28.500000000000004 41.500000000000007 6.5000000000000009 0.43350000000000005 0.34350000000000003 168.50000000000003 30.500000000000004 0.49400000000000005
decision_type=2 2 2 2 2 2 2 2 2 2 2 2 2 2
left_child=2 4 -1 12 7 -5 -6 -2 -7 -8 11 -3 -4 -14
right_child=1 10 3 5 6 8 9 -9 -10 -11 -12 -13 13 -15
leaf_value=-0.18293936182762605 -0.13736401390237163 0.071372119357221112 -0.14261693003823236 -0.10766844786160511 0.012721492152844228 0.032521632775943665 0.088642663387182227 0.054964136994676609 0.1817449007079012 0.22344593869284676 0.25412064336450363 0.22136032857624086 -0.15430496925699907 0.093259437856073879
leaf_weight=27.477244883775711 8.9180390387773496 5.132828965783121 19.409896984696392 6.9689869284629848 9.8078048676252383 10.997464299201967 8.3933626413345355 4.7974331825971595 6.5717399120330802 8.9847674220800382 15.665773674845694 5.9123956263065338 7.8256104439496976 4.3747069239616394
leaf_count=142 42 21 95 33 43 48 35 22 28 36 63 24 38 21
internal_value=0 0.111979 -0.0931855 -0.0492629 0.0468213 0.0326713 0.105804 -0.070091 0.0883384 0.158338 0.211752 0.151659 -0.112866 -0.065535
internal_weight=0 67.6124 83.6257 56.1484 40.9014 24.5382 27.1859 13.7155 17.5692 17.3781 26.711 11.0452 31.6102 12.2003
internal_count=691 286 405 263 178 109 114 64 76 71 108 45 154 59
shrinkage=0.15


Tree=3
num_leaves=15
num_cat=0
split_feature=1 1 5 7 5 7 1 2 5 5 4 6 6 7
split_gain=52.2315 14.1432 12.764 10.8498 9.30142 10.0447 6.84363 5.97158 4.0813 2.72376 2.30221 4.24989 2.28855 2.08795
threshold=123.50000000000001 154.50000000000003 27.350000000000005 30.500000000000004 41.900000000000006 31.500000000000004 107.50000000000001 73.000000000000014 28.250000000000004 30.450000000000003 44.500000000000007 0.29250000000000004 0.34350000000000003 41.500000000000007
decision_type=2 2 2 2 2 2 2 2 2 2 2 2 2 2
left_child=2 4 -1 -4 5 7 10 9 -7 -2 11 -5 -3 -10
right_child=1 12 3 6 -6 8 -8 -9 13 -11 -12 -13 -14 -15
leaf_value=-0.18013185658551253 -0.087999813577750496 0.12850674503114112 -0.10563688628788975 -0.097032182954454885 0.23674476152451857 -0.047608976042308883 0.12193078367163486 -0.18356695212387514 0.054736988261670526 0.082838848224957323 -0.11525390722964873 0.095731172877186341 0.21773664039143251 0.16318003560817163
leaf_weight=22.324462413787842 3.8417067229747754 11.075146898627283 31.436904162168503 4.845502123236658 4.7689030766487113 4.3175884485244778 10.098987609148024 6.7715301960706702 7.0228808820247677 4.6310386657714844 5.4348609745502463 5.4881638884544373 15.544391766190527 9.2651565670967084
leaf_count=128 20 45 162 23 20 20 42 31 29 20 25 25 63 38
internal_value=0 0.0956315 -0.0839147 -0.0464308 0.0399393 0.0137595 0.0255226 -0.078552 0.0820525 0.00537729 -0.0362222 0.00534357 0.180612 0.116423
internal_weight=0 67.2383 79.6289 57.3044 40.6188 35.8499 25.8675 15.2443 20.6056 8.47275 15.7685 10.3337 26.6195 16.288
internal_count=691 286 405 277 178 158 115 71 87 40 73 48 108 67
shrinkage=0.15


Tree=4
num_leaves=15
num_cat=0
split_feature=1 5 5 7 7 1 1 0 7 7 2 2 5 3
split_gain=39.2351 11.2311 11.2226 7.71664 5.71815 5.40561 5.01507 4.50718 4.39063 3.83653 3.0557 3.00369 1.93776 1.87326
threshold=123.50000000000001 27.850000000000005 30.050000000000004 29.500000000000004 26.500000000000004 101.50000000000001 154.50000000000003 6.5000000000000009 53.500000000000007 24.500000000000004 71.000000000000014 79.000000000000014 37.250000000000007 36.500000000000007
decision_type=2 2 2 2 2 2 2 2 2 2 2 2 2 2
left_child=1 -1 4 11 -2 -5 9 -7 -6 -4 -11 13 -12 -3
right_child=2 3 6 5 8 7 -8 -9 -10 10 12 -13 -14 -15
leaf_value=-0.16366272223081835 -0.16595189734544277 -0.13856673487685134 -0.03113465088180372 -0.060788363695772507 0.089551930191885787 0.022168023349424262 0.17476832600190936 0.19718892736459223 -0.093243138899345518 0.20197602692205593 0.11800088326483629 0.012445195758066302 0.011839581669022587 -0.027787039847688103
leaf_weight=22.788922265172005 4.4705923497676876 17.890979066491134 5.7735029160976437 10.722122460603716 9.0558679103851301 10.32106803357601 21.154580369591713 4.8739967048168173 4.3896144032478324 5.5902053117752102 9.1226472258567792 4.9038359224796286 6.7169731110334387 4.2504223436117163
leaf_count=142 25 99 25 52 39 44 88 20 20 23 38 26 28 22
internal_value=0 -0.0756126 0.0824193 -0.0377259 -0.0189904 0.0207629 0.11999 0.078308 0.0298739 0.0773927 0.106631 -0.0937752 0.072982 -0.117301
internal_weight=0 75.7513 66.274 52.9624 17.9161 25.9172 48.3579 15.1951 13.4455 27.2033 21.4298 27.0452 15.8396 22.1414
internal_count=691 405 286 263 84 116 202 64 59 114 89 147 66 121
shrinkage=0.15


Tree=5
num_leaves=15
num_cat=0
split_feature=1 5 1 5 7 4 6 1 5 6 7 2 2 0
split_gain=29.6228 9.95461 8.86334 6.88569 6.67058 5.36996 5.21816 5.41666 4.57688 5.48365 3.878 2.43859 2.27908 2.1973
threshold=123.50000000000001 27.350000000000005 166.50000000000003 30.050000000000004 29.500000000000004 252.50000000000003 0.63850000000000018 110.50000000000001 41.900000000000006 0.43350000000000005 41.500000000000007 79.000000000000014 79.000000000000014 4.5000000000000009
decision_type=2 2 2 2 2 2 2 2 2 2 2 2 2 2
left_child=1 -1 3 10 11 8 7 -6 9 13 -2 -3 -11 -5
right_child=2 4 -4 5 6 -7 -8 -9 -10 12 -12 -13 -14 -15
leaf_value=-0.16434384478535005 -0.11155226096479962 -0.11050504458645188 0.16561948510317626 -0.070901949258467573 -0.078968270798179613 -0.068417205392028183 0.12208271188167232 0.090938337870780719 0.22075909196610702 0.20812927892381597 0.043858784486115028 0.004874977608997447 0.07241725925412193 0.060194574811235427
leaf_weight=18.125837355852127 8.5908017903566343 21.816113591194156 16.719461247324944 5.4162704944610649 13.166762903332716 4.9023812413215628 7.611293137073516 6.2143023610115042 5.7771076560020438 6.0790415555238706 6.2343593537807456 5.0815742313861838 5.1370259076356888 6.1351595968008041
leaf_count=128 45 128 72 23 63 21 33 26 24 26 28 27 22 25
internal_value=0 -0.0681838 0.0714959 0.0388954 -0.0358406 0.0766125 0.0168407 -0.0244898 0.101521 0.0712645 -0.0461979 -0.0887072 0.145972 -0.00127437
internal_weight=0 72.0159 64.9916 48.2721 53.89 33.447 26.9924 19.3811 28.5446 22.7675 14.8252 26.8977 11.2161 11.5514
internal_count=691 405 286 214 277 141 122 89 120 96 73 155 48 48
shrinkage=0.15


end of trees

feature_importances:
Glucose=21
BMI=19
Age=18
DiabetesPedigreeFunction=11
BloodPressure=7
Pregnancies=4
SkinThickness=2
Insulin=2

parameters:
[boosting: gbdt]
[objective: binary]
[metric: binary_logloss]
[tree_learner: serial]
[device_type: cpu]
[data: ]
[valid: ]
[num_iterations: 10000]
[learning_rate: 0.15]
[num_leaves: 15]
[num_threads: 8]
[force_col_wise: 0]
[force_row_wise: 0]
[histogram_pool_size: -1]
[max_depth: -1]
[min_data_in_leaf: 20]
[min_sum_hessian_in_leaf: 0.001]
[bagging_fraction: 0.9]
[pos_bagging_fraction: 1]
[neg_bagging_fraction: 1]
[bagging_freq: 0]
[bagging_seed: 1573]
[feature_fraction: 1]
[feature_fraction_bynode: 1]
[feature_fraction_seed: 18522]
[extra_trees: 0]
[extra_seed: 6333]
[early_stopping_round: 50]
[first_metric_only: 0]
[max_delta_step: 0]
[lambda_l1: 0]
[lambda_l2: 0]
[min_gain_to_split: 0]
[drop_rate: 0.1]
[max_drop: 50]
[skip_drop: 0.5]
[xgboost_dart_mode: 0]
[uniform_drop: 0]
[drop_seed: 4384]
[top_rate: 0.2]
[other_rate: 0.1]
[min_data_per_group: 100]
[max_cat_threshold: 32]
[cat_l2: 10]
[cat_smooth: 10]
[max_cat_to_onehot: 4]
[top_k: 20]
[monotone_constraints: ]
[monotone_constraints_method: basic]
[monotone_penalty: 0]
[feature_contri: ]
[forcedsplits_filename: ]
[refit_decay_rate: 0.9]
[cegb_tradeoff: 1]
[cegb_penalty_split: 0]
[cegb_penalty_feature_lazy: ]
[cegb_penalty_feature_coupled: ]
[path_smooth: 0]
[interaction_constraints: ]
[verbosity: -1]
[saved_feature_importance_type: 0]
[max_bin: 255]
[max_bin_by_feature: ]
[min_data_in_bin: 3]
[bin_construct_sample_cnt: 200000]
[data_random_seed: 11206]
[is_enable_sparse: 1]
[enable_bundle: 1]
[use_missing: 1]
[zero_as_missing: 0]
[feature_pre_filter: 1]
[pre_partition: 0]
[two_round: 0]
[header: 0]
[label_column: ]
[weight_column: ]
[group_column: ]
[ignore_column: ]
[categorical_feature: ]
[forcedbins_filename: ]
[objective_seed: 26331]
[num_class: 1]
[is_unbalance: 0]
[scale_pos_weight: 1]
[sigmoid: 1]
[boost_from_average: 1]
[reg_sqrt: 0]
[alpha: 0.9]
[fair_c: 1]
[poisson_max_delta_step: 0.7]
[tweedie_variance_power: 1.5]
[lambdarank_truncation_level: 20]
[lambdarank_norm: 1]
[label_gain: ]
[eval_at: ]
[multi_error_top_k: 1]
[auc_mu_weights: ]
[num_machines: 1]
[local_listen_port: 12400]
[time_out: 120]
[machine_list_filename: ]
[machines: ]
[gpu_platform_id: -1]
[gpu_device_id: -1]
[gpu_use_dp: 0]

end of parameters

pandas_categorical:[]
