tree
version=v3
num_class=1
num_tree_per_iteration=1
label_index=0
max_feature_idx=7
objective=binary sigmoid:1
feature_names=Pregnancies Glucose BloodPressure SkinThickness Insulin BMI DiabetesPedigreeFunction Age
feature_infos=[0:17] [0:199] [0:122] [0:99] [0:846] [0:67.099999999999994] [0.078:2.4199999999999999] [21:81]
tree_sizes=1647 1639 1644 1653 1649 1647 1650 1653 1648 1647 1657

Tree=0
num_leaves=15
num_cat=0
split_feature=1 5 7 5 1 1 1 6 6 5 3 6 2 6
split_gain=127.862 31.1519 29.9785 14.526 13.7846 13.4324 10.0488 9.93229 9.27078 8.01069 5.02797 4.6514 3.48143 3.2179
threshold=127.50000000000001 29.950000000000003 28.500000000000004 26.450000000000003 154.50000000000003 94.500000000000014 145.50000000000003 0.56050000000000011 0.4215000000000001 30.950000000000003 27.500000000000004 0.68650000000000011 74.500000000000014 0.49850000000000005
decision_type=2 2 2 2 2 2 2 2 2 2 2 2 2 2
left_child=2 6 9 -4 8 -5 -2 10 -3 -1 12 -10 -7 -11
right_child=1 4 3 5 -6 7 -8 -9 11 13 -12 -13 -14 -15
leaf_value=-0.77008118892269828 -0.66916893535840671 -0.48296642132968026 -0.74067785163706557 -0.69652542097105896 -0.22282627536250177 -0.39666339966661351 -0.42593409588939007 -0.3243092995917497 -0.19063729147054748 -0.69682277407554427 -0.61386125792413149 -0.3827035291603661 -0.55534733831975347 -0.58620741920699393
leaf_weight=30.91794990003109 8.1363026052713376 11.623289436101915 7.671371027827262 7.2064394503831855 22.084249928593636 7.4389052391052299 7.2064394503831855 7.9038368165493003 5.3467131406068784 16.272605210542682 8.1363026052713376 6.044110506772995 5.3467131406068802 9.298631548881529
leaf_count=133 35 50 33 31 95 32 31 34 23 70 35 26 23 40
internal_value=-0.542599 -0.370295 -0.646541 -0.553258 -0.307483 -0.513356 -0.554922 -0.467564 -0.38872 -0.718711 -0.521682 -0.29255 -0.463022 -0.656599
internal_weight=0 60.4411 100.193 43.7036 45.0984 36.0322 15.3427 28.8258 23.0141 56.4892 20.9219 11.3908 12.7856 25.5712
internal_count=691 260 431 188 194 155 66 124 99 243 90 49 55 110
shrinkage=1


Tree=1
num_leaves=15
num_cat=0
split_feature=1 1 7 7 4 6 4 5 5 5 6 7 4 3
split_gain=93.0732 23.5676 18.0339 17.7788 11.193 10.3786 7.66832 8.11617 5.90052 5.52098 5.08839 4.20463 8.02613 3.88463
threshold=123.50000000000001 165.50000000000003 28.500000000000004 24.500000000000004 144.50000000000003 0.73050000000000004 22.500000000000004 26.450000000000003 30.950000000000003 30.050000000000004 0.23850000000000002 42.500000000000007 137.50000000000003 26.500000000000004
decision_type=2 2 2 2 2 2 2 2 2 2 2 2 2 2
left_child=2 3 8 -2 6 9 7 -4 -1 -5 -9 12 -11 -12
right_child=1 -3 4 5 -6 -7 -8 10 -10 11 13 -13 -14 -15
leaf_value=-0.20843937395356391 -0.098438287738168054 0.27197304158737179 -0.1903312211382987 -0.0022525669055408412 0.17558641376666542 0.28383396845317094 -0.179497096075762 -0.11083302765788779 -0.10569800491033765 0.17086354267152909 0.018846073197871582 0.2097902705853793 -0.063410676298442506 0.18306662430572984
leaf_weight=27.255517423152924 10.45541302859783 18.925821185112 4.8096393942832973 10.851307913661001 5.3819639384746543 7.2318622171878806 8.6087855100631696 4.659038424491885 23.353848814964294 8.1519485861063021 10.827289685606955 8.6813222318887693 5.5172173231840125 4.6255896091461173
leaf_count=126 45 77 22 47 23 30 38 20 104 34 46 36 23 20
internal_value=0 0.129064 -0.101995 0.0759155 -0.0252159 0.121 -0.0574467 -0.0152862 -0.161029 0.0855325 0.0265747 0.128153 0.0763046 0.0680031
internal_weight=0 69.8149 89.5217 50.8891 38.9123 40.4337 33.5303 24.9216 50.6094 33.2018 20.1119 22.3505 13.6692 15.4529
internal_count=691 292 399 215 169 170 146 108 230 140 86 93 57 66
shrinkage=0.15


Tree=2
num_leaves=15
num_cat=0
split_feature=1 1 7 5 5 1 5 7 6 0 1 2 5 6
split_gain=68.426 17.0799 14.6309 10.7906 10.6916 7.76328 6.93427 9.03106 6.00324 4.6984 5.26405 4.40909 4.2163 3.82567
threshold=123.50000000000001 154.50000000000003 29.500000000000004 27.350000000000005 26.850000000000005 89.500000000000014 40.95000000000001 41.500000000000007 0.53050000000000008 6.5000000000000009 114.50000000000001 73.000000000000014 30.950000000000003 0.34450000000000003
decision_type=2 2 2 2 2 2 2 2 2 2 2 2 2 2
left_child=2 3 12 -2 -4 -6 7 8 11 10 -7 -5 -1 -3
right_child=1 13 4 6 5 9 -8 -9 -10 -11 -12 -13 -14 -15
leaf_value=-0.18469875578087866 -0.12113128630967523 0.12910423054654022 -0.1895261101851172 0.026754248323993507 -0.15687089646813243 -0.065167748560966576 0.23870182802899406 0.18282508580501908 0.099705937730145841 0.14031423272346549 0.1179459707986452 -0.15067762499904516 -0.097949089172288797 0.24167696910377634
leaf_weight=26.154416307806969 7.0989524722099295 11.124797493219377 6.5866283774375907 6.0888812690973335 4.5766744613647488 9.3083990961313265 5.360921546816825 8.5689516067504865 8.2119125276803953 9.2348329275846464 5.6925020217895499 6.5311847329139709 24.335268184542656 17.441624566912651
leaf_count=131 32 45 32 26 21 40 22 35 34 39 24 28 112 70
internal_value=0 0.108416 -0.0910482 0.047394 -0.0171108 0.022304 0.0818097 0.0532023 -0.000116337 0.0561394 0.00431976 -0.065071 -0.142887 0.197837
internal_weight=0 70.4272 85.8887 41.8608 35.399 28.8124 34.7619 29.4009 20.832 24.2357 15.0009 12.6201 50.4897 28.5664
internal_count=691 292 399 177 156 124 145 123 88 103 64 54 243 115
shrinkage=0.15


Tree=3
num_leaves=15
num_cat=0
split_feature=1 1 7 7 5 6 1 6 5 6 6 6 6 0
split_gain=50.9489 13.1795 12.0054 11.2276 7.2903 7.8626 6.55398 6.19515 5.11631 3.77736 4.92208 3.05937 3.85127 2.812
threshold=123.50000000000001 165.50000000000003 28.500000000000004 24.500000000000004 26.450000000000003 0.63400000000000012 94.500000000000014 0.73050000000000004 30.950000000000003 0.57650000000000012 0.31600000000000006 0.22400000000000003 0.38400000000000006 5.5000000000000009
decision_type=2 2 2 2 2 2 2 2 2 2 2 2 2 2
left_child=2 3 8 -2 -4 6 -6 9 -1 10 13 -8 -13 -5
right_child=1 -3 4 7 5 -7 11 -9 -10 -11 -12 12 -14 -15
leaf_value=-0.18374631425908267 -0.088763344043546036 0.19935744139909947 -0.17396301755515828 -0.023426992912742712 -0.18505252700186126 0.13104981519869136 -0.10027469304622476 0.21196499055590939 -0.082044000405862128 -0.062383650109284795 0.15644924494939791 0.10323653740795549 -0.063385924767067323 0.09941031727571932
leaf_weight=22.856323152780533 10.0934741795063 18.973674833774567 5.7893252223730078 9.6687911003828102 5.188036233186728 8.6520020514726621 4.5311254858970669 7.4127358794212332 21.692299425601959 4.8239641040563574 11.606194466352461 8.5257837325334531 4.9236837476491919 7.4040800780057898
leaf_count=126 45 77 31 41 25 36 20 30 104 20 48 36 21 31
internal_value=0 0.0926259 -0.0815388 0.0529254 -0.0191338 0.00903524 -0.0365294 0.0878785 -0.134224 0.0604236 0.0810805 0.00632476 0.0422381 0.0298445
internal_weight=0 69.9829 82.1586 51.0092 37.61 31.8206 23.1686 40.9158 44.5486 33.503 28.6791 17.9806 13.4495 17.0729
internal_count=691 292 399 215 169 138 102 170 230 140 120 77 57 72
shrinkage=0.15


Tree=4
num_leaves=15
num_cat=0
split_feature=1 1 6 5 0 7 3 7 1 3 3 7 3 2
split_gain=39.2951 14.138 9.81701 9.64715 6.52565 6.29861 17.5133 3.52851 3.9304 3.78653 3.23979 3.23397 3.02129 5.17252
threshold=111.50000000000001 154.50000000000003 0.66050000000000009 27.050000000000004 2.5000000000000004 28.500000000000004 9.0000000000000018 30.500000000000004 94.500000000000014 35.500000000000007 32.500000000000007 43.500000000000007 17.500000000000004 77.000000000000014
decision_type=2 2 2 2 2 2 2 2 2 2 2 2 2 2
left_child=2 3 7 -2 -4 6 -5 9 -9 -1 -8 -10 13 -7
right_child=1 -3 4 5 -6 12 10 8 11 -11 -12 -13 -14 -15
leaf_value=-0.17955649148416208 -0.11655974358541235 0.14957913615166168 -0.086840731519959913 0.23445176636883888 0.13885009875286983 0.12027622561765806 -0.1579387540565326 -0.17338074263500872 0.064930073832129648 -0.023652276794998674 -0.019745011609305942 -0.10766017791475396 0.12407090057939014 -0.069623988629032255
leaf_weight=26.584860876202587 9.723986402153967 27.640501946210861 5.8074353784322721 4.6785941421985653 5.7234262675046921 6.8399599790573102 8.6206832230091077 5.410554811358451 5.3268167078495008 4.0375016629695883 6.8500086814165106 4.5118448436260223 19.572413980960846 6.1101984530687332
leaf_count=151 50 115 30 21 26 28 41 29 23 20 31 20 81 25
internal_value=0 0.060273 -0.0985422 0.0207117 0.0251825 0.0460539 -0.0198463 -0.129643 -0.0706896 -0.159001 -0.0967503 -0.0142169 0.0868823 0.0306767
internal_weight=0 90.0363 57.4024 62.3958 11.5309 52.6719 20.1493 45.8716 15.2492 30.6224 15.4707 9.83866 32.5226 12.9502
internal_count=691 392 299 277 56 227 93 243 72 171 72 43 134 53
shrinkage=0.15


Tree=5
num_leaves=15
num_cat=0
split_feature=1 1 0 5 4 5 6 6 4 2 1 5 3 7
split_gain=30.2797 12.609 8.40637 6.79339 5.28271 4.81264 4.48653 3.73 3.87001 6.29201 4.52207 2.96803 2.96446 2.79674
threshold=106.50000000000001 165.50000000000003 6.5000000000000009 30.850000000000005 226.50000000000003 27.850000000000005 0.66050000000000009 0.51100000000000012 50.500000000000007 77.000000000000014 120.50000000000001 38.150000000000013 27.500000000000004 26.500000000000004
decision_type=2 2 2 2 2 2 2 2 2 2 2 2 2 2
left_child=6 2 3 13 7 -4 11 8 9 -5 -10 -1 -9 -2
right_child=1 -3 5 4 -6 -7 -8 12 10 -11 -12 -13 -14 -15
leaf_value=-0.14532980991528843 -0.13777876430028618 0.15897280887997922 -0.027789020981807081 0.17743756815179615 -0.10931400823746029 0.14234832591280702 -0.0013393139596540029 0.034731468239896063 -0.17657326971039117 -0.052624077017275117 0.035590750420084 -0.02529588962027569 0.17595065200753027 -0.029059404130977379
leaf_weight=30.845558658242226 9.3939872235059756 17.725238531827927 4.906645521521571 5.7544925659894961 5.3732896596193305 15.744048625230787 7.7155829668045035 6.1278835535049421 4.2017894834279996 4.9977763146162033 4.8920217603445053 5.4545287340879431 7.3636037260293961 12.287236541509627
leaf_count=181 54 77 23 25 23 65 38 26 21 21 21 27 32 57
internal_value=0 0.0443727 0.0193079 -0.00894189 0.0287085 0.101923 -0.105215 0.0509548 0.00958612 0.0705023 -0.0624395 -0.127293 0.111808 -0.0761651
internal_weight=0 98.768 81.0428 60.3921 38.7109 20.6507 44.0157 33.3376 19.8461 10.7523 9.09381 36.3001 13.4915 21.6812
internal_count=691 445 368 280 169 88 246 146 88 46 42 208 58 111
shrinkage=0.15


Tree=6
num_leaves=15
num_cat=0
split_feature=1 1 5 5 5 7 2 7 3 6 6 1 6 1
split_gain=23.1233 10.064 7.11064 5.49429 4.5966 4.56242 5.44939 4.36071 3.18507 2.79805 2.78715 2.71706 3.04082 2.29274
threshold=106.50000000000001 154.50000000000003 26.300000000000001 43.000000000000007 26.450000000000003 31.500000000000004 81.000000000000014 25.500000000000004 9.0000000000000018 0.34450000000000003 0.23050000000000004 127.50000000000001 0.51100000000000012 116.50000000000001
decision_type=2 2 2 2 2 2 2 2 2 2 2 2 2 2
left_child=4 2 -2 5 -1 6 8 -6 -4 -3 -9 12 -10 -7
right_child=1 9 3 -5 7 13 -8 10 11 -11 -12 -13 -14 -15
leaf_value=-0.18043676096507408 -0.11286023918694776 0.058789448572041866 0.10140632573584657 0.17336185947233387 -0.13874960255453656 0.13858899811022779 -0.16563417146445022 -0.13331975728045353 -0.13733215036996935 0.15927953927839303 0.0067349643970506957 0.053863175302425598 0.022874485580943779 0.034166231647310134
leaf_weight=10.617612734436987 9.3192187845706922 10.481349080801012 5.573270305991179 5.3250052928924552 11.611425146460535 5.9969897419214275 5.3295639753341666 4.0399412214756039 6.6263472586870211 15.38608482480049 15.323072165250776 5.7945951521396628 4.4598524123430252 22.409235969185829
leaf_count=77 56 45 24 23 72 25 26 21 37 70 76 25 21 93
internal_value=0 0.0384849 0.00924228 0.0277402 -0.0952656 0.01394 -0.0292788 -0.0660701 0.0030857 0.118561 -0.0224864 -0.0293753 -0.0728828 0.0562115
internal_weight=0 96.7015 70.8341 61.5149 41.5921 56.1899 27.7836 30.9744 22.4541 25.8674 19.363 16.8808 11.0862 28.4062
internal_count=691 445 330 274 246 251 133 169 107 115 97 83 58 118
shrinkage=0.15


Tree=7
num_leaves=15
num_cat=0
split_feature=1 0 7 5 5 7 6 3 5 1 4 1 4 6
split_gain=18.1689 7.78068 7.15109 6.40812 5.63715 5.09625 4.13035 3.33152 3.2659 4.01759 2.56757 1.72222 4.66707 2.16715
threshold=123.50000000000001 6.5000000000000009 38.500000000000007 29.950000000000003 28.750000000000004 26.500000000000004 0.42850000000000005 23.500000000000004 41.900000000000006 158.50000000000003 27.000000000000004 112.50000000000001 50.500000000000007 0.72150000000000014
decision_type=2 2 2 2 2 2 2 2 2 2 2 2 2 2
left_child=1 4 -3 5 -1 -2 8 -4 9 -5 -7 13 -13 -6
right_child=3 2 7 6 11 10 -8 -9 -10 -11 -12 12 -14 -15
leaf_value=-0.15070862412009542 -0.15968895761037588 0.18969525808888299 -0.13178942418894352 -0.037537588885889261 -0.088953614479835422 -0.027842524598086334 0.12780256450149383 0.053414149500525761 0.14901124834891114 0.10739048660272087 0.11216868482857935 0.10789796896318116 -0.082976627302503977 0.026789269465304084
leaf_weight=17.559390865266323 4.5500176548957851 4.9565303698182097 4.2160770893096906 12.665158286690717 21.522684901952747 7.6961686164140684 23.717620298266411 4.5372155904769897 4.8919386863708487 6.5188697129487982 4.7756900489330292 5.0937408506870252 6.6386523693799973 4.3806886523962012
leaf_count=132 25 24 22 53 125 34 108 21 21 30 21 22 33 20
internal_value=0 -0.055407 0.0457298 0.0552273 -0.0805282 -0.0238038 0.0833746 -0.0357903 0.0396079 0.01171 0.0257702 -0.0477847 -0.000106431 -0.0693796
internal_weight=0 68.905 13.7098 64.8155 55.1952 17.0219 47.7936 8.75329 24.076 19.184 12.4719 37.6358 11.7324 25.9034
internal_count=691 399 67 292 332 80 212 43 104 83 55 200 55 145
shrinkage=0.15


Tree=8
num_leaves=15
num_cat=0
split_feature=1 1 0 5 5 4 7 5 6 7 2 6 6 6
split_gain=14.2168 6.80055 4.75427 4.39868 4.17821 4.07699 3.31766 3.03399 2.8917 3.07546 4.32282 3.82878 3.4144 2.20968
threshold=106.50000000000001 165.50000000000003 7.5000000000000009 26.300000000000001 26.450000000000003 226.50000000000003 25.500000000000004 41.900000000000006 0.73050000000000004 41.500000000000007 74.500000000000014 0.25450000000000006 0.51100000000000012 0.51450000000000007
decision_type=2 2 2 2 2 2 2 2 2 2 2 2 2 2
left_child=4 2 3 -2 -1 7 -6 8 9 10 11 -5 -13 -4
right_child=1 -3 13 5 6 -7 -8 -9 -10 -11 -12 12 -14 -15
leaf_value=-0.17235789991759845 -0.11376357938422309 0.12096783782813914 0.037914090859370073 0.12377019424352277 -0.12231719102310994 -0.10034405246682458 -0.015414417813257602 0.1224889515238224 0.0971599135056916 0.072331497287115867 -0.11532933582848225 -0.10362160536952481 0.057800581485562427 0.1541548973686537
leaf_weight=8.4972358271479589 7.5869107469916335 15.356203928589819 8.681935250759123 4.8795350864529672 10.02271254360676 6.8103297203779212 18.75386967509985 6.1031503379344931 6.9847320318222037 8.0592881888151151 9.3667548075318319 6.8157604932785016 5.195855125784874 6.3860939443111411
leaf_count=77 51 77 37 25 72 30 97 27 31 34 46 34 23 30
internal_value=0 0.0298354 0.0116301 -0.00678943 -0.079938 0.00818054 -0.052648 0.0237715 0.00918405 -0.00872207 -0.0335997 0.0117224 -0.0337953 0.087179
internal_weight=0 92.2265 76.8703 61.8023 37.2738 54.2154 28.7766 47.4051 41.3019 34.3172 26.2579 16.8912 12.0116 15.068
internal_count=691 445 368 301 246 250 169 220 193 162 128 82 57 67
shrinkage=0.15


Tree=9
num_leaves=15
num_cat=0
split_feature=1 5 5 7 6 0 3 2 6 5 7 5 4 6
split_gain=11.3488 6.21096 5.11312 3.86102 3.01979 4.44311 3.13981 2.91824 1.98926 5.10622 2.47875 2.10323 2.97189 1.66426
threshold=129.50000000000003 26.300000000000001 29.950000000000003 30.500000000000004 0.52750000000000019 6.5000000000000009 27.500000000000004 63.000000000000007 0.43350000000000005 34.250000000000007 30.500000000000004 40.150000000000013 167.50000000000003 0.43350000000000005
decision_type=2 2 2 2 2 2 2 2 2 2 2 2 2 2
left_child=1 -1 13 -3 6 -6 -5 -4 9 -9 -11 12 -10 -2
right_child=2 3 7 4 5 -7 -8 8 11 10 -12 -13 -14 -15
leaf_value=-0.13622773405053992 0.010499356687949987 -0.055690600946278368 0.19138635662557249 0.031024715106390655 0.0023815560929245881 0.19533911563033823 -0.089902409889963925 -0.062827595912647832 0.21725226659966584 0.020565647205951231 0.16499508371861638 0.018456278466567586 0.049902422611448803 -0.10484354271396619
leaf_weight=12.188273303210734 8.403548523783682 32.406765013933182 4.8102557510137549 12.333657622337347 6.5972387790679914 4.5277703702449799 7.9417373687028876 7.3696127980947521 5.6541240364313108 4.91169725358486 5.8676783740520477 4.0860775113105765 4.1328082382678986 4.2321084290742865
leaf_count=114 40 198 23 56 29 20 38 33 28 22 27 21 21 21
internal_value=0 -0.0381115 0.0542028 -0.0193697 0.0181153 0.0809134 -0.0163416 0.0824488 0.0660845 0.0333977 0.0991848 0.108846 0.146584 -0.0281329
internal_weight=0 75.9954 49.4679 63.8072 31.4004 11.125 20.2754 36.8323 32.022 18.149 10.7794 13.873 9.78693 12.6357
internal_count=691 455 236 341 143 49 94 175 152 82 49 70 49 61
shrinkage=0.15


Tree=10
num_leaves=15
num_cat=0
split_feature=1 5 1 4 5 5 6 7 5 3 6 6 6 3
split_gain=9.51416 5.26681 4.25467 3.82675 3.09607 3.91448 2.69149 2.40591 2.34716 4.28903 2.72288 2.05516 2.82399 2.00404
threshold=101.50000000000001 41.900000000000006 154.50000000000003 86.000000000000014 38.050000000000004 26.300000000000001 0.73050000000000004 34.500000000000007 34.650000000000013 28.500000000000004 0.39200000000000007 0.34450000000000003 0.61450000000000016 13.500000000000002
decision_type=2 2 2 2 2 2 2 2 2 2 2 2 2 2
left_child=3 2 4 -1 5 13 7 8 9 10 -7 -4 -13 -2
right_child=1 -3 11 -5 -6 6 -8 -9 -10 -11 -12 12 -14 -15
leaf_value=-0.11431278706261221 -0.03322277714777485 0.11295949459247484 0.014557356689689212 0.025788217741383224 -0.096290025354974607 0.0066298326905243586 0.096112657005122712 0.04212641439847941 -0.11442443596743171 0.10399349336229775 -0.14263611028974352 0.20372571009631221 0.045243632032167837 -0.18173473631701489
leaf_weight=19.753110088407997 5.1230978518724424 12.004555240273474 8.230662867426874 5.6388575732707968 8.3651929199695569 6.5235174298286491 8.1907919049262983 18.443487241864204 5.6691007912158957 5.632849507033824 4.7532763779163361 4.5278759598731977 5.7327909171581268 3.4019884765148163
leaf_count=156 42 58 38 37 40 37 37 79 29 28 26 25 32 27
internal_value=0 0.0199822 0.00678814 -0.0832002 -0.0110039 0.0013525 0.0176082 0.00193346 -0.0308982 -0.00289535 -0.0562872 0.0703916 0.115179 -0.0924874
internal_weight=0 96.5992 84.5946 25.392 66.1033 57.7381 49.213 41.0222 22.5787 16.9096 11.2768 18.4913 10.2607 8.52509
internal_count=691 498 440 193 345 305 236 199 120 91 63 95 57 69
shrinkage=0.15


end of trees

feature_importances:
BMI=33
DiabetesPedigreeFunction=33
Glucose=31
Age=21
SkinThickness=12
Insulin=10
Pregnancies=7
BloodPressure=7

parameters:
[boosting: gbdt]
[objective: binary]
[metric: binary_logloss]
[tree_learner: serial]
[device_type: cpu]
[data: ]
[valid: ]
[num_iterations: 10000]
[learning_rate: 0.15]
[num_leaves: 15]
[num_threads: 8]
[force_col_wise: 0]
[force_row_wise: 0]
[histogram_pool_size: -1]
[max_depth: -1]
[min_data_in_leaf: 20]
[min_sum_hessian_in_leaf: 0.001]
[bagging_fraction: 0.9]
[pos_bagging_fraction: 1]
[neg_bagging_fraction: 1]
[bagging_freq: 0]
[bagging_seed: 1573]
[feature_fraction: 1]
[feature_fraction_bynode: 1]
[feature_fraction_seed: 18522]
[extra_trees: 0]
[extra_seed: 6333]
[early_stopping_round: 50]
[first_metric_only: 0]
[max_delta_step: 0]
[lambda_l1: 0]
[lambda_l2: 0]
[min_gain_to_split: 0]
[drop_rate: 0.1]
[max_drop: 50]
[skip_drop: 0.5]
[xgboost_dart_mode: 0]
[uniform_drop: 0]
[drop_seed: 4384]
[top_rate: 0.2]
[other_rate: 0.1]
[min_data_per_group: 100]
[max_cat_threshold: 32]
[cat_l2: 10]
[cat_smooth: 10]
[max_cat_to_onehot: 4]
[top_k: 20]
[monotone_constraints: ]
[monotone_constraints_method: basic]
[monotone_penalty: 0]
[feature_contri: ]
[forcedsplits_filename: ]
[refit_decay_rate: 0.9]
[cegb_tradeoff: 1]
[cegb_penalty_split: 0]
[cegb_penalty_feature_lazy: ]
[cegb_penalty_feature_coupled: ]
[path_smooth: 0]
[interaction_constraints: ]
[verbosity: -1]
[saved_feature_importance_type: 0]
[max_bin: 255]
[max_bin_by_feature: ]
[min_data_in_bin: 3]
[bin_construct_sample_cnt: 200000]
[data_random_seed: 11206]
[is_enable_sparse: 1]
[enable_bundle: 1]
[use_missing: 1]
[zero_as_missing: 0]
[feature_pre_filter: 1]
[pre_partition: 0]
[two_round: 0]
[header: 0]
[label_column: ]
[weight_column: ]
[group_column: ]
[ignore_column: ]
[categorical_feature: ]
[forcedbins_filename: ]
[objective_seed: 26331]
[num_class: 1]
[is_unbalance: 0]
[scale_pos_weight: 1]
[sigmoid: 1]
[boost_from_average: 1]
[reg_sqrt: 0]
[alpha: 0.9]
[fair_c: 1]
[poisson_max_delta_step: 0.7]
[tweedie_variance_power: 1.5]
[lambdarank_truncation_level: 20]
[lambdarank_norm: 1]
[label_gain: ]
[eval_at: ]
[multi_error_top_k: 1]
[auc_mu_weights: ]
[num_machines: 1]
[local_listen_port: 12400]
[time_out: 120]
[machine_list_filename: ]
[machines: ]
[gpu_platform_id: -1]
[gpu_device_id: -1]
[gpu_use_dp: 0]

end of parameters

pandas_categorical:[]
