tree
version=v3
num_class=1
num_tree_per_iteration=1
label_index=0
max_feature_idx=7
objective=binary sigmoid:1
feature_names=Pregnancies Glucose BloodPressure SkinThickness Insulin BMI DiabetesPedigreeFunction Age
feature_infos=[0:17] [0:199] [0:122] [0:63] [0:846] [0:67.099999999999994] [0.078:2.4199999999999999] [21:81]
tree_sizes=1638 1641 1642 1641 1654 1639 1653 1649 1656 1659 1651 1659 1663 1657 1653 1655 1659 1660 1657 1668 1656 1667

Tree=0
num_leaves=15
num_cat=0
split_feature=1 5 7 5 1 1 6 1 5 6 7 6 3 5
split_gain=117.012 36.2761 29.264 17.2197 14.4373 13.0908 10.3525 10.2345 7.63855 6.74335 7.07613 4.66483 6.41776 3.79449
threshold=127.50000000000001 29.950000000000003 28.500000000000004 26.450000000000003 99.500000000000014 154.50000000000003 0.2195 145.50000000000003 30.950000000000003 0.4215000000000001 30.500000000000004 0.56450000000000011 25.500000000000004 36.550000000000004
decision_type=2 2 2 2 2 2 2 2 2 2 2 2 2 2
left_child=2 7 8 -4 -5 9 -6 -2 -1 13 -11 12 -8 -3
right_child=1 5 3 4 6 -7 11 -9 -10 10 -12 -13 -14 -15
leaf_value=-0.83334664549210946 -0.74187726046663272 -0.61535710699901647 -0.80846681492327299 -0.71711161340488661 -0.71151242363440481 -0.28237906673651714 -0.41863867483323891 -0.50417272970929305 -0.72125916138302126 -0.51414098422492338 -0.27290922494666836 -0.3606298646842156 -0.63256384787061226 -0.43581898445925621
leaf_weight=30.77952928841114 8.891864016652109 5.9279093444347399 8.6638675034046155 10.715836122632025 4.5599302649498012 20.063693165779114 7.0678919106721896 7.5238849371671668 24.623623430728912 4.5599302649497968 6.8398953974246979 6.839895397424697 5.6999128311872482 4.7879267781972885
leaf_count=135 39 26 38 47 20 88 31 33 108 20 30 30 25 21
internal_value=-0.611732 -0.443743 -0.711209 -0.619199 -0.572191 -0.370113 -0.507934 -0.632929 -0.78353 -0.449707 -0.369402 -0.460591 -0.514141 -0.535138
internal_weight=0 58.5951 98.9505 43.5473 34.8835 42.1794 24.1676 16.4157 55.4032 22.1157 11.3998 19.6077 12.7678 10.7158
internal_count=691 257 434 191 153 185 106 72 243 97 50 86 56 47
shrinkage=1


Tree=1
num_leaves=15
num_cat=0
split_feature=1 5 7 5 1 1 1 6 5 2 7 5 6 3
split_gain=83.4802 23.7245 23.2193 13.2353 11.0924 7.95314 7.5342 7.31803 6.71277 5.40908 11.011 3.91479 2.98436 3.07862
threshold=127.50000000000001 29.950000000000003 28.500000000000004 26.450000000000003 94.500000000000014 155.50000000000003 145.50000000000003 0.20450000000000002 30.950000000000003 73.000000000000014 30.500000000000004 29.950000000000003 0.58100000000000007 27.500000000000004
decision_type=2 2 2 2 2 2 2 2 2 2 2 2 2 2
left_child=2 6 8 -4 -5 9 -2 -6 -1 -3 -11 -9 13 -13
right_child=1 5 3 4 7 -7 -8 11 -10 10 -12 12 -14 -15
leaf_value=-0.20466530339575609 -0.11583071685210082 0.2243676624217413 -0.17980474428509272 -0.12600971058636051 -0.094170497628831756 0.26150786793820374 0.088551725175788992 0.22960216324060106 -0.096722036871577169 -0.11204812557395692 0.16651425924944749 0.1072003028421923 0.17402771191317387 -0.04252251719708728
leaf_weight=28.507481664419174 8.5225543230772036 9.235073849558832 8.1023373603820783 7.7149134129285803 4.6365687400102642 20.586877226829529 7.7471690475940695 5.0150228291749981 23.771992564201355 4.6816589534282675 10.039175271987913 6.8343697786331195 5.2817447483539572 5.6400851458311081
leaf_count=135 39 39 38 35 21 84 33 21 108 20 42 29 22 25
internal_value=0 0.136512 -0.0883303 -0.00699073 0.0328751 0.193135 -0.0185097 0.077599 -0.155582 0.134378 0.0779232 0.112574 0.0795207 0.039506
internal_weight=0 60.8125 95.5045 43.225 35.1227 44.5428 16.2697 27.4078 52.2795 23.9559 14.7208 22.7712 17.7562 12.4745
internal_count=691 257 434 191 153 185 72 118 243 101 62 97 76 54
shrinkage=0.15


Tree=2
num_leaves=15
num_cat=0
split_feature=1 7 5 5 1 5 1 1 6 5 7 6 0 1
split_gain=61.1159 18.56 16.4654 10.3034 8.16751 6.11474 5.62638 5.58336 5.21808 4.66633 6.29057 4.16668 3.09173 5.54961
threshold=127.50000000000001 28.500000000000004 29.950000000000003 26.450000000000003 94.500000000000014 30.950000000000003 154.50000000000003 145.50000000000003 0.20450000000000002 41.400000000000006 42.500000000000007 0.4215000000000001 6.5000000000000009 111.50000000000001
decision_type=2 2 2 2 2 2 2 2 2 2 2 2 2 2
left_child=1 5 7 -3 -5 -1 9 -2 -6 10 11 -4 13 -10
right_child=2 3 6 4 8 -7 -8 -9 12 -11 -12 -13 -14 -15
leaf_value=-0.19161757929643014 -0.10326879505482493 -0.16589497746172793 -0.073542077278928988 -0.11268391068199418 -0.083065655395820226 -0.08544151948890541 0.21498698533469693 0.073642775894887477 -0.049225673732825555 0.23642599397996589 0.20580945782594021 0.09844602607333186 0.16824616603230588 0.1343700982424369
leaf_weight=26.073071211576462 8.1557819098234194 7.5116535723209372 6.1219966858625465 7.3622622340917578 4.481009870767596 22.94336861371994 21.995618402957916 7.9037341028451911 6.6242016702890423 5.0895593315362921 5.6460631340742102 6.5714696049690247 8.135760545730589 8.4043194651603681
leaf_count=135 39 38 26 35 21 108 88 33 28 21 23 27 34 35
internal_value=0 -0.0790111 0.114348 -0.00649008 0.0277138 -0.141919 0.160503 -0.0162013 0.0651033 0.109352 0.0740872 0.015497 0.0937659 0.0534456
internal_weight=0 91.5356 61.4842 42.5192 35.0076 49.0164 45.4247 16.0595 27.6453 23.4291 18.3395 12.6935 23.1643 15.0285
internal_count=691 434 257 191 153 243 185 72 118 97 76 53 97 63
shrinkage=0.15


Tree=3
num_leaves=15
num_cat=0
split_feature=1 7 5 7 5 1 1 2 3 6 4 1 3 6
split_gain=45.6327 13.053 12.4578 11.0532 7.23131 7.10126 6.07148 5.68644 4.56759 3.43142 2.88841 2.79965 2.41863 6.79602
threshold=123.50000000000001 24.500000000000004 26.450000000000003 30.500000000000004 32.850000000000001 154.50000000000003 107.50000000000001 73.000000000000014 30.500000000000004 0.31000000000000005 119.50000000000001 115.50000000000001 29.500000000000004 0.49550000000000005
decision_type=2 2 2 2 2 2 2 2 2 2 2 2 2 2
left_child=2 4 -1 12 -2 7 -5 10 -9 -7 -3 -8 -4 -14
right_child=1 5 3 6 -6 9 11 8 -10 -11 -12 -13 13 -15
leaf_value=-0.18013614801517652 -0.15599028036551962 0.23173480659779802 -0.13649874948346211 -0.029573218119370945 0.066720876449125124 0.10695004933009224 0.19069024983952951 -0.034810387999057092 0.10861685266131585 0.22560230614200283 0.07922078975746584 0.034925847386670122 -0.14295479935749858 0.060724746099414681
leaf_weight=20.21591591835022 6.6453767418861371 5.9105757623910922 18.797164082527161 15.77256451547146 6.4780224710702896 8.6206061840057391 5.5583887249231321 11.658187597990038 8.7419669628143293 15.072869360446928 5.2987220734357834 4.8718850314617157 8.6157790422439557 6.441681131720542
leaf_count=114 32 25 97 73 27 35 23 51 37 61 23 20 42 31
internal_value=0 0.0884339 -0.0782858 -0.044002 -0.0460547 0.120348 0.0291434 0.0738119 0.0266517 0.182432 0.15964 0.117934 -0.100615 -0.0558193
internal_weight=0 68.4263 80.2734 60.0575 13.1234 55.3029 26.2028 31.6095 20.4002 23.6935 11.2093 10.4303 33.8546 15.0575
internal_count=691 291 400 286 59 232 116 136 88 96 48 43 170 73
shrinkage=0.15


Tree=4
num_leaves=15
num_cat=0
split_feature=1 5 7 5 6 2 1 4 4 0 5 1 7 1
split_gain=34.3886 12.3152 10.9176 9.75808 8.32356 5.55777 4.14563 5.21687 4.05924 4.03487 3.96019 3.81881 5.76925 3.20129
threshold=129.50000000000003 26.250000000000004 24.500000000000004 29.950000000000003 0.72150000000000014 60.500000000000007 101.50000000000001 17.000000000000004 111.00000000000001 3.5000000000000004 34.050000000000004 155.50000000000003 42.500000000000007 151.50000000000003
decision_type=2 2 2 2 2 2 2 2 2 2 2 2 2 2
left_child=1 -1 -3 13 6 -5 -4 10 -9 -6 -8 12 -7 -2
right_child=3 2 4 5 9 11 7 8 -10 -11 -12 -13 -14 -15
leaf_value=-0.16511752396408766 -0.07003379937908015 -0.12904801313516981 -0.095521340112112288 0.27917956621251244 0.040200869911870225 -0.0055029703005069182 0.12717861777857306 -0.18493253198082135 -0.0019406088836770134 0.22404608652800651 -0.025325800523421996 0.15630711838597419 0.17490377364545934 0.074221704798481419
leaf_weight=19.371191516518593 8.9162780046462995 18.420578449964523 13.004500448703764 4.8801432698965064 6.0318097621202451 11.277735963463785 9.2020350545644778 4.2741681039333326 7.5372686088085175 4.8423466086387634 6.5640984624624243 18.354367509484291 6.1706198751926413 5.6576504409313193
leaf_count=120 43 100 65 20 27 47 40 21 34 21 29 76 25 23
internal_value=0 -0.0592896 -0.029952 0.0912836 0.00552289 0.129012 -0.0257061 0.00721606 -0.0681593 0.122069 0.0636847 0.108543 0.058298 -0.0140333
internal_weight=0 89.248 69.8768 55.2568 51.4562 40.6829 40.5821 27.5776 11.8114 10.8742 15.7661 35.8027 17.4484 14.5739
internal_count=691 457 337 234 237 168 189 124 55 48 69 148 72 66
shrinkage=0.15


Tree=5
num_leaves=15
num_cat=0
split_feature=1 1 5 6 0 7 3 5 3 2 6 0 6 4
split_gain=26.459 10.074 7.93972 6.26135 5.3188 5.22831 14.1769 4.24534 3.76925 4.23533 3.46778 3.2666 2.826 2.53784
threshold=111.50000000000001 154.50000000000003 26.250000000000004 0.6625000000000002 2.5000000000000004 28.500000000000004 9.0000000000000018 38.050000000000004 17.500000000000004 77.000000000000014 0.51300000000000012 6.5000000000000009 0.31000000000000005 109.00000000000001
decision_type=2 2 2 2 2 2 2 2 2 2 2 2 2 2
left_child=3 2 -2 7 -5 6 -4 11 9 -7 13 -1 -3 -10
right_child=1 12 5 4 -6 8 -8 -9 10 -11 -12 -13 -14 -15
leaf_value=-0.15058553432346719 -0.12126370596367905 0.062308426058389224 0.19682602155977988 -0.078896254188709991 0.12662230032174437 0.092273938265912195 -0.092067031889856654 0.024919877758280928 -0.010640938749812012 -0.077952962292647768 0.19470122575021828 -0.035573252496446453 0.16564976596766462 0.13212430532088704
leaf_weight=30.098663866519928 8.2043240219354612 9.3715190291404742 5.05707719922066 6.3601618558168393 5.1094526648521423 7.1132834404706937 15.648971244692801 4.502983719110488 5.3234022110700625 6.1163105517625809 7.7940687537193289 6.8142982423305503 16.326843857765198 5.9139407575130463
leaf_count=181 49 39 24 34 24 30 77 23 23 26 32 34 70 25
internal_value=0 0.0491542 0.016046 -0.0854191 0.0126576 0.0373145 -0.0215101 -0.11258 0.0750699 0.0135746 0.117818 -0.129354 0.127964 0.0644929
internal_weight=0 86.8697 61.1714 52.8856 11.4696 52.9671 20.706 41.4159 32.261 13.2296 19.0314 36.913 25.6984 11.2373
internal_count=691 395 286 296 58 237 101 238 136 56 80 215 109 48
shrinkage=0.15


Tree=6
num_leaves=15
num_cat=0
split_feature=1 1 5 0 5 1 5 4 6 5 6 7 2 5
split_gain=20.4295 9.78801 8.22212 6.01126 4.70596 4.51315 4.41127 4.08612 3.22814 6.27521 4.48781 3.24759 2.87396 2.60448
threshold=101.50000000000001 154.50000000000003 26.250000000000004 6.5000000000000009 43.000000000000007 121.50000000000001 36.650000000000013 87.500000000000014 0.50800000000000012 31.150000000000002 0.38150000000000006 24.500000000000004 73.000000000000014 37.250000000000007
decision_type=2 2 2 2 2 2 2 2 2 2 2 2 2 2
left_child=7 2 -2 4 6 -5 8 13 10 -10 11 -4 -13 -1
right_child=1 -3 3 5 -6 -7 -8 -9 9 -11 -12 12 -14 -15
leaf_value=-0.15038940695325928 -0.11704479573216769 0.11250412303010748 -0.089980021566557614 0.21351993637557895 0.13294994403428617 0.046077520533636847 -0.10103331977155613 0.010901405482789178 -0.052208065906028035 0.15600434308687394 -0.14773628625523935 0.13847889077186812 -0.0088409046953152014 -0.016823702570712307
leaf_weight=22.639005720615394 10.78383684158325 24.922037214040756 5.0565215498209062 5.5638128221034995 5.3095276653766623 10.376809656620024 10.618579447269438 5.5161784440278998 5.6626106798648816 7.6658713519573212 5.2041109055280677 5.130594924092291 7.1063341945409775 3.842347487807273
leaf_count=147 72 109 28 24 24 44 48 31 28 34 26 23 33 20
internal_value=0 0.0306085 0.00460135 0.0239797 -0.00082743 0.104521 -0.0161208 -0.106545 0.00904666 0.0675452 -0.0256103 0.011141 0.0529261 -0.13101
internal_weight=0 103.401 78.4786 67.6948 51.7542 15.9406 46.4446 31.9975 35.826 13.3285 22.4976 17.2935 12.2369 26.4814
internal_count=691 493 384 312 244 68 220 198 172 62 110 84 56 167
shrinkage=0.15


Tree=7
num_leaves=15
num_cat=0
split_feature=1 5 7 0 5 7 5 6 7 6 0 5 0 1
split_gain=16.7356 7.74449 5.62912 5.22674 5.35046 5.01206 4.42696 3.83119 3.9868 3.78167 4.11175 3.655 3.59389 3.00624
threshold=123.50000000000001 26.450000000000003 24.500000000000004 4.5000000000000009 31.150000000000002 59.500000000000007 32.850000000000001 0.31000000000000005 40.500000000000007 0.38150000000000006 7.5000000000000009 30.950000000000003 3.5000000000000004 96.500000000000014
decision_type=2 2 2 2 2 2 2 2 2 2 2 2 2 2
left_child=1 -1 6 11 -5 7 -2 8 -4 -9 12 -3 -11 -6
right_child=2 3 5 4 13 -7 -8 9 -10 10 -12 -13 -14 -15
leaf_value=-0.15357167013355119 -0.13620767883461274 -0.14299051579447983 -0.032373592570120534 0.15183192849553698 -0.12721153012084188 -0.074708144533600959 0.047804620336423603 0.23263338144413917 0.10864389094200674 0.12707959001635352 0.1905543785050709 -0.033134244545260413 -0.013242292684843598 0.026625579118085965
leaf_weight=13.914968952536581 5.6461139470338804 9.4601807072758657 9.4829335510730761 5.9708731397986439 4.024915248155593 4.6178208887577048 6.1413837522268295 5.6599408537149456 8.6033520549535734 7.9639706760644975 7.2139105945825568 24.363957270979881 8.4790844172239286 9.8595371097326261
leaf_count=114 32 62 42 29 22 21 27 25 38 36 32 129 38 44
internal_value=0 -0.0538487 0.0532588 -0.0279982 0.0330929 0.0744665 -0.0403357 0.0889985 0.0347061 0.122493 0.0961416 -0.0638596 0.0547207 -0.0179697
internal_weight=0 67.5944 63.8085 53.6795 19.8553 52.021 11.7875 47.4032 18.0863 29.3169 23.657 33.8241 16.4431 13.8845
internal_count=691 400 291 286 95 232 59 211 80 131 106 191 74 66
shrinkage=0.15


Tree=8
num_leaves=15
num_cat=0
split_feature=1 1 0 7 5 2 7 5 6 4 0 5 0 0
split_gain=13.0872 6.36225 6.44767 4.53657 4.42182 3.87897 4.54906 3.74059 2.87244 2.81762 2.79838 2.77367 4.48607 4.37192
threshold=106.50000000000001 166.50000000000003 7.5000000000000009 25.500000000000004 45.350000000000001 73.000000000000014 30.500000000000004 26.450000000000003 0.29250000000000004 48.500000000000007 2.5000000000000004 30.050000000000004 1.5000000000000002 1.5000000000000002
decision_type=2 2 2 2 2 2 2 2 2 2 2 2 2 2
left_child=3 2 4 -1 5 11 10 -5 -9 -10 -7 13 -13 -2
right_child=1 -3 -4 7 -6 6 -8 8 9 -11 -12 12 -14 -15
leaf_value=-0.14028066920750096 -0.15588141265895067 0.12116489595341774 0.10391955583896569 -0.17227740879575243 0.14184745127477921 -0.18233135167279621 -0.0057899678464890551 -0.087726979677685987 0.1092360218158732 -0.033916437049451437 -0.029507227951872609 0.1494878411500877 -0.0042652752143875665 0.027332804042142455
leaf_weight=14.96450776606798 4.4964834228158024 14.247957289218901 13.982801631093023 3.6707664579153088 4.0909924358129492 7.8808951154351252 14.841347120702265 6.4764012694358852 6.0102191269397718 6.3750118389725685 4.0976409688591957 6.9150529131293323 11.161360718309878 8.4141864180564863
leaf_count=116 28 67 66 33 18 43 66 36 30 33 21 33 52 49
internal_value=0 0.0291931 0.0119238 -0.0762586 -0.00885818 -0.0195236 -0.0612894 -0.0337394 -0.0067778 0.0355516 -0.130053 0.0166255 0.0545523 -0.0364764
internal_weight=0 90.1287 75.8808 37.4969 61.898 57.807 26.8199 22.5324 18.8616 12.3852 11.9785 30.9871 18.0764 12.9107
internal_count=691 443 376 248 310 292 130 132 99 63 64 162 85 77
shrinkage=0.15


Tree=9
num_leaves=15
num_cat=0
split_feature=1 5 7 5 6 2 5 2 4 4 1 6 4 1
split_gain=10.5149 6.20001 4.58125 4.48576 4.4483 4.43735 3.59957 7.01254 3.33295 2.93367 3.23089 2.80804 1.80298 1.79212
threshold=129.50000000000003 26.250000000000004 24.500000000000004 29.950000000000003 0.84800000000000009 60.500000000000007 40.350000000000009 85.500000000000014 252.50000000000003 17.000000000000004 99.500000000000014 0.30050000000000004 111.00000000000001 92.500000000000014
decision_type=2 2 2 2 2 2 2 2 2 2 2 2 2 2
left_child=1 -1 13 -2 6 -5 7 9 11 10 -4 -7 -11 -3
right_child=3 2 4 5 -6 8 -8 -9 -10 12 -12 -13 -14 -15
leaf_value=-0.13436415851361472 -0.021765066083258119 -0.17725286665344481 -0.062253378718714877 0.22540674266933619 0.11141097937682617 0.015956931965310995 0.1149251066673067 -0.19899410459491251 -0.034493386664016738 -0.12362607773129604 0.072476598689790797 0.12151657503095953 -0.0091312423899040287 -0.059251357435238232
leaf_weight=12.37047954648733 13.535872831940649 4.0543829500675193 5.7195287793874803 4.1511490792036048 7.3527474105358115 8.6248299926519447 4.2692513614892951 4.8293581902980796 6.5871322751045218 5.7009847387671453 13.357633650302885 16.550904586911201 6.7687328457832336 10.134051062166689
leaf_count=120 66 33 35 20 33 38 20 24 31 34 59 79 32 67
internal_value=0 -0.0373806 -0.0180881 0.0518244 0.00404735 0.07956 -0.0153747 -0.0306671 0.060499 -0.00489879 0.0320832 0.0853534 -0.0614767 -0.0929706
internal_weight=0 74.5572 62.1867 49.4499 47.9982 35.914 40.6455 36.3762 31.7629 31.5469 19.0772 25.1757 12.4697 14.1884
internal_count=691 457 337 234 237 168 204 184 148 160 94 117 66 100
shrinkage=0.15


Tree=10
num_leaves=15
num_cat=0
split_feature=1 1 0 5 7 4 6 4 5 5 6 2 6 3
split_gain=8.18965 4.88925 4.24243 4.3403 3.56168 4.45146 2.549 3.03338 3.10727 2.50918 3.47682 5.25195 3.55269 2.29032
threshold=101.50000000000001 166.50000000000003 7.5000000000000009 45.350000000000001 25.500000000000004 83.500000000000014 0.21750000000000003 183.50000000000003 39.95000000000001 25.450000000000003 0.73150000000000015 83.000000000000014 0.58750000000000013 30.500000000000004
decision_type=2 2 2 2 2 2 2 2 2 2 2 2 2 2
left_child=4 2 3 6 -1 13 -2 8 9 -8 11 12 -11 -6
right_child=1 -3 -4 -5 5 -7 7 -9 -10 10 -12 -13 -14 -15
leaf_value=-0.14439643942797617 -0.083380730244200882 0.10309762713368974 0.076747252616008732 0.13757742074984414 -0.11638065195330707 0.13588043792404705 -0.096195800391666295 -0.0895869774146376 -0.1114511417022875 0.070256459616670847 0.13994554231907774 -0.12252854289851706 -0.088337581667109769 0.024295338966638089
leaf_weight=10.499078415334226 12.015674754977224 13.218247979879377 15.035652950406073 4.1249299198389044 8.0538556352257711 2.9165071770548812 3.5772370621561995 8.2729322388768178 4.2791430205106726 19.48456025868655 5.9629223793745032 5.1860844269394866 3.7974924296140662 3.8481923788785926
leaf_count=100 71 67 73 19 61 15 32 41 20 97 28 25 20 22
internal_value=0 0.0184578 0.00477002 -0.011455 -0.0775567 -0.0302002 -0.021279 -0.00652055 0.0097302 0.0233733 0.0357961 0.0139809 0.0443885 -0.070897
internal_weight=0 94.9549 81.7366 66.701 25.3176 14.8186 62.576 50.5604 42.2874 38.0083 34.4311 28.4681 23.2821 11.902
internal_count=691 493 426 353 198 98 334 263 222 202 170 142 117 83
shrinkage=0.15


Tree=11
num_leaves=15
num_cat=0
split_feature=1 5 5 7 6 5 2 4 4 6 5 6 5 6
split_gain=6.76003 4.64983 3.13721 2.93604 2.88339 2.47418 4.91048 2.26284 2.0882 2.37356 2.23087 2.17775 2.04349 3.23013
threshold=129.50000000000003 26.250000000000004 29.950000000000003 24.500000000000004 0.84800000000000009 40.350000000000009 85.500000000000014 17.000000000000004 338.50000000000006 0.26350000000000007 39.95000000000001 0.43350000000000005 34.150000000000013 0.37900000000000006
decision_type=2 2 2 2 2 2 2 2 2 2 2 2 2 2
left_child=1 -1 -2 -3 5 6 7 12 9 -4 11 -11 13 -5
right_child=2 3 8 4 -6 -7 -8 -9 -10 10 -12 -13 -14 -15
leaf_value=-0.12391136241472281 -0.01989531684201986 -0.078939634595010827 0.010023198852642606 0.12943337284075995 0.088904704150557748 0.09391349138378946 -0.17689957859634189 -0.056438791774325377 -0.031339726759712708 0.06854351290007879 0.034720174964786132 0.18495915977354102 -0.040602511618537007 -0.028020117214384761
leaf_weight=10.40637946128845 13.28019806742668 12.761722169816492 7.9626430124044445 7.0091377720236832 7.2906495034694663 4.2743704319000235 4.3100580424070349 12.083646625280378 4.3287740498781195 6.0586913675069836 6.8489573001861563 8.9658027440309507 6.5332922190427771 5.0391690954566002
leaf_count=120 66 100 36 36 33 20 24 66 21 30 35 46 33 25
internal_value=0 -0.0314304 0.0419711 -0.0152018 0.00227567 -0.0138157 -0.0269814 -0.00591015 0.0660192 0.0801445 0.105671 0.138014 0.0269487 0.0635789
internal_weight=0 69.7084 47.4451 59.302 46.5403 39.2497 34.9753 30.6652 34.1649 29.8361 21.8735 15.0245 18.5816 12.0483
internal_count=691 457 234 337 237 204 184 160 168 147 111 76 94 61
shrinkage=0.15


Tree=12
num_leaves=15
num_cat=0
split_feature=1 1 4 0 5 3 4 5 7 6 6 3 4 6
split_gain=5.60271 3.32261 3.08592 2.89256 3.03317 2.13083 2.12241 3.84856 1.88491 1.88428 3.85838 2.95747 2.65531 2.78989
threshold=101.50000000000001 166.50000000000003 87.500000000000014 7.5000000000000009 45.350000000000001 32.500000000000007 36.500000000000007 37.250000000000007 30.500000000000004 0.33150000000000007 0.38150000000000006 30.500000000000004 195.00000000000003 0.50800000000000012
decision_type=2 2 2 2 2 2 2 2 2 2 2 2 2 2
left_child=2 3 6 4 9 -3 7 8 -1 11 -11 -2 13 -12
right_child=1 5 -4 -5 -6 -7 -8 -9 -10 10 12 -13 -14 -15
leaf_value=-0.16670597546593843 -0.021150788549606114 0.039932051397010858 0.040502135798819915 0.064322985761398666 0.1170832213606493 0.16933667544000572 -0.1602750795360717 0.12543734194161821 -0.030651022459564668 0.15243419558175222 -0.077965704165614338 -0.14077766434375133 -0.11947978940634664 0.035831765011151345
leaf_weight=4.5126038044691139 20.89745615422726 7.7631273120641691 4.7221560329198828 14.505876563489435 3.9743905663490287 4.5359286069869995 7.019338756799697 2.1480503976345053 4.6539616882801056 3.5927919074892989 6.5257859826088014 5.9806800261139861 4.4150244668126097 18.846638910472393
leaf_count=55 120 42 31 73 19 25 66 12 34 17 39 34 23 101
internal_value=0 0.0151501 -0.0676284 0.00382444 -0.00983813 0.0876569 -0.0954789 -0.0552808 -0.0976294 -0.0182093 0.0055925 -0.0477691 -0.0121187 0.00656306
internal_weight=0 91.0377 23.0561 78.7386 64.2328 12.2991 18.334 11.3146 9.16657 60.2584 33.3802 26.8781 29.7874 25.3724
internal_count=691 493 198 426 353 67 167 101 89 334 180 154 163 140
shrinkage=0.15


Tree=13
num_leaves=15
num_cat=0
split_feature=1 5 1 4 5 7 2 6 5 3 6 3 6 1
split_gain=4.33859 2.80967 2.55812 2.59808 3.01047 2.29762 2.04194 2.00113 3.04735 1.83181 1.6941 3.33042 3.16373 2.01696
threshold=101.50000000000001 27.550000000000004 166.50000000000003 252.50000000000003 43.000000000000007 25.500000000000004 69.000000000000014 0.21750000000000003 29.950000000000003 32.500000000000007 0.27950000000000003 18.500000000000004 0.31750000000000006 123.50000000000001
decision_type=2 2 2 2 2 2 2 2 2 2 2 2 2 2
left_child=1 -1 3 4 7 -3 -7 8 -2 -4 11 -9 -12 -14
right_child=2 5 9 -5 -6 6 -8 10 -10 -11 12 -13 13 -15
leaf_value=-0.16220602788511249 -0.13295557464722765 -0.1145589012152026 0.034602831462381224 -0.091107660352673356 0.1127470503563119 0.091348317270981055 -0.040738264426345573 0.13316001306162936 0.019099384223994233 0.15842216909378196 -0.11145086014835721 -0.025643910971360411 -0.023271544365205201 0.047376968927154199
leaf_weight=4.845138285309079 5.6975017040967924 5.3120694905519512 7.626706659793852 6.0561850145459166 6.0179003626108161 3.999642185866831 7.7087482735514641 6.7920283824205381 6.1846112534403801 4.1518421173095703 5.0477782115340224 5.2822981625795364 16.691468752920628 19.971027806401253
leaf_count=75 40 55 42 31 30 23 45 34 34 25 27 30 98 102
internal_value=0 -0.0614269 0.0131046 0.00323463 0.011205 -0.0327386 0.00438314 0.00189939 -0.0538113 0.0782481 0.014207 0.0636862 -0.000116248 0.0152126
internal_weight=0 21.8656 89.5193 77.7408 71.6846 17.0205 11.7084 65.6667 11.8821 11.7785 53.7846 12.0743 41.7103 36.6625
internal_count=691 198 493 426 395 123 68 365 74 67 291 64 227 200
shrinkage=0.15


Tree=14
num_leaves=15
num_cat=0
split_feature=7 7 1 1 1 4 0 3 6 6 2 0 4 7
split_gain=3.88975 3.25575 2.84895 3.51587 2.63072 4.44477 2.62536 3.88619 2.14521 2.0092 1.90515 3.23884 3.08726 2.72012
threshold=22.500000000000004 62.500000000000007 129.50000000000003 136.50000000000003 154.50000000000003 252.50000000000003 2.5000000000000004 34.500000000000007 1.1205000000000003 0.30050000000000004 67.000000000000014 2.5000000000000004 71.500000000000014 34.500000000000007
decision_type=2 2 2 2 2 2 2 2 2 2 2 2 2 2
left_child=6 2 8 -4 -5 9 7 -1 10 -6 11 12 -2 -12
right_child=1 -3 3 4 5 -7 -8 -9 -10 -11 13 -13 -14 -15
leaf_value=-0.1675411175778912 -0.14864263466385977 -0.12841054427649187 0.16372340174099195 -0.017986103969312349 0.038424401954635666 -0.066154638172772701 0.062789540467579799 0.046097273803519752 0.10916096226388977 0.15815779855310724 -0.07480241555418396 0.083761852534304085 0.043418894267050041 0.0088619013069053607
leaf_weight=7.560205824673174 3.5718967542052296 3.7443358078598967 4.9744774401187888 14.907912932336329 5.2203030586242694 4.2179148644208899 2.3430636040866366 2.5660338848829269 3.3465898968279353 7.9642106220126152 18.282870501279831 9.6468572504818422 3.9828811064362526 16.757925186306238
leaf_count=86 33 20 24 71 25 23 19 17 19 50 124 65 24 91
internal_value=0 0.00872404 0.0142528 0.0463314 0.0282578 0.067873 -0.0802962 -0.113404 -0.00726302 0.11075 -0.014721 0.0261623 -0.0473877 -0.0347908
internal_weight=0 96.6182 92.8738 37.2848 32.3103 17.4024 12.4693 10.1262 55.589 13.1845 52.2424 17.2016 7.55478 35.0408
internal_count=691 569 549 193 169 98 122 103 356 75 337 122 57 215
shrinkage=0.15


Tree=15
num_leaves=15
num_cat=0
split_feature=7 7 5 0 1 1 5 5 6 6 6 1 4 6
split_gain=3.05514 2.42071 2.19343 3.19421 2.12972 2.60319 1.79567 2.51188 1.95171 2.83215 2.54869 1.71573 3.43735 1.83894
threshold=22.500000000000004 62.500000000000007 33.400000000000006 2.5000000000000004 129.50000000000003 135.50000000000003 26.250000000000004 22.950000000000003 0.12250000000000001 0.14250000000000004 0.16000000000000003 154.50000000000003 252.50000000000003 0.55950000000000011
decision_type=2 2 2 2 2 2 2 2 2 2 2 2 2 2
left_child=2 4 3 -1 6 -6 7 -2 -8 -10 -11 13 -13 -7
right_child=1 -3 -4 -5 5 11 8 -9 9 10 -12 12 -14 -15
leaf_value=-0.17358349473021265 0.039976430935903647 -0.11235918807688573 0.01287976551098014 0.065134854499087555 0.1588239083946755 0.026328883908100505 -0.19046320865116814 -0.16543634145075961 0.22335533911404168 -0.19890612359147103 0.0073807521372815264 0.10054765561243403 -0.05458968177462592 -0.082512407052516432
leaf_weight=5.8831468932330591 2.1769978404045096 3.6456246972084037 4.2135670259594917 1.6053012460470197 3.7430361062288275 11.052877150475981 1.1484546661376942 3.4815781526267529 1.3286752849817265 1.3886471465229977 45.572227161377668 12.427734933793547 4.3341563194990149 5.10631189495325
leaf_count=79 31 20 28 15 18 51 8 46 8 9 254 75 23 26
internal_value=0 0.00751254 -0.0736955 -0.122409 0.012275 0.0402884 -0.00636656 -0.0864088 0.00279492 0.00739111 0.00128079 0.0268112 0.0604335 -0.00806502
internal_weight=0 95.4063 11.702 7.48845 91.7607 36.6641 55.0966 5.65858 49.438 48.2895 46.9609 32.9211 16.7619 16.1592
internal_count=691 569 122 94 549 193 356 77 279 271 263 175 98 77
shrinkage=0.15


Tree=16
num_leaves=15
num_cat=0
split_feature=1 4 4 3 5 0 4 0 3 4 7 5 1 0
split_gain=2.63511 2.42838 2.02475 2.76854 2.5623 1.62222 2.2839 2.37454 1.62074 2.17514 2.90187 1.3731 1.51299 2.94791
threshold=101.50000000000001 87.500000000000014 36.500000000000007 21.500000000000004 34.350000000000001 7.5000000000000009 111.00000000000001 9.5000000000000018 43.500000000000007 189.00000000000003 27.500000000000004 23.450000000000003 129.50000000000003 5.5000000000000009
decision_type=2 2 2 2 2 2 2 2 2 2 2 2 2 2
left_child=1 2 3 -1 -5 8 7 -7 9 11 -11 -2 -13 -14
right_child=5 -3 -4 4 -6 6 -8 -9 -10 10 -12 12 13 -15
leaf_value=-0.11870325732636232 -0.098953901261572011 0.045726198737094596 -0.1509030173220739 -0.063687370143970037 0.15281711096324332 0.079119439158504765 0.13728406281950656 -0.058062685651557706 0.08427071868140569 -0.15908795772295783 -0.00056090790947421537 -0.012183614722688448 0.069715480345072148 -0.054966000869631729
leaf_weight=4.8056220747530478 2.6633251011371604 4.5488405227661124 5.6031146496534339 2.5354536920785904 2.3886251300573349 6.1264630854129809 4.9801703840494147 5.2907382026314735 4.7840325161814681 4.5344628505408746 6.0840312242507935 27.690582867711782 17.705523908138279 5.6213504523038855
leaf_count=60 26 31 66 26 15 34 27 27 24 27 33 169 97 29
internal_value=0 -0.0505201 -0.0790738 -0.0377089 0.041337 0.010108 0.0525222 0.0155492 4.06899e-05 -0.00622624 -0.0682574 0.00604403 0.0115254 0.0396695
internal_weight=0 19.8817 15.3328 9.7297 4.92408 85.4807 16.3974 11.4172 69.0833 64.2993 10.6185 53.6808 51.0175 23.3269
internal_count=691 198 167 101 41 493 88 61 405 381 60 321 295 126
shrinkage=0.15


Tree=17
num_leaves=15
num_cat=0
split_feature=5 0 2 1 5 6 2 5 2 1 2 7 5 0
split_gain=2.18113 3.31248 2.21695 3.62444 1.69233 2.79941 2.4672 3.35335 2.11431 1.87156 1.46824 3.81834 1.98292 2.81345
threshold=27.850000000000005 1.5000000000000002 73.000000000000014 105.50000000000001 33.000000000000007 0.20450000000000002 69.000000000000014 29.950000000000003 60.500000000000007 165.50000000000003 65.500000000000014 26.500000000000004 40.650000000000013 3.5000000000000004
decision_type=2 2 2 2 2 2 2 2 2 2 2 2 2 2
left_child=1 -1 3 -3 6 -6 7 -2 -9 10 -7 -12 13 -13
right_child=4 2 -4 -5 5 9 -8 8 -10 -11 11 12 -14 -15
leaf_value=-0.14777379325389206 -0.13756274385109385 -0.11454317000499784 -0.075454920506085474 0.10564652368251416 -0.1043225182610427 0.04411821040376477 0.071195056121601111 0.12684498316263604 -0.027124584463232949 0.084260060622374844 -0.11818033690454531 0.081448454353684044 0.079178101228524173 -0.05392633754382109
leaf_weight=5.2785054109990623 3.5764287784695652 2.3598438911139947 6.3799990378320208 5.8558744192123413 5.8952239379286757 9.9868916496634466 18.797909487038851 3.4094287082552892 4.8774000890552998 5.909563608467578 7.1572726145386723 4.6638665720820489 6.265172764658927 13.31753024458885
leaf_count=72 29 40 46 42 35 59 108 21 29 42 45 25 31 67
internal_value=0 -0.0459428 -0.00911593 0.0424003 0.00932496 -0.00685294 0.0373928 -0.0161686 0.0362227 0.00529508 -0.00597915 -0.0219109 0.00650663 -0.0188139
internal_weight=0 19.8742 14.5957 8.21572 83.8567 53.1955 30.6612 11.8633 8.28683 47.3003 41.3907 31.4038 24.2466 17.9814
internal_count=691 200 128 82 491 304 187 79 50 269 227 168 123 92
shrinkage=0.15


Tree=18
num_leaves=15
num_cat=0
split_feature=7 7 1 2 7 6 4 6 6 1 0 6 5 1
split_gain=1.96704 1.75012 1.64643 2.53349 3.23638 4.4531 3.37488 3.19461 3.27468 2.86642 2.38913 2.01752 2.00076 1.77337
threshold=21.500000000000004 62.500000000000007 123.50000000000001 54.500000000000007 40.500000000000007 0.62800000000000011 114.50000000000001 0.31000000000000005 0.37450000000000006 156.50000000000003 4.5000000000000009 0.25450000000000006 26.450000000000003 121.50000000000001
decision_type=2 2 2 2 2 2 2 2 2 2 2 2 2 2
left_child=-1 2 12 -4 7 6 -6 11 -9 10 -10 -5 -2 -14
right_child=1 -3 3 4 5 -7 -8 8 9 -11 -12 -13 13 -15
leaf_value=-0.10328772590830584 -0.10255439945910133 -0.10104403573378995 0.13732767629019249 -0.019356417101165879 0.05255051689948375 -0.082665715547895591 0.21617180499222152 0.14967694127545939 0.0082113071903780512 0.10608340023751141 -0.13711670216181376 -0.15372827366639635 0.0073105798147096272 -0.10111087183202069
leaf_weight=4.0795704852789632 5.0276790075004092 3.5067078657448283 4.2248723879456511 5.3727398738265055 7.7285436913371068 3.3485355153679839 4.4808101207017899 3.66639615595341 6.5599603056907636 3.6276530623435965 4.1587760150432587 4.725189670920372 37.955691520124674 3.7276570796966544
leaf_count=56 91 20 25 29 40 21 24 21 34 26 19 22 244 19
internal_value=0 0.00301311 0.0068702 0.0264126 0.0156817 0.0705722 0.112599 -0.0146974 0.0231634 -0.00916872 -0.0481747 -0.0822339 -0.0131669 -0.00238533
internal_weight=0 98.1112 94.6045 47.8935 43.6686 15.5579 12.2094 28.1107 18.0128 14.3464 10.7187 10.0979 46.711 41.6833
internal_count=691 635 615 261 236 85 64 151 100 79 53 51 354 263
shrinkage=0.15


Tree=19
num_leaves=15
num_cat=0
split_feature=1 5 4 4 3 0 6 6 6 6 7 2 5 6
split_gain=1.72337 1.93891 1.75088 2.22414 1.22924 1.22263 1.97942 1.86278 1.05194 3.60053 2.31971 2.5901 1.86898 1.83446
threshold=101.50000000000001 27.550000000000004 87.500000000000014 36.500000000000007 21.500000000000004 7.5000000000000009 0.56450000000000011 0.27950000000000003 0.54550000000000021 0.50000000000000011 30.500000000000004 60.500000000000007 42.050000000000004 0.31000000000000005
decision_type=2 2 2 2 2 2 2 2 2 2 2 2 2 2
left_child=1 -1 3 4 -3 8 7 -7 9 10 11 -2 -13 -12
right_child=5 2 -4 -5 -6 6 -8 -9 -10 -11 13 12 -14 -15
leaf_value=-0.15725156842401369 0.064114764191621459 -0.083263467582546324 0.062046878685357423 -0.14233599475286429 0.042731593891711335 0.056752647086330738 0.11992699470162263 -0.074662306910806622 -0.028257586808850842 0.16099431550239346 0.0078963806088673625 -0.085225479624661968 0.045526495155305338 0.10713279927298382
leaf_weight=2.8075442314147976 4.7047990374267128 2.7596444953232986 4.1194865442812434 3.9940667971968651 4.7258071657270193 6.4938509091734868 5.3573297932744017 3.8751694038510323 21.132211677730083 3.3885790891945353 14.625914603471758 13.755632955580952 2.9953821450471869 5.8748211339116088
leaf_count=75 36 22 24 40 37 32 35 21 127 17 73 101 16 35
internal_value=0 -0.0424971 -0.0218433 -0.0519478 -0.00371872 0.0082802 0.0458913 0.0076395 -0.000617347 0.0122638 0.000251778 -0.0342245 -0.0618447 0.0363342
internal_weight=0 18.4065 15.599 11.4795 7.48545 82.2037 15.7264 10.369 66.4773 45.3451 41.9565 21.4558 16.751 20.5007
internal_count=691 198 123 99 59 493 88 53 405 278 261 153 117 108
shrinkage=0.15


Tree=20
num_leaves=15
num_cat=0
split_feature=7 7 3 2 2 1 2 7 6 4 6 0 5 7
split_gain=1.49384 1.33307 1.31115 1.26812 1.50503 2.72351 2.65022 1.49937 2.57081 2.27981 3.50419 2.6712 1.86878 2.01722
threshold=21.500000000000004 62.500000000000007 28.500000000000004 42.000000000000007 60.500000000000007 114.50000000000001 63.000000000000007 40.500000000000007 0.77900000000000014 114.50000000000001 0.25650000000000006 6.5000000000000009 25.700000000000006 38.500000000000007
decision_type=2 2 2 2 2 2 2 2 2 2 2 2 2 2
left_child=2 3 -1 -2 5 -5 -6 12 9 10 -9 -12 -8 -14
right_child=1 -3 -4 4 6 -7 7 8 -10 -11 11 -13 13 -15
leaf_value=-0.16296793922658362 0.08401045347465716 -0.089506736056480421 0.022706698907818422 -0.1393264635822844 0.14056556391875921 0.013011510440547382 -0.12785537195961733 -0.066888391401705785 -0.088899925105241334 0.13417123560022065 0.17258386137561207 0.010319965310894439 0.0051369223285486461 -0.10946384168525942
leaf_weight=2.3288131747394796 4.4652135893702498 3.4074667021632186 1.3527913056313989 4.5109938550740463 3.3190646264702073 6.3682989329099655 2.9209482092410317 5.937512740492827 3.3044294416904441 5.7231599912047377 4.0278698578476888 5.2683943435549736 42.621772238984704 3.7608320340514174
leaf_count=45 33 20 11 52 27 36 45 32 20 32 22 32 266 18
internal_value=0 0.00262804 -0.0947425 0.00603204 0.00206466 -0.050154 0.00945374 0.0035383 0.0340659 0.0534547 0.0231305 0.0806254 -0.0114837 -0.00415523
internal_weight=0 95.636 3.6816 92.2285 87.7633 10.8793 76.884 73.5649 24.2614 20.9569 15.2338 9.29626 49.3036 46.3826
internal_count=691 635 56 615 582 88 494 467 138 118 86 54 329 284
shrinkage=0.15


Tree=21
num_leaves=15
num_cat=0
split_feature=2 6 0 7 1 7 2 7 2 1 2 1 6 6
split_gain=1.29607 1.27869 1.84017 4.97107 3.14404 1.61125 1.31471 1.8097 2.43699 2.3129 2.27541 2.35761 2.3977 4.28386
threshold=97.000000000000014 0.21100000000000002 6.5000000000000009 34.500000000000007 142.50000000000003 41.500000000000007 89.000000000000014 34.500000000000007 79.000000000000014 125.50000000000001 51.000000000000007 154.50000000000003 0.50000000000000011 0.5525000000000001
decision_type=2 2 2 2 2 2 2 2 2 2 2 2 2 2
left_child=1 -1 6 -4 5 -5 7 10 9 -9 -3 12 -12 -14
right_child=-2 2 3 4 -6 -7 -8 8 -10 -11 11 -13 13 -15
leaf_value=-0.043659342332164071 0.099193666474002767 0.091385856059589446 0.20182617547696091 -0.11444475284929301 0.095883044375202162 0.005097375949088068 -0.10029071662461102 0.059132063886889019 0.13201590691067883 -0.08072559641834616 -0.090640030434823965 0.051954341113238982 0.13653649793228342 -0.050489315178922294
leaf_weight=15.286442151293157 2.8248450700193635 3.7081661354750386 3.6273625679314163 4.0797166004776972 5.9263422787189475 6.7083975970745087 3.3908038008958092 6.4320888780057413 4.5343784615397444 4.5372971147298813 15.453144332394006 6.2804070934653273 3.5880805142223826 11.876718694344161
leaf_count=122 18 31 21 21 38 39 20 39 23 24 145 40 23 87
internal_value=0 -0.00390245 0.00368077 0.0426523 0.00810848 -0.0401096 -0.00957571 -0.00412286 0.0395179 0.00128236 -0.0206629 -0.0318327 -0.0488524 -0.00709634
internal_weight=0 95.4293 80.1429 20.3418 16.7145 10.7881 59.8011 56.4103 15.5038 10.9694 40.9065 37.1984 30.9179 15.4648
internal_count=691 673 551 119 98 60 432 412 86 63 326 295 255 110
shrinkage=0.15


end of trees

feature_importances:
BMI=60
Glucose=59
DiabetesPedigreeFunction=54
Age=40
Insulin=28
Pregnancies=26
BloodPressure=25
SkinThickness=16

parameters:
[boosting: gbdt]
[objective: binary]
[metric: binary_logloss]
[tree_learner: serial]
[device_type: cpu]
[data: ]
[valid: ]
[num_iterations: 10000]
[learning_rate: 0.15]
[num_leaves: 15]
[num_threads: 8]
[force_col_wise: 0]
[force_row_wise: 0]
[histogram_pool_size: -1]
[max_depth: -1]
[min_data_in_leaf: 20]
[min_sum_hessian_in_leaf: 0.001]
[bagging_fraction: 0.9]
[pos_bagging_fraction: 1]
[neg_bagging_fraction: 1]
[bagging_freq: 0]
[bagging_seed: 1573]
[feature_fraction: 1]
[feature_fraction_bynode: 1]
[feature_fraction_seed: 18522]
[extra_trees: 0]
[extra_seed: 6333]
[early_stopping_round: 50]
[first_metric_only: 0]
[max_delta_step: 0]
[lambda_l1: 0]
[lambda_l2: 0]
[min_gain_to_split: 0]
[drop_rate: 0.1]
[max_drop: 50]
[skip_drop: 0.5]
[xgboost_dart_mode: 0]
[uniform_drop: 0]
[drop_seed: 4384]
[top_rate: 0.2]
[other_rate: 0.1]
[min_data_per_group: 100]
[max_cat_threshold: 32]
[cat_l2: 10]
[cat_smooth: 10]
[max_cat_to_onehot: 4]
[top_k: 20]
[monotone_constraints: ]
[monotone_constraints_method: basic]
[monotone_penalty: 0]
[feature_contri: ]
[forcedsplits_filename: ]
[refit_decay_rate: 0.9]
[cegb_tradeoff: 1]
[cegb_penalty_split: 0]
[cegb_penalty_feature_lazy: ]
[cegb_penalty_feature_coupled: ]
[path_smooth: 0]
[interaction_constraints: ]
[verbosity: -1]
[saved_feature_importance_type: 0]
[max_bin: 255]
[max_bin_by_feature: ]
[min_data_in_bin: 3]
[bin_construct_sample_cnt: 200000]
[data_random_seed: 11206]
[is_enable_sparse: 1]
[enable_bundle: 1]
[use_missing: 1]
[zero_as_missing: 0]
[feature_pre_filter: 1]
[pre_partition: 0]
[two_round: 0]
[header: 0]
[label_column: ]
[weight_column: ]
[group_column: ]
[ignore_column: ]
[categorical_feature: ]
[forcedbins_filename: ]
[objective_seed: 26331]
[num_class: 1]
[is_unbalance: 0]
[scale_pos_weight: 1]
[sigmoid: 1]
[boost_from_average: 1]
[reg_sqrt: 0]
[alpha: 0.9]
[fair_c: 1]
[poisson_max_delta_step: 0.7]
[tweedie_variance_power: 1.5]
[lambdarank_truncation_level: 20]
[lambdarank_norm: 1]
[label_gain: ]
[eval_at: ]
[multi_error_top_k: 1]
[auc_mu_weights: ]
[num_machines: 1]
[local_listen_port: 12400]
[time_out: 120]
[machine_list_filename: ]
[machines: ]
[gpu_platform_id: -1]
[gpu_device_id: -1]
[gpu_use_dp: 0]

end of parameters

pandas_categorical:[]
