tree
version=v3
num_class=1
num_tree_per_iteration=1
label_index=0
max_feature_idx=7
objective=binary sigmoid:1
feature_names=Pregnancies Glucose BloodPressure SkinThickness Insulin BMI DiabetesPedigreeFunction Age
feature_infos=[0:17] [0:199] [0:122] [0:99] [0:846] [0:67.099999999999994] [0.084000000000000005:2.4199999999999999] [21:81]
tree_sizes=1652 1639 1639 1650 1641 1654 1653 1649

Tree=0
num_leaves=15
num_cat=0
split_feature=7 5 5 4 6 5 7 2 2 6 3 2 6 5
split_gain=76.7536 36.5429 28.3173 16.5177 13.1738 10.5198 8.67034 7.72767 6.70675 6.60889 7.10165 5.91575 6.21952 7.55709
threshold=28.500000000000004 27.850000000000005 30.950000000000003 141.00000000000003 0.95550000000000013 41.900000000000006 30.500000000000004 53.000000000000007 81.000000000000014 0.20450000000000002 19.500000000000004 77.000000000000014 0.44000000000000006 39.550000000000004
decision_type=2 2 2 2 2 2 2 2 2 2 2 2 2 2
left_child=2 -2 -1 6 5 7 -3 -4 -5 10 -8 -11 -13 -14
right_child=1 3 4 8 -6 -7 9 -9 -10 11 -12 12 13 -15
leaf_value=-0.77975731628442557 -0.70204919531415422 -0.69550672698588245 -0.53781646471471556 -0.4950052360640752 -0.43380799385500945 -0.5599602036719431 -0.56417805871141502 -0.71528730012554043 -0.35328530673781783 -0.49500523606407515 -0.76209279517894468 -0.62885183598331817 -0.44555088572626661 -0.66329765213900571
leaf_weight=36.57918843626976 18.063796758651733 4.9675441086292258 2.7095695137977627 11.289872974157335 2.4837720543146125 6.7739237844943991 4.7417466491460791 25.966707840561867 4.7417466491460791 16.934809461236 2.9353669732809067 10.160885676741602 5.4191390275955191 2.2579745948314667
leaf_count=162 80 22 12 50 11 30 21 115 21 75 13 45 24 10
internal_value=-0.643621 -0.576563 -0.716979 -0.540837 -0.656444 -0.672042 -0.570505 -0.698518 -0.453088 -0.555877 -0.639851 -0.537337 -0.577526 -0.509594
internal_weight=0 81.5129 74.5132 63.4491 37.934 35.4502 47.4175 28.6763 16.0316 42.4499 7.67711 34.7728 17.838 7.67711
internal_count=691 361 330 281 168 157 210 127 71 188 34 154 79 34
shrinkage=1


Tree=1
num_leaves=15
num_cat=0
split_feature=1 5 7 1 5 1 1 2 7 2 6 5 5 6
split_gain=120.983 33.1978 23.9564 15.8531 16.233 12.5101 12.2369 9.6688 7.81081 8.51862 7.46996 4.96473 4.93908 4.5109
threshold=127.50000000000001 30.050000000000004 28.500000000000004 101.50000000000001 27.350000000000005 154.50000000000003 146.50000000000003 85.500000000000014 30.500000000000004 73.000000000000014 0.17850000000000002 30.950000000000003 26.050000000000004 0.43350000000000005
decision_type=2 2 2 2 2 2 2 2 2 2 2 2 2 2
left_child=2 6 11 -4 -5 8 -2 10 9 -3 -6 -1 -8 -10
right_child=1 5 3 4 7 -7 12 -9 13 -11 -12 -13 -14 -15
leaf_value=-0.13912786743070035 -0.090782829024453199 0.14418019990637868 -0.08934011033679215 -0.11483800727446723 -0.060909948526610996 0.21681959965443395 0.21421621715489667 -0.051206965600200265 0.087346031570411542 -0.051455035031922385 0.13572226869684254 -0.078529486356642975 0.02659254385191728 0.20761490016982789
leaf_weight=29.744839668273926 8.5875502973794919 4.0455115735530871 16.667761534452438 5.7605573236942318 2.2262988239526811 20.476429179310799 2.2035638093948355 4.7960927039384833 5.3074931502342206 4.9480306059122086 14.615601539611815 24.785758629441261 3.862100824713707 7.5616754740476608
leaf_count=138 39 18 73 26 10 88 10 21 23 22 63 111 17 32
internal_value=0 0.115753 -0.067273 -0.0124395 0.0343425 0.160652 -0.0139805 0.074058 0.108046 0.0365464 0.10973 -0.111584 0.0947534 0.158014
internal_weight=0 56.9924 98.5969 44.0663 27.3986 42.3391 14.6532 21.638 21.8627 8.99354 16.8419 54.5306 6.06566 12.8692
internal_count=691 249 442 193 120 183 66 94 95 40 73 249 27 55
shrinkage=0.1


Tree=2
num_leaves=15
num_cat=0
split_feature=1 1 5 5 0 1 6 4 6 5 2 5 5 5
split_gain=98.3419 27.0205 15.7615 15.4578 12.8002 14.7751 6.77007 5.24066 6.13085 5.67725 4.0012 4.28896 3.4599 3.36902
threshold=123.50000000000001 154.50000000000003 30.050000000000004 27.350000000000005 6.5000000000000009 96.500000000000014 0.25250000000000006 202.00000000000003 0.43350000000000005 41.900000000000006 63.000000000000007 26.250000000000004 39.95000000000001 29.850000000000005
decision_type=2 2 2 2 2 2 2 2 2 2 2 2 2 2
left_child=3 2 10 -1 -5 -6 -7 8 9 -4 -2 -12 -10 -3
right_child=1 13 7 4 5 6 -8 -9 12 -11 11 -13 -14 -15
leaf_value=-0.13383436169537222 -0.14476925795989357 0.090978246570889168 0.02126709515741438 -0.064903509002616322 -0.10437089965219987 -0.017417309922199475 0.18813382913059612 -0.0011555542346954396 0.20408366769442737 0.18987770466697659 -0.095600778107557141 0.03420643951021525 0.068548066064728394 0.186880275882289
leaf_weight=26.464931070804596 3.1873130202293387 4.4090270847082165 8.9559152871370369 49.341971889138222 4.0738204270601255 2.2332650572061539 5.6717053949832916 5.5705083161592475 6.9383620470762235 2.5700037479400626 4.2068168222904188 6.4450545012950897 2.5852453708648682 21.651715293526649
leaf_count=128 15 19 39 225 18 10 24 24 29 11 20 29 11 89
internal_value=0 0.0912433 0.0400922 -0.0699594 -0.0423921 0.0503351 0.130063 0.0850951 0.10792 0.0588632 -0.0464722 -0.0170592 0.167292 0.170655
internal_weight=0 66.52 40.4592 87.7857 61.3208 11.9788 7.90497 26.62 21.0495 11.5259 13.8392 10.6519 9.52361 26.0607
internal_count=691 286 178 405 277 52 34 114 90 50 64 49 40 108
shrinkage=0.1


Tree=3
num_leaves=15
num_cat=0
split_feature=1 1 7 5 5 1 7 4 6 7 7 1 6 5
split_gain=80.3192 21.0169 14.4778 12.6198 11.7842 9.90508 7.80992 5.96164 4.91748 4.78018 8.65431 4.55242 4.05495 3.49386
threshold=123.50000000000001 154.50000000000003 29.500000000000004 30.050000000000004 27.350000000000005 101.50000000000001 28.500000000000004 202.00000000000003 0.23850000000000002 41.500000000000007 56.500000000000007 116.50000000000001 0.43350000000000005 30.950000000000003
decision_type=2 2 2 2 2 2 2 2 2 2 2 2 2 2
left_child=2 3 13 9 -4 -6 7 -5 -7 -2 -11 -10 -8 -1
right_child=1 -3 4 6 5 8 12 -9 11 10 -12 -13 -14 -15
leaf_value=-0.12494779119089848 -0.086855235927999722 0.15023020144605259 -0.12604110739729599 0.054512169688228099 -0.056176150177412343 -0.039144458406853447 0.065751737506739127 -0.11640298284205103 0.13869541264333829 0.16733467435629293 -0.1011574962186139 0.013156236402083649 0.16308208601698129 -0.071807800321626716
leaf_weight=26.291402518749237 8.7522374093532544 26.608720526099205 7.6757417023181906 6.9667088687419909 11.698868468403818 3.5591432303190258 8.2637424319982546 2.8863404095172882 8.1086753159761411 2.4781803190708152 2.3285563886165619 4.4869915544986716 8.8802174329757673 23.370947137475014
leaf_count=135 42 108 38 30 53 16 35 13 34 11 11 19 36 110
internal_value=0 0.0811697 -0.0650718 0.0358593 -0.0163332 0.0138994 0.0753917 0.00444449 0.0646462 -0.042853 0.0372674 0.0939742 0.116167 -0.0999403
internal_weight=0 67.1647 85.1918 40.556 35.5294 27.8537 26.997 9.85305 16.1548 13.559 4.80674 12.5957 17.144 49.6623
internal_count=691 286 405 178 160 122 114 43 69 64 22 53 71 245
shrinkage=0.1


Tree=4
num_leaves=15
num_cat=0
split_feature=1 5 5 7 1 1 7 7 7 2 3 7 3 6
split_gain=66.0984 17.0533 12.8865 12.2235 8.43712 7.90812 7.81096 6.21096 5.9262 5.60348 6.65412 5.47421 6.5296 5.13434
threshold=123.50000000000001 30.050000000000004 27.350000000000005 29.500000000000004 106.50000000000001 154.50000000000003 26.500000000000004 28.500000000000004 54.500000000000007 74.500000000000014 23.500000000000004 41.500000000000007 26.500000000000004 0.66050000000000009
decision_type=2 2 2 2 2 2 2 2 2 2 2 2 2 2
left_child=2 6 -1 -4 13 7 -2 -3 11 -6 -11 12 -8 -5
right_child=1 5 3 4 9 -7 8 -9 -10 10 -12 -13 -14 -15
leaf_value=-0.12342321456430796 -0.11809064668254853 0.0039173243811759812 -0.078721083937919309 -0.063785836573618998 0.14994823775059146 0.1481437078601841 0.099633131201932762 0.10344893841050834 -0.073973976779640196 -0.11481953204000848 0.097530205539712117 0.18089421171859096 -0.11044223094682271 0.074250598158878564
leaf_weight=23.452363520860672 4.8823185265064266 9.8277356475591677 31.222830832004547 12.679233610630041 5.5528163164854032 21.942115381360054 3.8472148478031141 17.316578388214111 3.8868287354707709 2.4867075830698013 3.6294557005167007 3.1273638010025024 2.404179260134697 3.4218352735042563
leaf_count=128 25 43 155 58 23 88 17 71 18 11 15 13 11 15
internal_value=0 0.0728779 -0.0607197 -0.0357922 0.0124743 0.1035 -0.00994997 0.067413 0.0298505 0.0772213 0.0111931 0.0728784 0.0188417 -0.03445
internal_weight=0 67.2343 82.4452 58.9929 27.77 49.0864 18.1479 27.1443 13.2656 11.669 6.11616 9.37876 6.25139 16.1011
internal_count=691 286 405 277 122 202 84 114 59 49 26 41 28 73
shrinkage=0.1


Tree=5
num_leaves=15
num_cat=0
split_feature=1 1 7 7 1 1 1 7 0 3 7 6 4 7
split_gain=54.6607 13.9252 11.1206 7.73189 7.05334 3.6076 3.74388 3.5417 4.34189 3.47623 3.42498 3.40406 3.89901 4.3444
threshold=123.50000000000001 154.50000000000003 29.500000000000004 24.500000000000004 94.500000000000014 130.50000000000003 138.50000000000003 52.500000000000007 6.5000000000000009 30.500000000000004 43.500000000000007 0.72350000000000014 144.50000000000003 39.500000000000007
decision_type=2 2 2 2 2 2 2 2 2 2 2 2 2 2
left_child=2 3 -1 5 9 -2 -7 8 11 -4 -10 12 13 -6
right_child=1 -3 4 -5 7 6 -8 -9 10 -11 -12 -13 -14 -15
leaf_value=-0.089306036342420403 -0.13901716317994592 0.12186279305809454 -0.12521989917552168 0.052733356462773197 -0.063213630351928493 0.089946773982644196 -0.069428778749476949 -0.088007179734572588 0.13080489976915277 0.011695398970828729 -0.0012002221734655929 -0.11598125401197462 0.12963252194078592 0.088265861657597769
leaf_weight=45.2820795327425 3.1145835220813733 26.680825009942055 6.8120229393243772 30.941650122404099 5.9678635150194221 2.421598881483078 3.7664069831371307 3.0069413483142844 5.4805488735437375 2.5480480790138245 3.0645865648984909 2.38691222667694 2.3625695258378974 2.7730680704116821
leaf_count=245 16 108 34 133 29 11 18 14 24 12 14 11 10 12
internal_value=0 0.0658407 -0.0567443 0.0286996 -0.0138851 -0.0512398 -0.00705914 0.0137973 0.0276894 -0.0879481 0.0834632 -0.00763908 0.0156512 -0.0151566
internal_weight=0 66.9251 79.6846 40.2442 34.4026 9.30259 6.18801 25.0425 22.0355 9.36007 8.54514 13.4904 11.1035 8.74093
internal_count=691 286 405 178 160 45 29 114 100 46 38 62 51 41
shrinkage=0.1


Tree=6
num_leaves=15
num_cat=0
split_feature=1 1 7 7 1 6 2 0 6 3 6 1 6 6
split_gain=45.1699 11.8325 9.73427 8.53404 5.9676 4.26206 3.38794 3.56682 3.49677 3.38354 6.65311 4.24759 3.16303 4.45046
threshold=123.50000000000001 166.50000000000003 29.500000000000004 24.500000000000004 94.500000000000014 0.72850000000000004 91.000000000000014 7.5000000000000009 0.51450000000000007 30.500000000000004 0.49400000000000005 117.50000000000001 0.59750000000000003 0.31750000000000006
decision_type=2 2 2 2 2 2 2 2 2 2 2 2 2 2
left_child=2 3 9 -2 -4 6 7 12 -9 11 -11 -1 13 -5
right_child=1 -3 4 5 -6 -7 -8 8 -10 10 -12 -13 -14 -15
leaf_value=-0.11174315348141195 -0.049243076677359408 0.12976080314381527 -0.082658618042850504 -0.017229514246754608 0.012374280876567353 0.12734153338485474 0.14790695763001491 0.040511370562458592 0.18868236055616081 -0.093279734809685072 0.068359010798191275 0.022191286954886688 -0.084352460570707055 0.077807515476476019
leaf_weight=29.424715220928196 9.8052082508802396 17.6114242374897 8.9917341321706754 10.892060995101938 24.922250300645828 6.7526937723159781 2.672352045774459 4.4892002940177909 2.4685411751270294 7.3371502161025983 3.8999738246202469 2.5750957876443854 3.0022939145565024 8.9979891180992109
leaf_count=172 48 72 46 47 114 28 11 19 10 39 20 14 13 38
internal_value=0 0.0594439 -0.052929 0.0342122 -0.0128221 0.0550472 0.0400366 0.0303795 0.093081 -0.0843879 -0.0371811 -0.100965 0.0113224 0.025764
internal_weight=0 66.6918 77.1509 49.0803 33.914 39.2751 32.5224 29.8501 6.95774 43.2369 11.2371 31.9998 22.8923 19.8901
internal_count=691 286 405 214 160 166 138 127 29 245 59 186 98 85
shrinkage=0.1


Tree=7
num_leaves=15
num_cat=0
split_feature=1 5 5 7 1 7 1 7 5 7 2 2 1 6
split_gain=37.4422 12.4266 11.5562 7.86422 5.63861 5.17551 4.55882 4.45932 4.43232 6.16455 5.0349 3.97606 3.70439 3.2943
threshold=123.50000000000001 30.050000000000004 27.350000000000005 29.500000000000004 107.50000000000001 26.500000000000004 154.50000000000003 56.500000000000007 41.900000000000006 31.500000000000004 73.000000000000014 67.000000000000014 116.50000000000001 0.66050000000000009
decision_type=2 2 2 2 2 2 2 2 2 2 2 2 2 2
left_child=2 5 -1 -4 13 -2 8 -7 9 10 -3 -6 -13 -5
right_child=1 6 3 4 11 7 -8 -9 -10 -11 -12 12 -14 -15
leaf_value=-0.11440056608230154 -0.11114186607610968 0.042996119114678322 -0.062989993246951967 -0.050279509449551341 0.17248501419166662 0.045687254944979133 0.11532372530519325 -0.08947912535300423 0.13972039296528863 0.078032764586645001 -0.10614091083471285 0.092452553116068523 -0.040407322171707283 0.058079615905771154
leaf_weight=19.974592640995979 4.4135955125093487 4.6842902153730446 27.762102350592613 12.287087440490724 2.7112833559513083 10.286109313368796 21.069316878914833 3.2001653909683219 4.8718056827783576 13.195525139570234 4.3806995004415512 4.7220476418733579 3.7773488610982895 3.635847955942153
leaf_count=128 25 20 155 59 11 44 88 15 20 54 20 20 16 16
internal_value=0 0.0540027 -0.0492701 -0.0255715 0.0127137 -0.0171476 0.0804247 0.0136136 0.0533242 0.034416 -0.0290751 0.0670422 0.0334062 -0.0255368
internal_weight=0 66.1015 74.8703 54.8957 27.1336 17.8999 48.2016 13.4863 27.1323 22.2605 9.06499 11.2107 8.4994 15.9229
internal_count=691 286 405 277 122 84 202 59 114 94 40 47 36 75
shrinkage=0.1


end of trees

feature_importances:
Glucose=27
Age=24
BMI=22
DiabetesPedigreeFunction=17
BloodPressure=10
SkinThickness=5
Insulin=4
Pregnancies=3

parameters:
[boosting: gbdt]
[objective: binary]
[metric: binary_logloss]
[tree_learner: serial]
[device_type: cpu]
[data: ]
[valid: ]
[num_iterations: 10000]
[learning_rate: 0.1]
[num_leaves: 15]
[num_threads: 8]
[force_col_wise: 0]
[force_row_wise: 0]
[histogram_pool_size: -1]
[max_depth: -1]
[min_data_in_leaf: 10]
[min_sum_hessian_in_leaf: 0.001]
[bagging_fraction: 0.9]
[pos_bagging_fraction: 1]
[neg_bagging_fraction: 1]
[bagging_freq: 0]
[bagging_seed: 13367]
[feature_fraction: 0.9]
[feature_fraction_bynode: 1]
[feature_fraction_seed: 29277]
[extra_trees: 0]
[extra_seed: 19467]
[early_stopping_round: 50]
[first_metric_only: 0]
[max_delta_step: 0]
[lambda_l1: 0]
[lambda_l2: 0]
[min_gain_to_split: 0]
[drop_rate: 0.1]
[max_drop: 50]
[skip_drop: 0.5]
[xgboost_dart_mode: 0]
[uniform_drop: 0]
[drop_seed: 13367]
[top_rate: 0.2]
[other_rate: 0.1]
[min_data_per_group: 100]
[max_cat_threshold: 32]
[cat_l2: 10]
[cat_smooth: 10]
[max_cat_to_onehot: 4]
[top_k: 20]
[monotone_constraints: ]
[monotone_constraints_method: basic]
[monotone_penalty: 0]
[feature_contri: ]
[forcedsplits_filename: ]
[refit_decay_rate: 0.9]
[cegb_tradeoff: 1]
[cegb_penalty_split: 0]
[cegb_penalty_feature_lazy: ]
[cegb_penalty_feature_coupled: ]
[path_smooth: 0]
[interaction_constraints: ]
[verbosity: -1]
[saved_feature_importance_type: 0]
[max_bin: 255]
[max_bin_by_feature: ]
[min_data_in_bin: 3]
[bin_construct_sample_cnt: 200000]
[data_random_seed: 11190]
[is_enable_sparse: 1]
[enable_bundle: 1]
[use_missing: 1]
[zero_as_missing: 0]
[feature_pre_filter: 1]
[pre_partition: 0]
[two_round: 0]
[header: 0]
[label_column: ]
[weight_column: ]
[group_column: ]
[ignore_column: ]
[categorical_feature: ]
[forcedbins_filename: ]
[objective_seed: 7526]
[num_class: 1]
[is_unbalance: 0]
[scale_pos_weight: 1]
[sigmoid: 1]
[boost_from_average: 1]
[reg_sqrt: 0]
[alpha: 0.9]
[fair_c: 1]
[poisson_max_delta_step: 0.7]
[tweedie_variance_power: 1.5]
[lambdarank_truncation_level: 20]
[lambdarank_norm: 1]
[label_gain: ]
[eval_at: ]
[multi_error_top_k: 1]
[auc_mu_weights: ]
[num_machines: 1]
[local_listen_port: 12400]
[time_out: 120]
[machine_list_filename: ]
[machines: ]
[gpu_platform_id: -1]
[gpu_device_id: -1]
[gpu_use_dp: 0]

end of parameters

pandas_categorical:[]
