tree
version=v3
num_class=1
num_tree_per_iteration=1
label_index=0
max_feature_idx=7
objective=binary sigmoid:1
feature_names=Pregnancies Glucose BloodPressure SkinThickness Insulin BMI DiabetesPedigreeFunction Age
feature_infos=[0:17] [0:199] [0:122] [0:99] [0:846] [0:67.099999999999994] [0.078:2.3290000000000002] [21:70]
tree_sizes=1649 1645 1651 1654 1646 1657 1650 1657 1657 1656 1665 1659 1664 1665 1664 1661 1670 1659 1663 1669

Tree=0
num_leaves=15
num_cat=0
split_feature=1 5 7 1 1 1 6 5 7 0 6 6 6 3
split_gain=119.058 32.7558 26.0312 15.7603 13.1089 11.3403 8.43238 7.67748 7.26866 3.48342 3.3823 2.67761 2.33284 1.35227
threshold=127.50000000000001 29.950000000000003 28.500000000000004 99.500000000000014 154.50000000000003 145.50000000000003 0.25250000000000006 30.950000000000003 30.500000000000004 6.5000000000000009 0.49400000000000005 0.25850000000000006 0.35000000000000003 25.500000000000004
decision_type=2 2 2 2 2 2 2 2 2 2 2 2 2 2
left_child=2 5 7 13 8 -2 -5 -1 -3 -8 11 -9 -6 -4
right_child=1 4 3 6 12 -7 9 10 -10 -11 -12 -13 -14 -15
leaf_value=-0.78955001455185625 -0.74247829447091096 -0.60047122998128999 -0.76931919017664141 -0.69071370989557335 -0.47138524784303237 -0.56801247238366226 -0.61095790551283113 -0.69928122794450076 -0.4845074635213894 -0.52810429850540497 -0.66653819930347813 -0.78350652076395622 -0.39909993906311647 -0.70758513005346113
leaf_weight=30.256859570741653 7.4513161629438383 9.7092907577753085 7.4513161629438383 9.4834932982921618 6.7739237844944027 7.45131616294384 12.418860271573068 7.2255187034606951 12.193062812089918 8.5803034603595716 9.2576958388090116 7.9029110819101334 13.096252650022505 6.7739237844944
leaf_count=134 33 43 33 42 30 33 55 32 54 38 41 35 58 30
internal_value=-0.643621 -0.527965 -0.709598 -0.653009 -0.482557 -0.655245 -0.612449 -0.755899 -0.535914 -0.577104 -0.714146 -0.74328 -0.423743 -0.739922
internal_weight=0 56.6752 99.3509 44.7079 41.7725 14.9026 30.4827 54.643 21.9024 20.9992 24.3861 15.1284 19.8702 14.2252
internal_count=691 251 440 198 185 66 135 242 97 93 108 67 88 63
shrinkage=1


Tree=1
num_leaves=15
num_cat=0
split_feature=1 5 7 5 6 1 1 1 6 5 5 6 6 0
split_gain=95.1942 24.684 22.5241 13.7786 14.554 10.8625 10.0797 8.11295 7.21633 7.01233 4.5307 2.93937 2.4184 1.82983
threshold=127.50000000000001 29.850000000000005 28.500000000000004 26.450000000000003 0.63400000000000012 99.500000000000014 154.50000000000003 145.50000000000003 0.4210000000000001 30.950000000000003 34.650000000000013 0.49400000000000005 0.25850000000000006 6.5000000000000009
decision_type=2 2 2 2 2 2 2 2 2 2 2 2 2 2
left_child=2 7 9 -4 5 -5 8 -2 -3 -1 -7 12 -11 -8
right_child=1 6 3 4 -6 10 13 -9 -10 11 -12 -13 -14 -15
leaf_value=-0.13845497702491436 -0.09037992362965068 0.035162542840564991 -0.12690359331781259 -0.11280370295274156 0.12549200646539357 0.061847861346443316 0.16525260313644227 0.059905270257623322 0.1476987033507102 -0.051054433833171098 -0.039896992403165903 -0.020783427578207558 -0.13240602683789934 0.22636846264449703
leaf_weight=28.777261674404144 6.9913735389709455 11.376890003681185 8.0607106983661634 8.5387809723615664 9.3063691556453687 11.586107179522516 13.614010244607927 7.3879003524780273 11.415686264634131 7.0965266227722186 7.0335526764392844 9.1908325105905515 7.533465251326561 7.6527827084064475
leaf_count=134 32 49 36 39 41 51 57 32 49 32 31 41 35 32
internal_value=0 0.1006 -0.0609271 -0.00858622 0.0175684 -0.0194138 0.137728 -0.0131652 0.0915264 -0.105235 0.0234139 -0.0651028 -0.0929451 0.187245
internal_weight=0 58.4386 97.1236 44.5255 36.4648 27.1584 44.0594 14.3793 22.7926 52.5981 18.6197 23.8208 14.63 21.2668
internal_count=691 251 440 198 162 121 187 64 98 242 82 108 67 89
shrinkage=0.1


Tree=2
num_leaves=15
num_cat=0
split_feature=1 7 5 7 6 1 6 7 1 0 2 5 2 5
split_gain=77.8359 19.1434 14.5555 14.0098 10.7366 9.70774 7.12578 6.59225 4.1785 3.58683 3.42703 2.04737 3.41044 0.360489
threshold=123.50000000000001 24.500000000000004 26.450000000000003 30.500000000000004 0.31000000000000005 106.50000000000001 0.34250000000000008 40.500000000000007 155.50000000000003 3.5000000000000004 79.000000000000014 30.950000000000003 64.500000000000014 23.050000000000004
decision_type=2 2 2 2 2 2 2 2 2 2 2 2 2 2
left_child=2 -2 13 10 7 6 -5 -3 9 -6 11 -4 -13 -1
right_child=1 4 3 5 8 -7 -8 -9 -10 -11 -12 12 -14 -15
leaf_value=-0.11552824605522652 -0.028554754374566345 -0.012611127035173461 -0.13085057567188316 -0.10641367063473156 0.16568515810008416 0.088188274959164592 0.026434426828258303 0.10116874824851321 0.18079117525964805 0.077418325843957442 -0.015200867281623174 -0.026995063642643386 -0.11102938849929361 -0.14197574618855838
leaf_weight=7.9903453737497356 13.171180009841917 9.4872933328151721 10.036260455846788 7.3698466867208543 7.3075415790081051 10.926569774746893 8.929781571030615 10.991922572255133 14.484018474817274 12.442876398563383 6.7595009952783576 8.3851572424173373 11.388869777321814 14.517388835549353
leaf_count=39 58 41 49 34 31 47 40 47 59 53 31 39 53 70
internal_value=0 0.0796781 -0.0634467 -0.0390536 0.105733 0.0152572 -0.0336326 0.0484586 0.139995 0.110077 -0.079488 -0.0940651 -0.0753947 -0.132587
internal_weight=0 67.8848 86.3037 63.796 54.7137 27.2262 16.2996 20.4792 34.2344 19.7504 36.5698 29.8103 19.774 22.5077
internal_count=691 289 402 293 231 121 74 88 143 84 172 141 92 109
shrinkage=0.1


Tree=3
num_leaves=15
num_cat=0
split_feature=1 1 5 0 7 7 6 5 6 6 1 0 6 3
split_gain=63.5991 16.7461 13.1183 12.6906 12.22 6.19222 5.87714 4.71954 4.41355 3.12285 2.50964 2.41753 0.99107 0.358688
threshold=123.50000000000001 154.50000000000003 26.450000000000003 6.5000000000000009 24.500000000000004 34.500000000000007 0.31750000000000006 30.950000000000003 0.49400000000000005 0.34250000000000008 111.50000000000001 3.5000000000000004 0.6170000000000001 21.500000000000004
decision_type=2 2 2 2 2 2 2 2 2 2 2 2 2 2
left_child=2 4 -1 5 -2 7 -6 13 10 -3 -9 -8 -11 -4
right_child=1 9 3 -5 6 -7 11 8 -10 12 -12 -13 -14 -15
leaf_value=-0.12691142739320366 -0.067563851458899413 0.088354475923012626 -0.14026216910094341 0.05242924824879136 0.0078508302285512418 0.013227480916655592 0.14096075346984202 -0.11304590251369417 0.00090142223297060866 0.18480173333485722 -0.033246752928685737 0.067864331038269166 0.13616525949777655 -0.10744461447980969
leaf_weight=21.229432687163353 9.6684132814407331 10.237637534737589 7.0215555876493436 12.900445237755774 12.640859112143518 9.6086744070053083 7.3007481992244747 10.516152992844587 9.9428694844245893 7.7036620229482677 6.3033269494771949 11.898795351386068 9.1849514693021757 6.3355128169059753
leaf_count=109 44 42 35 57 55 43 30 51 45 31 30 50 37 32
internal_value=0 0.070831 -0.0589781 -0.0359505 0.0309002 -0.0588779 0.060799 -0.0761473 -0.0519166 0.131934 -0.0831401 0.0956597 0.158351 -0.124696
internal_weight=0 68.6351 83.858 62.6285 41.5088 49.7281 31.8404 40.1194 26.7623 27.1263 16.8195 19.1995 16.8886 13.3571
internal_count=691 289 402 293 179 236 135 193 126 110 81 80 68 67
shrinkage=0.1


Tree=4
num_leaves=15
num_cat=0
split_feature=1 5 5 1 0 1 7 6 7 3 7 5 4 1
split_gain=52.2595 14.9191 11.9072 11.0683 10.4643 8.00185 4.94285 4.44941 4.1444 3.82208 3.53872 3.02811 1.13734 0.632691
threshold=123.50000000000001 29.850000000000005 26.450000000000003 99.500000000000014 6.5000000000000009 154.50000000000003 31.500000000000004 0.33300000000000002 30.500000000000004 30.500000000000004 30.500000000000004 32.350000000000001 66.500000000000014 84.500000000000014
decision_type=2 2 2 2 2 2 2 2 2 2 2 2 2 2
left_child=2 6 -1 9 8 7 -2 -3 11 13 -9 -5 -7 -4
right_child=1 5 3 4 -6 12 -8 10 -10 -11 -12 -13 -14 -15
leaf_value=-0.12198566104649233 -0.079606177118980187 0.003699455475255433 -0.13838051524024328 -0.11723655770110285 0.097371315356377067 0.1645614618189904 0.027512697731548075 0.03971664256129432 0.0238736650837304 -0.032073528244672203 0.12761901328951084 -0.02879945421580998 0.11816499971398123 -0.097678076464597696
leaf_weight=19.944460943341255 7.0922863632440594 10.280255794525148 6.2968915700912538 5.6582068651914659 8.745946601033209 8.7133494764566439 10.971637278795241 8.7238084375858325 9.9075719118118268 8.9436306506395322 9.6411460340023023 12.262487441301344 13.42240749299526 9.705006927251814
leaf_count=109 33 44 32 30 37 35 47 37 43 43 39 59 54 49
internal_value=0 0.0635067 -0.0548399 -0.0330716 0.00195856 0.0912713 -0.0145445 0.0563761 -0.028028 -0.0844315 0.0858632 -0.0567222 0.136428 -0.113695
internal_weight=0 68.8449 81.4642 61.5197 36.5742 50.781 18.0639 28.6452 27.8283 24.9455 18.365 17.9207 22.1358 16.0019
internal_count=691 289 402 293 169 209 80 120 132 124 76 89 89 81
shrinkage=0.1


Tree=5
num_leaves=15
num_cat=0
split_feature=1 5 5 1 0 1 7 7 6 3 7 6 0 1
split_gain=43.1288 12.0456 10.8341 9.45455 8.37708 6.66121 4.11239 3.87449 4.74794 3.48175 3.46421 2.84751 1.15872 0.614452
threshold=123.50000000000001 29.850000000000005 26.450000000000003 99.500000000000014 6.5000000000000009 154.50000000000003 31.500000000000004 30.500000000000004 0.43350000000000005 30.500000000000004 30.500000000000004 0.4875000000000001 6.5000000000000009 84.500000000000014
decision_type=2 2 2 2 2 2 2 2 2 2 2 2 2 2
left_child=2 6 -1 9 10 7 -2 -3 -9 13 11 -5 -7 -4
right_child=1 5 3 4 -6 12 -8 8 -10 -11 -12 -13 -14 -15
leaf_value=-0.11763907102049811 -0.073850786569449697 0.0089861856576737894 -0.13348791859119438 -0.082468886230531877 0.085933322837090334 0.10639682077942395 0.024601562247546501 0.030963198178475544 0.13949209882872124 -0.029261122763756371 0.021343318944661339 0.0019857189029956128 0.15426834059480846 -0.092200643180003677
leaf_weight=18.678705558180809 6.8912306427955654 12.644766300916674 5.8955650031566647 11.267793551087385 8.9094463586807233 14.139584347605707 11.039127573370932 8.4240537136793154 7.7298291325569144 8.8291680663824064 9.9704079329967481 6.1829204708337775 7.8706849366426459 9.2759924829006177
leaf_count=109 33 54 32 59 37 57 47 35 31 43 43 30 32 49
internal_value=0 0.0572304 -0.0510882 -0.0304839 0.00169155 0.0820982 -0.0132369 0.0504438 0.0828956 -0.0791889 -0.0256796 -0.052546 0.123515 -0.108245
internal_weight=0 68.7393 79.01 60.3313 36.3306 50.8089 17.9304 28.7986 16.1539 24.0007 27.4211 17.4507 22.0103 15.1716
internal_count=691 289 402 293 169 209 80 120 66 124 132 89 89 81
shrinkage=0.1


Tree=6
num_leaves=15
num_cat=0
split_feature=1 1 5 6 7 2 7 4 0 5 4 6 6 6
split_gain=36.5405 13.4845 13.0013 12.2102 8.52847 6.3174 4.5536 3.11312 3.05315 3.29437 2.65621 2.54246 0.921232 0.42226
threshold=111.50000000000001 154.50000000000003 41.900000000000006 0.65750000000000008 24.500000000000004 73.000000000000014 41.500000000000007 82.500000000000014 6.5000000000000009 35.550000000000004 58.500000000000007 0.34250000000000008 0.6170000000000001 0.25950000000000006
decision_type=2 2 2 2 2 2 2 2 2 2 2 2 2 2
left_child=3 2 4 8 7 10 -7 -2 9 13 -6 -3 -13 -1
right_child=1 11 -4 -5 5 6 -8 -9 -10 -11 -12 12 -14 -15
leaf_value=-0.10325774405216392 -0.024265959422585432 0.059579357789690569 0.14182864331807526 0.025478424017798082 0.1016924643175937 -0.054870079148515119 0.032012122622116515 -0.12495366495649932 -0.033705099407421744 -0.047830526709490562 0.025495660226906327 0.14875918247198139 0.10127812457410888 -0.12867608660108831
leaf_weight=11.110896915197374 5.9555532336235029 10.348409563302996 7.0078196227550498 12.030183672904966 8.9444932639598864 13.166449904441835 11.133411049842833 6.3393792808055878 8.3480745553970319 8.8268463611602765 9.3650866150856 7.4789148122072246 9.0080386847257596 15.871392115950583
leaf_count=65 30 42 30 59 40 58 47 32 40 45 41 31 37 94
internal_value=0 0.0392237 0.0135608 -0.063833 -0.00281087 0.0183602 -0.0150635 -0.0761815 -0.088165 -0.100861 0.0627189 0.0984308 0.122817 -0.118209
internal_weight=0 88.7476 61.9122 56.1874 54.9044 42.6094 24.2999 12.2949 44.1572 35.8091 18.3096 26.8354 16.487 26.9823
internal_count=691 388 278 303 248 186 105 62 244 204 81 110 68 159
shrinkage=0.1


Tree=7
num_leaves=15
num_cat=0
split_feature=1 5 6 1 5 7 5 7 2 0 5 2 0 6
split_gain=30.4314 12.0853 10.626 6.88313 6.91796 6.68209 8.86911 5.63023 3.93883 2.85973 3.16982 1.99904 1.08103 0.430249
threshold=111.50000000000001 29.850000000000005 0.65750000000000008 154.50000000000003 41.900000000000006 31.500000000000004 33.750000000000007 26.500000000000004 73.000000000000014 6.5000000000000009 35.550000000000004 77.000000000000014 6.5000000000000009 0.25950000000000006
decision_type=2 2 2 2 2 2 2 2 2 2 2 2 2 2
left_child=2 7 9 4 5 6 -3 -2 -9 10 13 -7 -5 -1
right_child=1 3 -4 12 -6 11 -8 8 -10 -11 -12 -13 -14 -15
leaf_value=-0.098771372024361134 -0.10321473616083646 0.057955660245996146 0.022709957258867937 0.088057429395625567 0.12470771429118391 0.091735620387787833 -0.090107144926413793 0.059855461039268525 -0.035676052352187314 -0.030699747246944211 -0.044054827045605899 0.026482392823861656 0.13520926028932073 -0.12527338733645479
leaf_weight=10.486632302403452 6.6250219792127636 6.8835069388151195 12.140830084681509 13.823148623108866 7.1634972244501105 9.0418640524148959 9.813130319118498 7.5005194991827038 10.165099054574965 8.2539231181144697 8.6353748589754087 9.7651506811380369 7.5006072521209708 14.730846688151358
leaf_count=65 37 31 59 57 30 37 46 33 45 40 45 40 32 94
internal_value=0 0.0354547 -0.0597126 0.0582504 0.0350648 0.0169777 -0.0290654 -0.0245981 0.00488499 -0.0834779 -0.0963461 0.0578542 0.104643 -0.114253
internal_weight=0 88.2815 54.2476 63.9909 42.6671 35.5037 16.6966 24.2906 17.6656 42.1068 33.8529 18.807 21.3238 25.2175
internal_count=691 388 303 273 184 154 77 115 78 244 204 77 89 159
shrinkage=0.1


Tree=8
num_leaves=15
num_cat=0
split_feature=1 5 6 1 7 6 2 7 0 7 5 0 0 3
split_gain=25.7364 11.5237 6.75595 6.61563 7.67058 6.36089 5.8444 6.19918 5.84153 2.8165 2.69291 1.9133 1.6371 1.46426
threshold=106.50000000000001 29.850000000000005 0.65750000000000008 165.50000000000003 24.500000000000004 0.73950000000000016 67.000000000000014 42.500000000000007 5.5000000000000009 32.500000000000007 37.250000000000007 1.5000000000000002 4.5000000000000009 26.500000000000004
decision_type=2 2 2 2 2 2 2 2 2 2 2 2 2 2
left_child=2 8 10 4 -3 6 -6 13 9 11 12 -2 -1 -8
right_child=1 3 -4 -5 5 -7 7 -9 -10 -11 -12 -13 -14 -15
leaf_value=-0.11732795847239469 -0.13307823272033295 -0.041281591866808298 0.013784799727137457 0.11188030375992153 0.11053458633446966 0.12585790064937916 0.0096171834418251126 0.074698889905066304 0.031174189125297649 -0.0066081432255127755 -0.026988872908912828 -0.051604878300177862 -0.066401103840364087 -0.049836823825444188
leaf_weight=17.806824356317524 5.4675369709730202 10.771217852830885 8.5305540114641172 13.773576185107229 7.5810268670320502 9.3912773430347425 7.0675513297319474 9.7540270388126356 11.229857787489889 6.2040828317403784 6.3375618308782569 6.0961902737617493 9.7784977257251722 10.008782461285589
leaf_count=121 32 52 41 59 33 39 30 40 50 27 33 36 54 44
internal_value=0 0.0275405 -0.065766 0.0499514 0.0343215 0.0529126 0.0330049 0.0110986 -0.025282 -0.0609642 -0.0857706 -0.0901269 -0.0992753 -0.02523
internal_weight=0 97.3451 42.4534 68.3475 54.5739 43.8027 34.4114 26.8304 28.9977 17.7678 33.9229 11.5637 27.5853 17.0763
internal_count=691 442 249 297 238 186 147 114 145 95 208 68 175 74
shrinkage=0.1


Tree=9
num_leaves=15
num_cat=0
split_feature=1 5 0 1 7 6 0 7 5 6 6 4 2 4
split_gain=22.0113 9.15275 6.25194 6.20138 7.15651 5.95632 4.25994 3.78294 3.74212 2.92804 2.59652 2.51011 3.42383 1.66571
threshold=123.50000000000001 26.450000000000003 6.5000000000000009 165.50000000000003 24.500000000000004 0.73050000000000004 7.5000000000000009 34.500000000000007 30.950000000000003 0.49400000000000005 0.27950000000000003 137.50000000000003 79.000000000000014 131.00000000000003
decision_type=2 2 2 2 2 2 2 2 2 2 2 2 2 2
left_child=1 -1 7 4 -2 6 11 8 -3 10 -10 12 -6 -5
right_child=3 2 -4 13 5 -7 -8 -9 9 -11 -12 -13 -14 -15
leaf_value=-0.10828638847431427 -0.054920624839815281 -0.10622319449511025 0.040365441074919739 0.06282514859397198 0.062124076067148974 0.12450528891095219 0.087744911897060948 0.017652646862629545 -0.026675313992506295 0.010003194690603822 -0.11403282841771337 -0.042485460355476679 -0.028271196315869336 0.1267570738504907
leaf_weight=15.21464469283819 9.5058037191629392 9.9340541139245016 12.863995492458342 8.309935539960863 10.24655488133431 7.1234229654073706 7.9258340597152701 9.2001430690288526 8.4458214342594164 9.4598187357187253 5.697869084775447 8.0250479727983457 7.0888894498348227 7.9973825216293326
leaf_count=109 48 67 57 36 43 30 33 43 47 45 34 34 30 35
internal_value=0 -0.0395602 -0.0207542 0.0406398 0.0231489 0.0415136 0.023753 -0.0391512 -0.0547338 -0.0330633 -0.0618678 0.00375381 0.0251592 0.0941784
internal_weight=0 70.8163 55.6017 66.2229 49.9156 40.4097 33.2863 42.7377 33.5376 23.6035 14.1437 25.3605 17.3354 16.3073
internal_count=691 402 293 289 218 170 140 236 193 126 81 107 73 71
shrinkage=0.1


Tree=10
num_leaves=15
num_cat=0
split_feature=1 5 0 1 6 5 6 3 6 7 2 2 5 0
split_gain=19.3897 8.90324 7.33164 6.63326 5.84867 4.0798 4.51593 4.20959 2.7562 2.62914 3.42264 2.57692 2.45022 1.52382
threshold=106.50000000000001 27.850000000000005 7.5000000000000009 165.50000000000003 0.65750000000000008 41.900000000000006 0.74250000000000005 9.0000000000000018 0.46550000000000008 26.500000000000004 73.000000000000014 71.000000000000014 37.250000000000007 4.5000000000000009
decision_type=2 2 2 2 2 2 2 2 2 2 2 2 2 2
left_child=4 9 3 5 12 6 7 -3 -4 -2 -11 -9 13 -1
right_child=1 2 8 -5 -6 -7 -8 11 -10 10 -12 -13 -14 -15
leaf_value=-0.11276073526131224 -0.091225565848743653 0.032635189486195107 0.061347575149111988 0.093941994184819744 0.014169346603892977 0.073947503799732639 0.067647770093508003 -0.0082719944851937215 0.15014041944628465 0.042615147649169155 -0.057453362016939097 -0.074476917437710177 -0.023296242018668575 -0.061703448571485464
leaf_weight=15.582041017711168 5.9950956329703358 10.847525537014006 7.1480629295110685 11.226635247468947 8.4523951560258848 8.066409230232237 7.3078799843788138 11.321756884455683 6.8420762866735458 6.2744525671005231 7.5077103525400162 12.230211004614828 6.185783475637435 9.3548123314976674
leaf_count=121 41 48 30 50 41 34 32 56 30 30 34 57 33 54
internal_value=0 0.0237414 0.0394821 0.0245079 -0.0595984 0.00884686 -0.00374392 -0.0189105 0.104773 -0.0359434 -0.0118963 -0.0426513 -0.0796325 -0.0936071
internal_weight=0 94.7678 74.9906 61.0004 39.575 49.7738 41.7074 34.3995 13.9901 19.7773 13.7822 23.552 31.1226 24.9369
internal_count=691 442 337 277 249 227 193 161 60 105 64 113 208 175
shrinkage=0.1


Tree=11
num_leaves=15
num_cat=0
split_feature=1 5 0 1 6 7 6 6 6 5 7 2 2 0
split_gain=16.2902 7.32758 6.14838 5.61072 5.1473 3.70948 3.81323 3.01386 2.50405 2.40791 2.34281 2.79327 1.40524 1.16481
threshold=106.50000000000001 27.850000000000005 7.5000000000000009 165.50000000000003 0.65750000000000008 24.500000000000004 0.74250000000000005 0.40750000000000003 0.46550000000000008 38.150000000000013 26.500000000000004 73.000000000000014 77.000000000000014 4.5000000000000009
decision_type=2 2 2 2 2 2 2 2 2 2 2 2 2 2
left_child=4 10 3 5 9 -3 7 12 -4 13 -2 -12 -7 -1
right_child=1 2 8 -5 -6 6 -8 -9 -10 -11 11 -13 -14 -15
leaf_value=-0.10497733200630158 -0.08721723900975846 -0.042141957485800755 0.055380934123086548 0.087199474281973138 0.01268737794474647 0.055483810558871728 0.089127959908982063 -0.036858313203751505 0.14095455821837385 -0.010163947676657854 0.037916317370574104 -0.05252843362898503 0.0037023055514206109 -0.060379157713481249
leaf_weight=15.435721963644033 5.6610726639628437 11.382361300289629 7.1274009943008405 10.902412071824072 8.4934260100126249 10.4418535232544 7.0814823806285849 10.164769679307936 6.5730219334363937 4.7221281081438056 6.3429384902119619 7.3964590281248093 10.521846562623976 9.4364542141556722
leaf_count=127 41 59 30 50 41 47 30 45 30 25 30 34 46 56
internal_value=0 0.0216385 0.0359463 0.0222469 -0.0559341 0.00796768 0.0228948 0.00782732 0.0964364 -0.0756281 -0.03308 -0.0107737 0.0294943 -0.0880569
internal_weight=0 93.5956 74.1951 60.4947 38.0877 49.5923 38.21 31.1285 13.7004 29.5943 19.4005 13.7394 20.9637 24.8722
internal_count=691 442 337 277 249 227 168 138 60 208 105 64 93 183
shrinkage=0.1


Tree=12
num_leaves=15
num_cat=0
split_feature=1 5 7 6 5 3 5 6 1 0 3 1 4 4
split_gain=13.9845 9.36116 6.07621 6.1511 4.51047 3.54359 3.28447 2.14578 3.18059 1.88233 2.44627 2.85302 1.55978 1.53963
threshold=129.50000000000003 26.450000000000003 24.500000000000004 0.50150000000000017 29.950000000000003 29.500000000000004 32.45000000000001 0.31750000000000006 111.50000000000001 7.5000000000000009 12.500000000000002 167.50000000000003 36.500000000000007 24.000000000000004
decision_type=2 2 2 2 2 2 2 2 2 2 2 2 2 2
left_child=1 -1 12 6 13 -5 -4 8 -8 10 -6 -12 -3 -2
right_child=4 2 3 5 9 -7 7 -9 -10 -11 11 -13 -14 -15
leaf_value=-0.099579695093313214 -0.04177169223044741 -0.026788281037954182 0.023067904880018024 0.0042889193834271828 0.091324870719111273 0.090202073017043818 -0.11818569533730526 0.0020001683006691628 -0.020960806984947927 0.10206336879441405 -0.00054411534175106491 0.076996517628391978 -0.093109228087044291 0.026871650125931401
leaf_weight=14.49873325973749 7.0040449500083906 5.8722682148218146 10.574256375432016 8.9720188230276126 8.6618484109640139 10.326731771230696 6.5901635661721247 6.3426633402705184 6.8748467117547989 7.8172865957021704 12.931975498795511 7.495382845401763 8.9525281935930234 6.1249383240938187
leaf_count=118 31 40 56 42 38 45 38 33 31 37 55 36 61 30
internal_value=0 -0.0269736 -0.0106542 0.00611143 0.0405912 0.0502609 -0.0219325 -0.0459559 -0.0685455 0.0584987 0.0467914 0.0279078 -0.0668388 -0.00974817
internal_weight=0 79.0042 64.5055 49.6807 50.0355 19.2988 30.3819 19.8077 13.465 36.9065 29.0892 20.4274 14.8248 13.129
internal_count=691 464 346 245 227 87 158 102 69 166 129 91 101 61
shrinkage=0.1


Tree=13
num_leaves=15
num_cat=0
split_feature=1 5 0 6 3 3 2 1 7 2 7 7 0 2
split_gain=12.4785 6.53609 4.91877 4.57743 6.31458 4.12077 3.81909 2.64753 2.73547 2.87181 2.58524 2.3877 1.77587 0.58425
threshold=99.500000000000014 29.850000000000005 5.5000000000000009 0.34250000000000008 12.500000000000002 30.500000000000004 79.000000000000014 155.50000000000003 42.500000000000007 69.000000000000014 28.500000000000004 32.500000000000007 1.5000000000000002 73.000000000000014
decision_type=2 2 2 2 2 2 2 2 2 2 2 2 2 2
left_child=5 2 11 4 -3 13 -6 8 9 -5 -11 12 -2 -1
right_child=1 3 -4 7 6 -7 -8 -9 -10 10 -12 -13 -14 -15
leaf_value=-0.10874366973940319 -0.12351344261532593 0.056015610504993735 0.02609493010133156 0.067519041171968053 -0.070162494643728104 -0.0055942072717569818 0.025366629376411699 0.094072883986719119 0.092169777170702252 -0.047495644847141943 0.035033644973506382 -0.0097136399706915337 -0.045954254321583052 -0.068416014735205019
leaf_weight=10.594033464789396 5.7540186494588905 12.534298568964006 11.763284936547278 8.4601818993687683 11.75830699503422 7.5820057913660994 6.4974719136953345 11.085501760244368 6.9541664123535147 7.4022940471768361 7.790133461356163 6.9080230221152297 6.0628298595547676 5.4357385262846938
leaf_count=93 45 56 55 39 59 44 30 57 30 35 33 32 43 40
internal_value=0 0.0142649 -0.0245817 0.0306049 0.00136223 -0.0663373 -0.0361624 0.0522009 0.0370352 0.0208249 -0.00517758 -0.0564177 -0.0837204 -0.0950685
internal_weight=0 102.971 30.4882 72.4824 30.7901 23.6118 18.2558 41.6923 30.6068 23.6526 15.1924 18.7249 11.8168 16.0298
internal_count=691 514 175 339 145 177 89 194 137 107 68 120 88 133
shrinkage=0.1


Tree=14
num_leaves=15
num_cat=0
split_feature=1 1 5 5 7 5 6 3 4 4 2 6 3 6
split_gain=10.5787 5.45156 7.60311 4.20351 4.81244 4.38206 4.30184 3.77941 2.11647 1.8826 2.81302 2.21173 1.6593 1.52779
threshold=99.500000000000014 154.50000000000003 26.450000000000003 41.900000000000006 24.500000000000004 37.95000000000001 0.72150000000000014 30.500000000000004 82.500000000000014 126.50000000000001 74.500000000000014 0.26250000000000007 13.500000000000002 0.34250000000000008
decision_type=2 2 2 2 2 2 2 2 2 2 2 2 2 2
left_child=7 2 12 4 8 6 9 -1 -4 10 11 -6 -2 -3
right_child=1 13 3 -5 5 -7 -8 -9 -10 -11 -12 -13 -14 -15
leaf_value=-0.091749440911979951 -0.04394716811241553 0.025835952338596105 -0.013995598051129524 0.077513999967317018 0.071498662218011738 -0.054892242689496211 0.093628251957723133 -0.0050490998239086232 -0.10677912242808384 0.051135263802587677 -0.037415809557462716 -0.010714351225938027 -0.12370434986789354 0.078314414371522645
leaf_weight=15.004682771861555 6.1157629787921888 9.6081382930278796 4.8944078981876356 8.757507383823393 6.5086693465709704 7.4208452552556983 8.1635603159666044 7.5616433694958678 4.9398098140954971 9.3054418414831144 11.632830388844011 6.5808525532484055 4.5484481677412987 13.12657982110977
leaf_count=133 45 42 29 38 30 34 35 44 33 41 52 31 36 68
internal_value=0 0.0129927 0.000556074 0.0128334 0.00330483 0.0159725 0.0284365 -0.0626974 -0.0606015 0.0127965 -0.00163416 0.0301655 -0.0779648 0.056136
internal_weight=0 101.603 78.8681 68.2039 59.4464 49.6122 42.1914 22.5663 9.83422 34.0278 24.7224 13.0895 10.6642 22.7347
internal_count=691 514 404 323 285 223 189 177 62 154 113 61 81 110
shrinkage=0.1


Tree=15
num_leaves=15
num_cat=0
split_feature=1 5 0 6 3 3 4 0 1 2 7 0 1 5
split_gain=8.9509 4.66957 4.07408 3.49817 5.17619 3.45469 3.3682 2.47665 3.09232 2.70415 1.98775 1.72554 0.65494 0.20068
threshold=99.500000000000014 29.850000000000005 5.5000000000000009 0.34250000000000008 12.500000000000002 30.500000000000004 107.00000000000001 6.5000000000000009 127.50000000000001 73.000000000000014 32.500000000000007 1.5000000000000002 91.500000000000014 29.100000000000005
decision_type=2 2 2 2 2 2 2 2 2 2 2 2 2 2
left_child=5 2 10 4 -3 12 -6 8 -5 -10 11 -2 13 -1
right_child=1 3 -4 7 6 -7 -8 -9 9 -11 -12 -13 -14 -15
leaf_value=-0.089455099200350566 -0.12107307795993537 0.049532919525162339 0.024093690370885459 -0.0086083409335423657 -0.085140828735691981 -0.0045558891276330261 0.0025911584902912647 0.084165857076551082 0.1056924660780571 0.023719917847240094 -0.0097756309009763322 -0.041132018517964192 -0.060489710696164448 -0.11966453448443196
leaf_weight=4.2434474080801028 5.0854480713605934 12.494066059589388 11.68730742484331 12.319629155099394 7.5486727282404926 7.5432449057698241 10.411994911730288 11.528770014643667 6.8468572348356274 9.762180030345915 6.8371188044548026 5.7566391825675964 5.2507377490401259 4.5640783160924911
leaf_count=46 45 56 55 58 40 44 49 57 33 46 32 43 50 37
internal_value=0 0.0118161 -0.0217166 0.0257028 0.000103315 -0.0591504 -0.0342816 0.0449731 0.0293539 0.057512 -0.0520006 -0.0786281 -0.0884442 -0.10511
internal_weight=0 100.279 29.3665 70.9122 30.4547 21.6015 17.9607 40.4574 28.9287 16.609 17.6792 10.8421 14.0583 8.80753
internal_count=691 514 175 339 145 177 89 194 137 79 120 88 133 83
shrinkage=0.1


Tree=16
num_leaves=15
num_cat=0
split_feature=1 5 7 6 0 4 2 1 7 7 6 2 5 5
split_gain=7.60375 6.85501 3.83677 4.47464 3.16072 2.91892 4.57457 2.68686 2.43249 4.107 5.36608 3.00032 1.46898 1.30871
threshold=129.50000000000003 26.450000000000003 24.500000000000004 0.50150000000000017 4.5000000000000009 1.0000000180025095e-35 77.000000000000014 106.50000000000001 53.500000000000007 40.500000000000007 0.29950000000000004 71.000000000000014 32.350000000000001 23.050000000000004
decision_type=2 2 2 2 2 2 2 2 2 2 2 2 2 2
left_child=1 13 12 5 -5 6 7 -4 9 10 -2 -12 -3 -1
right_child=8 2 3 4 -6 -7 -8 -9 -10 -11 11 -13 -14 -15
leaf_value=-0.046662536471478812 -0.045946924975372325 -0.097655343768120656 -0.0098729626579829137 0.010854176145687075 0.095000232708535595 -0.059765992462207242 -0.064860183649561629 0.085151097376335513 -0.024791840447959457 0.089566779088533277 0.093408082514786508 0.014793158839580465 -0.028759426958305991 -0.1162412125322955
leaf_weight=4.2316335737705213 8.7365988343954104 5.0946611538529378 5.5042538642883354 11.498568385839464 7.2966267168521872 10.978602856397627 6.1043626815080634 6.4772789031267166 6.8090152889490119 11.762359663844107 8.4191838130354899 11.466367863118647 7.8838242068886757 7.4847906902432442
leaf_count=44 40 50 35 54 33 61 33 29 32 56 44 55 51 74
internal_value=0 -0.0210688 -0.00757977 0.00549765 0.0435212 -0.0190911 0.00559961 0.0414975 0.0304985 0.0398207 0.0193774 0.0480773 -0.0558043 -0.0911114
internal_weight=0 72.5546 60.8382 47.8597 18.7952 29.0645 18.0859 11.9815 47.1935 40.3845 28.6222 19.8856 12.9785 11.7164
internal_count=691 464 346 245 87 158 97 64 227 195 139 99 101 118
shrinkage=0.1


Tree=17
num_leaves=15
num_cat=0
split_feature=1 5 1 5 5 6 6 5 3 6 4 5 3 2
split_gain=6.87019 3.94051 4.18819 4.01819 3.62003 3.67698 3.48005 3.23207 3.1169 2.60232 2.18574 1.8681 1.71179 0.729284
threshold=99.500000000000014 41.900000000000006 154.50000000000003 26.450000000000003 37.95000000000001 0.52750000000000019 0.37250000000000005 34.050000000000004 30.500000000000004 0.25250000000000006 88.500000000000014 31.150000000000002 13.500000000000002 73.000000000000014
decision_type=2 2 2 2 2 2 2 2 2 2 2 2 2 2
left_child=8 2 3 12 5 6 7 9 13 -5 -4 -7 -2 -1
right_child=1 -3 10 4 -6 11 -8 -9 -10 -11 -12 -13 -14 -15
leaf_value=-0.101685949895555 -0.03383511229275675 0.063689019134453365 0.007042975929982296 0.0013050132936163004 -0.057516999908771675 0.0083032429681579745 -0.065173221533827055 -0.043777677973158735 -0.0024087529424275445 0.079933861201350653 0.077059235311687443 0.077355817303565805 -0.12047337745944198 -0.051465241502525544
leaf_weight=8.2368388734757918 5.5733184590935689 12.081191152334211 8.1128789335489291 9.90254401415587 8.9235469102859479 6.442055560648444 7.9631375148892394 7.540232501924037 7.402568317949771 7.3210527449846259 9.8986744582653028 9.9983601421117765 3.8599240146577358 4.4557516872882834
leaf_count=93 45 56 40 50 44 32 42 39 44 34 52 44 36 40
internal_value=0 0.0102286 0.00267774 -0.00875065 0.00107954 0.0117144 -0.00766812 0.0108234 -0.0539791 0.0347269 0.0455221 0.0502981 -0.069286 -0.0840559
internal_weight=0 97.6169 85.5357 67.5242 58.0909 49.1674 32.727 24.7638 20.0952 17.2236 18.0116 16.4404 9.43324 12.6926
internal_count=691 514 458 366 285 241 165 123 177 84 92 76 81 133
shrinkage=0.1


Tree=18
num_leaves=15
num_cat=0
split_feature=1 7 0 1 6 1 1 2 7 3 4 5 7 5
split_gain=5.80122 3.8676 4.99728 3.45365 2.87988 3.59414 3.77206 2.85147 4.26772 2.82938 2.29127 2.17171 1.83714 4.63012
threshold=99.500000000000014 56.500000000000007 6.5000000000000009 165.50000000000003 0.25250000000000006 121.50000000000001 150.50000000000003 54.500000000000007 24.500000000000004 30.500000000000004 131.00000000000003 33.150000000000013 40.500000000000007 30.450000000000003
decision_type=2 2 2 2 2 2 2 2 2 2 2 2 2 2
left_child=9 2 3 7 -4 -6 -7 -2 10 -1 11 -9 13 -10
right_child=1 -3 4 -5 5 6 -8 8 12 -11 -12 -13 -14 -15
leaf_value=-0.080925046086742558 0.057751237661430865 -0.056780846416936287 -0.0042347345903274245 0.062798480059611958 0.13714255004120657 -0.0071909429979545667 0.10420688624135427 -0.080081612108366715 -0.078175058498906255 -0.0021705507666322445 -0.11953550787389174 0.019108243364699767 0.045394867832934768 0.013907527064860391
leaf_weight=11.909933663904669 5.8744416944682589 8.1139023005962354 6.3909677565097835 7.8201419860124579 6.006043046712878 6.7793466597795469 5.5103263854980469 4.7059685923159105 7.337841488420966 7.3939281031489363 4.7663007713854304 4.1573054790496826 7.688495695590972 21.34410821646452
leaf_count=133 35 39 30 41 28 30 32 45 44 44 34 22 34 100
internal_value=0 0.00929352 0.0153595 0.000555937 0.0535545 0.0737412 0.0427566 -0.00815548 -0.0158988 -0.0507598 -0.0636238 -0.0335568 0.00198584 -0.0096504
internal_weight=0 96.4952 88.3813 63.6946 24.6867 18.2957 12.2897 55.8745 50 19.3039 13.6296 8.86327 36.3704 28.6819
internal_count=691 514 475 355 120 90 62 314 279 177 101 67 178 144
shrinkage=0.1


Tree=19
num_leaves=15
num_cat=0
split_feature=1 5 5 7 6 4 1 2 0 5 6 5 5 7
split_gain=5.00861 4.59712 3.22644 3.01467 5.29977 3.50402 3.43399 3.78398 2.67701 3.18322 3.12499 2.74727 1.55251 0.960867
threshold=123.50000000000001 26.450000000000003 41.900000000000006 40.500000000000007 0.29950000000000004 111.00000000000001 156.50000000000003 73.000000000000014 4.5000000000000009 30.950000000000003 0.25850000000000006 35.150000000000013 33.000000000000007 50.500000000000007
decision_type=2 2 2 2 2 2 2 2 2 2 2 2 2 2
left_child=1 -1 3 4 -2 13 7 -6 9 -3 -10 -11 -12 -5
right_child=2 8 -4 5 6 -7 -8 -9 10 11 12 -13 -14 -15
leaf_value=-0.089071688495891449 -0.068130331084939294 -0.091922463410580024 0.080630334038097995 0.038867070561441036 0.046726813188920628 0.099600383355731542 0.082296152445396301 -0.056211177409136462 -0.044266553481167287 0.033641903664824363 0.082626494616893531 -0.040074231485199861 0.015245549662491947 -0.015503899583692965
leaf_weight=8.6517800167202932 10.121127888560297 6.3632085062563446 7.5985496938228598 6.3055343180894869 6.8818870857357997 6.7569215744733802 6.2236392945051184 7.4228148609399796 5.6672918051481274 8.2937575094401854 5.9244369715452185 12.948992520570753 8.0873924270272237 6.7082942128181458
leaf_count=109 51 62 37 30 35 34 36 36 29 54 30 76 42 30
internal_value=0 -0.0220519 0.0198847 0.0107301 -0.00890882 0.0411752 0.0202893 -0.00668847 -0.00978922 -0.0298785 0.0183921 -0.0112934 0.0437353 0.0108402
internal_weight=0 55.9369 58.0188 50.4202 30.6495 19.7708 20.5283 14.3047 47.2851 27.606 19.6791 21.2428 14.0118 13.0138
internal_count=691 402 289 252 158 94 107 71 293 192 101 130 72 60
shrinkage=0.1


end of trees

feature_importances:
BMI=55
Glucose=54
DiabetesPedigreeFunction=50
Age=40
Pregnancies=29
BloodPressure=21
SkinThickness=17
Insulin=14

parameters:
[boosting: gbdt]
[objective: binary]
[metric: binary_logloss]
[tree_learner: serial]
[device_type: cpu]
[data: ]
[valid: ]
[num_iterations: 10000]
[learning_rate: 0.1]
[num_leaves: 15]
[num_threads: 8]
[force_col_wise: 0]
[force_row_wise: 0]
[histogram_pool_size: -1]
[max_depth: -1]
[min_data_in_leaf: 30]
[min_sum_hessian_in_leaf: 0.001]
[bagging_fraction: 0.8]
[pos_bagging_fraction: 1]
[neg_bagging_fraction: 1]
[bagging_freq: 0]
[bagging_seed: 23592]
[feature_fraction: 1]
[feature_fraction_bynode: 1]
[feature_fraction_seed: 27226]
[extra_trees: 0]
[extra_seed: 2406]
[early_stopping_round: 50]
[first_metric_only: 0]
[max_delta_step: 0]
[lambda_l1: 0]
[lambda_l2: 0]
[min_gain_to_split: 0]
[drop_rate: 0.1]
[max_drop: 50]
[skip_drop: 0.5]
[xgboost_dart_mode: 0]
[uniform_drop: 0]
[drop_seed: 19288]
[top_rate: 0.2]
[other_rate: 0.1]
[min_data_per_group: 100]
[max_cat_threshold: 32]
[cat_l2: 10]
[cat_smooth: 10]
[max_cat_to_onehot: 4]
[top_k: 20]
[monotone_constraints: ]
[monotone_constraints_method: basic]
[monotone_penalty: 0]
[feature_contri: ]
[forcedsplits_filename: ]
[refit_decay_rate: 0.9]
[cegb_tradeoff: 1]
[cegb_penalty_split: 0]
[cegb_penalty_feature_lazy: ]
[cegb_penalty_feature_coupled: ]
[path_smooth: 0]
[interaction_constraints: ]
[verbosity: -1]
[saved_feature_importance_type: 0]
[max_bin: 255]
[max_bin_by_feature: ]
[min_data_in_bin: 3]
[bin_construct_sample_cnt: 200000]
[data_random_seed: 11203]
[is_enable_sparse: 1]
[enable_bundle: 1]
[use_missing: 1]
[zero_as_missing: 0]
[feature_pre_filter: 1]
[pre_partition: 0]
[two_round: 0]
[header: 0]
[label_column: ]
[weight_column: ]
[group_column: ]
[ignore_column: ]
[categorical_feature: ]
[forcedbins_filename: ]
[objective_seed: 16017]
[num_class: 1]
[is_unbalance: 0]
[scale_pos_weight: 1]
[sigmoid: 1]
[boost_from_average: 1]
[reg_sqrt: 0]
[alpha: 0.9]
[fair_c: 1]
[poisson_max_delta_step: 0.7]
[tweedie_variance_power: 1.5]
[lambdarank_truncation_level: 20]
[lambdarank_norm: 1]
[label_gain: ]
[eval_at: ]
[multi_error_top_k: 1]
[auc_mu_weights: ]
[num_machines: 1]
[local_listen_port: 12400]
[time_out: 120]
[machine_list_filename: ]
[machines: ]
[gpu_platform_id: -1]
[gpu_device_id: -1]
[gpu_use_dp: 0]

end of parameters

pandas_categorical:[]
