tree
version=v3
num_class=1
num_tree_per_iteration=1
label_index=0
max_feature_idx=7
objective=binary sigmoid:1
feature_names=Pregnancies Glucose BloodPressure SkinThickness Insulin BMI DiabetesPedigreeFunction Age
feature_infos=[0:17] [0:198] [0:122] [0:99] [0:846] [0:67.099999999999994] [0.078:2.4199999999999999] [21:81]
tree_sizes=1656 1647 1649 1654 1657 1657 1652 1651 1655 1662 1663 1661 1656 1656 1650 1666 1662

Tree=0
num_leaves=15
num_cat=0
split_feature=1 5 7 5 1 1 6 1 6 3 5 6 6 0
split_gain=132.073 42.3783 30.1253 16.7636 14.7753 14.1325 11.1491 8.68414 6.59816 6.49047 5.59786 2.76535 2.13876 0.356947
threshold=127.50000000000001 29.950000000000003 28.500000000000004 26.450000000000003 99.500000000000014 155.50000000000003 0.56050000000000011 145.50000000000003 0.42050000000000004 26.500000000000004 30.950000000000003 0.34250000000000008 0.49200000000000005 2.5000000000000004
decision_type=2 2 2 2 2 2 2 2 2 2 2 2 2 2
left_child=2 7 10 -4 -5 8 9 -2 -3 -6 13 -7 -12 -1
right_child=1 5 3 4 6 11 -8 -9 -10 -11 12 -13 -14 -15
leaf_value=-0.76208929604166753 -0.70124612462437341 -0.54771420696286088 -0.73962412505682051 -0.68162730608573563 -0.5330977236165787 -0.42623498981820396 -0.43706899969638008 -0.55011953755561049 -0.44135886385621692 -0.65589030593148134 -0.71753971968188601 -0.34748654224096315 -0.65733322699276109 -0.73775202747474988
leaf_weight=22.599084958434108 8.2178490757942182 10.728858515620233 8.9026698321104032 11.185405686497687 10.044037759304052 6.8482075631618526 7.0764811486005774 7.0764811486005774 12.783320784568785 7.5330283194780341 13.468141540884973 12.783320784568785 10.500584930181502 8.2178490757942182
leaf_count=99 36 47 39 49 44 30 31 31 56 33 59 56 46 36
internal_value=-0.607625 -0.488295 -0.67769 -0.616811 -0.586303 -0.437592 -0.543054 -0.631322 -0.48989 -0.585723 -0.727409 -0.374957 -0.691164 -0.755599
internal_weight=0 58.438 99.5273 44.7416 35.839 43.1437 24.6535 15.2943 23.5122 17.5771 54.7857 19.6315 23.9687 30.8169
internal_count=692 256 436 196 157 189 108 67 103 77 240 86 105 135
shrinkage=1


Tree=1
num_leaves=15
num_cat=0
split_feature=1 5 7 5 1 1 6 1 7 3 5 6 6 0
split_gain=105.794 31.968 26.0329 14.1506 11.9387 10.0642 8.41188 7.1827 5.74441 5.18573 5.13641 1.91966 1.88419 0.338571
threshold=127.50000000000001 29.950000000000003 28.500000000000004 26.450000000000003 99.500000000000014 155.50000000000003 0.56050000000000011 145.50000000000003 30.500000000000004 26.500000000000004 30.950000000000003 0.34250000000000008 0.49200000000000005 2.5000000000000004
decision_type=2 2 2 2 2 2 2 2 2 2 2 2 2 2
left_child=2 7 10 -4 -5 8 9 -2 -3 -6 13 -7 -12 -1
right_child=1 5 3 4 6 11 -8 -9 -10 -11 12 -13 -14 -15
leaf_value=-0.14666903862281841 -0.086926812780716928 0.047160601853269674 -0.12428091638360245 -0.068240602897164215 0.065623187480973608 0.15551105458597567 0.14658171194552735 0.05087680390758164 0.1453069210963418 -0.044120110314383627 -0.1026527251774017 0.21946856921421729 -0.045461021408553737 -0.12243311089741563
leaf_weight=21.47766932845116 7.9783160090446454 10.57399767637253 8.5293606966733915 10.930459722876547 10.254049360752111 7.1694119274616268 7.3913533538579932 7.1920062601566315 13.676784977316855 7.4226743727922431 13.003224045038225 13.585747361183165 10.342026531696318 7.8784670233726493
leaf_count=99 36 45 39 49 44 30 31 31 58 33 59 56 46 36
internal_value=0 0.103944 -0.0647619 -0.00846855 0.0189716 0.14626 0.0569988 -0.0215963 0.102512 0.0195406 -0.112325 0.197376 -0.0773166 -0.140165
internal_weight=0 60.1763 97.2293 44.5279 35.9985 45.0059 25.0681 15.1703 24.2508 17.6767 52.7014 20.7552 23.3453 29.3561
internal_count=692 256 436 196 157 189 108 67 103 77 240 86 105 135
shrinkage=0.1


Tree=2
num_leaves=15
num_cat=0
split_feature=1 5 7 5 1 1 6 1 5 6 3 6 6 0
split_gain=85.8275 24.8375 22.5968 12.0136 9.69913 7.81146 6.56539 5.95584 4.80456 4.65006 4.64251 1.67245 1.51682 0.331601
threshold=127.50000000000001 29.950000000000003 28.500000000000004 26.450000000000003 99.500000000000014 155.50000000000003 0.55000000000000016 145.50000000000003 30.950000000000003 0.42050000000000004 26.500000000000004 0.49200000000000005 0.34250000000000008 2.5000000000000004
decision_type=2 2 2 2 2 2 2 2 2 2 2 2 2 2
left_child=2 7 8 -4 -5 9 10 -2 13 -3 -6 -10 -7 -1
right_child=1 5 3 4 6 12 -8 -9 11 -11 -12 -13 -14 -15
leaf_value=-0.14030242482957006 -0.080827907447469038 0.042330852857287077 -0.1175670720425372 -0.062952391181086739 0.058065482488681486 0.13603737657621076 0.12539469545627865 0.04516211856646607 -0.096123328951470577 0.12940435132955247 -0.047811312260956779 -0.041562444239614027 0.19214084599645925 -0.11571569428902068
leaf_weight=20.269174709916118 7.7352000474929792 11.162688493728639 8.1353052556514722 10.67736032605171 10.420265436172491 7.3642399907112148 8.0322043746709806 7.2864652425050735 12.523125946521761 13.612254768609999 6.8730750232934943 10.189193040132521 13.942796587944029 7.520867407321929
leaf_count=99 36 47 39 49 44 30 33 31 59 56 31 46 56 36
internal_value=0 0.0919529 -0.0600833 -0.0078156 0.0169841 0.128354 0.0506857 -0.0197147 -0.105764 0.0901722 0.0159857 -0.0716462 0.17275 -0.133648
internal_weight=0 61.1036 94.6406 44.1382 36.0029 46.082 25.3255 15.0217 50.5024 24.7749 17.2933 22.7123 21.307 27.79
internal_count=692 256 436 196 157 189 108 67 240 103 75 105 86 135
shrinkage=0.1


Tree=3
num_leaves=15
num_cat=0
split_feature=1 5 7 5 1 7 1 2 5 0 6 6 6 3
split_gain=70.3961 17.6159 13.5948 9.60871 9.30436 7.34626 6.18342 4.9147 4.43565 3.90749 3.28877 1.34199 1.29993 0.658356
threshold=123.50000000000001 29.950000000000003 28.500000000000004 26.450000000000003 155.50000000000003 42.500000000000007 99.500000000000014 71.000000000000014 30.950000000000003 2.5000000000000004 0.52750000000000019 0.49200000000000005 0.34250000000000008 14.500000000000002
decision_type=2 2 2 2 2 2 2 2 2 2 2 2 2 2
left_child=2 9 8 -4 5 7 -5 -3 -1 -2 13 -10 -6 -8
right_child=1 4 3 6 12 -7 10 -9 11 -11 -12 -13 -14 -15
leaf_value=-0.12773843223986361 -0.066807985084484212 0.092658520459752869 -0.123467178589288 -0.058073263822903336 0.12066055862080838 0.15277797463423598 0.028194351859722577 -0.0026822278656180474 -0.087498432232057166 0.027580931766247707 0.089901867097968088 -0.035793572018397959 0.17233837231192392 -0.015452153270665235
leaf_weight=24.830990374088287 7.3166237622499493 9.5412264019250923 7.1384090781211844 10.430276691913607 7.4660892784595516 7.578808367252349 7.1942961215972918 12.477546751499174 11.428449153900148 10.949353113770483 7.3746813684701911 8.9517173916101438 13.985618829727171 6.6506723314523697
leaf_count=128 34 40 36 49 30 31 30 52 56 49 30 41 56 30
internal_value=0 0.0740499 -0.0620988 -0.0186657 0.104205 0.0678597 0.00497154 0.038631 -0.0993617 -0.0102275 0.0359605 -0.0647878 0.154352 0.00722799
internal_weight=0 69.3153 83.9995 38.7883 51.0493 29.5976 31.6499 22.0188 45.2112 18.266 21.2196 20.3802 21.4517 13.845
internal_count=692 292 400 175 209 123 139 92 225 83 90 97 86 60
shrinkage=0.1


Tree=4
num_leaves=15
num_cat=0
split_feature=1 7 5 4 4 1 5 1 5 7 6 3 4 6
split_gain=58.2283 17.4964 16.3691 9.42866 8.57394 5.21712 5.19466 4.87635 4.28697 3.8258 3.78069 1.38505 1.17751 0.709448
threshold=127.50000000000001 28.500000000000004 29.950000000000003 121.00000000000001 20.000000000000004 155.50000000000003 26.850000000000005 145.50000000000003 30.950000000000003 30.500000000000004 0.34250000000000008 34.500000000000007 66.500000000000014 0.33250000000000007
decision_type=2 2 2 2 2 2 2 2 2 2 2 2 2 2
left_child=1 8 7 4 6 9 -3 -2 -1 -4 -8 13 -7 -10
right_child=2 3 5 -5 -6 12 10 -9 11 -11 -12 -13 -14 -15
leaf_value=-0.12345955371021143 -0.074286985186622731 -0.084105869765129168 0.028171791965962603 0.098686796879063302 -0.11371596303546026 0.16694208530319332 -0.014575842672954992 0.040501580142525952 -0.05291642061520363 0.1066918940452591 0.069732330156765152 -0.025193121769316353 0.11946625988076556 -0.097679094649940942
leaf_weight=24.610056832432747 7.4477110505104047 5.746429160237315 10.931580826640131 7.132525071501731 8.6838542371988279 9.1770946979522723 11.964392706751825 7.3561151623725891 5.9269437640905407 14.352319389581679 9.5764319449663144 6.8381193429231635 12.128646880388258 8.7943479269742948
leaf_count=135 36 30 45 31 41 37 53 31 30 58 41 33 49 42
internal_value=0 -0.0521635 0.074355 -0.00634562 -0.027172 0.103462 0.000369674 -0.0172478 -0.0949389 0.0727435 0.0229051 -0.0623825 0.139916 -0.0796572
internal_weight=0 89.2731 61.3935 43.1036 35.9711 46.5896 27.2873 14.8038 46.1695 25.2839 21.5408 21.5594 21.3057 14.7213
internal_count=692 436 256 196 165 189 124 67 240 103 94 105 86 72
shrinkage=0.1


Tree=5
num_leaves=15
num_cat=0
split_feature=1 1 5 7 5 4 7 6 1 0 5 6 2 1
split_gain=48.6153 12.4007 10.6107 9.08687 6.93785 5.12834 4.25508 4.99994 3.66083 2.56549 2.27189 2.04853 1.98789 1.30808
threshold=123.50000000000001 154.50000000000003 26.450000000000003 28.500000000000004 29.950000000000003 94.500000000000014 30.500000000000004 0.43450000000000005 99.500000000000014 5.5000000000000009 30.950000000000003 0.34250000000000008 73.000000000000014 92.500000000000014
decision_type=2 2 2 2 2 2 2 2 2 2 2 2 2 2
left_child=2 4 -1 10 12 8 -6 -8 -5 -10 -4 -3 -2 -12
right_child=1 11 3 5 6 -7 7 -9 9 -11 13 -13 -14 -15
leaf_value=-0.11847160851086219 0.0054149152001239506 0.079587761455985048 -0.11651851067302216 -0.066944549389426025 0.012022929803553416 0.07758827277232816 0.030009618884077102 0.14173370399994883 -0.027460824873227888 0.056181301972409441 -0.091754533153576998 0.13656167152003071 -0.072409912723347444 -0.036712224657761396
leaf_weight=19.39681401848793 6.6099872887134534 10.343567833304407 8.8486116826534289 9.4581264257431084 13.106544613838198 7.2290547639131537 7.6120615601539638 8.4546466618776304 7.6139228940010053 7.0742040276527405 6.522957086563113 16.187092453241348 6.5191358625888824 12.770401433110235
leaf_count=112 32 42 52 46 55 31 31 34 32 30 33 67 31 64
internal_value=0 0.0607531 -0.0542396 -0.0333062 0.0271395 0.00369951 0.0543074 0.0888012 -0.0184218 0.0128235 -0.0745636 0.114349 -0.0332282 -0.0553217
internal_weight=0 68.833 78.9141 59.5173 42.3024 31.3753 29.1733 16.0667 24.1463 14.6881 28.142 26.5307 13.1291 19.2934
internal_count=692 292 400 288 183 139 120 65 108 62 149 109 63 97
shrinkage=0.1


Tree=6
num_leaves=15
num_cat=0
split_feature=1 7 5 7 6 1 6 1 0 3 6 1 3 2
split_gain=40.306 10.7543 9.75614 7.70857 6.71388 6.22377 4.31951 2.98584 3.14066 2.56419 2.41089 2.21911 0.99156 0.964809
threshold=123.50000000000001 24.500000000000004 27.850000000000005 30.500000000000004 0.31000000000000005 107.50000000000001 0.24200000000000002 155.50000000000003 3.5000000000000004 31.500000000000004 0.29250000000000004 94.500000000000014 28.500000000000004 63.000000000000007
decision_type=2 2 2 2 2 2 2 2 2 2 2 2 2 2
left_child=2 -2 13 9 6 10 -3 8 -6 11 -5 -4 -9 -1
right_child=1 4 3 5 7 -7 -8 12 -10 -11 -12 -13 -14 -15
leaf_value=-0.082323025828502774 -0.027723330649926908 0.069112090564192791 -0.1306240140388335 -0.070538752126600227 0.1285166534795594 0.08137880482975747 -0.023608778334304976 0.16206766390109545 0.047255935513304204 -0.023380388787811183 0.0098200324444311649 -0.057938192717978898 0.10965573392434994 -0.12307945503129969
leaf_weight=10.730917602777483 12.746550336480139 11.471659630537035 6.6850719302892747 6.4233221560716656 7.3981454819440868 8.8763325512409192 8.939768895506857 7.1237802505493146 13.318620741367338 10.838943913578985 8.9153541028499586 11.300470545887945 7.3171941488981247 12.661642864346502
leaf_count=65 57 49 38 30 31 37 38 30 56 54 41 60 31 75
internal_value=0 0.0551187 -0.0505857 -0.0268588 0.0741211 0.0147347 0.0285023 0.100606 0.0762749 -0.0618009 -0.0238315 -0.0849549 0.135511 -0.104383
internal_weight=0 68.3157 76.4321 53.0395 55.5692 24.215 20.4114 35.1577 20.7168 28.8245 15.3387 17.9855 14.441 23.3926
internal_count=692 292 400 260 235 108 87 148 87 152 71 98 61 140
shrinkage=0.1


Tree=7
num_leaves=15
num_cat=0
split_feature=1 1 5 5 0 7 7 4 3 6 2 1 0 7
split_gain=33.3418 9.87744 9.10853 7.15155 6.86673 5.30444 4.24825 4.5274 3.03741 3.40845 2.40542 2.03691 1.42522 0.96011
threshold=123.50000000000001 160.50000000000003 26.450000000000003 29.950000000000003 6.5000000000000009 34.500000000000007 42.500000000000007 181.00000000000003 29.500000000000004 0.49200000000000005 75.500000000000014 134.50000000000003 4.5000000000000009 27.500000000000004
decision_type=2 2 2 2 2 2 2 2 2 2 2 2 2 2
left_child=2 3 -1 11 5 8 7 10 13 -10 -5 -2 -3 -4
right_child=1 12 4 6 -6 -7 -8 -9 9 -11 -12 -13 -14 -15
leaf_value=-0.11131449347148013 0.00431206041546516 0.082476766078565245 -0.1051822328943095 0.093691065983172631 0.039991201595893699 0.019245179607267918 0.11366766824649598 -0.03784682648905302 -0.075232075115370556 0.01724454627332497 0.018933783403305867 -0.071909174142565424 0.13399635354272083 -0.057367716955898686
leaf_weight=17.016136169433594 6.6690508425235731 12.027084439992906 13.375947818160059 8.7355105876922661 11.798643961548803 9.8570121228694898 7.8545747250318518 7.1413586288690558 8.4020114690065366 7.5823805481195441 8.4845807254314405 7.392394557595253 9.7002403885126096 6.1214350908994666
leaf_count=112 33 51 81 36 53 44 32 30 45 36 35 34 41 29
internal_value=0 0.0498575 -0.0470919 0.0237436 -0.0279657 -0.0456503 0.0497149 0.0290954 -0.0636786 -0.0313647 0.0568571 -0.035759 0.105478 -0.0901703
internal_weight=0 68.0048 74.1536 46.2775 57.1374 45.3388 32.216 24.3614 35.4818 15.9844 17.2201 14.0614 21.7273 19.4974
internal_count=692 292 400 200 288 235 133 101 191 81 71 67 92 110
shrinkage=0.1


Tree=8
num_leaves=15
num_cat=0
split_feature=1 1 5 6 7 5 4 5 2 1 0 6 1 3
split_gain=28.0384 11.2831 9.62324 8.06908 6.03256 5.08843 4.78362 2.52359 2.41514 2.42925 2.34191 1.65356 1.18979 1.12198
threshold=111.50000000000001 154.50000000000003 41.900000000000006 0.66050000000000009 28.500000000000004 27.050000000000004 49.500000000000007 34.95000000000001 83.000000000000014 137.50000000000003 6.5000000000000009 0.34250000000000008 127.50000000000001 30.500000000000004
decision_type=2 2 2 2 2 2 2 2 2 2 2 2 2 2
left_child=3 2 4 7 6 -6 -2 10 9 -7 -1 -3 -8 -13
right_child=1 11 -4 -5 5 8 12 -9 -10 -11 -12 13 -14 -15
leaf_value=-0.10718649837300705 0.015419078410747696 0.059496236982202001 0.11583450634658631 0.016119200141842923 -0.064077578435859511 0.082280285023938124 -0.11687204607087259 -0.039867633041451356 -0.01030135011050738 0.010032565301726776 -0.032359667762892938 0.13692888118271923 -0.055190671498020441 0.082179026245065012
leaf_weight=24.417014047503475 7.6071667522192028 10.198365092277529 7.6776211708784095 11.47332142293453 5.6731643080711356 13.441826492547994 6.0759567916393262 11.938343480229376 7.122879520058631 7.1186669468879691 5.0473019033670417 8.1048208326101285 6.4438048005104065 6.955009624361991
leaf_count=156 38 42 33 59 32 56 34 61 30 30 25 36 29 31
internal_value=0 0.0343616 0.0111411 -0.0580891 -0.00388782 0.0222001 -0.0471235 -0.0786533 0.039881 0.0572659 -0.0943685 0.0905886 -0.0851252 0.111644
internal_weight=0 86.4193 61.1611 52.876 53.4835 33.3565 20.1269 41.4027 27.6834 20.5605 29.4643 25.2582 12.5198 15.0598
internal_count=692 391 282 301 249 148 101 242 116 86 181 109 63 67
shrinkage=0.1


Tree=9
num_leaves=15
num_cat=0
split_feature=1 7 5 4 4 5 6 5 5 6 3 2 5 5
split_gain=23.6955 10.1154 9.27296 5.48619 7.79209 3.89798 3.25251 3.91387 3.79924 2.99929 4.21174 2.59676 1.32398 1.08284
threshold=127.50000000000001 28.500000000000004 29.950000000000003 121.00000000000001 20.000000000000004 30.950000000000003 0.43450000000000005 39.95000000000001 34.250000000000007 0.25350000000000006 19.500000000000004 73.000000000000014 33.650000000000013 37.250000000000007
decision_type=2 2 2 2 2 2 2 2 2 2 2 2 2 2
left_child=1 5 11 4 9 -1 8 -8 -4 -3 -11 -2 -7 -14
right_child=2 3 6 -5 -6 12 7 -9 -10 10 -12 -13 13 -15
leaf_value=-0.10806171298215475 0.01672309124718678 -0.04498676877450633 -0.0078265273310010614 0.076211020455191528 -0.10648192160109256 -0.0009351932533354034 0.12530717140541112 0.03581938751530684 0.077095627177051693 -0.0073200323191740914 0.093242021228212235 -0.068272914899010495 -0.087942581952072205 -0.031594009958121873
leaf_weight=18.038509279489517 7.8364052921533567 7.7315279096365002 8.9022281914949435 7.262198492884635 7.9016135334968558 5.3407727628946331 15.26252953708172 7.189736694097518 12.904885485768316 11.369138836860659 6.5724273920059195 6.6403184980154037 6.7965432405471784 6.8450769186019897
leaf_count=135 36 39 37 31 41 30 67 31 54 55 30 31 38 37
internal_value=0 -0.0369182 0.0472106 -0.00259892 -0.0196455 -0.0747749 0.0699348 0.0966511 0.0424282 0.00708086 0.0295183 -0.0222637 -0.0431433 -0.0596681
internal_weight=0 77.8578 58.7361 40.8369 33.5747 37.0209 44.2594 22.4523 21.8071 25.6731 17.9416 14.4767 18.9824 13.6416
internal_count=692 436 256 196 165 240 189 98 91 124 85 67 105 75
shrinkage=0.1


Tree=10
num_leaves=15
num_cat=0
split_feature=1 1 5 0 7 6 5 6 6 6 2 4 4 1
split_gain=20.5639 10.0034 7.75767 6.1867 4.34815 4.97085 3.95781 3.80429 3.5711 4.73534 6.2738 2.57033 2.33144 2.11931
threshold=106.50000000000001 160.50000000000003 26.250000000000004 7.5000000000000009 24.500000000000004 0.74150000000000016 26.450000000000003 0.66050000000000009 0.44000000000000006 0.31750000000000006 77.000000000000014 49.500000000000007 82.500000000000014 94.500000000000014
decision_type=2 2 2 2 2 2 2 2 2 2 2 2 2 2
left_child=6 2 11 4 12 8 -1 13 9 10 -6 -2 -4 -8
right_child=1 -3 3 -5 5 -7 7 -9 -10 -11 -12 -13 -14 -15
leaf_value=-0.1173411886222713 -0.025126612875245237 0.087036333654574249 -0.0017973860549656722 0.087573379630574141 0.059014654309820204 0.097368671674311763 -0.089148472311808433 0.024499888274710224 -0.043014122789835102 0.091200208401551505 -0.072257179229795174 -0.12842843591880598 -0.089491011706945151 -0.030406944045923152
leaf_weight=9.3369840458035451 4.9104469344019872 20.374325752258301 5.9489314332604391 11.299276620149611 7.3926611989736575 7.1578154712915412 12.891880661249166 6.5669637173414221 10.403583616018294 7.7300127744674674 7.1735264658927917 4.7276005670428276 6.1824108958244324 11.730531960725783
leaf_count=75 32 92 31 48 34 31 81 33 46 33 32 30 32 62
internal_value=0 0.0250875 0.00778009 0.020508 0.005932 0.021887 -0.0602251 -0.0431266 0.00536439 0.0279382 -0.00563383 -0.0757976 -0.0464881 -0.061163
internal_weight=0 93.3006 72.9263 63.2882 51.9889 39.8576 40.5264 31.1894 32.6998 22.2962 14.5662 9.63805 12.1313 24.6224
internal_count=692 441 349 287 239 176 251 176 145 99 66 62 63 143
shrinkage=0.1


Tree=11
num_leaves=15
num_cat=0
split_feature=1 1 5 0 5 7 2 5 7 6 4 4 1 4
split_gain=17.2602 8.40148 6.52568 5.02575 4.17205 4.62899 4.23322 3.81962 3.34736 3.41915 2.93882 2.40198 1.58018 1.57486
threshold=106.50000000000001 160.50000000000003 26.250000000000004 7.5000000000000009 41.900000000000006 24.500000000000004 81.000000000000014 26.450000000000003 25.500000000000004 0.29250000000000004 48.500000000000007 49.500000000000007 90.500000000000014 137.50000000000003
decision_type=2 2 2 2 2 2 2 2 2 2 2 2 2 2
left_child=7 2 11 4 5 -4 13 -1 12 -10 -11 -2 -9 -7
right_child=1 -3 3 -5 -6 6 -8 8 9 10 -12 -13 -14 -15
leaf_value=-0.11542974025076246 -0.022971201813274295 0.08045462381024128 -0.066635027936035721 0.079031124185929974 0.074724211402990431 0.049750730244504063 -0.04449369598568742 -0.12109444096094042 -0.069304048692563611 0.062963398450205252 -0.034348716010149535 -0.12517024594692289 -0.043397521813221852 -0.0054479703299815368
leaf_weight=8.5811472758650762 4.8380408361554128 19.8641197681427 9.8775647282600385 11.269822984933851 7.4213728159666053 17.216227732598785 9.8164769411087018 5.7048332914710063 7.45217137038708 6.4796002060174924 5.9560757353901863 4.3832863867282867 4.8369233682751656 7.3862745016813269
leaf_count=75 32 92 54 48 32 77 43 42 40 31 31 30 32 33
internal_value=0 0.0228612 0.00701777 0.0185201 0.00533418 -0.00629131 0.0110261 -0.0565056 -0.039889 -0.0157419 0.0163557 -0.0715507 -0.0854444 0.0331787
internal_weight=0 92.0732 72.2091 62.9877 51.7179 44.2965 34.419 39.0108 30.4296 19.8878 12.4357 9.22133 10.5418 24.6025
internal_count=692 441 349 287 239 207 153 251 176 102 62 62 74 110
shrinkage=0.1


Tree=12
num_leaves=15
num_cat=0
split_feature=1 5 7 7 7 6 1 0 2 7 5 6 5 3
split_gain=14.6321 6.31873 5.18854 4.79302 5.14321 5.19387 4.69395 5.7131 4.36789 3.00719 3.53714 3.77299 2.76042 1.90363
threshold=123.50000000000001 26.450000000000003 24.500000000000004 54.500000000000007 40.500000000000007 0.71850000000000014 89.500000000000014 6.5000000000000009 74.500000000000014 34.500000000000007 31.250000000000004 0.50250000000000006 34.650000000000013 29.500000000000004
decision_type=2 2 2 2 2 2 2 2 2 2 2 2 2 2
left_child=1 -1 -2 4 5 8 13 9 -4 10 -8 -12 -6 -3
right_child=2 6 3 -5 12 -7 7 -9 -10 -11 11 -13 -14 -15
leaf_value=-0.098660019764857401 -0.026519476767787389 -0.10955828638091206 0.048945779408020376 -0.030716055708671565 0.14936718367388591 0.11039536767635137 -0.10567131532190753 0.066010191910709004 -0.038869321248834694 0.030687954789286893 -0.056875810135357432 0.037463667069190722 0.062336587426729852 -0.0275920646184796
leaf_weight=12.33662201464176 11.83817535638809 6.7468920201063138 13.678769797086721 6.9078947603702536 7.5818922072648984 7.0737200677394858 6.243744529783732 9.2444502711296064 9.6671022325754148 7.7496259510517111 10.287164807319643 7.2110029906034461 7.0177097171545029 4.8849009722471237
leaf_count=112 57 48 61 33 34 33 43 40 42 34 59 35 32 29
internal_value=0 -0.0342754 0.0332233 0.0468432 0.0587442 0.0353282 -0.0191079 -0.0031097 0.0125831 -0.0234001 -0.041055 -0.0179985 0.107533 -0.0751357
internal_weight=0 64.7044 63.7653 51.9271 45.0192 30.4196 52.3678 40.736 23.3459 31.4915 23.7419 17.4982 14.5996 11.6318
internal_count=692 400 292 235 202 136 288 211 103 171 137 94 66 77
shrinkage=0.1


Tree=13
num_leaves=15
num_cat=0
split_feature=1 1 0 6 4 5 5 6 2 3 5 6 5 1
split_gain=12.638 6.9249 5.90283 4.20696 4.36913 3.49958 2.98058 2.9146 2.59794 2.20045 2.63697 2.10907 1.86609 1.92085
threshold=106.50000000000001 166.50000000000003 7.5000000000000009 0.19300000000000003 212.50000000000003 26.450000000000003 26.250000000000004 0.66050000000000009 81.000000000000014 14.500000000000002 35.45000000000001 0.51450000000000007 37.250000000000007 94.500000000000014
decision_type=2 2 2 2 2 2 2 2 2 2 2 2 2 2
left_child=5 2 3 -2 6 -1 -5 12 9 -8 -11 -4 13 -7
right_child=1 -3 11 4 -6 7 8 -9 -10 10 -12 -13 -14 -15
leaf_value=-0.11246738124522129 -0.079268230546356844 0.081643122160914725 0.030570668270684356 -0.056192502644867109 -0.070456350933205514 -0.10023380486456056 0.073375919457575475 0.024119863467096089 -0.01816002009832534 0.045274467640064459 -0.031401324176198495 0.1099006616818121 -0.004793072295836206 -0.031352475410534257
leaf_weight=7.2978990152478209 6.9839705601334563 14.895366579294203 7.3337182551622373 5.3480743393301955 7.015569567680358 9.0970652326941579 11.22596822679043 6.4774416387081137 11.196938887238501 12.52010663598776 6.9890673011541358 6.1715574935078621 6.1005773693323126 7.2949253022670737
leaf_count=75 39 73 33 39 32 68 49 33 50 62 34 30 34 41
internal_value=0 0.0193788 0.00697719 -0.00621194 0.00318517 -0.0505772 0.0141123 -0.0349863 0.0230791 0.0381027 0.0178057 0.0668224 -0.0520078 -0.0695796
internal_weight=0 89.6803 74.785 61.2797 54.2957 36.2679 47.2802 28.97 41.9321 30.7351 19.5092 13.5053 22.4926 16.392
internal_count=692 441 368 305 266 251 234 176 195 145 96 63 143 109
shrinkage=0.1


Tree=14
num_leaves=15
num_cat=0
split_feature=1 5 7 4 4 3 6 4 2 0 3 5 2 2
split_gain=10.907 6.3027 5.90571 5.8319 6.34864 3.52006 2.71023 3.45706 2.16223 2.09195 2.4408 2.05549 1.5645 1.2241
threshold=127.50000000000001 29.950000000000003 27.500000000000004 141.00000000000003 20.000000000000004 34.500000000000007 0.34250000000000008 238.50000000000003 73.000000000000014 4.5000000000000009 21.500000000000004 34.750000000000007 73.000000000000014 73.000000000000014
decision_type=2 2 2 2 2 2 2 2 2 2 2 2 2 2
left_child=2 8 5 4 9 13 11 12 -2 -4 -11 -3 -8 -1
right_child=1 6 3 -5 -6 -7 7 -9 -10 10 -12 -13 -14 -15
leaf_value=-0.093853661340420599 0.010226135892510535 -0.020673276064074667 -0.034749170406057225 0.080898625365599469 -0.091659310143540923 0.015030877675296435 0.13093878396682698 0.0084836850184329318 -0.068914105015696489 -0.0042327729456651262 0.073807432940618603 0.052329147195588316 0.07163868317174743 -0.041630099238978056
leaf_weight=16.507034905254848 7.6294500827789289 7.0175672471523276 8.5574283525347727 6.8458423018455496 9.130549028515814 4.748768374323844 7.0940216332674089 6.3395694196224204 6.3054751753807068 10.367968976497652 6.5330167561769477 8.5634872168302518 11.93245083093643 6.16445118933916
leaf_count=147 36 30 45 30 53 27 34 31 31 56 31 37 57 47
internal_value=0 0.0325064 -0.0272549 -0.00343055 -0.020121 -0.0632559 0.0522756 0.072439 -0.0255844 0.00553595 0.0259334 0.0194495 0.0937487 -0.0796539
internal_weight=0 54.882 68.8551 41.4348 34.589 27.4203 40.9471 25.366 13.9349 25.4584 16.901 15.5811 19.0265 22.6715
internal_count=692 256 436 215 185 221 189 122 67 132 87 67 91 194
shrinkage=0.1


Tree=15
num_leaves=15
num_cat=0
split_feature=1 1 0 5 6 5 2 4 6 2 5 1 6 1
split_gain=9.53949 5.60688 4.63699 3.28616 3.21012 3.7213 4.59825 3.90947 2.49499 2.19271 1.99527 1.75903 1.74584 1.48238
threshold=106.50000000000001 166.50000000000003 7.5000000000000009 26.450000000000003 0.19300000000000003 41.900000000000006 81.000000000000014 175.50000000000003 0.66050000000000009 59.000000000000007 38.150000000000013 94.500000000000014 0.51450000000000007 135.50000000000003
decision_type=2 2 2 2 2 2 2 2 2 2 2 2 2 2
left_child=3 2 4 -1 -2 6 7 9 10 -6 11 -5 -4 -11
right_child=1 -3 12 8 5 -7 -8 -9 -10 13 -12 -13 -14 -15
leaf_value=-0.1105717289650987 -0.071570066421070277 0.074376028170261455 0.026639474902999501 -0.095838411978713733 -0.028571967392966097 0.066860481035508512 -0.064752555492888955 -0.057450719215016037 0.024074087822396777 0.057440600243254085 0.010226984563560552 -0.030804080027012039 0.099837344747702547 0.00040191862354444153
leaf_weight=6.3380804136395446 6.668727532029151 14.158233612775801 7.294088274240492 8.349443346261987 5.800656326115134 7.5917837917804709 11.100992910563944 7.0224953964352599 6.3867043256759635 15.414910495281221 4.7191346436738959 8.2867153510451299 5.8892956674098969 6.4683169573545447
leaf_count=75 39 73 33 69 33 33 53 35 33 83 26 48 30 29
internal_value=0 0.0167678 0.0056331 -0.0456061 -0.00615388 0.00201558 -0.00873134 0.0091873 -0.0307637 0.0260912 -0.0471639 -0.0634439 0.0593385 0.0405809
internal_weight=0 87.4095 73.2513 34.0801 60.0679 53.3992 45.8074 34.7064 27.742 27.6839 21.3553 16.6362 13.1834 21.8832
internal_count=692 441 368 251 305 266 233 180 176 145 143 117 63 112
shrinkage=0.1


Tree=16
num_leaves=15
num_cat=0
split_feature=1 5 1 5 6 3 2 1 3 7 0 5 5 7
split_gain=8.25449 7.01536 4.14737 3.83239 3.21894 3.28585 2.57719 2.42331 3.06516 2.61985 1.91564 1.9714 3.15698 1.82459
threshold=154.50000000000003 26.250000000000004 89.500000000000014 43.000000000000007 0.50250000000000006 14.500000000000002 73.000000000000014 128.50000000000003 32.500000000000007 28.500000000000004 6.5000000000000009 31.150000000000002 35.45000000000001 25.500000000000004
decision_type=2 2 2 2 2 2 2 2 2 2 2 2 2 2
left_child=1 -1 13 4 5 6 -4 8 9 -7 11 -6 -13 -3
right_child=-2 2 3 -5 10 7 -8 -9 -10 -11 -12 12 -14 -15
leaf_value=-0.079533842192710771 0.05581304085223672 -0.11526408744931181 0.063524867806042162 0.077521519492566998 -0.038134414827795234 -0.08116752191872427 -0.020980260351530028 -0.0017195536431147678 -0.12245425556295826 0.016893111900074271 0.074093756605698252 0.080464140167523901 -0.013824779076433895 -0.027880652722597762
leaf_weight=13.621041432023047 21.245591923594475 3.9837563484907133 6.9936152175068838 6.785210207104682 5.8158117681741777 5.4226056113839203 7.4570180773735046 10.586382776498793 5.6890545189380637 5.4756696075201035 6.3113874047994605 6.7635971903800947 7.4760388284921646 5.9709180071949959
leaf_count=136 109 39 31 31 32 45 35 46 31 25 29 31 34 38
internal_value=0 -0.0129223 -0.00221413 0.00585815 -0.00129353 -0.0186111 0.0199173 -0.0391 -0.0629569 -0.0318985 0.026045 0.0109242 0.0309609 -0.0628506
internal_weight=0 98.3521 84.7311 74.7764 67.9912 41.6243 14.4506 27.1737 16.5873 10.8983 26.3668 20.0554 14.2396 9.95467
internal_count=692 583 447 370 339 213 66 147 101 70 126 97 65 77
shrinkage=0.1


end of trees

feature_importances:
Glucose=53
BMI=51
DiabetesPedigreeFunction=41
Age=27
Insulin=18
Pregnancies=16
BloodPressure=16
SkinThickness=16

parameters:
[boosting: gbdt]
[objective: binary]
[metric: binary_logloss]
[tree_learner: serial]
[device_type: cpu]
[data: ]
[valid: ]
[num_iterations: 10000]
[learning_rate: 0.1]
[num_leaves: 15]
[num_threads: 8]
[force_col_wise: 0]
[force_row_wise: 0]
[histogram_pool_size: -1]
[max_depth: -1]
[min_data_in_leaf: 30]
[min_sum_hessian_in_leaf: 0.001]
[bagging_fraction: 0.8]
[pos_bagging_fraction: 1]
[neg_bagging_fraction: 1]
[bagging_freq: 0]
[bagging_seed: 23592]
[feature_fraction: 1]
[feature_fraction_bynode: 1]
[feature_fraction_seed: 27226]
[extra_trees: 0]
[extra_seed: 2406]
[early_stopping_round: 50]
[first_metric_only: 0]
[max_delta_step: 0]
[lambda_l1: 0]
[lambda_l2: 0]
[min_gain_to_split: 0]
[drop_rate: 0.1]
[max_drop: 50]
[skip_drop: 0.5]
[xgboost_dart_mode: 0]
[uniform_drop: 0]
[drop_seed: 19288]
[top_rate: 0.2]
[other_rate: 0.1]
[min_data_per_group: 100]
[max_cat_threshold: 32]
[cat_l2: 10]
[cat_smooth: 10]
[max_cat_to_onehot: 4]
[top_k: 20]
[monotone_constraints: ]
[monotone_constraints_method: basic]
[monotone_penalty: 0]
[feature_contri: ]
[forcedsplits_filename: ]
[refit_decay_rate: 0.9]
[cegb_tradeoff: 1]
[cegb_penalty_split: 0]
[cegb_penalty_feature_lazy: ]
[cegb_penalty_feature_coupled: ]
[path_smooth: 0]
[interaction_constraints: ]
[verbosity: -1]
[saved_feature_importance_type: 0]
[max_bin: 255]
[max_bin_by_feature: ]
[min_data_in_bin: 3]
[bin_construct_sample_cnt: 200000]
[data_random_seed: 11203]
[is_enable_sparse: 1]
[enable_bundle: 1]
[use_missing: 1]
[zero_as_missing: 0]
[feature_pre_filter: 1]
[pre_partition: 0]
[two_round: 0]
[header: 0]
[label_column: ]
[weight_column: ]
[group_column: ]
[ignore_column: ]
[categorical_feature: ]
[forcedbins_filename: ]
[objective_seed: 16017]
[num_class: 1]
[is_unbalance: 0]
[scale_pos_weight: 1]
[sigmoid: 1]
[boost_from_average: 1]
[reg_sqrt: 0]
[alpha: 0.9]
[fair_c: 1]
[poisson_max_delta_step: 0.7]
[tweedie_variance_power: 1.5]
[lambdarank_truncation_level: 20]
[lambdarank_norm: 1]
[label_gain: ]
[eval_at: ]
[multi_error_top_k: 1]
[auc_mu_weights: ]
[num_machines: 1]
[local_listen_port: 12400]
[time_out: 120]
[machine_list_filename: ]
[machines: ]
[gpu_platform_id: -1]
[gpu_device_id: -1]
[gpu_use_dp: 0]

end of parameters

pandas_categorical:[]
